function GetInitialNetwork() {
    return {"name":null,"description":null,"activationFunctionName":"SigmoidActivation","layers":[{"weightMx":[[0.3064761,0.306395262,-0.377955168,0.0691525638,0.056216456,-0.2884639,-0.370644748,-0.236636087,-0.3767957],[-0.4067112,-0.6928307,-0.3979493,-0.0156480465,-0.667176664,-0.107046723,-0.106573127,-0.08089949,0.42889303],[-0.2561113,0.111034982,0.34315443,-0.2009466,0.48156473,0.0151422136,-0.54173255,0.177561283,-0.7615019],[-0.207052916,0.469362259,-0.236747831,0.0455703251,-0.277978063,-0.109673694,0.0749179944,-0.9256224,-0.100972347],[0.128431991,-0.5084088,-0.153487444,0.1905815,-0.147143453,-0.06515154,0.42195642,-0.025163671,-0.5485264],[0.4419874,-0.190027416,0.0767897442,0.5005693,0.181839734,0.104467183,-0.3222232,0.303581029,-0.3370635],[-0.0401943326,-0.106734231,-0.185209155,-0.2890324,0.208025366,0.2002366,0.13411352,-0.181385815,-0.159284443],[-0.183243617,0.49312824,0.0332644545,-0.0278889835,-0.265001237,-0.231494,-0.151688725,-0.1334734,-0.420274347],[-0.128702015,-0.8602163,-0.0406685546,0.347891927,-0.007721456,-0.0962722749,-0.013649988,0.107403629,-0.202357084],[-0.302823067,0.09911557,-0.453640938,0.173496589,0.2806272,0.4916591,0.0757196,-0.4706306,-0.192633986],[-0.141821653,-0.127900869,0.456678629,0.172140986,0.06868115,-0.400137246,-0.365181565,-0.114757143,-0.134983957],[0.278502852,-0.234674543,0.217383713,-0.136855185,-0.155016422,-0.139083922,-0.118478328,-0.41881758,0.244395956],[0.26369828,0.0619715,0.150911361,0.275544882,-0.228611141,-0.07383801,0.587841153,-0.696874738,-0.0628709048],[-0.392570466,-0.182539135,0.198941872,-0.144295186,0.195355877,0.0690357238,0.4279614,0.0799041,-0.2821216],[0.107866764,0.07680349,-0.171054125,-0.0288174711,-0.285532355,0.0300668962,0.287697524,0.11710377,-0.305430174],[-0.304902017,0.100443237,0.132562757,0.09663911,-0.534350455,0.0786800757,0.740903258,0.107396096,-0.111361161],[-0.200040936,-0.4267208,-0.403576463,0.0241192933,-0.121708147,-0.0291675813,0.2144086,-0.1827716,-0.304435343],[-0.221861228,-0.257215679,-0.109340511,0.07130827,-0.139851958,-0.253303,-0.3809869,-0.0266820248,0.222313032],[-0.09039696,-0.3140204,-0.0583817065,-0.665692449,-0.216826677,0.441815585,0.0633307,0.449457973,-0.109937333],[-0.0217688978,-0.703475833,-0.7804687,0.1610261,-0.197663009,-0.122022144,-0.153726682,-0.2501961,0.00151321408],[0.3416881,0.112523638,0.526424944,0.31627515,0.08010549,-0.465390533,0.07076004,-0.0748402551,-0.199949354],[-0.261180073,-0.08089252,-0.5153124,-0.442120075,-0.243222281,-0.1782403,0.256585538,0.531078935,-0.7849199],[0.356739581,0.04910616,-0.1429812,-0.285216451,0.4819506,0.170260847,0.402268469,-0.2504024,0.3559211],[-0.06369519,-0.212126166,0.3418588,-0.116530769,0.818956733,-0.1437997,-0.375846982,0.106459171,-0.225713179],[-0.520699739,0.237397775,0.224591538,0.053655915,0.5900929,-0.126452222,0.06828446,-0.5248846,0.2966357],[0.0823393,-0.0386481062,0.432887167,-0.0592590049,-0.09274189,-0.4769755,-0.0586545877,0.216357917,0.8110529],[0.25996694,-0.414283961,0.467337,0.25447,0.06357646,0.241292268,0.07963771,0.243292421,-0.06695241],[0.124090627,0.205367833,0.104745828,-0.409323215,-0.0268952586,0.1854764,0.329410136,0.2828052,-0.290600866],[0.679317,0.223978937,0.23166728,-0.16829215,-0.454585642,-0.03307861,0.515229344,0.265708059,0.267847478],[-0.458963573,-0.3365571,-0.155205026,0.216522217,-0.202739745,0.21735087,-0.174243182,-0.125599831,-0.411234736],[-0.0854846463,0.140120327,0.677094936,0.12627241,-0.102223232,-0.106623709,0.08895456,0.294403017,-0.191532478],[-0.2250558,-0.0397702679,0.00566905644,-0.104789935,-0.230078161,-0.415818274,0.399196863,-0.0136027252,0.113501579],[0.113343224,-0.0276272632,0.138000473,0.12253508,0.212732,0.04277587,0.235689431,-0.195290923,-0.1528635],[0.2166668,0.369137377,-0.169258773,-0.436569035,-0.6438676,0.473250628,0.371753871,-0.447352141,-0.38335526],[0.11713019,-0.06458835,-0.197654128,-0.574816644,0.08909437,0.246086881,0.245063722,0.5863327,0.106295042],[-0.28871274,-0.153877765,-0.156395942,-0.292586863,-0.246173739,0.166308463,-0.0581880324,0.109164268,-0.2520032],[-0.349356771,-0.391571,-0.06436892,-0.0442572758,-0.150212258,0.021769952,-0.3694572,0.202007458,0.02533759],[-0.333012074,0.0924405456,-0.5663042,0.182070792,-0.376395762,0.008922566,0.2955957,-0.09687837,-0.262910366],[0.4606559,0.03821724,0.0485963039,-0.345014542,-0.03435462,0.208955944,-0.3256749,-0.250768661,0.309102148],[0.8138304,0.282413423,-0.004020258,0.19940196,-0.256898046,0.078952834,-0.843577862,0.07363042,0.00758324936],[0.550226331,-0.03507846,0.2423597,0.009184746,0.294133633,-0.1545748,-0.4323461,0.030749714,-0.101241037],[0.5621434,0.788831651,-0.3590284,0.166285068,-0.0833926052,0.142431244,-0.0295581724,-0.247816488,0.007218876],[-0.6391082,0.14155373,-0.20168981,0.146662414,-0.0927170143,0.5489228,-0.2952401,-0.193529949,0.200089931],[0.447040647,-0.8163087,-0.3425028,-1.03657818,0.129710332,0.531255364,-0.111710832,0.122526251,-0.484566867],[-0.0551610366,0.159209415,-0.0975597352,-0.3199731,0.09834397,-0.0539521873,0.170307219,-0.415186882,0.2480859],[0.0584131032,-0.864693165,-0.371134967,-0.123077214,0.370860219,0.378195137,0.0500338636,0.1862691,-0.2058664],[0.817275047,-0.4256357,0.397335529,0.236668944,-0.3770878,0.1730126,0.802235067,-0.320735216,-0.0180907976],[0.06778148,0.33598727,-0.07637748,0.395247072,0.2593249,0.520578742,-0.9134393,-0.05795656,0.564638436],[0.0179157071,-0.720758438,0.1657738,0.4072561,-0.0424417779,-0.595099151,0.06251167,-0.0268497653,-0.124347195],[-0.153839692,0.304534435,-0.1896775,0.715368867,0.4055296,-0.218761608,-0.0724721253,0.2470359,-0.06351707],[-0.165692717,-0.5066025,0.6165446,-0.169378817,0.208298966,0.225700587,-0.283447444,0.154864281,-0.03672161],[-0.238258243,-0.5719891,0.430499524,0.500168145,-0.220993817,0.8975467,-0.00142371317,-0.476496637,-0.438344926],[-0.09430032,0.07012978,0.271851838,-0.0247885045,0.12075609,0.08987876,-0.352508545,0.143586263,-0.07068015],[0.808361948,-0.210410759,0.559576631,-0.225123808,-0.264904141,0.53534776,-0.137846738,-0.208311126,0.513719261],[-0.313687027,-0.118811183,-0.0130918836,0.248882025,-0.5002523,-0.644067049,0.499412954,0.0944008455,-0.2158955],[0.117331281,0.217896372,0.6431103,-0.609735131,0.0965524241,-0.07518479,-0.4824048,0.6781839,0.1245635],[0.276194751,-0.0549189076,0.313869476,-0.184109554,-0.4275661,0.390547872,0.436576962,-0.0026312815,0.0265102871],[-0.124494761,-0.177968726,-0.251125455,-0.305563927,0.142740577,-0.058982864,-0.332769215,-0.210184127,-0.169248611],[0.123364024,0.353749722,-0.486361951,0.404451132,-0.170570254,-0.381511927,0.183021,-0.560625434,0.7051294],[0.191054866,0.2298781,-0.06663129,0.0198382884,0.242140651,0.282179,-0.08214313,0.11580833,0.259185135],[0.354792565,-0.0146420933,0.253698349,0.279990464,-0.25311926,-0.100822978,-0.3079555,0.809782445,0.00302942982],[-0.132047638,0.219079,0.04208973,0.396847,-0.3780567,-0.142666429,-0.262641251,0.137046948,0.04073479],[-0.152817026,0.0551019534,0.1178135,-0.166211084,0.116111867,0.08916579,-0.2729562,0.03571389,0.0194139965],[0.184578866,-0.214501083,-0.209542558,-0.168631673,-0.0601135753,-0.5860252,0.04103572,-0.0230869278,0.306246877]],"biases":[-0.468840748,0.0946043655,-0.17949754,1.42050016,-0.5869071,0.9987094,-0.9386532,-0.123673089,1.50458193,-1.44028366,0.9445595,1.62973726,-0.168609276,0.0025013634,0.1339462,-1.22110271,1.97038889,0.545541,-1.86913764,-0.9421011,0.5314199,-1.09275842,0.916498244,0.7322993,-2.16495,-0.2986931,-0.09247604,0.927584,0.356678218,-2.59806085,-0.218700424,-0.5516624,-0.352711231,1.42962992,-0.55665195,0.612421155,-0.2295623,0.01720742,0.93281126,0.2310778,-0.666279554,-0.07189577,-0.200817436,0.9420577,0.635936558,-0.257481128,-0.424069881,0.757201135,-1.71084714,-0.0247668549,0.353748053,2.40998578,-1.16852915,-1.46649384,0.216782972,0.71442765,1.21637607,-0.8349027,-0.133480638,-0.975273252,-1.19849694,0.277845234,-0.8130425,-0.666015744]},{"weightMx":[[-0.0566873662,0.0265924782,-0.145590618,-0.139369309,0.09617739,-0.1395675,0.0218281671,-0.04273441,-0.196764767,0.10291443,0.169849932,-0.0457592122,-0.08155044,-0.190723762,-0.003546046,-0.003866144,-0.04908559,0.183017537,-0.09612406,0.038999714,-0.03717733,-0.0455090851,0.25090462,0.141884819,0.139985353,0.0678866655,0.0877953246,0.09388036,-0.0138125513,-0.1166758,-0.0841431543,-0.04170466,0.000971828762,-0.0463225059,0.08663432,-0.0624232925,0.2048285,0.0143966,0.162163883,0.0948582962,-0.237792775,-0.09551918,-0.0987714157,-0.0224997,0.344049722,-0.0006108497,-0.2761182,-0.05079295,0.3189957,0.0523694232,-0.11605262,0.0260424651,0.19349432,0.101474516,0.146275938,-0.00734089455,0.1609428,-0.0213838685,0.1170585,0.01557696,0.162963226,-0.001551936,-0.0450647734,0.1080912],[0.0284326784,-0.1436326,-0.0123746833,0.237341091,-0.145875677,0.0530993864,-0.191560134,0.115752675,-0.153016925,-0.17542398,-0.203944191,-0.120426841,-0.02545899,0.06608619,-0.1826425,-0.0891725644,-0.0263143741,-0.153468728,-0.122640572,-0.008476197,0.07550899,-0.283472478,-0.194415763,0.1983114,-0.158416539,-0.115075789,-0.3564736,-0.120900944,-0.04380096,0.0152206626,0.00605388032,-0.03402844,0.22402969,0.150946259,0.104262844,-0.05171052,0.1618455,-0.0310433134,-0.078703925,0.038279295,-0.06376649,-0.0519438758,-0.1302328,0.0142038828,0.006051419,-0.121759154,0.0447513126,-0.196941555,0.04147693,-0.00493774237,-0.0921350941,-0.08436898,-0.07034049,-0.0833962,0.02609095,-0.0289458316,-0.0499668121,0.165203065,0.257419139,0.219958276,0.04020912,0.0578414276,0.06842742,-0.06774319]],"biases":[0.5430075,0.8105489]}]};
}

function GetTrainedNetwork() {
    return {"name":null,"description":"Generation 9161, Reward: 17103498","activationFunctionName":"SigmoidActivation","layers":[{"weightMx":[[1.569232898920994,1.9290504008510319,-1.0359920142363805,0.2587196305693404,-0.04961677563076847,0.17418903046517648,0.8518298075800625,-1.2495167373290177,-0.4596209913151768],[-0.6965641202407511,-0.5980128044627645,-0.8262741793503768,0.15876750612241833,-0.8569996502205723,-0.44928966928384234,-0.2615306248572541,-0.10919341953397124,0.38009089295788967],[-0.34779664649595166,-0.2528883570873838,1.05518695116466,1.3042842555447247,0.40636505019853364,-0.7426393821305921,-0.13581920967722508,-0.21513941383227742,-0.08761996823289057],[0.05367344941574678,1.7684848755985045,0.14351552209721913,0.05258209411521775,-0.8607164758806635,-0.6878259700000683,0.07952693644928571,-1.5331291192375809,-0.33476752495731554],[1.5636282342715966,-1.338696189893203,-0.24856274468174455,-0.3115901108574479,-0.523492718564402,-0.04432173066715339,0.40560581420357755,0.9690392596553524,-0.21168384021918873],[1.3745241777123698,-0.13548420845164263,-0.0699986061398984,0.39585434643315676,0.08023460804127464,-0.49622616234183126,-0.29572156527926585,0.6292993887686963,-0.30723246970207],[-0.6763635925528098,-0.17881316801746638,-0.3015786366985485,-1.077202110216077,0.21041329786427082,-0.18036312651362918,-1.2154380548501875,-0.4164370079837675,0.537136797105779],[0.24036264868224286,0.4951996847493798,0.5185647604815488,0.0814851155687647,-0.6513062923339396,0.4006969640336589,0.35056321568506016,-0.14287982924059875,-0.15624368960895968],[0.46960491731832443,-0.3275211926502525,-0.11150505641779357,0.20488449555101543,0.28906968107536457,-0.4832337558423104,-0.20303994879932122,0.004893734947690808,-0.8011905538427793],[0.19770846492058639,0.3914695300876475,-0.032610766900643545,0.6885715408413035,1.1329701328224144,0.37976035052646195,0.29824892479234344,-0.4406981695910016,0.36035207176180406],[-0.9820193632157509,-0.1062496048833931,-0.33929707930516595,-0.6039298771511868,-0.3757552557172838,-1.5985102460334437,0.020223437054394524,-0.523896601198338,-0.28828381078044135],[0.377046738920489,-0.8145341575521655,-0.001363455751868462,0.5486678083291753,0.11707798596819641,-0.16574539741268204,-0.94361262493645,-0.541042631330632,-0.6351475701972642],[-0.38366261678643415,0.4724146785381406,0.1923782997022099,1.0031735122542202,-0.3720901711739355,-0.33562110328367434,0.21492735374985822,-1.1436186211620525,-0.22162811155917247],[-0.3661618703593188,-1.038676761972599,-0.06977984275986882,-0.7987616105498363,0.7862575336438216,-0.5800939715808748,1.118981848802522,0.4182012826620452,-0.24123346197147835],[-0.036836331437955505,-0.041025056732053276,-0.591232791265139,0.8418789521325015,-0.030061160844460897,0.48386416715372543,-0.3998758701940388,-0.6310377237171826,-0.4820315478852187],[-0.03970746132470341,-0.0668075286462628,-0.13585879433136158,0.2734598124380397,0.5525548286866788,-0.20702235632400137,1.0955524920633115,-1.0951086555838918,-0.1221578663382712],[0.13926887532798365,0.560336790186286,-1.0749295068552314,-0.15208837330348413,-0.7694980231686213,-0.0710219080039812,0.007108232579915389,-0.41437440761298233,0.04451008417332399],[-0.45277924859470325,0.5608939857586207,0.2520415180784815,1.0471098450026533,-0.13755152913663238,-0.4783089167495035,-0.20153330369155953,-0.2117127264947051,-0.6049498283145939],[0.8533599949725919,-0.7276678021271789,-0.7342472907186933,-0.22654690063856106,0.9997903404603449,0.9671927067990462,0.11156337486259356,0.19008169527140067,0.7499005294554607],[0.08232689247460602,-1.2596276791610346,-0.6288674461762958,-0.032658913875848135,0.11745378978599033,-0.29526366863422876,-0.02729522631851764,-0.6718446829778905,0.29309341644532083],[0.11991124706443008,0.957994347267003,1.8476788774828945,0.7455207962908835,0.19467728574751697,-0.48752576740960313,-0.21040918674276243,0.006087694983243825,-0.3815712876908588],[0.11669651603502153,-0.01826969669326784,-1.419732676492094,-0.2825868286829775,-0.633998699923548,0.0799960877434115,1.2734056404080953,-0.5033440116461272,-2.7386315900676568],[0.6918095233198334,-0.29289801501138957,-0.15095742285464978,0.4281654412346848,0.49382524406859946,0.4916934825928509,0.12807455449018632,-0.3713785004024598,-0.4228216981317233],[0.05956978028704333,-0.3973048075515768,0.908239294774804,-0.10958217051332363,1.2122624089650387,0.2344228673118941,-0.9779654708420985,0.31682323962452097,-0.5826583883979254],[-0.9899998410687758,0.01454274289512673,0.47904863900795147,-0.3595064812280728,-0.1684076765004913,0.16479621452336318,0.6538975381193707,-1.2620029272247943,-1.0706717607962202],[0.45697761163084094,1.0465742558255222,1.5571692446538694,0.4219313376157755,-1.1261181382227743,0.1567446964035187,-0.0200146488438026,0.31267532141656246,1.8263930060685325],[0.3455910116716651,-0.24138394590805845,0.8614189037231945,0.06603394160902373,0.6118353989669297,-0.7777670664137727,0.33061500318647596,0.19244381815810035,-0.05138090923315268],[0.07082879143111402,0.09789210759412495,0.4274295460804893,-0.14831072072313903,0.04674816813405758,1.1530009657536746,-0.08657290773966263,0.1701597630292619,0.7391343556210065],[0.7382338557043648,0.40304070181202256,-0.7341755086679981,1.0187647769712316,-0.7763053315081204,0.20918048302587855,0.18591662640517193,1.750257132109652,0.7750418401442436],[-0.2247701924466172,-1.0712503512390055,0.36188456322510393,-0.5262207651824601,0.2480598320991137,0.27516386968932627,0.17410118123251594,-0.31162798634244665,-1.4980871980266737],[-0.5720934248244169,0.7214215768385629,0.4177624014424772,-0.041271645612533,0.29616246106104066,-0.32875148343563687,0.26724890660275674,-0.4025654301705349,-0.20592124935835313],[-1.6017694196519718,-0.3742500506665032,1.2738790544860301,-0.4650424627463783,-0.39898186631832677,-0.9862917903946246,0.6084466904710077,0.011206151866053726,0.6511569561088915],[0.8571052572267256,0.3332751936510835,1.1471750473792197,1.391209485126186,-0.43528193760976724,0.8921964585299955,-0.8107796100025754,-0.35288206631125835,0.10230226844161479],[0.36453566269465365,0.020457182449417226,-0.21003038597067566,-0.5166865059201826,-1.044322859934465,1.0896111354185585,-0.5197593444258258,-0.40425816075861215,-0.7386267557532472],[0.8575436973351582,0.6701387486743713,-0.3416874453484129,0.3139189304579831,0.28296879436677824,-0.8339009760735809,0.5527001175244933,-0.034226033047535874,0.4778364752343782],[-0.236340737551091,0.297212634606573,0.22333524025750243,-0.1996371833370309,-0.7461372293026748,-0.08797029183890524,1.0982718557890392,0.7134151368837234,-0.4609341689414074],[0.11814900539892448,0.06854842696348092,-0.10647768476551797,-0.08036074565214035,-1.321624672838238,0.15244044783342212,-0.1637898840767019,1.41824056044069,0.5759953698489972],[-0.7205152533057252,0.1597566064487579,0.03052573166284353,0.40449951869897904,-0.4254918181909401,-0.14935380569152235,0.5825279557324198,-0.664416573259837,-0.12413428744778453],[-0.6264577265090373,-0.7821174381111324,-0.20789343868636873,0.026028710384430567,-0.47891017453922863,0.6453160639088478,-0.6777708045499763,0.3586188580051086,0.19816136626146688],[0.7470631136246817,-0.42548446556679154,0.36625510058748123,0.3982496211392555,0.33670625657521047,1.5743534931474117,-1.2950757949220197,0.48222164036390663,0.2494344435097603],[-0.36242956794600945,-0.05823117458586174,0.8762448177572041,0.21448319695696827,0.9429952198797745,-0.7655822973143785,-0.35361536339351785,-0.5363003145688503,0.5486410572727309],[0.40544556072034216,1.030357045413194,-0.8728220716173004,0.2572983654199012,0.5220108308871293,0.6809407600894636,-0.38686957380341236,0.06066049737074397,-0.6222163124559741],[-1.7516120627444876,-0.40616275444830796,0.27466917275581026,0.7124068942798971,1.1512567989268223,0.7671669347474451,-0.9395140906804194,0.2707638653680152,0.19686555616286835],[0.5498665388056994,-0.6145600749991704,0.34427464850757056,-1.6193986952454416,-1.2162499038643722,0.8839108968988163,0.33081867347762706,0.6734399540213558,-0.7287280572137796],[0.5781259233627871,0.3656093976822198,-0.0317331317295574,-1.4124757396711043,0.6450909098695861,0.7085441991993767,0.05450518452001145,-0.866781524965098,0.32871844935158717],[0.5977166099115929,-1.3589365004132603,-0.5979133551137965,-0.15797676275788458,0.0617311020149824,0.63462372178499,0.13520924426531386,-0.5919313124786074,0.38975615965381744],[0.8883072704363757,-0.9558592955443657,-0.377480807430391,0.6808144641801627,0.0915293224504999,-0.13724831069736693,1.4822978924268784,-0.8159634768008026,-0.6985020108188644],[0.7972487910035319,0.5097736703285439,0.3645898280025368,0.37518607901091716,-1.0493363931684205,0.32010172259038083,-0.1608101801959571,0.11469149361228198,1.5438094600302428],[-0.20872477203730974,-1.1485170623051302,0.05073908071579121,0.9293370506915081,-0.2356423107400699,-1.6384675056790032,1.1331227006491482,0.3118081366045346,0.12368003921424454],[-0.533125985253941,0.7778432803805962,-0.6821789865532483,1.192189158562202,0.43376352797107504,-0.7837308256074449,0.4144532126184899,0.4099572181312856,-1.231678233485183],[-0.8826400317067563,-0.2360876719798656,1.164686684406853,-0.6108801761385648,0.020324459000734596,0.25945404844938624,0.2198220531278746,0.9165860944869308,-0.18068022468386769],[-0.08620826803648926,-2.0273469643425015,0.4700358481311435,0.6171241161739502,-0.2567306442261402,1.0264022418349128,0.3638693382589507,-1.08637105264964,-0.27846190373045054],[-0.8968757906545693,-0.5784967405516519,0.9123529008704976,0.3685907970656782,-0.1888492009140733,0.26019926153707196,-0.781667640546535,-0.43333270613409175,-0.6246052329933851],[1.1797297064043997,0.6708301506860825,0.7456194458131117,0.20336802197101056,-0.5729639158426214,0.68523785332907,1.053076963252758,-0.40885117557226935,0.4417516729143067],[-0.09194937424104685,-0.6122555925108571,-0.6226226474818211,0.5889718671366717,-0.2684117536833046,-0.11324239560677923,-0.21963039029553544,0.3019233144119524,-1.067251297251093],[0.29918053730120686,-0.07313782066976607,1.5761535448725306,-1.0119156157853477,0.4731752524545657,-0.16191245068403803,-1.0237461652402664,0.060724334903307614,1.2188643604466218],[0.42464101355665235,-0.8928918113816788,0.3928622171763996,0.24484078951530225,-0.4134199816830763,0.8343805675881883,1.2831571211433845,0.8042294427632392,-0.6922157531818431],[-0.7498407442275671,-0.8961958936168604,0.1144869133093319,0.40627923152606493,0.05379211032675711,-0.3365107560979356,-0.08969547793744784,0.6300347022249673,0.20646900432701867],[-0.17034677729938913,0.4099919292638361,-0.7183058215203998,-0.6928784053280455,-0.2607077056663688,0.27505499657664884,-0.2327277603908355,-0.6805248646292944,1.2255919243229962],[-0.16591027917174286,0.6661377745853618,-0.10094459615226688,-1.0764577420802712,0.16831502189566352,0.41165904006114734,-0.54299704240572,-0.011691221606252467,-0.3243421973208287],[-0.1662010001073499,-0.04684802043228308,-0.286728756893309,-0.9495963717555633,-0.7303934302032103,-0.21160936415505918,-1.2328856976274087,0.786878853190525,-0.7268834497661575],[-0.15783692839206162,0.8075327208696814,-0.5078599698293245,-0.09502871929713119,-0.3278013322320408,0.4846665028796118,-1.3724015300754566,0.15662011162622289,0.6424887138152784],[-0.15530959042524953,0.8521783822419831,-0.5906637326957088,0.25008384750857915,-0.7650538695000334,-0.7739516432050525,-0.2653856163289086,-0.2982358499016208,-0.14665607768483402],[0.0787763273187389,0.004690219546650287,-0.7641396862396719,-0.9584270575118745,-0.6589704444752854,-1.3797437730988795,-0.9752833361528294,0.2674434530711443,1.530030755077437]],"biases":[-0.5064448629545834,-0.054359553282205236,-0.5196250998359797,1.7945635128998387,-0.6809333380827783,0.49251866979583486,0.0343689723200137,-1.011044772561839,1.0911313201567512,-1.554000061422367,1.2550976974839114,1.3757965867583994,-0.7447507884527479,0.021710929567384737,0.4233934378338388,-0.6667364800782337,1.9059568225362828,-0.269318732582294,-2.6148986568948382,-0.7851456657953508,0.760068392621023,-1.1708450637755279,0.8655758786228495,1.8872973858689956,-0.9021489578624489,-0.49216301567028065,0.22834081487566707,1.178445313451066,-0.38398962631284805,-2.9642083870565146,0.09013714558532661,-0.7365026527929786,-0.23417584719705573,1.6054098433941382,-0.5244369793508231,1.2962738135030578,-0.6457980290342135,-0.1674766011570269,0.7700153542198381,1.086118668633465,-1.115020545940713,0.749601834449496,0.0846093598456294,0.7817107728869868,0.7966941138473504,-0.3518949185080313,-0.47637244395158446,1.0149699208720087,-1.5644167480142042,-0.20850298374400061,-0.15767996985020707,2.25161765767493,-1.548627972806609,-1.4506910601304779,0.8073357614881393,1.3307562606196806,1.412028933917362,-0.6687906317222774,-0.5170428963561577,-0.11839636915660451,-1.378704356190722,-0.069773197510555,-0.31167386945722386,-0.6013349348022153]},{"weightMx":[[1.614662790408445,0.26038443453682314,0.0377895153428061,1.3437477879140267,0.38636911324908174,0.818424264396953,-0.23597049351861887,0.4734113168119029,1.664660551378326,0.6891872131705886,0.2799943541777403,1.6887159412056942,1.0861696095920697,-0.12132084161962042,0.9248844491705918,0.38792758558945034,0.491373279087255,0.11451947735123602,-0.07719612509950326,0.47562905585014725,0.24327693879039436,-0.5087257914491016,1.1710801322713797,1.300238953098253,0.03339796995975031,-0.04015923655983116,0.8257858128302957,0.7651216432025462,0.7169436638172552,0.6725576614858035,-0.01440201691592488,-0.6470313523010292,1.6856775688618002,0.921163365807076,0.3497962505299569,0.07634114962435924,0.20047221844342805,1.1223173946307274,0.1486576800968617,0.3928819308302813,-0.5358975142509407,-0.10100236074364341,-0.23149006842547776,0.44750025757858364,0.52313885729531,1.3549638339103032,0.6735041324130393,1.1434577874665064,-0.22959831344657364,0.4843967533467297,-0.5801082539422722,1.098049890193698,-0.0013155284536209536,1.551364093117967,0.22465111353774428,1.1197979720553874,0.6884794640597318,0.5827350858069835,0.8108878452343313,0.1440728422587785,-0.2300807652589142,-0.09416089411417744,1.315819358543042,0.49294885607844224],[-0.6342441206138127,0.9495426027993227,-0.07076424908267627,0.19702002117049272,0.4897084571715979,0.1185399006809054,-0.2522132782872239,-0.2729314834629493,0.754305079647953,-0.42532643924585584,-0.473482738359576,0.33266071415325615,-1.0333050710470488,-0.7912410859331318,-0.8903318802896861,-0.8077287900919823,-1.0417373831867045,-0.6889681796881807,-0.021858855017729592,0.774356061876553,-0.663644660786324,-2.938699727231491,0.10412134160255412,0.9882890535319977,0.35276101387145764,-0.174656650508809,-0.23181950328520007,-0.7215291846916779,0.34425722345924076,-0.3527160420653005,0.31387652879356787,-0.023684059559587994,0.12734192534300287,0.6837038243229934,0.30294905395625854,-0.0384531563468976,0.9833393723767243,0.7936524672623041,-0.43993649422641123,0.09549589984633902,1.0993628447194672,-0.028822123661023033,-0.9014079852470633,0.7666020738815222,-0.3306928618418841,0.830219415597318,0.39487236295193223,-0.7871666802187293,-0.8541921230892666,-0.0015845072957951464,-0.8377564837559162,-0.6763384138946664,-1.1563427811222873,-1.2582787622406713,0.34711067933630446,-1.103343865746002,-0.8235598841306908,-0.09334341392531735,-0.15029185037725398,0.9247094823351476,0.11189197948513427,0.11121000447691867,-0.10997485324478837,2.2213484244153703]],"biases":[1.399970939816031,1.3692764077466106]}]};
}