function GetInitialNetwork() {
    return {"name":null,"description":null,"activationFunctionName":"SigmoidActivation","layers":[{"weightMx":[[0.3064761,0.306395262,-0.377955168,0.0691525638,0.056216456,-0.2884639,-0.370644748,-0.236636087,-0.3767957],[-0.4067112,-0.6928307,-0.3979493,-0.0156480465,-0.667176664,-0.107046723,-0.106573127,-0.08089949,0.42889303],[-0.2561113,0.111034982,0.34315443,-0.2009466,0.48156473,0.0151422136,-0.54173255,0.177561283,-0.7615019],[-0.207052916,0.469362259,-0.236747831,0.0455703251,-0.277978063,-0.109673694,0.0749179944,-0.9256224,-0.100972347],[0.128431991,-0.5084088,-0.153487444,0.1905815,-0.147143453,-0.06515154,0.42195642,-0.025163671,-0.5485264],[0.4419874,-0.190027416,0.0767897442,0.5005693,0.181839734,0.104467183,-0.3222232,0.303581029,-0.3370635],[-0.0401943326,-0.106734231,-0.185209155,-0.2890324,0.208025366,0.2002366,0.13411352,-0.181385815,-0.159284443],[-0.183243617,0.49312824,0.0332644545,-0.0278889835,-0.265001237,-0.231494,-0.151688725,-0.1334734,-0.420274347],[-0.128702015,-0.8602163,-0.0406685546,0.347891927,-0.007721456,-0.0962722749,-0.013649988,0.107403629,-0.202357084],[-0.302823067,0.09911557,-0.453640938,0.173496589,0.2806272,0.4916591,0.0757196,-0.4706306,-0.192633986],[-0.141821653,-0.127900869,0.456678629,0.172140986,0.06868115,-0.400137246,-0.365181565,-0.114757143,-0.134983957],[0.278502852,-0.234674543,0.217383713,-0.136855185,-0.155016422,-0.139083922,-0.118478328,-0.41881758,0.244395956],[0.26369828,0.0619715,0.150911361,0.275544882,-0.228611141,-0.07383801,0.587841153,-0.696874738,-0.0628709048],[-0.392570466,-0.182539135,0.198941872,-0.144295186,0.195355877,0.0690357238,0.4279614,0.0799041,-0.2821216],[0.107866764,0.07680349,-0.171054125,-0.0288174711,-0.285532355,0.0300668962,0.287697524,0.11710377,-0.305430174],[-0.304902017,0.100443237,0.132562757,0.09663911,-0.534350455,0.0786800757,0.740903258,0.107396096,-0.111361161],[-0.200040936,-0.4267208,-0.403576463,0.0241192933,-0.121708147,-0.0291675813,0.2144086,-0.1827716,-0.304435343],[-0.221861228,-0.257215679,-0.109340511,0.07130827,-0.139851958,-0.253303,-0.3809869,-0.0266820248,0.222313032],[-0.09039696,-0.3140204,-0.0583817065,-0.665692449,-0.216826677,0.441815585,0.0633307,0.449457973,-0.109937333],[-0.0217688978,-0.703475833,-0.7804687,0.1610261,-0.197663009,-0.122022144,-0.153726682,-0.2501961,0.00151321408],[0.3416881,0.112523638,0.526424944,0.31627515,0.08010549,-0.465390533,0.07076004,-0.0748402551,-0.199949354],[-0.261180073,-0.08089252,-0.5153124,-0.442120075,-0.243222281,-0.1782403,0.256585538,0.531078935,-0.7849199],[0.356739581,0.04910616,-0.1429812,-0.285216451,0.4819506,0.170260847,0.402268469,-0.2504024,0.3559211],[-0.06369519,-0.212126166,0.3418588,-0.116530769,0.818956733,-0.1437997,-0.375846982,0.106459171,-0.225713179],[-0.520699739,0.237397775,0.224591538,0.053655915,0.5900929,-0.126452222,0.06828446,-0.5248846,0.2966357],[0.0823393,-0.0386481062,0.432887167,-0.0592590049,-0.09274189,-0.4769755,-0.0586545877,0.216357917,0.8110529],[0.25996694,-0.414283961,0.467337,0.25447,0.06357646,0.241292268,0.07963771,0.243292421,-0.06695241],[0.124090627,0.205367833,0.104745828,-0.409323215,-0.0268952586,0.1854764,0.329410136,0.2828052,-0.290600866],[0.679317,0.223978937,0.23166728,-0.16829215,-0.454585642,-0.03307861,0.515229344,0.265708059,0.267847478],[-0.458963573,-0.3365571,-0.155205026,0.216522217,-0.202739745,0.21735087,-0.174243182,-0.125599831,-0.411234736],[-0.0854846463,0.140120327,0.677094936,0.12627241,-0.102223232,-0.106623709,0.08895456,0.294403017,-0.191532478],[-0.2250558,-0.0397702679,0.00566905644,-0.104789935,-0.230078161,-0.415818274,0.399196863,-0.0136027252,0.113501579],[0.113343224,-0.0276272632,0.138000473,0.12253508,0.212732,0.04277587,0.235689431,-0.195290923,-0.1528635],[0.2166668,0.369137377,-0.169258773,-0.436569035,-0.6438676,0.473250628,0.371753871,-0.447352141,-0.38335526],[0.11713019,-0.06458835,-0.197654128,-0.574816644,0.08909437,0.246086881,0.245063722,0.5863327,0.106295042],[-0.28871274,-0.153877765,-0.156395942,-0.292586863,-0.246173739,0.166308463,-0.0581880324,0.109164268,-0.2520032],[-0.349356771,-0.391571,-0.06436892,-0.0442572758,-0.150212258,0.021769952,-0.3694572,0.202007458,0.02533759],[-0.333012074,0.0924405456,-0.5663042,0.182070792,-0.376395762,0.008922566,0.2955957,-0.09687837,-0.262910366],[0.4606559,0.03821724,0.0485963039,-0.345014542,-0.03435462,0.208955944,-0.3256749,-0.250768661,0.309102148],[0.8138304,0.282413423,-0.004020258,0.19940196,-0.256898046,0.078952834,-0.843577862,0.07363042,0.00758324936],[0.550226331,-0.03507846,0.2423597,0.009184746,0.294133633,-0.1545748,-0.4323461,0.030749714,-0.101241037],[0.5621434,0.788831651,-0.3590284,0.166285068,-0.0833926052,0.142431244,-0.0295581724,-0.247816488,0.007218876],[-0.6391082,0.14155373,-0.20168981,0.146662414,-0.0927170143,0.5489228,-0.2952401,-0.193529949,0.200089931],[0.447040647,-0.8163087,-0.3425028,-1.03657818,0.129710332,0.531255364,-0.111710832,0.122526251,-0.484566867],[-0.0551610366,0.159209415,-0.0975597352,-0.3199731,0.09834397,-0.0539521873,0.170307219,-0.415186882,0.2480859],[0.0584131032,-0.864693165,-0.371134967,-0.123077214,0.370860219,0.378195137,0.0500338636,0.1862691,-0.2058664],[0.817275047,-0.4256357,0.397335529,0.236668944,-0.3770878,0.1730126,0.802235067,-0.320735216,-0.0180907976],[0.06778148,0.33598727,-0.07637748,0.395247072,0.2593249,0.520578742,-0.9134393,-0.05795656,0.564638436],[0.0179157071,-0.720758438,0.1657738,0.4072561,-0.0424417779,-0.595099151,0.06251167,-0.0268497653,-0.124347195],[-0.153839692,0.304534435,-0.1896775,0.715368867,0.4055296,-0.218761608,-0.0724721253,0.2470359,-0.06351707],[-0.165692717,-0.5066025,0.6165446,-0.169378817,0.208298966,0.225700587,-0.283447444,0.154864281,-0.03672161],[-0.238258243,-0.5719891,0.430499524,0.500168145,-0.220993817,0.8975467,-0.00142371317,-0.476496637,-0.438344926],[-0.09430032,0.07012978,0.271851838,-0.0247885045,0.12075609,0.08987876,-0.352508545,0.143586263,-0.07068015],[0.808361948,-0.210410759,0.559576631,-0.225123808,-0.264904141,0.53534776,-0.137846738,-0.208311126,0.513719261],[-0.313687027,-0.118811183,-0.0130918836,0.248882025,-0.5002523,-0.644067049,0.499412954,0.0944008455,-0.2158955],[0.117331281,0.217896372,0.6431103,-0.609735131,0.0965524241,-0.07518479,-0.4824048,0.6781839,0.1245635],[0.276194751,-0.0549189076,0.313869476,-0.184109554,-0.4275661,0.390547872,0.436576962,-0.0026312815,0.0265102871],[-0.124494761,-0.177968726,-0.251125455,-0.305563927,0.142740577,-0.058982864,-0.332769215,-0.210184127,-0.169248611],[0.123364024,0.353749722,-0.486361951,0.404451132,-0.170570254,-0.381511927,0.183021,-0.560625434,0.7051294],[0.191054866,0.2298781,-0.06663129,0.0198382884,0.242140651,0.282179,-0.08214313,0.11580833,0.259185135],[0.354792565,-0.0146420933,0.253698349,0.279990464,-0.25311926,-0.100822978,-0.3079555,0.809782445,0.00302942982],[-0.132047638,0.219079,0.04208973,0.396847,-0.3780567,-0.142666429,-0.262641251,0.137046948,0.04073479],[-0.152817026,0.0551019534,0.1178135,-0.166211084,0.116111867,0.08916579,-0.2729562,0.03571389,0.0194139965],[0.184578866,-0.214501083,-0.209542558,-0.168631673,-0.0601135753,-0.5860252,0.04103572,-0.0230869278,0.306246877]],"biases":[-0.468840748,0.0946043655,-0.17949754,1.42050016,-0.5869071,0.9987094,-0.9386532,-0.123673089,1.50458193,-1.44028366,0.9445595,1.62973726,-0.168609276,0.0025013634,0.1339462,-1.22110271,1.97038889,0.545541,-1.86913764,-0.9421011,0.5314199,-1.09275842,0.916498244,0.7322993,-2.16495,-0.2986931,-0.09247604,0.927584,0.356678218,-2.59806085,-0.218700424,-0.5516624,-0.352711231,1.42962992,-0.55665195,0.612421155,-0.2295623,0.01720742,0.93281126,0.2310778,-0.666279554,-0.07189577,-0.200817436,0.9420577,0.635936558,-0.257481128,-0.424069881,0.757201135,-1.71084714,-0.0247668549,0.353748053,2.40998578,-1.16852915,-1.46649384,0.216782972,0.71442765,1.21637607,-0.8349027,-0.133480638,-0.975273252,-1.19849694,0.277845234,-0.8130425,-0.666015744]},{"weightMx":[[-0.0566873662,0.0265924782,-0.145590618,-0.139369309,0.09617739,-0.1395675,0.0218281671,-0.04273441,-0.196764767,0.10291443,0.169849932,-0.0457592122,-0.08155044,-0.190723762,-0.003546046,-0.003866144,-0.04908559,0.183017537,-0.09612406,0.038999714,-0.03717733,-0.0455090851,0.25090462,0.141884819,0.139985353,0.0678866655,0.0877953246,0.09388036,-0.0138125513,-0.1166758,-0.0841431543,-0.04170466,0.000971828762,-0.0463225059,0.08663432,-0.0624232925,0.2048285,0.0143966,0.162163883,0.0948582962,-0.237792775,-0.09551918,-0.0987714157,-0.0224997,0.344049722,-0.0006108497,-0.2761182,-0.05079295,0.3189957,0.0523694232,-0.11605262,0.0260424651,0.19349432,0.101474516,0.146275938,-0.00734089455,0.1609428,-0.0213838685,0.1170585,0.01557696,0.162963226,-0.001551936,-0.0450647734,0.1080912],[0.0284326784,-0.1436326,-0.0123746833,0.237341091,-0.145875677,0.0530993864,-0.191560134,0.115752675,-0.153016925,-0.17542398,-0.203944191,-0.120426841,-0.02545899,0.06608619,-0.1826425,-0.0891725644,-0.0263143741,-0.153468728,-0.122640572,-0.008476197,0.07550899,-0.283472478,-0.194415763,0.1983114,-0.158416539,-0.115075789,-0.3564736,-0.120900944,-0.04380096,0.0152206626,0.00605388032,-0.03402844,0.22402969,0.150946259,0.104262844,-0.05171052,0.1618455,-0.0310433134,-0.078703925,0.038279295,-0.06376649,-0.0519438758,-0.1302328,0.0142038828,0.006051419,-0.121759154,0.0447513126,-0.196941555,0.04147693,-0.00493774237,-0.0921350941,-0.08436898,-0.07034049,-0.0833962,0.02609095,-0.0289458316,-0.0499668121,0.165203065,0.257419139,0.219958276,0.04020912,0.0578414276,0.06842742,-0.06774319]],"biases":[0.5430075,0.8105489]}]};
}