{"name":"MNIST learning DNN Mark VI","description":"MNIST learning DNN - Mark VI - using 4 layers in structure: (784, 64, 32, 10 ). Creation date: 2019. 05. 18. 20:23:36","activationFunctionName":"SigmoidActivation","layers":[{"weightMx":[[0.0005573826,-0.000129482345,-0.00107541971,0.00221550139,0.00134268613,-0.00246650679,0.0006496034,-0.000111756213,-0.0007402595,-0.00163177925,-0.003297637,-0.00145897828,0.0004524212,0.002699231,0.000471645559,-0.000821319059,-0.004745023,0.00027689655,-0.000401877245,-0.0022498765,0.00191732543,-0.0024607596,-0.00138153881,-0.00287884776,5.238913E-05,-0.00124957412,0.001913301,-0.00102192734,0.00111751526,0.0025826334,-0.004710967,0.00335595221,0.00170108536,0.0007627312,0.00361112668,0.005610795,0.0039467453,0.000256772852,0.003255507,0.00515554054,0.0112223225,0.00404814025,-0.000748446037,0.0023404907,0.0116269691,0.00353947585,0.004345934,0.003740074,0.00137459743,0.001037175,-0.0007053786,0.00366404,-0.0004258644,0.00250621,1.97850422E-05,-0.0007147725,0.0002726436,0.0007652983,0.000702919,-0.0001082972,0.00172929722,0.0019332323,0.00210932433,0.0108414525,0.0128892874,0.0149199218,0.0278160013,0.034477327,0.0411958024,0.0420347638,0.03571231,0.0384000279,0.03720323,0.032659255,0.0225795284,0.018659262,0.0138113,0.011930787,0.008070694,0.00515567232,-0.0009341806,-6.784554E-05,0.000175011373,-6.221901E-05,0.00172122079,-0.000963615137,0.00105175143,0.00103546737,0.0020911966,-0.006254121,0.00541610364,0.007987068,0.009970577,0.03575532,0.0297679249,0.0273244027,0.0163057577,0.04391377,0.0298869442,0.0240224656,0.0291330945,0.009583876,0.0128946472,0.024020968,0.00363927451,0.0213278048,0.008000619,-0.001657327,-0.000167949227,-0.0034088348,-0.00107242807,-0.000478542934,-0.003230429,0.00073253375,-0.00271348446,-0.00270705344,-0.00397348125,-0.00329330121,0.000590436743,-0.007264636,-0.0132723795,0.01253132,0.0197816268,-0.00104874151,0.02522866,0.0400602929,0.06526629,0.0337066241,0.0408070423,0.06235497,0.01681135,0.0109877745,-0.00746943848,-0.0380600765,-0.04834175,-0.04651924,-0.0430783853,-0.01840588,-0.00346356933,0.00195680838,0.000232814476,0.00217378815,0.00232954253,-0.009586433,-0.007096294,-0.03567582,-0.032465186,-0.0212865677,0.0231094025,0.0199830588,0.0449499078,0.0440354273,0.0611565858,0.07260188,0.09293715,0.0821227059,0.0657126158,0.0578099638,0.05571313,-0.0177367218,-0.0531334728,-0.0895220861,-0.102785319,-0.07614886,-0.05489705,-0.02162769,-0.00145188184,0.0006960116,-0.000129537962,0.00121321843,-0.005615974,-0.01125267,-0.0261564218,-0.0612264946,-0.0622587949,-0.0338300727,-0.03216875,-0.0379354171,-0.0177064128,-0.0152641525,-0.02229112,-0.0254494455,0.03242261,0.0379631519,0.00149664981,-0.02883416,-0.0604393,-0.118947968,-0.137684643,-0.131953523,-0.142047971,-0.126916975,-0.06913208,-0.027913956,-0.00694366824,0.000172360014,-0.0006281805,-0.00134471385,0.00231840857,-0.02140028,-0.03959555,-0.07032728,-0.0518602543,-0.0224142577,-0.00455285655,-0.0324322,-0.04786728,0.00308708148,-0.0502797775,-0.00667902455,0.0187523551,-0.0172942244,-0.0384211354,-0.103286415,-0.111783154,-0.13138935,-0.140953943,-0.11740692,-0.132836878,-0.1405045,-0.06299972,-0.0296081714,-0.006797467,-0.000680387369,0.00136584882,7.681262E-06,0.00142891123,-0.02389945,-0.040657185,-0.0386647955,-0.0365105644,-0.00205039419,-9.097208E-05,-0.0134420581,0.0491443574,0.0621773861,0.0168377254,-0.0147641143,0.0286538228,-0.00256566936,-0.10236764,-0.122129582,-0.19445911,-0.126474142,-0.117135577,-0.145585924,-0.132170022,-0.112673506,-0.09124567,-0.04114829,-0.0199469253,-0.00752053363,0.000672391965,0.00116090942,0.00227368786,-0.021177128,-0.04025854,-0.0305668581,-0.0554201,-0.0470580161,-0.04792498,-0.006082867,0.0558880642,0.03818978,0.0215324424,-0.02156231,-0.01254549,-0.0542161465,-0.142081067,-0.16466403,-0.153444141,-0.146687254,-0.148490936,-0.15602909,-0.133225,-0.10860832,-0.0929724947,-0.048858773,-0.01608137,0.004851666,-0.00312422775,-0.00149398518,0.00331949163,-0.0297702588,-0.0468656868,-0.0267330874,-0.0381496958,-0.0464918539,-0.0409824662,-0.0281410646,0.006205075,-0.0124980882,-0.08260588,-0.09688287,-0.107931986,-0.1191085,-0.154761642,-0.14204523,-0.106858678,-0.118240908,-0.128064975,-0.121003844,-0.130687684,-0.0911083,-0.0710298,-0.0406535752,-0.00830448,-0.00141828461,0.00208982453,2.27964319E-05,-0.00144974224,-0.0310518816,-0.04559947,-0.0323162377,-0.06523681,-0.09080386,-0.09784263,-0.08316365,-0.1192554,-0.176158,-0.234782785,-0.232813045,-0.172232643,-0.163034722,-0.142033309,-0.160242975,-0.07514315,-0.0246751,-0.0544256456,-0.0380752459,-0.08472271,-0.0627291948,-0.06028556,-0.0288910456,-0.0205917172,-0.00257808715,-0.000317654427,-7.817384E-05,0.00124551507,-0.02300751,-0.0442918,-0.0818483,-0.122253716,-0.1554193,-0.124330953,-0.164847285,-0.215407714,-0.20734401,-0.2400268,-0.196292341,-0.13345173,-0.14588365,-0.149147645,-0.130744144,-0.0563659519,-0.0286643747,-0.0137475505,-0.0178017672,-0.03591463,-0.0266920887,0.0141989635,0.01141388,-0.0006446346,0.00124643324,0.00176314986,-0.00162622449,0.00318945828,-0.02126769,-0.05772732,-0.102801234,-0.13916561,-0.188631743,-0.155157432,-0.154659092,-0.120014749,-0.0993469059,-0.0957393348,-0.0197891686,-0.013358837,-0.08112345,-0.130778268,-0.113539256,-0.0777065,-0.0163839851,-0.0285379235,0.00695243571,-0.008290386,0.049818553,0.07611207,0.0430835448,0.020604454,0.0103120878,0.000723538455,-0.00347339222,-0.000642669,-0.017176047,-0.0556089841,-0.120676532,-0.122948617,-0.101058267,-0.07644568,-0.0255585425,0.0116395326,0.020817006,-0.0295615084,-0.005043246,0.0124756647,-0.022643704,-0.09533115,-0.1386121,-0.05830824,-0.0534254871,-0.005692426,0.00568328239,0.0183754452,0.0474827848,0.0624573864,0.0548951961,0.0201399755,-0.00123573118,-0.000367329834,-0.005280128,-0.006148585,-0.005513969,-0.0608075,-0.0937125757,-0.06501943,-0.0281087533,0.006595311,0.0558855459,0.07484699,0.05786063,-0.0247752182,0.04938007,0.07263522,0.0422283523,-0.049335748,-0.09035038,-0.06839338,-0.0450292081,-0.0213116817,0.0150463814,-0.02178132,0.0162664372,0.08279038,0.08830153,0.0245225485,0.003806545,0.001310266,-0.00130251248,-0.00561103038,-0.00195631664,-0.0604706667,-0.0586839467,0.00119898538,0.00547873275,0.016436087,0.103502356,0.141422823,0.118474111,0.0198568571,0.09164509,0.104105651,0.0524547957,0.00845854,-0.0299323685,-0.0211522281,-0.00440960471,-0.02115527,0.0180081129,-0.00218741782,0.04227795,0.0932496339,0.1076251,0.0444034077,0.00519007538,0.0022552188,0.00172002579,-0.004550826,-0.00953188352,-0.02368233,-0.0189923663,0.0218153484,0.0158234276,0.0679139,0.103509672,0.140274346,0.0937037542,0.0324022025,0.0490540341,0.08908049,0.0628716,-0.0244477633,-0.0437622555,-0.00249723974,-0.009950483,-0.000285461,0.0220135041,0.0347247981,0.050170783,0.1096387,0.110782921,0.0181017928,0.0013079237,-0.00173645606,0.001360493,-0.004373738,-0.001509524,0.0134214209,0.00707829976,-0.00385470781,0.04378676,0.0662149042,0.05380441,0.07621049,0.0306737963,0.09963359,0.08442808,0.111068159,0.04608698,0.00212523527,0.03695737,0.03326681,0.01329432,0.00878223,0.02312066,0.0411778465,0.13057819,0.142195612,0.08238821,0.006995773,0.00202524476,0.0001196037,-0.0003981205,0.00180968293,0.000672101858,0.0252040513,-0.0134461271,0.00299766148,0.0219116,0.0317319781,0.0767254159,0.110024385,0.1860045,0.141669244,0.135703817,0.112235948,0.06531274,0.03879972,0.06521957,0.0357445627,0.0217285044,0.07125484,0.0710703,0.0824846551,0.143444851,0.109216787,0.04932451,0.0123054264,-0.00176000956,-0.0008450117,0.00166364212,0.009050892,0.0328718163,0.0528028272,0.0272820741,0.014930822,0.0136211645,0.0133694764,0.05020353,0.0948407352,0.164140418,0.155886739,0.08168629,0.09105127,0.0379556865,0.0392214842,0.0427729748,0.08569994,0.0749969,0.08161646,0.10857743,0.1164796,0.137548983,0.08808682,0.0276490729,0.007987076,0.0002018261,0.00041734238,0.00132327515,0.0114759533,0.0308569688,0.0424509943,0.04509912,-0.004674839,-0.0199208837,0.007004077,0.0696187,0.08232061,0.07656506,0.108187504,0.10618531,0.06190637,-0.027083518,-0.0129227871,0.04007106,0.06508995,0.0796586052,0.056865707,0.110768177,0.130686536,0.129666314,0.0633412749,0.02405581,0.00316144573,-0.00193938788,-0.00172342209,-0.000239236339,0.010316615,0.03096353,0.04974697,0.0507891476,-0.005341455,0.00781955,0.04281477,0.06196521,0.060995128,0.0001638311,0.0276925378,-0.0165256169,-0.0605674833,-0.08626668,-0.08335472,-0.08256009,0.000190280713,0.0344268829,0.0613719039,0.092541635,0.0759592056,0.05256371,0.0334439129,0.0134411529,0.00138773757,0.00285442546,0.0006510281,-0.0006492719,-0.00161223963,-0.0108764628,-0.0149388751,-0.0145241655,-0.0251673386,-0.0324999578,-0.0297866557,-0.0152353542,-0.0480168276,-0.0632294938,-0.07723981,-0.13465105,-0.1457559,-0.158434719,-0.156544566,-0.163978457,-0.08272581,-0.0331160426,-0.03585403,0.0136119211,0.0293458365,0.0200084746,0.0119610569,0.00467361324,-0.000323732849,-0.00358576234,0.00103053625,0.0012956945,-0.00327898329,-0.01829765,-0.02496453,-0.0439294539,-0.0650129,-0.0710264742,-0.0766958743,-0.08374411,-0.117967,-0.135331631,-0.12539117,-0.162638977,-0.179347083,-0.178071707,-0.176548854,-0.15413335,-0.122164175,-0.113769323,-0.078652285,-0.0336357467,-0.0141216265,-0.010347629,0.0141114574,0.0141143668,0.0005904913,0.00169825077,0.00163093267,0.003344061,-0.00243089837,-0.000200218361,-0.004656406,-0.0110437516,-0.0147103528,-0.02077896,-0.04532071,-0.0579752252,-0.06126772,-0.05598828,-0.05555274,-0.102071553,-0.102772318,-0.08985413,-0.0831818,-0.08364885,-0.09118469,-0.09652045,-0.05730358,-0.03128482,-0.018121561,-0.0103550935,-0.00457833847,0.002180235,0.00134132279,-0.001297671,0.000301669352,0.001894235,0.000627777656,0.000279907661,-0.00104795757,-0.00183794892,-0.005593957,-0.004673991,-0.001354516,-0.00263046334,-0.0042247246,-0.008758303,-0.0136301983,-0.0215448346,-0.01574855,-0.007034694,-0.0191290081,-0.0240951572,-0.0186446,-0.008361182,-0.0132831624,-0.0103074219,-0.004685984,0.0003724495,0.001513096,-0.00110662892,-1.38368814E-05,-0.0003579227,0.000877830433,0.000493772444,0.00135032437,-0.0009636341,-0.000153525674,-0.000512768864,-0.001009794,-0.00160331733,0.00110442808,-0.0003561187,-0.000243686576,-0.00310126273,0.00116902753,0.0005320399,0.000194236593,0.00159082655,0.003525912,-6.821502E-05,-0.00208002073,-0.00196977262,-0.00137682771,-0.00123367028,-0.00141104648,-0.00115455675,-4.16613548E-05,-0.000256890955,0.00253111171,0.00166184653],[0.00101645011,-0.000935050135,-0.003438681,0.00164412358,0.000489569269,0.0005343011,-0.0009129535,0.001073606,-6.535302E-05,-0.00117588078,-0.002282847,-0.00166932493,-0.0004784435,-0.0005329685,0.00081623107,-0.000100714824,-0.0003034813,0.000287534465,0.000542105467,0.000942500657,0.001968416,0.00112964248,-0.000120592638,-0.000508976867,0.0002185558,0.000147208513,1.69288762E-06,-4.62576063E-05,0.00039344895,-0.0005544991,0.00260566617,0.002645089,0.00118662114,-0.00185324764,0.000171631429,6.24757E-05,0.00157631142,0.00023616846,0.00441683969,0.0043593226,0.005490885,0.009861422,0.00353328441,0.00414041942,0.00212065969,0.00250019715,0.0030229555,0.005840728,0.00394992344,0.000329673378,0.00034309522,0.00270451326,-0.000804578,0.000361412822,0.0009822472,-0.00185063,0.0013835365,-0.00105692982,-0.001163824,0.00030798628,0.00119215867,-0.00103493617,0.00280772569,0.00387006742,0.00593928527,0.007843613,0.0154469805,0.0193856284,0.0225528013,0.0182276443,0.0207245778,0.0187316667,0.02559397,0.0302920733,0.03062877,0.0331156,0.0206368659,0.014294982,0.00917379651,0.00313543738,0.00235532131,-0.0002010011,-0.002251281,0.0008780488,-0.000394311355,0.0006919545,-0.000921937637,0.00375689776,-0.001953855,-0.000692535366,0.006245996,0.007659757,0.0122066634,0.00506607443,0.02163618,0.0375526473,0.05188716,0.05426667,0.0653918162,0.0544439629,0.052924253,0.0740221441,0.06397772,0.0421767719,0.03837704,0.0148363225,0.009115766,0.00528243743,0.00382705079,-0.00188613182,0.000175722365,7.26817161E-05,0.00154223922,-0.0008432462,0.000154435329,0.00360351731,0.00232548849,0.007106994,0.0179671533,0.0305430889,0.0452347063,0.0429988652,0.0520353951,0.0612823665,0.0326008126,0.0166020934,0.000272747915,0.00088609627,-0.0183294881,0.00515191,0.03187477,0.017284086,0.00292925071,-0.008675912,-0.00345406216,-0.0157126989,-0.0125365043,-0.00182150491,0.003474126,-0.00148834486,0.00102223887,-0.000259958528,-0.000403254118,0.00672642,0.0117225517,0.0143791726,0.0342382267,0.03308672,0.0288697723,0.02147517,0.0116335256,0.0131348437,-0.0140465908,0.00249768235,-0.0205428358,-0.0132861016,-0.06596524,-0.0584337264,-0.0382199958,-0.00775504624,-0.0525363423,-0.07104826,-0.0649384558,-0.0636796951,-0.0209594071,-0.001487764,0.00250775064,-0.001613744,0.000244605355,-0.00190555421,-0.00138549006,0.007077569,0.0195010919,0.0192155372,0.0238079634,0.01330972,0.000593165634,0.008679962,0.0422377177,0.08042052,0.0511513576,0.06870119,0.06847148,0.08508537,0.0743162557,0.0363584,0.0611330979,0.0220151227,0.0176344886,-0.0210781544,-0.0424039774,-0.0685569942,-0.04970722,-0.0121955788,-0.00446635,0.00122270128,0.000298745115,-8.875202E-05,-0.0030795536,0.006963567,0.0199666284,0.0100327721,0.004297122,-0.0309159383,-0.03261023,0.0181976631,0.06571942,0.08169709,0.107684083,0.108729742,0.112123795,0.156613812,0.107995883,0.100518584,0.06986326,0.03862011,0.0215190649,-0.00733440928,-0.0288295057,-0.03189579,-0.0520621277,-0.03323398,-0.0104006706,0.00279646087,0.001003617,-0.00132031587,0.000454138353,0.009180134,0.01991592,0.00106606225,0.0009596487,-0.04174069,-0.01240012,0.013799224,0.0348835364,0.03199882,0.0507779047,0.0760446638,0.09836935,0.09197759,0.1174202,0.0433022939,0.0479605943,-0.00536318962,-0.0156010529,0.0183062963,0.004409083,-0.039538797,-0.05072544,-0.0433578342,-0.003979772,0.00165150932,-0.000661314349,-0.00268276129,-0.00333322515,0.0112964446,0.0178662557,-0.003488016,-0.00444708951,-0.03211107,-0.0263636243,0.001988675,0.0275154132,-0.0340903848,-0.0368976146,0.000215786189,0.0290070064,0.004201512,-0.0455523767,-0.0330845378,-0.048707433,-0.05603636,-0.0147799216,-0.0162788071,0.00702844746,-0.0146136265,-0.025762653,-0.0333616026,-0.005636888,-0.001656043,0.000181878364,-0.000361276325,-0.00240680156,0.0153526608,0.0116248466,-0.0109313689,-0.0191550385,-0.0494122766,-0.0172691923,-0.00472694077,-0.0262766462,-0.0619140975,-0.09310207,-0.046439752,-0.009318053,-0.08402396,-0.0570957437,-0.0488258936,-0.03339153,-0.05993139,0.0108757969,0.009505673,0.0459067225,0.04498961,-0.0106793325,-0.0408005565,-0.0110233249,-0.000320730382,-0.00205467059,-0.000319577375,0.002999097,0.0163846742,0.0150167439,-0.010100184,0.0106538236,-0.005638097,0.0273850691,0.0218877271,0.0272151791,0.0382736549,0.008732513,0.0561185554,0.0456396379,-0.00536111835,-0.05681725,0.0476055071,0.0120898318,-0.0252629388,0.05044392,0.0434064046,0.08791843,0.07675664,0.024949709,-0.0239998586,-0.00585076865,-0.00132766657,-0.000809287536,-0.0012129742,-0.0005208862,0.0163886473,0.03837373,0.04639176,0.063759,0.005319316,0.00531723,0.0555666126,0.0706634,0.08011546,0.0409723222,0.0619222522,0.113616876,0.05622885,0.07344311,0.120051824,0.0709840655,0.0196241029,0.008221813,0.04656176,0.112185948,0.137405112,0.0409376621,-0.02430104,-0.0113873808,-0.0002630462,-0.000685039849,0.00156877225,-0.0009097185,0.0197249912,0.0634312853,0.0630519763,0.06585928,0.07447158,0.04926745,0.06259281,0.07446014,0.0156005118,-0.0166905,0.00108373514,0.0315375328,0.07604445,0.174090058,0.130482018,0.107773021,0.0707283542,0.0225129984,0.0744709149,0.100445531,0.09756349,0.0317083448,-0.03061222,-0.0207373779,-0.006925121,-0.00156762125,-0.000404966122,6.139011E-05,0.0125162816,0.03218335,0.0525347255,0.07647227,0.06335881,0.06913038,0.0595072359,0.0245869569,-0.0309497174,-0.07288099,-0.05660579,-0.03939003,0.06097595,0.106814526,0.1409404,0.136288062,0.05444783,0.0675678551,0.11386162,0.0662955642,0.061328955,0.0195211712,-0.027342895,-0.0160619523,0.00116339512,0.000625807,0.00193514873,-0.0008235309,-0.008384839,0.0224404559,0.0636212751,0.0650225952,0.05613514,0.0276181363,0.009132972,0.008000056,-0.04457101,-0.07774695,-0.09207103,-0.0834100246,-0.012854198,0.00446533132,0.115846567,0.0897239745,0.10456688,0.142095774,0.10083767,0.11081744,0.06250609,-0.00136423542,-0.0412267148,-0.0230525434,-0.00167219283,-0.0008634498,0.004180298,0.00333273388,-0.0133882789,0.03061366,0.07996127,0.0543862954,0.05040865,0.0371410325,0.0230223741,0.03946039,0.04090818,-0.0515500978,-0.0784300938,-0.09984612,-0.1451999,-0.08164842,-0.02583259,0.0556718633,0.08309192,0.103701256,0.0546882041,0.0778605044,0.0289121345,-0.0247445162,-0.0577722043,-0.0241105519,-0.00650516,-0.0002664988,0.0009187303,-0.00304511841,0.000264927949,0.00201766146,0.0154322907,-0.0120798768,0.0234475043,0.0244156122,0.04487117,0.0623637736,0.0301872157,-0.00106447737,-0.0277152676,-0.1269581,-0.165179685,-0.10907352,-0.0133845722,0.0187566187,0.112940975,0.09009539,0.05626548,0.05365409,-0.0136089027,-0.06533102,-0.05510395,-0.0133576058,0.000191384912,0.00107747177,0.00183120673,0.00182235509,-0.0001779656,-0.0239478871,-0.0238406546,-0.0298678521,-0.0384900048,0.00732676452,0.0113965375,0.0385651663,0.0155459112,-0.0831394345,-0.0822644159,-0.116344638,-0.126402184,-0.107540496,0.0208033025,0.0571052879,0.07228331,0.0529159419,0.0400520451,0.026926158,-0.0684205443,-0.111115582,-0.04675357,-0.006162685,-0.002481307,0.0004359668,0.000220162314,-0.003420011,-0.000853084959,-0.0252166428,-0.0139119094,-0.0515830852,-0.0338904373,-0.02244501,-0.030006608,-0.005686836,-0.0348165743,-0.008841895,-0.074743174,-0.09289841,-0.148328125,-0.07992934,0.008216046,0.04593871,0.06369285,0.01850929,0.00353762438,0.00155474781,-0.08776037,-0.08237782,-0.03526002,-0.007974454,0.000420149736,-0.000363029132,0.0006710672,-0.00666812668,-0.0172490217,-0.0248437952,-0.0141175846,-0.06568837,-0.06593222,-0.0628946,-0.05243949,-0.0202484559,-0.0405650251,-0.0196328238,0.0204848517,0.000427916821,-0.0585564561,-0.0373441353,0.000444342848,-0.00214519841,0.0214261953,0.003175484,-0.02965856,-0.0485463254,-0.08617644,-0.0557355471,-0.017328687,-0.006724395,0.000151774118,-0.0009031127,-0.00246055378,-0.00073012436,-0.0113230273,-0.0239682011,-0.0429261476,-0.04089562,-0.02639679,-0.0482588671,-0.06804611,-0.0298750512,-0.03345041,-0.0130023509,-0.00544562,-0.00857440848,-0.0106827542,0.0145049812,-0.0316525772,0.00267274282,-0.006832842,-0.0417255238,-0.07710415,-0.0734873861,-0.08428942,-0.0476557836,-0.01873784,-0.00143873889,-0.00157083513,0.000830265868,-0.000198341775,-0.00469414052,-0.005548569,-0.0223407019,-0.0380182378,-0.0227333345,-0.03424569,-0.031271372,-0.04728169,-0.0253692437,-0.04982788,-0.0430558361,-0.008023127,-0.0041856,-0.00644401554,-0.00274378015,-0.00779430335,-0.0256410558,-0.0521800071,-0.07099447,-0.0892869458,-0.0486635044,-0.036484547,-0.0288783573,-0.018864017,-0.00340219517,0.00207759649,-0.0001226257,-0.0005376885,0.001109639,0.0109019233,-0.000256008585,0.00104694685,0.010750642,0.03475077,0.0234013554,-0.0077845687,0.0121248122,0.00142962462,-0.0202858187,0.0201436821,-0.004291244,-0.0205990262,-0.03509624,0.008429535,-0.0269256458,-0.06349934,-0.04477743,-0.0361767672,-0.0139733618,-0.0130388718,-0.010231874,-0.0152692283,-0.00194299466,0.0015785374,-0.000340227241,-0.0009845706,-0.0002571128,0.014277095,0.0289217327,0.0456519574,0.0605070069,0.09053397,0.09364857,0.0459432341,0.101467595,0.08231307,0.07493363,0.05737319,-0.0101309735,0.00963879,0.0258486979,0.0102777909,-0.0265361331,-0.0260013826,0.0112030962,0.009550407,0.00926610548,0.009455296,-0.0151903359,-0.01038909,-0.0031887847,0.0007146081,0.0005369336,0.0004928928,-0.0009876238,0.00221974542,0.00933731,0.0392123461,0.0610787943,0.08494752,0.118255757,0.117483892,0.109775759,0.09495773,0.102493733,0.0939206,0.08237269,0.0494350456,0.08208053,0.06686148,0.0540564731,0.08198172,0.0640837848,0.0415778942,0.0146762654,0.00686690351,0.000457700575,-0.00131787,-0.00387151912,7.484247E-05,-0.00182203483,0.000333115284,-0.00265777833,0.000410905952,0.006620523,0.01910425,0.0305374283,0.0383423753,0.04403723,0.0518266819,0.06795636,0.06411975,0.0817438439,0.08807462,0.120117188,0.0830463842,0.0743869543,0.06535645,0.0610899,0.04088634,0.0328071825,0.0279380213,0.0121441651,-7.27368E-05,-0.00047917894,-0.00107017229,-4.48098654E-05,-0.000364342617,-7.290007E-05,-0.0005875535,-0.00142361561,-0.0007147632,0.00165511447,-0.00323079154,0.00283693825,0.009049882,0.009504921,0.00304507278,0.00545284338,0.00305009843,0.008104498,-0.00414212374,0.01021234,0.006730586,-0.00148015912,-0.00181204791,0.006710292,0.0028561072,0.00342535763,0.00277495361,0.00120487064,0.00126143754,0.00109443034,-0.000644782034,0.002342542,0.00240426045],[0.00217768387,0.00118360424,-0.0009991599,-0.00062766287,-0.00181196141,0.000572496152,-0.00288592838,0.00122542353,-0.000666985055,-0.0002396931,-0.00183908606,-0.000480338233,-0.00253601372,-0.000417105854,0.000354421354,-2.59096087E-05,0.000277333718,-7.105995E-05,-0.00123460894,0.00055161427,0.004228948,-0.000347789843,0.001599138,-0.00270226761,-0.00229234458,0.0009038445,0.003534602,-0.000795343833,0.000658346456,0.00262540719,-0.00190751941,-0.000358057267,-0.00055485277,-0.00190050108,-0.00103355024,-0.000921400264,-0.00179800321,0.0004310766,0.00134952914,-0.0019808053,0.0008548211,0.00106680335,-0.002512455,0.00083246443,0.004570882,0.00113774,-0.00192639406,0.00120450475,-0.00201610615,-0.000165047968,6.0940647E-07,8.89960138E-05,0.00109432,0.00186020555,0.0007939005,-0.00176371424,0.000221874652,-0.000392600574,-0.0002619795,-0.00227284548,-0.00316279335,0.001664959,0.00115120027,0.000364108972,-0.005872985,-0.00525249867,-0.0105699729,-0.0142256329,-0.0131469686,-0.0208885539,-0.0288628917,-0.026338052,-0.02319844,-0.018698344,-0.0158730764,-0.0116609326,-0.009173031,-0.004791291,-0.00498721749,-0.00319960364,0.0003360699,-0.0007476596,0.0005594383,0.00133151491,-0.00107181049,-0.00115919358,-0.0008684392,0.00299554551,0.0004908307,-0.0047068554,-0.00193820812,-0.00629680557,-0.00390312471,-0.008670979,-0.01787829,-0.02545338,-0.01911413,-0.0219883882,-0.0320268571,-0.03602523,-0.016571762,-0.00670625269,-0.0425541252,-0.04350486,-0.0126903253,-0.0274081659,-0.0258365571,-0.0178925674,-0.0109301936,0.00128079858,-0.00127414637,-0.0005412543,-6.85735358E-05,-0.00139904011,-0.000538838853,-0.00173187582,-0.00243537757,-0.0161216017,-0.0162880346,-0.021317821,-0.0159310512,-0.00129332009,-0.0249615666,-0.0427758023,-0.06924369,-0.0594814681,-0.0475273579,0.015764527,0.008910339,0.0320717767,0.0107577424,-0.023939535,-0.0520343259,-0.0544494949,-0.04566213,-0.0355101228,-0.028151514,-0.009711859,-0.00195931573,-0.00157955824,-0.00219002157,-0.00112728076,-0.000167423408,0.0021227377,-0.008076104,-0.0205989685,-0.027922,-0.0300373062,-0.0181435551,-0.03854979,-0.07243636,-0.0802198,-0.06117277,-0.0155032342,-0.0006017984,-0.00452247355,0.00235930458,-0.007336424,-0.041585803,-0.07591947,-0.0932458,-0.06907806,-0.0567809641,-0.0617364161,-0.0448358655,-0.0141174961,-0.000321036961,-0.00281764846,0.000576210557,-0.000398444361,0.0009071228,0.00972395,0.00252486626,-0.0105444025,-0.0281637348,-0.0401673652,-0.06385085,-0.129150048,-0.113949485,-0.09343195,-0.09744145,-0.05471141,-0.052717112,-0.130017266,-0.13249208,-0.0994821,-0.094174616,-0.110849082,-0.0876228362,0.0308121648,0.0194900446,-0.05591694,-0.0501716658,-0.01675755,-0.00406975253,0.001631309,0.00286961277,0.00122857629,-3.68505462E-05,0.016043881,-0.0036022726,-0.0249438081,-0.0185151771,-0.026313087,-0.05264341,-0.05490379,-0.0533052422,-0.08625143,-0.07636388,-0.114189304,-0.14508836,-0.194278568,-0.130739212,-0.0592890941,0.0113001391,0.009783285,0.0118454369,0.0428652465,0.05892977,0.07164308,0.00779910851,-0.00367684918,-0.00648862962,-0.00154321676,0.00250848033,0.006540003,0.010417697,0.0234744754,-0.0112727284,-0.014306129,-0.0180209447,-0.000175670953,0.00286897435,0.00702241575,-0.03545493,-0.06437888,0.001413116,-0.08100391,-0.05088253,-0.008540074,0.0696831942,0.121839963,0.18741934,0.101209164,0.1531188,0.121065259,0.1403845,0.1519207,0.08060023,0.02074455,-0.011591292,0.00190461427,-0.00148039148,0.005554357,0.0119740013,0.030144196,0.0114562847,0.0331501029,0.0404200479,0.0319764949,0.01249272,0.0259866957,0.009751515,0.042676162,0.07674259,0.06825649,0.08720501,0.134272113,0.232911021,0.3068127,0.301501244,0.187119886,0.164515361,0.141493082,0.122122772,0.132062748,0.120293483,0.0359163359,-0.00201419881,0.00489158975,0.0009870032,0.00480762264,0.0252160318,0.0452257358,0.0257509537,0.039510116,0.0305898823,0.05377073,0.050922893,0.0512324944,0.0743351653,0.1283557,0.0772755742,0.112496741,0.13906619,0.186758935,0.191421226,0.232800648,0.26137507,0.217821077,0.218116492,0.160805419,0.136276916,0.125777975,0.0906522647,0.0440376252,0.00728365872,0.000805425632,-0.0006796232,0.0116941519,0.0462088622,0.060846,0.0282998662,-0.0120310541,0.03098188,0.0421079844,0.0231772959,0.03231381,0.076244995,0.115600109,0.0663057938,0.106574,0.0453315079,-0.03185176,-0.05021118,0.05949344,0.150472909,0.1774402,0.193062186,0.14154914,0.09938849,0.08054817,0.0663689449,0.02276103,0.00383937941,0.000324612542,-0.00195050915,0.00531161949,0.0351372249,0.04673588,0.0133968154,0.00293408032,0.0417131633,0.05075531,0.0610832535,0.0941381156,0.119299561,0.0936451852,0.07071393,-0.0175535772,-0.1316325,-0.21474506,-0.210198119,-0.107856482,-0.0156194316,0.06378755,0.113507472,0.0510276,0.07316526,0.03562234,0.0120820757,0.008476586,0.00367872952,0.0002669173,-0.0029223836,0.00086870807,0.018783519,0.0161817,-0.0113221155,0.0254540611,0.0608108528,0.0766985938,0.06163601,0.110687189,0.148071513,0.06830035,-0.008747689,-0.144690081,-0.241000623,-0.35567376,-0.329578519,-0.297782153,-0.164914981,-0.09028075,-0.03656281,0.0347942151,0.0709066242,0.0652657151,0.037488956,-0.00147820031,-0.00561277941,-0.0053643533,-0.00128412771,0.00406710338,0.00729236845,-0.00610216567,-0.04004442,0.03268937,0.03913095,0.0546475947,0.0581599176,0.07359329,0.09861407,0.018178679,-0.0586719364,-0.17610687,-0.269838482,-0.26137507,-0.333276033,-0.262552321,-0.205861673,-0.151262492,-0.0758608654,-0.00130331027,0.0577954166,0.11983031,0.0742176,-0.00487103267,-0.000318504637,0.0008747204,0.0008580971,7.39901952E-05,0.00243549421,-0.0290105157,-0.0361321531,0.0316949859,0.02832184,0.0484564751,0.006492469,0.07837995,0.0675798655,-0.08350183,-0.163971245,-0.286107183,-0.261380881,-0.189571381,-0.25669232,-0.198868,-0.116461277,-0.10108427,-0.0275106765,0.000830984151,0.050823275,0.113805786,0.0697886348,-0.00339811831,-0.00776021276,-0.0019104057,-0.000828667,-0.00104938168,-0.0007955463,-0.0305175316,-0.00767955836,0.04531144,0.0145281861,0.0137013989,0.05944901,0.03410898,-0.0142125031,-0.207721427,-0.3498615,-0.31838873,-0.198872179,-0.14778021,-0.158021674,-0.0995423943,-0.08250235,-0.06519207,-0.03451314,-0.00113851367,0.0360266827,0.0606638454,0.0234435126,-0.0193574671,-0.00313985441,-0.00076695095,0.000202168376,-0.00127288152,-0.00304580876,-0.0340898558,-0.010081511,0.05104615,0.0147798928,-0.0127663948,0.03111171,0.0183480941,-0.0280944742,-0.221605122,-0.3457756,-0.213211119,-0.104557857,-0.07202943,-0.110387683,-0.0645298,-0.08228705,-0.0938183,-0.0507040545,-0.023761075,0.0465657562,0.0274123885,0.008878244,-0.0131598162,-0.00269322167,0.00238723727,0.00236467179,-0.00170743186,0.00019442926,-0.0525557548,-0.0392097,0.009840048,-0.007630926,0.00411288952,0.0501470156,0.0468461066,-0.0191446785,-0.138677374,-0.216091573,-0.153395578,-0.0981641561,-0.0854699,-0.119740069,-0.0467701666,-0.0589063242,-0.0928539559,-0.069967635,-0.030642448,0.032678023,-0.0202801842,-0.0118108718,-0.01435402,-0.005094824,-0.0018766711,-0.00113253761,0.008590924,0.003417412,-0.040950425,-0.0254697744,-0.0127100563,0.0002813689,0.04406901,0.05704141,0.05043753,0.008186524,-0.0400842242,-0.0531891733,-0.0823233351,-0.100443557,-0.159586743,-0.114689879,-0.0405586362,-0.0516179055,-0.07078518,-0.0571795665,-0.04720286,-0.0121463742,-0.0467061736,-0.0179749783,-0.00685895141,-0.00181328284,-0.0009628826,-0.00160763378,0.005583816,0.00123600033,-0.03548889,-0.0157384481,0.016612608,0.0136956535,0.009603929,0.0586007722,0.08825892,0.0675072744,0.08033282,0.05543948,-0.0006736728,-0.0956399739,-0.142281249,-0.104495049,-0.04494107,-0.0815634,-0.08470199,-0.105849214,-0.06893146,-0.04131895,-0.052930627,-0.02258834,-0.00816754,-0.00327606569,-0.00237150956,0.00115546037,-0.00239526713,-0.005181831,-0.02857627,-0.0391662046,-0.0173593722,0.005722435,-0.0028431688,0.0126822842,0.0318699926,0.0725815743,0.09442514,0.0532888,-0.019678425,-0.07583434,-0.09817031,-0.0803593248,-0.0789746642,-0.0581788458,-0.104141153,-0.09373777,-0.0529042557,-0.04686159,-0.0301567875,-0.0161036365,-0.00303261727,-0.00135241088,-0.00217845174,0.003556704,-0.000368996873,-0.00168100372,-0.0145713668,-0.05383534,-0.0383346938,0.0129972752,0.03564079,0.05458097,0.0553786643,0.01945346,0.0270756464,0.033024732,0.0469013527,0.021471981,-0.0224279985,-0.024311224,0.00839016,-0.00638268236,-0.0822454542,-0.113324292,-0.07833126,-0.03552279,-0.0241043027,-0.0133611765,-0.00260771275,0.0005703876,0.000471022475,-0.00363203627,-9.483307E-06,-0.0003550303,-0.00747586554,-0.0151332719,-0.0006805306,0.0257338565,0.037013337,0.01014905,0.0297777448,0.06545084,0.0387724824,0.03838732,0.006061134,0.0248124655,-0.0114228213,0.0158809386,0.0355350263,-0.0404147841,-0.09611452,-0.110427208,-0.0763293058,-0.04121489,-0.0235536564,-0.00592908449,-0.00257270853,-0.00148971169,-0.0013446681,-0.0005780357,0.00142066483,-0.0001503221,0.00128855987,0.0203828327,0.04519795,0.01608574,-0.008922593,-0.02877114,-0.04583131,-0.01773148,-0.03279198,0.0123097124,0.010743008,-0.00518312072,-0.0253415741,-0.00804769,0.0320721,0.000366020977,-0.03898551,-0.07101864,-0.0452657565,-0.0231223833,-0.009847808,0.00176550471,-0.001704108,-0.0007092906,0.00204856158,-0.00150749157,0.002210422,-0.00038867406,0.00218543527,0.0189016256,0.0191618651,0.005718247,0.006693801,-0.0129741505,-0.0382303223,-0.0646707639,-0.005030716,0.01813335,0.0106736906,0.014621634,0.0162857622,0.0581594147,0.0663341954,0.0432604775,0.0234825648,-0.0227635149,-0.0139853992,0.00126953691,0.0024411513,0.005986671,0.000464999524,-0.0009795651,-0.000131200373,-0.00234379317,0.000242748763,-1.836888E-05,-0.00133841042,-0.00562274968,-0.005707979,-0.0136104841,-0.006580507,0.008214803,-0.00117610232,0.0005416984,0.0232116468,0.0342102535,0.04567045,0.044679936,0.05112835,0.0565486066,0.0435543023,0.0310676936,0.02626679,-0.003876163,-0.00633825641,-6.29573E-05,0.00197177613,-0.0002534991,-0.00203750283,-0.00271732,0.000372927956,-0.00113892055,0.00185054448,-0.0008496834,-0.002171417,0.00307471515,-0.000489662,-0.00036017815,-0.000179134877,0.00212400244,0.00163782178,0.0123242252,-0.000212969622,-0.00221123733,0.00951038953,0.00370043935,-0.00215023453,0.00742283463,0.0106671453,0.008823829,0.00186404318,-0.00111184083,0.002853516,0.0007996564,0.000852499448,-0.000193385364,0.003403474,0.0007408713,0.00157459464],[-0.0023370625,0.000418726268,0.000512930041,-0.001094883,0.000430504762,0.000515687,-0.00195935927,-0.0009857378,0.00169232953,-0.00111901935,-0.00125156064,0.00228113635,-0.000843576,-0.000213342253,0.00274392334,-0.000220131071,-0.0005205594,-0.000587060349,0.00126347039,0.00287824217,0.00185544463,-0.0004134047,-7.45439E-05,0.00239188131,-0.0006272888,0.00129758916,0.0013093,0.000145499071,0.0009128913,0.003216476,0.000359409547,0.000384022744,0.00116660458,0.002741529,-0.003316928,-0.00516676065,-0.00639066,-0.005058659,-0.007901694,-0.0132502159,-0.0191809423,-0.0116841346,-0.000171490261,-0.00373748015,-0.009575359,-0.00825296249,-0.008840899,-0.0101095187,-0.007480189,-8.52731755E-05,-0.00183239579,-0.00491423951,-0.0008616002,0.003530432,0.0014766074,-0.00179212191,0.0005967982,-6.19303E-05,-0.000844722439,-0.000294293277,0.00127342262,-0.0019336635,-0.00386306085,-0.0141233737,-0.02187017,-0.0174618065,-0.0379724167,-0.05349391,-0.06488599,-0.055815015,-0.04910888,-0.0459006652,-0.05255896,-0.0424790569,-0.03940713,-0.03385146,-0.013780402,-0.0177304987,-0.009709428,-0.00740032736,-0.00267914985,-0.00351024535,0.0005273398,0.00018661216,-1.15497187E-07,-0.00267388835,0.00290276879,-0.00417088531,-0.00138871383,-4.18876443E-05,-0.0148670888,-0.0277403425,-0.0468585,-0.0523253232,-0.085484,-0.121492341,-0.142880082,-0.1648934,-0.175298408,-0.15101257,-0.129416689,-0.106250204,-0.08138506,-0.06530863,-0.05728745,-0.0238612238,-0.001538985,-0.0008199465,-0.005498732,-0.0003613199,-0.00161008036,0.0006543968,0.000442053715,0.00211191061,-0.002282954,-0.0004088704,-0.00116925919,-0.0008420143,-0.0188756678,-0.03562059,-0.05540119,-0.07486757,-0.09945078,-0.0953246355,-0.07063983,-0.05802611,-0.0522292033,-0.05729367,0.00348527031,-0.00273704133,-0.02771929,-0.005018359,0.0122254323,0.0208155978,0.014570809,0.006511145,0.00634512166,0.0005665619,0.00132455933,-0.00181243208,-0.000155116533,-0.00053939,-0.00108623528,0.00144880032,-0.006763644,-0.001073216,-0.0184872933,-0.0444935523,-0.0812157542,-0.08277009,-0.121722937,-0.07235701,-0.0508310236,-0.0654857755,-0.028029386,8.640279E-05,-0.04018944,-0.0470940135,-0.07108684,-0.012804525,0.0258839633,0.0452527963,0.0397424474,0.016859768,0.00232144841,-0.00269522774,-0.006045268,-0.002024777,5.446197E-05,-0.0015898901,-0.00407310948,2.889668E-05,-0.0133639919,-0.0233234521,-0.0385575779,-0.05893437,-0.05633181,-0.04250303,-0.0292219333,-0.007832122,-0.0112713687,-0.0396157056,-0.0175126363,0.0243768133,0.008849182,-0.0190128833,-0.04666596,0.0149367545,0.0666477,0.0284169354,0.0199257322,0.0326026641,-0.0207574237,-0.016299339,-0.0070818183,-0.00164491939,0.0004693725,-0.00151327264,-0.00340396119,-0.00528513826,-0.0231683347,-0.04423885,-0.0471853577,-0.03444375,-0.007412216,0.009450653,0.05044104,0.0178797375,0.0283825528,0.024357589,-0.03688989,0.05237987,0.0988651,0.0559267923,0.03576797,0.0428726748,0.0507303476,0.0392168425,0.0267938133,0.02471783,-0.0395033956,-0.0351794623,-0.00319739827,-0.0015396988,-0.0005798667,-0.00182774873,0.0005296914,-0.00162272167,-0.0147332661,-0.0163558312,0.0181027725,0.04074712,0.06097899,0.0637473539,0.051509697,0.0548209921,0.0530718863,0.0584716573,0.004349561,0.0277526584,0.0456458926,0.06245835,0.089399226,0.04606625,-0.0188235044,-0.00039521436,0.02227993,0.0228288937,-0.00539473,-0.02582767,0.00286121573,0.000831797835,0.000935199263,-0.0009560762,-0.0004957272,-0.0035400826,-0.005403229,0.0184667762,0.07518275,0.07717045,0.0767525,0.1084153,0.08284764,0.109911174,0.08666651,0.0479746535,0.00285924,0.0390368551,0.03277736,0.06533216,0.0660431758,0.07065483,0.0200631246,0.024698073,0.0379635245,0.0200488754,-0.02919991,-0.0246232618,0.002541231,0.0003742152,0.000402226142,0.00119684567,-0.002585664,-0.003334693,0.03022062,0.05913818,0.0933075547,0.110825494,0.1141501,0.123163342,0.109342694,0.101754032,0.0973541,0.0371986367,0.0451408923,0.0575118065,0.0331250243,0.01339082,0.06504203,0.107000291,0.04803998,0.0705698356,0.0481513739,0.009833164,-0.020308828,-0.01438336,-0.00152471976,0.001709802,0.00115698285,0.002452178,0.00206848932,0.0008739399,0.05752064,0.107556328,0.11585737,0.13973029,0.124993175,0.134076059,0.117303468,0.06514681,0.03899029,0.0163762514,0.0750238448,0.0981646255,0.070354946,0.0358143561,0.07314797,0.04705824,0.087979354,0.0594111979,0.06749769,0.020902805,0.0183675028,0.009214243,0.013092543,-0.000450118736,0.00129463244,0.002079627,0.000308362854,0.0151700014,0.06501937,0.100635231,0.08481992,0.09142634,0.0614870973,0.0476238653,-0.000256973319,-0.0792407542,-0.0890922546,-0.0441735,0.024097288,0.100139812,0.103090756,0.09930555,0.07073384,0.08214258,0.0781227052,0.07642047,0.0284328349,-0.002391086,-0.0036993036,0.0133829992,0.0129478211,-0.00216316851,0.0009829827,0.000379308971,0.00205234834,0.01102953,0.0551181324,0.0536378622,0.0229284521,0.0126622068,0.009928894,-0.02530062,-0.12645787,-0.107305333,-0.09677147,-0.009886341,0.0524680875,0.154179931,0.147887364,0.116762526,0.06851531,0.08354556,0.116530292,0.0199561883,-0.0479376,-0.0662379,-0.05791585,0.0062369355,0.00211647712,-0.00289277546,-0.000314294826,-0.00303775887,0.0009393518,0.0133509189,0.04468104,0.0203754567,-0.0008978365,-0.0445823073,-0.0401953,-0.0720388,-0.1221128,-0.111140065,-0.0501112863,0.0753071159,0.1318488,0.0785979554,0.130637214,0.122059532,0.0562607571,0.07852739,-0.003223408,-0.0555269867,-0.08229688,-0.103865072,-0.09275519,-0.009465111,-0.002652304,-0.000533759245,0.000588698837,-0.0045160614,0.00178536936,0.016007442,0.0141732916,-0.0167430267,0.00646789931,-0.0336279869,0.0138870748,-0.0438487567,-0.0851841941,-0.0247849114,0.0372913629,0.120273329,0.153414115,0.09379465,0.12034452,0.0878055841,0.0206007827,-0.0236647073,-0.110669531,-0.09275512,-0.05908293,-0.121526338,-0.128344014,-0.0324438959,0.00255227019,-0.0008647408,0.00061520224,-0.0029018533,-0.0027940094,0.0049649314,-0.0112960879,-0.0155730033,0.0324199125,0.0391617045,0.05128209,0.0293473713,0.005649341,0.0341955721,0.14959155,0.1802899,0.166617751,0.119308889,0.13600044,0.0409193747,-0.03965631,-0.118230157,-0.119692259,-0.06152378,-0.0764742,-0.111414135,-0.105122678,-0.038872622,-0.005045767,-0.000376504118,-0.0006285637,0.0007717323,-0.003185508,-0.0135291191,-0.0356608,-0.0277742241,0.0229763184,0.0334291868,0.07054921,0.08799209,0.04770454,0.09304232,0.191588074,0.2377517,0.209722281,0.134040236,0.0415106751,-0.04062546,-0.0538189262,-0.119113274,-0.08376917,-0.07524953,-0.09943734,-0.09261034,-0.0524628,-0.0334553272,0.0015551137,-0.000820647052,-0.00284023723,-7.036574E-05,-0.00499487,-0.03161805,-0.06731231,-0.0520037673,-0.00623403629,-0.004050069,0.0315277539,0.05006227,0.04612312,0.08149708,0.0937678,0.117198221,0.06612232,-0.04344466,-0.128554776,-0.149508834,-0.118522428,-0.102104396,-0.07289272,-0.142017066,-0.142043352,-0.09059031,-0.0543328561,-0.0288845412,0.003120733,0.00107688888,0.00157472922,-0.002840815,-0.00197392912,-0.042911835,-0.09406086,-0.0879750848,-0.0735204,-0.0849766359,-0.07984865,-0.09631433,-0.130616516,-0.201530159,-0.221648157,-0.1653187,-0.173653871,-0.18883653,-0.165350884,-0.181479335,-0.152830958,-0.137363911,-0.164736673,-0.176208347,-0.143971443,-0.06517855,-0.0306977741,-0.008469327,-0.00110443251,-0.0005818257,-0.0002679378,-0.0035715804,-0.00476297131,-0.0525434352,-0.10764268,-0.136926532,-0.119860858,-0.1500385,-0.18749848,-0.2515763,-0.275985032,-0.318119049,-0.3296882,-0.284148544,-0.255399585,-0.176078349,-0.141905621,-0.113856085,-0.141972587,-0.103627548,-0.128034428,-0.11689616,-0.07983882,-0.0395985842,-0.0112395594,-0.00482899742,0.00184764853,0.0005563693,-0.00147279992,0.000192161722,-0.007192124,-0.046859093,-0.0784457549,-0.08198668,-0.09371776,-0.125130966,-0.152519032,-0.168195441,-0.201713681,-0.195850983,-0.189933315,-0.142600313,-0.109878421,-0.08269139,-0.07215491,-0.03592058,-0.0269533079,-0.0276377872,0.00662305765,-0.00141836354,-0.02508656,-0.0222179461,-0.006090819,-0.0030208372,-0.000331301475,0.000545956,0.0005370736,0.00113236008,-0.004002849,-0.0262781959,-0.04264359,-0.0409742929,-0.0475717969,-0.0373926274,-0.0553290769,-0.07726968,-0.06523333,-0.036494907,-0.0206498466,-0.0262728222,0.0136756217,-0.0159806255,0.0008219105,0.06073303,0.09336912,0.06560534,0.0806764141,0.04445556,-0.002933603,-0.0112543,-0.00103629229,-0.00587798934,-0.00191928656,-0.00149223,-7.28783E-05,0.00128471013,-0.00346771581,-0.0207051374,-0.0355153121,-0.04564482,-0.0305399559,-0.0287129078,-0.0357091837,-0.0485580079,-0.0361530147,-0.018379664,0.04024562,0.0427536368,0.0387880169,0.0534765981,0.08731043,0.08890351,0.0890531242,0.100232318,0.09377806,0.0497482419,0.00715013361,-0.002561482,-0.00692087,-0.005793396,0.00330715487,-0.000250352459,-0.000849925855,0.00182169385,-0.00433909846,-0.0143557694,-0.0216113385,-0.009071673,-0.00737342425,-0.01851588,-0.0115632163,-0.0129690059,0.00616307044,0.0338531472,-0.0162990615,-0.0259346813,-0.01368091,0.023249194,0.02166214,0.02668267,0.0454992726,0.0880634,0.06644383,0.0325245671,0.00287897349,0.006054355,-0.009352433,-0.000544300361,5.406037E-05,-0.0002380051,0.000269590237,-0.00125042489,0.0005404554,-0.004672324,-0.00101285509,0.008118895,0.009282903,0.01652971,0.0327821933,0.04429716,0.0618924,0.0588570759,0.06256161,0.0559974574,0.0745509937,0.0634770542,0.0292895027,0.0242533367,0.0232631881,0.018800851,0.0309153516,0.01845285,-0.000353596464,-0.00145388918,-0.00196606573,0.00102465507,-0.00133330945,0.00088769244,0.00115501857,-0.000319418032,-0.0006721312,-0.00115013577,0.00037164017,0.004999541,0.0107817259,0.0122638931,0.0176453218,0.0284960326,0.0144424168,0.009261624,0.00209085573,0.00302442536,0.0143185835,0.005989633,0.00557176257,0.010417819,0.00565876765,-0.00147276791,0.00606203033,0.004066128,0.0019219449,-0.000249337958,0.00188066042,0.00288210879,-5.10794744E-05,0.00154798909,0.0016286507,-0.00226231827,0.00136934721,-0.000616241654,0.000975840143,-0.0005130835,0.00065321,-0.000385083549,-0.0005161921,0.000248632743,7.703887E-05,-0.000359703263,-0.00162243634,-4.621745E-05,0.00142681785,0.004277862,0.000226358854,0.00112106116,0.0005391323,0.004803058,0.00175727345,0.00160467392,0.00152265071,0.00164206617,0.000339754944,-0.00100695447,0.000827402051,-1.10882763E-06],[-0.000189926708,-0.00114324433,0.002578893,-0.00191475335,-0.00101496885,-0.000111414,-0.0009099944,-0.00148876966,-0.00301075,-0.00171597325,0.0024155844,5.30180223E-05,-0.00163099,0.00156860112,0.0015465027,-0.00178531965,0.00107687584,0.000736171845,0.0014860814,-0.000110444213,-0.0007441825,-0.00115749775,0.000745531346,-0.0001127733,-0.000370490743,-0.0004620154,-0.000525648065,0.002103357,0.0004403622,0.00156747212,-0.00192984822,0.0006993104,-0.00199026568,-0.000780325965,0.0026783,0.004485031,0.00772323925,0.00443761749,0.007078559,0.01280335,0.0141759627,0.004336405,-0.00429229531,0.003953671,-0.00164508075,0.003437388,0.00345623214,0.0044210786,0.00294881267,0.00241379184,0.00346233114,-0.000924380438,1.0190307E-05,0.00312924688,0.000507056131,0.000147386338,0.002538424,-0.00261783972,0.0009812874,-0.000931212038,2.325864E-05,0.000315277081,0.00258224341,0.0159594174,0.01965227,0.02093683,0.03737861,0.0440324061,0.0468742326,0.03266249,0.0135623245,0.00656547537,0.00344572845,0.00365573121,0.0111405337,0.017624395,0.009155454,0.009646858,0.0113905324,0.007158961,0.000266449555,-0.00248328084,-0.0006743987,0.00233118143,-0.000890863,0.00188477128,0.0005851831,0.00083404,0.00253860047,0.0018826212,0.0104551017,0.0235221274,0.0355160646,0.0464373045,0.0626954362,0.05660492,0.0609634221,0.0355694033,-0.0187175814,-0.0479932427,-0.08409854,-0.09337109,-0.0591861531,-0.0153626483,0.0181573816,0.0305212,0.02280759,0.0166434739,0.007451477,0.0003032521,-0.0009744631,0.0007703989,-7.3586416E-06,0.00166106212,-3.21516054E-05,-0.00123398,0.00179415452,0.00499239564,0.0132221524,0.023843769,0.04080509,0.06428854,0.0709989741,0.0791261941,0.06733001,0.0137944641,-0.0139178708,-0.0375526957,-0.108161166,-0.130565777,-0.135808975,-0.0882091746,-0.05482208,0.0240995027,0.0120974965,0.0244436227,0.0135372421,0.00336387265,-0.00135144184,0.00324707548,0.00145434518,-0.00133664685,-0.002883162,-0.0027699112,0.0067297183,0.00369911664,0.0241060164,0.0434154421,0.05785732,0.0869335,0.108944483,0.1317758,0.117637411,0.101155676,0.0825204253,0.008246161,-0.06672461,-0.116107643,-0.214346915,-0.176219925,-0.12035013,-0.0407885276,-0.0143611077,-0.014129878,-0.006467358,0.0005780002,0.009503594,0.005532211,0.000455771136,-0.000943892461,0.00253441744,-0.003230522,0.00695775123,0.0102422768,0.0327843055,0.0525602438,0.0567884929,0.0455801636,0.0731684044,0.10478849,0.101597525,0.10466487,0.112209663,0.0801086,-0.01048948,-0.1703215,-0.265219,-0.261285722,-0.201432258,-0.110928014,-0.0183614232,-0.00371291069,0.0182277579,0.0192330759,0.008165676,0.004511605,-0.0007699991,-0.00153608667,-0.00503665628,-0.007697279,-0.00473691057,0.008375362,0.0110712992,0.0186530519,0.0463384055,0.04720929,0.0540062822,0.06376417,0.0394665971,0.0675153,0.1635375,0.211956441,0.109389916,-0.114156492,-0.321700066,-0.330330253,-0.246561185,-0.164760187,-0.09373244,-0.00383468647,0.0417465121,0.0523808,0.00706146657,0.00232381118,0.00151281327,-0.0005501564,0.000200141469,-0.006428144,-0.008252378,0.0073102545,0.00149964681,-0.0230990648,0.0108185709,0.0546890125,0.02825487,0.000519138644,0.039071165,0.09542767,0.2619466,0.378605843,0.204705238,-0.167865351,-0.4084364,-0.35969165,-0.218019247,-0.165569291,-0.156961873,0.00139956211,0.124592826,0.0610191263,0.012244815,0.00134562666,-0.0011614816,0.00018736755,-0.00283524115,-0.0126197273,-0.00628953474,0.006266478,-0.0126520293,-0.02902929,-0.007194657,-0.02076646,-0.0609075055,-0.01179686,0.0254367441,0.155844077,0.394845039,0.4746739,0.1874257,-0.25531137,-0.447154552,-0.334453553,-0.21029985,-0.184678346,-0.1647311,-0.009411632,0.154714122,0.09246111,0.02163602,-0.000123313614,0.00141649612,-0.00203737943,-0.00187282136,-0.014596574,-0.0121103432,-0.0111495489,-0.0308578033,-0.0298912879,-0.0210144073,-0.02123861,-0.0200603791,-0.01902208,0.0384717733,0.221467271,0.448203743,0.407495648,0.0708404,-0.3110492,-0.3982598,-0.2971519,-0.190950692,-0.177964047,-0.157995731,0.0163548626,0.14531073,0.08814021,0.0206084643,0.000127414183,0.00100695493,-0.00283346768,-0.005863579,-0.0182378516,-0.03442708,-0.046686653,-0.0272015333,-0.0120490249,0.00367124146,0.0038517348,-0.045039203,0.0110067464,0.09632247,0.247202471,0.349786252,0.227758452,-0.018747976,-0.242693752,-0.2570462,-0.2103039,-0.221591368,-0.16922006,-0.108727083,0.0553832948,0.12080276,0.0607090741,0.0116602676,0.0006691595,-0.000105674466,-0.000204605647,-0.005915415,-0.009783809,-0.0279786251,-0.0377962142,-0.0102261752,0.0246158559,0.01924575,0.0396049321,-0.0433823355,0.0148672285,0.07064088,0.2066026,0.234454453,0.157956585,-0.0120191639,-0.123100691,-0.1420968,-0.163313717,-0.175406009,-0.153388083,-0.0888103247,0.0439485237,0.0589104779,0.0285482872,0.00412486028,-0.0008660444,-0.000650042552,0.0008608792,-0.00423862133,-0.004669583,-0.0195284579,-0.0241245721,-0.0337987021,0.0263053942,-0.00771782547,0.006550094,0.034901157,0.03751381,0.0956468061,0.131174728,0.119926222,0.154588491,0.046116773,-0.07478248,-0.125934243,-0.108818293,-0.130157292,-0.128590241,-0.0308216456,0.0780498758,0.05094541,0.00307872053,-0.004723932,-0.00154943042,0.00012309436,-0.000286878785,9.842377E-05,-0.00153301738,-0.0216216389,-0.0210503265,-0.0571117625,-0.0555468351,-0.0264211055,0.0009155675,0.0443323031,0.055438336,0.0123094749,0.087411806,0.09516241,0.104644537,-0.000133297275,-0.113725558,-0.136894554,-0.13462092,-0.09136857,-0.04828684,0.02488742,0.09743903,0.0494812466,-0.00714688143,-0.0003566025,-0.00138277747,0.00120323792,0.000311416341,-0.00195371243,-0.00985657051,-0.0219259541,-0.03402492,-0.041352924,-0.0226755422,-0.0180078726,0.00372580718,0.0291446019,-0.0167799331,0.008603193,0.028720459,0.09412778,0.0180484485,-0.0612284,-0.118718922,-0.1342744,-0.1602828,-0.04346799,0.02183494,0.0472503565,0.100437179,0.07037828,0.0139801083,-0.00107412366,-0.00404141936,-0.00155907939,0.000387543871,-0.005851971,-0.0126661751,-0.0244166311,-0.0389928,-0.02377462,-0.0304554626,0.0213367473,0.021113066,-0.00675039366,-0.008265752,0.0039006006,0.0122600468,0.0663820058,-0.0304750912,-0.08238809,-0.134958968,-0.122263923,-0.09630625,-0.009026439,0.0166923534,0.05390626,0.094125554,0.06106801,0.0135478294,-0.004729697,0.00169779768,-0.0005152183,0.00186710991,-0.009923464,-0.018028181,-0.0507673956,-0.0464744568,0.0005931313,-0.0103480928,0.006105311,0.03325055,0.0144767324,0.00230821385,0.008603562,0.0316686779,0.08756028,-0.0101889633,-0.05010093,-0.0258608721,-0.0286825411,0.0154848872,0.06346905,0.0118642254,0.06697416,0.0951674357,0.0586766563,0.00674949,-0.0018524687,-0.00220915535,0.00042491054,-0.001754458,-0.00648875628,-0.03638482,-0.0382819064,-0.04639869,0.000961228856,0.039857503,0.0441267155,0.0419453532,0.01939934,0.0115788151,0.043421302,0.0520526133,0.06121139,0.006758675,-0.0231112335,-0.0103226043,0.01484533,0.03966344,0.067814216,0.0191613231,0.0549894944,0.07722514,0.03739981,-0.00106160715,-0.00156482833,0.000396701333,0.000524942,-0.00150072936,-0.00364237418,-0.03872051,-0.0438194647,-0.0338356942,-0.03450353,0.00366391521,0.0118737444,-0.0409484655,-0.0251766853,0.008492483,0.08917338,0.0693598,0.0656306,0.015056747,-0.0515038259,-0.0228793379,0.0262095015,0.0287958384,0.05236349,0.02652504,0.0467180423,0.0290092584,0.0123662073,-0.002027634,-0.00190318353,-0.000858170562,-0.000874403864,0.00163603423,-0.00298303366,-0.04991683,-0.046277076,0.00356768118,-0.0446884632,-0.0364257619,-0.010880976,0.00559262931,-0.008001583,0.03434001,0.07090531,0.06665974,0.04309297,0.0089642955,-0.0431767963,-0.00294363569,-0.00509335659,-0.0119322333,0.00330147753,-0.008275707,0.02951022,-0.00447593257,-0.0127393138,-0.00187353161,-0.00331067969,-0.00161056046,9.378035E-05,-0.00281293388,-0.00816781,-0.03145264,-0.0270934533,-0.0268469919,-0.0354348719,-0.0177249331,-0.06068024,-0.0421388373,-0.02149296,0.0293413028,0.0149525143,-0.00253280229,0.0478476919,0.059395805,-0.044395864,-0.03854074,-0.0150185628,-0.0194058139,-0.00454363134,-0.014381553,-0.0158132073,-0.01921256,-0.0214493517,-0.00162593089,-0.000209709251,0.000306845875,-0.00195256784,0.00151756266,-0.0051994645,-0.0143517889,-0.0223464053,-0.0278700087,-0.0554098822,-0.0221681353,-0.0785981938,-0.07088049,-0.0294060968,-0.00340449763,-0.00253347447,0.03451147,0.0241365638,0.008819873,-0.005186623,-0.0427154861,-0.014516646,-0.04084384,-0.041266,-0.05098479,-0.0326901,-0.0125828134,-0.007780256,-0.0007041925,-0.00103646086,-0.000578788458,0.00259775,0.000925449945,-0.0009091089,-0.008033834,-0.0117127877,-0.0195249654,-0.0454530641,-0.07233369,-0.0288330819,-0.0166840516,0.0249422658,0.04545334,0.0724184,0.0576683246,0.0363671966,0.00488819275,-0.00457317429,-0.02746977,-0.07381889,-0.06540842,-0.0470354445,-0.0485276431,-0.0355176255,-0.0187312216,-0.006193892,-0.00364601123,0.0005043052,-0.000751941,0.000657706463,0.000299160543,-0.00403664075,-0.0011761894,-0.0218856391,-0.03562431,-0.0697155,-0.03545718,-0.0134954136,0.00939645153,0.000300542742,0.03809543,0.0655371845,0.0475553162,0.0148859927,0.00169972715,-0.0166650023,-0.0190668628,-0.011613084,0.00384507049,-0.0214976426,-0.0259846263,-0.009362686,-0.00635524048,-0.00225696457,-0.00132435793,0.00305917882,0.002196463,-0.00176377711,-0.000736419752,0.00103529834,-0.0009895465,-0.0138679892,-0.02845673,-0.0403718427,-0.0399013273,-0.04532747,-0.0362736769,-0.0147498064,0.00527099147,-0.00690430636,0.0135904737,-0.0131816575,0.0264141411,0.0379963927,0.0503307544,0.0470153,0.03432706,0.008486898,0.01074995,0.0123823853,0.00501351757,0.005088242,-0.0022740853,-0.00138238759,0.00193872023,-0.0004094965,-0.0009062132,-0.00354354922,0.00070284924,0.00116419047,-0.00586606562,-0.0119733335,-0.0103191687,-0.007914437,-0.007930345,-0.001627048,0.0228511449,0.021208141,0.00195889338,-0.0117112305,0.00231807167,0.0124951527,0.015668707,0.0132054435,0.0111973742,0.005298883,-0.0015756737,-0.00512346253,-0.0023472,0.0008333191,0.000681751349,0.00193009432,-0.00127806468,-0.0004746347,0.00167160272,0.00202867179,0.0009123883,0.00192658638,0.00158756494,0.000556457031,0.00102793681,-0.00252405019,0.000430518761,-0.00092656113,0.004016612,-0.001572026,-0.004892375,-0.00654030126,-0.00531630637,-0.00314916414,-0.00450326875,2.82129677E-05,0.00029082445,-0.00294002518,-0.00392460637,-0.00620562769,-0.00058085355,0.0017609857,-0.0008628955,0.000934084237,0.00134656276],[0.0008229129,0.0013170212,-0.00177990412,-0.003944619,0.001107731,0.0006992832,-0.00190889835,0.002232689,-0.00105495413,-0.0005797118,-0.000166713522,0.00265915971,0.00203549885,0.000138031013,9.359639E-05,0.002591232,-0.0002784759,0.000631956034,0.000518399349,0.001435295,-0.00142666511,-0.0011560187,0.0006551517,-0.000905765453,-0.0006691556,-0.0011926468,0.00177492818,0.002412102,0.00244991155,-0.000184911158,-0.0009324992,1.93934375E-05,-0.003499997,0.0004870417,0.001771737,-0.00230802735,-0.002685809,0.00102705171,-0.003137652,-0.005968748,-0.00840652,-0.00368928956,0.00112911745,1.38143077E-05,0.000639787468,-0.00129656924,0.00167646946,-0.00469656242,-0.0029965,-0.0025543978,0.00196855352,0.00156252284,-0.00291158073,-0.00226388359,5.867373E-05,-0.0007048595,-0.00106947322,-0.000452597858,0.001142953,-0.0009697896,9.01885942E-05,0.00173353928,0.000218298868,-0.00173163123,-0.00512991846,-0.009173982,-0.0135966372,-0.0208334886,-0.01589578,-0.009927833,-0.0167276915,-0.0194984768,-0.0184693485,-0.0190032162,-0.031065166,-0.0305912532,-0.01672788,-0.013302397,-0.007343931,-0.00280064857,0.00146939047,0.00336219743,0.00140773156,0.00115509331,0.00278383167,0.00150122412,0.000215083011,0.000403284823,-0.00374260917,-0.00150950823,-0.00326081039,-0.00760925375,-0.0137004526,-0.009442838,-0.0192161761,-0.02108504,-0.0159717,-0.025791306,-0.04664475,-0.0361483581,-0.04684003,-0.07598237,-0.07949932,-0.0611890852,-0.04516534,-0.0259401761,-0.0148880528,-0.02194011,-0.0133798216,0.00182886107,-0.000296344719,0.00118341984,0.00241121929,-0.00117332186,0.000252145575,0.0005452428,-0.00523172552,-0.00411762949,-0.00503343949,-0.02166122,-0.0413451865,-0.04334219,-0.04098248,-0.0164284576,0.0130111538,0.03113026,0.03257383,0.0267939847,-0.009567973,-0.0496543944,-0.0444235839,-0.0402876474,-0.0228740927,-0.0126359062,-0.009218439,0.0006376074,-0.00119776081,-0.00554313743,-0.00405875,-0.0017495302,-0.000626995345,0.00249915151,-0.000597991457,-0.00322944345,-0.002061034,-0.00221737428,-0.0136157768,-0.0219137166,-0.02207249,-0.0119940145,-0.0134088136,0.0295635238,0.05362709,0.07979953,0.06516948,0.0559819676,0.00675348053,-0.0823925138,-0.0431312472,-0.08358785,-0.0746205151,0.00259041018,0.021994004,0.02787663,4.135182E-05,-0.0117805554,-0.003676688,0.0007658068,-0.00123156467,-0.00127166579,-0.0009707119,0.0026213422,-0.00284887035,0.007895714,0.0130632157,0.008491625,0.0004725153,-0.00519402325,0.00262265769,0.0121005028,0.0246048719,0.0179197229,0.0266433153,-0.0305315331,-0.0303227548,-0.009540312,0.000389655877,-0.008715242,-0.027750615,-0.001686911,-0.0260901637,-0.0182250328,0.00376460026,-0.008286203,0.001969017,-0.0009262722,-0.000546590541,0.00174395414,0.004724637,0.0125586847,0.00257077278,-0.00237717177,0.009980617,0.0127856741,-0.00896342,0.008400074,-0.0389770679,-0.06334252,-0.0401176438,-0.0137816425,0.007452766,-0.0762913451,-0.0151772164,-0.0251018833,0.018040495,0.03617451,0.0466501154,0.0274593588,0.02335781,0.00305697764,-0.009482048,0.003493406,0.00514843967,-0.0006939782,-0.00185267231,-0.0004880979,0.00458868872,0.0146198748,0.0214195549,0.0207252745,0.0268857554,0.0510090776,0.0432198346,-0.003854904,-0.0194964111,0.0112007232,-0.015534536,0.0196885616,0.0541696846,0.0234461054,-0.0722854957,0.005043317,0.0190992635,0.03669689,0.0235492662,-0.006409471,0.0358466245,0.03795347,0.02065278,0.0243076421,-0.000697668642,7.239743E-05,-0.000102355167,0.000545015151,0.0120790051,0.0220380835,0.0371281728,0.05999592,0.0757748038,0.0823102742,0.0529921949,0.06581793,0.0458434224,0.0658319741,0.08264163,0.130926147,0.185431212,0.164972231,0.08980227,0.06536976,0.0440869071,0.0266349148,-0.018281782,-0.0119738011,0.003754034,0.000857896637,0.0264426414,0.0250976346,0.008003155,0.008911978,-0.0007108593,0.00276898174,0.0162084289,0.015460575,0.0461847447,0.08731206,0.09114824,0.08826067,0.06637613,0.09070168,0.1285387,0.119148672,0.121470377,0.24208,0.263171136,0.2991877,0.173474684,0.08206199,0.032508757,0.06266398,-0.038602937,0.00439069141,-0.0418683924,-0.0560733452,0.0126387887,0.03848179,0.0172586646,0.003331379,-0.00112170109,0.002285836,0.0155949285,0.0144868782,0.0522974022,0.05907961,0.0496084727,0.06928792,0.0489519425,0.0735740438,0.03355489,0.008620775,-0.0108584259,0.04441816,0.164606869,0.221245289,0.1141832,-0.009565171,-0.008568367,-0.0527447164,-0.06954614,-0.06671252,-0.102827057,-0.09951213,-0.04970768,0.0192242414,0.00509541668,-0.0002834167,-0.00046894062,0.003448908,0.0134609407,0.00354958023,0.0107206749,-0.028844811,-0.0596331954,0.01751693,0.05372283,-0.0171242654,-0.150332615,-0.263086915,-0.282807559,-0.260560334,-0.0909512639,0.003799873,-0.0372299179,-0.08230365,-0.044649452,-0.100459978,-0.0980914,-0.140115723,-0.167695954,-0.160081312,-0.0754207149,0.0232310183,0.0218844712,0.002202731,0.00299807638,0.00126001681,0.0127988877,-0.0135660069,-0.0451511033,-0.110504925,-0.148314267,-0.136649564,-0.117770083,-0.186172038,-0.2920764,-0.399026483,-0.4330988,-0.330879748,-0.1754101,-0.16100581,-0.1378405,-0.08786892,-0.08344721,-0.098053284,-0.08268467,-0.134931475,-0.141088739,-0.125551239,-0.0578850023,0.0256082471,0.0200260039,0.009507707,0.00138523988,1.05456513E-06,0.00525600556,-0.0210608244,-0.0815652162,-0.188634858,-0.2650131,-0.26379472,-0.264928281,-0.317403436,-0.3296429,-0.350137055,-0.276861042,-0.210385665,-0.11666213,-0.133418679,-0.110890694,-0.123383254,-0.0426973663,-0.0189918131,-0.07011469,-0.07955829,-0.050442975,-0.0769076943,-0.06440285,0.00533989351,0.0127748353,0.001784876,0.001722352,-0.00115897227,0.000843327434,-0.0173759852,-0.0979714543,-0.250107676,-0.2787052,-0.3089412,-0.284745723,-0.286075115,-0.224263057,-0.114225551,-0.0299260486,0.008417452,-0.05403879,-0.111082785,-0.08335852,-0.112353794,-0.04287787,-0.06793499,-0.07964738,-0.0271477867,-0.05969967,-0.08125222,-0.0356010459,0.0071884566,0.0191404857,0.00331666763,-0.000301619817,0.0005682848,0.0003031168,-0.018150989,-0.112678327,-0.241728351,-0.224375531,-0.211457923,-0.171905443,-0.09441,-0.029569475,-0.0537455,0.05404697,0.08722244,0.0147464164,-0.0415100753,-0.0516416356,-0.08984692,-0.0778695047,-0.05606576,-0.05999059,-0.01870838,-0.0579439178,-0.0625808239,-0.0172868352,0.0203754269,0.01948962,0.00608790759,-0.0005151363,0.00183613447,-0.004877511,-0.0190845337,-0.08128073,-0.139916986,-0.1020947,-0.0766755939,-0.0382813066,0.02172512,0.041772183,0.0312315635,0.08745015,0.09429574,0.108684272,0.04499363,-0.0378403254,-0.0773014054,-0.0646130145,-0.08755827,-0.0765629,-0.0412245467,-0.04418484,-0.0273467619,0.02446951,0.0430178121,0.0124330949,0.000348970556,8.69644646E-06,-0.00125722424,-0.0007908465,-0.0129105775,-0.04314096,-0.0469535775,-0.0241278987,0.0214421172,0.0334968753,0.05029462,0.039023567,0.07413463,0.127880976,0.142205283,0.172258511,0.0500278175,-0.06061739,-0.0762565956,-0.08448137,-0.06555344,-0.06749935,-0.03969008,-0.02809891,0.0160417017,0.0662556961,0.04196525,0.0127015477,0.00417911867,-0.00273041427,-0.0007039983,0.00272904569,-0.01237202,-0.0109773017,-0.0300202426,0.029011948,0.0513803773,0.0445771143,0.0672940761,0.0143619953,0.0361433923,0.09189355,0.229386866,0.17208679,0.0622538663,-0.01219248,-0.07624276,-0.08089786,-0.0349895768,-0.05382487,-0.0500360653,-0.03697427,0.0430653132,0.0580374859,0.0383410938,0.008693799,0.0018792433,-0.001427511,-0.00223588245,-0.00227744342,0.00569465524,0.00163422257,0.00169512152,0.0498523265,0.047572244,0.111327723,0.108161256,0.0338437781,0.0758445859,0.116218075,0.113491751,0.0675144345,-0.01751438,-0.0221550651,-0.0349484459,-0.0283419434,0.00154763239,-0.0450822264,-0.02580447,0.00202632672,0.04844015,0.048204504,0.0160953123,0.00452247169,0.000397193653,-0.00153054809,-0.00312914187,-0.000422968471,0.005091159,0.015786089,0.05844795,0.04893639,0.04433263,0.105028778,0.123536766,0.0997299254,0.06680146,0.06009972,0.03418021,0.0243887138,-0.014518992,-0.00353428232,-0.0123064658,0.0191495977,-0.00127072621,0.000223561583,0.0315983854,0.0222992,0.0455019064,0.04040433,0.01648639,0.00221909373,0.00157875556,-0.00104039442,0.00105630711,-0.00133655057,0.000155497168,0.02653956,0.07671742,0.07379859,0.09409379,0.09625065,0.129719123,0.07757608,0.0114337765,-0.0346189365,-0.05648818,-0.004559664,-0.0121116769,-0.004474435,0.0119162984,0.023799628,0.0160140283,0.0256592538,0.03520819,0.00394316856,0.0109501891,0.02015787,0.0119341491,0.00149318657,-0.00262573967,0.002062224,-0.00231050141,-0.004064456,-0.0117226662,0.0101811383,0.047780633,0.06421188,0.0396124944,-0.00750763528,0.04371139,0.0231357161,-0.008442494,-0.0203902889,-0.06739858,-0.06543284,-0.0561682656,-0.0128770778,0.0146969417,-0.0124331322,0.006911044,-0.00212200033,0.004384067,-0.017446721,-0.0102693234,0.0084046945,0.008482711,0.0056101284,-0.0005831843,-0.00102436182,0.00203830749,-0.00622773636,-0.012011555,-0.0072744973,0.0159641188,0.0173099041,-0.019929735,-0.0557900369,-0.05561145,-0.09493976,-0.107947767,-0.0832656,-0.06539059,-0.06749669,-0.08789802,-0.09083444,0.0105213979,-0.00565501535,-0.017778717,-0.027154319,-0.00303929555,-0.0250680968,-0.01664832,0.011620095,0.007882583,0.001877231,-0.00147995225,0.00177920656,0.000904554734,-0.00228061946,0.002006508,0.0115830684,0.00464193849,-0.0178759079,-0.0249747559,-0.0101802936,-0.0210943334,-0.0660131052,-0.02278412,0.0182028282,0.00832762,-0.0180039387,-0.00483801076,-0.011965014,0.01454376,0.0112652769,-0.019435076,-0.0290797371,-0.004968976,-0.0055841133,-0.009378888,-0.00126780488,0.0029685467,0.00119326636,0.00256958883,0.00091536477,-0.00162197754,-0.0009778059,0.00118763116,-0.004467062,-0.0130218025,-0.0234566089,-0.023240868,-0.0132632162,-0.011326937,-0.00491590425,0.0189715773,-0.002260397,0.0116354376,0.00494164135,0.00638752431,-0.007279898,-0.00140299241,0.009847607,0.0186422635,-0.00400546053,-0.003418341,0.00125190744,-0.00319552817,-0.00105657347,0.00105030567,-0.001511073,-0.00108812156,0.0004956902,0.00312394951,-0.000384120969,0.00067371066,-0.00391518325,0.000128124826,-0.00116018055,-0.001395954,0.000909067865,0.0005034351,0.00594908139,-0.002729485,-0.00316622318,0.0117195826,0.005796394,0.00240938482,0.00501351,0.0108032972,0.003777585,0.00497688539,-0.00261184713,0.00712169753,0.000928610447,0.002983027,-0.001010352,0.00139403739,8.400276E-05,0.00122764544],[0.00129095349,0.00107195287,9.637717E-05,-0.000801325252,0.00109380216,6.53257957E-05,-0.000522561662,-0.0009310866,0.000428325,0.001415876,0.00102139835,-0.000393016,-0.0007264129,0.00102265389,0.00116365356,-0.00138335023,0.000656950753,0.0006299381,0.00179855991,0.000166125043,0.000453373767,0.000619284,0.00162972778,0.00162767584,0.00134312327,0.002382567,-0.000119270037,0.00106076675,0.0016942675,-0.0009236962,0.00146690651,0.00165118254,-0.00107476325,0.00142640981,-0.00300457259,0.00192319765,0.000407021347,0.000799775,-0.00242246175,0.00226731854,0.00126702827,-0.0004014666,0.00161215186,0.00173089921,0.000217385517,0.00173879624,-0.0006444247,-0.00142938388,-0.000312548684,-0.00190668262,-0.001234266,-0.000499387155,0.000278545136,0.00181195838,0.0001295367,-0.00286825,0.00301014283,0.0008753636,-0.00111777079,0.00212400244,0.00148345844,0.00128579279,0.0007478764,0.00182732777,0.000768573838,-0.00376691832,-0.000357765646,-0.004780774,-0.007605553,-0.00315425941,-0.000450450316,-0.00257580844,0.004555338,0.0112755736,0.009777155,0.008164709,0.00301823253,0.0008165718,-0.0012775684,-0.0008597039,0.00104447838,-0.00253424165,0.000291731063,-0.001636017,-0.00178798428,-0.000211141858,0.000540034147,0.000234171748,-0.00168840494,-0.00245875563,-0.00350758014,-0.006384694,-0.008130618,-0.009166842,-0.0144673763,-0.03964607,-0.04663518,-0.04045825,-0.0199934728,0.006695604,0.02667453,0.0322971679,0.06021297,0.06477821,0.0436111353,0.0274529718,0.00595791172,-0.00698405551,-0.002459652,0.0008559594,0.00356361736,0.001163278,5.47391537E-05,0.000264930975,0.001343955,-0.00146922446,-0.00522993738,-0.0220161024,-0.0418834835,-0.0529255755,-0.0715998262,-0.0556667633,-0.0608349852,-0.08415792,-0.09482786,-0.07610857,-0.0234257225,0.0526254736,0.124537811,0.170833543,0.169905335,0.113626294,0.0839566737,0.102599278,0.0770644,0.0497145243,0.0191371683,0.00546466,0.00455210637,-0.00159375835,-0.00202523987,0.00381054729,-0.0003122485,-0.008735906,-0.0262854025,-0.0578301772,-0.09416206,-0.09432118,-0.0781564042,-0.0288453922,-0.0189583246,-0.0445636846,-0.06543649,0.0383896,0.07639884,0.0451586768,0.122859277,0.208972171,0.244474471,0.1530706,0.09621694,0.108235121,0.125411,0.104777172,0.0412838645,0.0130287837,0.00735294772,-0.0006755721,0.002168677,0.000295457081,-0.00133753556,-0.0202923976,-0.04687143,-0.0616045743,-0.108351894,-0.07480508,-0.0471302271,-0.0227424875,-0.005290555,-0.055900272,0.018870119,0.0950423,0.130632371,0.0722596347,0.0698691756,0.123389222,0.164675832,0.183508322,0.0879721045,0.07874947,0.08471575,0.06532475,0.0582452677,0.0282534044,0.009211404,0.00188500516,-0.000785283162,0.00372915249,-0.004244258,-0.0180185288,-0.06397795,-0.07838656,-0.06991275,-0.0146084707,0.0134690078,0.03598335,0.0306981429,0.0578667633,0.110824019,0.153262466,0.220086247,0.160984412,0.251069278,0.235619143,0.243395776,0.187993765,0.123629056,0.0565882139,0.0248120744,0.03605702,0.03632371,0.0280517,0.00649158331,-0.000507678429,0.000214551445,0.0025477428,-0.00108035014,-0.0140481638,-0.0770423561,-0.06673565,-0.05955547,-0.0325955525,0.0236815251,0.0122619336,-0.00297684665,0.09395557,0.14800474,0.1433237,0.1854891,0.153384089,0.152630761,0.114019722,0.0689462647,0.03230325,0.007447135,-0.05212783,-0.06652923,0.00114737567,0.0105328569,0.012438721,0.00364010246,-0.00116897037,0.0009842931,0.00138939568,0.004266803,-0.0174949,-0.0384130627,-0.0446152352,-0.0444507152,0.0166711081,0.0602631867,0.0284604,0.02709641,0.120193712,0.1629189,0.117542274,-0.00515449466,-0.122939363,-0.168893859,-0.177782878,-0.162024722,-0.1950258,-0.219426468,-0.2025871,-0.166461974,-0.095323436,-0.0159410816,0.0120932041,0.00330708222,0.00211537536,-0.00120187982,0.00185606023,0.00206170441,-0.00524504576,-0.005851318,0.000408205116,-0.0009897555,0.0174637,0.0531425625,0.0775802657,0.0332688764,0.08814265,0.08342049,-0.0318351351,-0.221653715,-0.301118255,-0.313990772,-0.296435982,-0.287445962,-0.290397227,-0.272319436,-0.263106853,-0.2503925,-0.169655487,-0.0521541238,0.00331896055,0.00620800769,0.00193785026,0.000475989364,0.0006741722,-0.000280279753,-0.008373535,-0.0081538735,-7.279311E-05,0.0325949863,-0.0160367433,-0.0254209284,-0.000351933326,0.00531231,-0.018055873,0.00102135609,-0.08781728,-0.228182033,-0.272244215,-0.145309344,-0.09698749,-0.0699873343,-0.153494492,-0.243642837,-0.261373758,-0.250902772,-0.142641246,-0.06535922,-0.0121042589,0.0009465938,0.00135333673,-0.00203477312,0.0045774933,0.00243331166,-0.005397628,0.00212803273,0.00209356053,0.0356495269,-0.005096322,-0.0101556424,-0.0278149731,-0.00249944185,0.0264349151,0.0234672613,-0.058821246,-0.19499439,-0.177567214,-0.09258166,0.00615014043,0.05817193,-0.0474370681,-0.1003956,-0.197751626,-0.162735432,-0.07675939,-0.0469773,-0.0124765709,-0.00376161188,8.628606E-05,-0.0001179817,0.002645779,0.003356311,-0.0101218708,0.0149709536,0.01460097,0.0249643885,0.0186533537,-0.0526312925,-0.04437907,0.0126972022,0.01982628,-0.0116276443,-0.0903744549,-0.145081982,-0.190993771,-0.1932139,-0.0594894476,-0.029717138,-0.0144959986,-0.0775667652,-0.09766038,-0.0692243651,-0.0257178526,-0.006339311,-0.00650647469,-0.00346482941,0.00127116474,0.00119686208,-0.000487363344,0.000468324753,-0.007847865,0.0183018632,0.0166199189,0.006862273,0.0114333825,-0.0131296627,-0.045802772,0.0308127049,-0.0359897651,-0.0598019846,-0.154868931,-0.169118717,-0.170244023,-0.172413349,-0.141035,-0.06969989,-0.0642843246,-0.05929383,-0.0740943849,-0.008009036,0.02989576,0.03219668,-0.00236266246,-0.00348981,-0.00182637072,0.00271782256,-0.0009036518,0.00172363361,-0.007265962,-0.00315744523,0.007565716,-0.0270167943,-0.009578749,-0.0306147859,0.00228177966,0.039890863,-0.0292877425,-0.0547316037,-0.2026633,-0.2424594,-0.198959187,-0.110954635,-0.069663994,-0.04691437,-0.102395289,-0.0532136336,-0.0237846132,-0.0422352962,0.03891314,0.05174023,-0.00083791517,-0.00226711016,0.0004382222,-0.0011310858,-0.0009855988,-0.003985013,-0.00213122158,-0.02033739,-0.007962715,-0.027709255,-0.04385185,-0.0354397558,-0.0176423416,0.0339812674,0.004538589,-0.06466952,-0.163782492,-0.176277921,-0.110977627,-0.07703345,-0.0380476825,-0.0771690756,-0.0276431683,-0.0289142057,-0.006041135,-0.00769092469,0.0269724336,0.0480292067,-0.00220451341,-0.003796036,0.000749558851,-0.00198788382,-5.172336E-05,-0.00296427822,-0.00123856124,-0.00322919688,0.00326542323,-0.0269046221,-0.0297683366,-0.0267930478,-0.0219448283,0.0523678847,-0.0007678576,-0.11077781,-0.1914648,-0.163635552,-0.108340271,-0.09386529,-0.0273414589,-0.0041646855,0.0021733325,0.00231562136,-0.00659856154,0.0278512146,0.021856131,0.0373283178,0.00348936371,-0.00231599133,0.000265837618,-0.00135629484,0.0013638743,-0.001782154,-0.0115623064,0.0239450634,0.00769395474,-0.02082441,-0.019850824,-0.0409553237,-0.0117301075,-0.029702574,-0.1165392,-0.1991067,-0.248517886,-0.195807338,-0.124014512,-0.0687987059,-0.04536368,-0.0149208549,-0.000367310684,0.0255577043,0.0219053347,0.0203737579,0.0228189249,0.0263151862,0.009312099,-0.002663434,-0.000606910267,-0.0001860673,-0.00116946793,0.0058712936,-0.00848163,0.0327096172,0.0131003186,0.0167896263,-0.0288196914,-0.0313502662,-0.0231711455,-0.0531273223,-0.0512612239,-0.123316385,-0.200499013,-0.141588569,-0.0707655549,-0.02423362,-0.0185979251,-0.0150785428,-0.0166619085,0.037561316,0.0468466952,0.04373519,0.0359354056,0.025666168,0.012259719,-0.0007578649,0.00117347774,0.000979348,-0.000126741026,0.0073826923,0.005333511,0.0382155031,0.047642868,0.0141991964,-0.03636114,-0.009405594,0.0328908674,0.0060596047,0.0428201631,-0.008620488,-0.06632803,-0.068621695,-0.01624546,0.0330055952,0.0276529249,0.03144003,0.0149712451,0.0053128,0.031698484,0.0855390057,0.06949429,0.02195315,0.01515958,0.00209092256,0.00314340228,-0.001199528,0.00163824169,0.00454393728,0.00307950284,0.0247668624,0.03239871,0.0193796828,0.007249045,0.0474039763,0.06673203,0.101691045,0.133651271,0.129921675,0.09073615,0.0835396945,0.06574899,0.04431267,0.0332164131,0.06748834,0.0456010327,0.07434513,0.099262014,0.104101472,0.07082571,0.0291345082,0.0171695426,-0.000189132654,0.001963448,0.00133963337,-0.0001747501,0.001037122,0.00114749081,0.01189582,0.0219644513,-0.004752688,0.0204534065,0.0543234274,0.0567721277,0.0456080846,0.110441424,0.129954517,0.09079883,0.0806088,0.0769399,0.07654481,0.058471784,0.080209136,0.06805555,0.0569314249,0.08079348,0.07635582,0.0444726571,0.009120287,0.01262219,-0.0004921147,0.00120502384,0.0013097499,0.0006405006,-0.00379507686,-0.00223501166,0.0125260819,0.02427031,0.0160094742,-0.0148425438,0.0127444435,0.0280103758,0.0583901256,0.0546538234,0.031982,0.00537161436,0.0354377329,0.02481433,0.0584243424,0.074815996,0.065031074,0.08233756,0.0489546135,0.01974358,0.0261125918,0.0194376763,0.006015492,0.007173418,0.0006282256,0.001647575,0.002099018,0.0007864758,-0.00152458693,-0.00372431125,-0.00621757563,0.006122623,0.00720856,0.0275588818,0.0378386974,0.0571906939,0.017141467,-0.0065635317,0.0504816733,0.0501885973,0.0154405953,0.0288450886,0.0305662118,0.107054412,0.130643159,0.0597435869,0.0225911625,-0.00458084652,0.0122007448,0.009350213,0.0129642561,-0.00062067667,-0.00056066137,0.00106844318,0.00244742213,-0.001526553,0.0005386382,-0.0003652728,7.54916036E-05,-0.009742999,-0.0146946488,0.00320451288,0.01696062,0.04218858,0.01878305,0.0666935,0.0879502147,0.0749010146,0.0432316326,0.09239986,0.0825053155,0.09716492,0.09706468,0.0557294823,0.006076951,0.0115951374,0.0280521512,0.0157734528,0.009051635,-0.00120192731,-0.0003925909,-0.000798648049,0.0006778981,-0.00261579431,0.000409667526,0.0023805222,-0.00402272725,-0.00710325036,-0.00530370325,-0.004087512,0.00644898927,0.00356302969,0.009208631,0.0196256787,0.0223784372,0.0303721838,0.0280336086,0.0598708838,0.0295805056,0.0007972337,0.008761716,0.0234673712,0.00404383847,-0.00268764817,0.00171214272,0.00148038892,0.00160434342,-0.00134515937,-0.000249314326,-0.000300449377,0.00014643227,-0.001441123,0.00034273896,0.00135251763,-0.0016109877,-0.0008613939,0.00235355343,0.000146320846,-0.0006232306,-0.002142398,-8.11733553E-05,0.00123536889,0.000264981878,0.0032023727,-0.00118663674,0.00107381912,0.00408742763,0.0038692113,0.00221603713,-0.000488438352,-0.000611404539,0.00131057,-0.00329498271,0.000325530884,0.00271159061,0.00183876918,0.00225237873,-8.28362754E-05],[-0.000320725259,0.00211205031,-0.000987811,0.002148512,0.00140140974,-0.000230265,0.0001313986,0.00285076164,-0.00375484535,-0.00109401916,-0.000925519969,8.837745E-05,-0.002314615,0.003035744,0.0013640715,-0.000597307459,2.58788368E-05,-0.0008413716,0.0006817023,0.0008944032,0.00171438686,-0.00128970493,-0.000399878976,0.000485634315,0.002326105,0.00170702569,-0.000133282345,-0.000953234965,-0.00265746168,9.825128E-05,-0.000814761559,-0.000625388464,0.00113667187,-0.00286428817,0.004897944,0.00364950858,0.0058297934,0.0009992676,0.006315067,0.00721101137,0.0141866673,0.008895049,0.00242808135,0.005199724,0.008289899,0.00483058253,0.00745807542,0.009193633,0.00125910679,0.0008878983,0.006122121,-4.42730743E-05,-0.00102749537,0.00279537635,7.608856E-07,0.000312001561,0.00132453348,0.00120418053,-0.00142737676,0.0006039528,0.0008866781,0.00299400673,0.000195139859,0.00841226,0.0139313405,0.0133532882,0.0292156972,0.04256606,0.0580346249,0.0552594177,0.0467081666,0.0524752736,0.06445617,0.0553978235,0.046869874,0.03551095,0.0186164919,0.020896567,0.0171927344,0.006616647,0.0007146439,-0.001230974,-0.00123858475,0.00075544545,0.00229065656,0.0007743659,0.00029091505,-0.000183698692,0.00240599876,0.007788165,0.0199754313,0.0269141477,0.0365632959,0.04878821,0.0692721456,0.105763242,0.1372847,0.160452977,0.15860343,0.1756514,0.16419813,0.130660489,0.117551431,0.0951220542,0.07031445,0.0207494441,-0.0007868489,0.008151496,0.008885792,-0.0003012766,0.000103254075,0.000949052046,-0.00190494489,-0.00319090718,-0.0003807687,0.001796749,0.005103541,0.0306181926,0.04574917,0.0461883061,0.0610247776,0.05611207,0.07825175,0.04695526,0.0367363244,0.03770111,0.0185907278,0.0287597124,0.0363298357,0.004703039,0.0531435758,0.0534589067,0.0356619656,-0.00727329543,-0.009301684,-0.0197832063,-0.0197854955,-0.0118282046,-0.000966280932,-0.00124830566,-0.002731794,0.0007867,0.00359968212,0.00343652,0.022992976,0.0478683338,0.0594112128,0.05824496,0.0605871752,0.043356508,0.0357934162,-0.0489748828,-0.0427608,-0.0362561047,-0.06674562,-0.0403794944,-0.0389745459,-0.07661511,-0.0194643363,-0.000663783459,-0.007188264,-0.01855014,-0.0318675227,-0.0283622425,-0.009215162,-0.0134456363,0.003763942,0.000552142563,-0.0016474938,0.00247730431,0.0022738697,0.0200287681,0.0419189,0.03849709,0.0556779057,0.0478763543,-0.00276716473,-0.00346908346,-0.00462214742,0.0318568833,0.01851888,0.008300048,-0.0418414958,-0.06304943,-0.09466792,-0.162547886,-0.0754704,-0.08821292,-0.0701871,-0.06972653,-0.06819279,-0.08034524,-0.0153136691,-0.00485795131,-0.00182923011,0.002079379,0.00109221064,0.006160069,0.006570117,0.02340799,0.0669142157,0.0600446463,0.0264242645,-0.008119406,-0.09093586,-0.06427913,-0.04973104,-0.0123318536,0.003427375,-0.0744683444,-0.0348672867,-0.09513837,-0.15141201,-0.1529028,-0.146576643,-0.12743254,-0.110680021,-0.1269001,-0.122879185,-0.134288684,-0.04964185,-0.01186662,0.00163040054,0.00104852614,0.000637205667,0.003073112,0.004256042,0.020479599,0.05824732,0.0231455956,-0.0485119335,-0.08478775,-0.1648012,-0.15840514,-0.128398731,-0.161939,-0.163622916,-0.152439892,-0.1424461,-0.0986636,-0.15582341,-0.08185337,-0.153376177,-0.122199364,-0.09308759,-0.13069208,-0.13935484,-0.170164257,-0.10920544,-0.03267777,-0.00220730645,0.0008633969,9.728536E-05,0.0031556997,0.00643458962,0.0139209349,0.0500884,-0.0005378338,-0.10376709,-0.151368558,-0.188178867,-0.262001216,-0.300008178,-0.329501659,-0.26339373,-0.22143662,-0.07098343,-0.04249519,-0.0408391841,-0.0885155,-0.16004388,-0.134384036,-0.105107389,-0.0965516046,-0.116569787,-0.145836771,-0.09375315,-0.0306571573,-0.008229018,0.00328638731,0.000265025417,0.002941261,0.005240643,0.0143688014,-0.00459518749,-0.04541194,-0.15117006,-0.208955824,-0.2886582,-0.343224138,-0.282210648,-0.257031858,-0.200044468,-0.03426694,0.037091203,0.009465381,0.00555748539,-0.0548140556,-0.119951606,-0.12209975,-0.0761101,-0.08904173,-0.09956007,-0.08225431,-0.0570327528,-0.023149658,-0.00547486357,-0.000345627253,0.002792377,0.00286665163,0.0172686353,0.0152219776,0.0024841642,-0.06387125,-0.1628459,-0.188874677,-0.217606515,-0.1964243,-0.128119409,-0.0217551161,0.0472561978,0.1754507,0.233861953,0.0865123,-0.0328225531,-0.07101111,-0.0999335,-0.0576337241,-0.0315030925,-0.040799994,-0.0438448824,-0.01847727,-0.03606359,-0.0179445241,-0.01206944,-0.00232795929,-0.0004034921,0.00297443965,0.0124614229,0.002762225,-0.0145071074,-0.057377398,-0.105620265,-0.09879543,-0.0292148124,0.0275534689,0.100061707,0.152523071,0.228154466,0.261356026,0.274066627,0.02948786,-0.0180572588,-0.0903688,-0.0754071549,-0.07154808,-0.028322462,-0.0289051384,-0.0288757365,0.0163009968,0.0275777075,0.01516817,-0.0009841494,0.00151624449,-0.0003668923,0.005126648,0.005844357,0.004220952,-0.021212332,-0.0421575867,-0.0155442543,-0.0290147,0.06107638,0.109927028,0.153191671,0.120462872,0.146366611,0.166788951,0.111507751,-0.02844596,-0.0215434,-0.07495426,-0.01277019,0.00409568939,0.0006037667,0.00485905353,0.0104617309,0.08616385,0.07990241,0.0287971962,0.0106292721,0.007858766,0.000882594264,0.000326051726,0.00176723243,0.0120768631,-0.0207825955,-0.012975838,0.0293440074,0.0342900157,0.102279074,0.131471723,0.0896605849,0.0529992357,0.09222374,0.06126489,0.09379508,0.0116428072,-0.0311082825,-0.06685046,0.0482447371,0.07359454,0.0497905575,0.0937287062,0.09396355,0.11782217,0.07102218,0.0365404971,0.00424056128,0.00048636744,0.00122566347,0.00426743971,0.00173849007,0.0143940952,0.0144338878,0.03512188,0.0428111143,0.030982038,0.0116400691,0.05158491,0.00725085149,-0.0138958348,-0.0180481747,0.0418423079,0.0568304062,-0.04477646,-0.0477298275,-0.03138858,0.05495064,0.10927064,0.0823949054,0.101625718,0.105478868,0.1107819,0.08302559,0.0435259826,0.005097893,0.00237596082,0.003643968,0.00292646652,0.007597206,0.036725048,0.0470023677,0.0204616971,-0.004388131,-0.00120554049,-0.07117755,0.00177965767,-0.0394602157,-0.0257008653,-0.06989576,0.009326926,0.0220027976,-0.116625808,-0.08798214,-0.0606576949,0.05682662,0.117420763,0.08702865,0.09379985,0.117571138,0.105165929,0.08745697,0.05299409,0.018189542,0.000371682254,0.000163231729,-0.000133207024,0.009175034,0.06319099,0.05529591,-0.0283544734,-0.04840246,-0.03103578,-0.04752501,-0.06109401,-0.0349536762,-0.0263018254,-0.0298916716,-0.0111280615,-0.05177114,-0.1300107,-0.0555698648,-0.0005230202,0.05391962,0.09137021,0.07857327,0.142028674,0.1379726,0.104295671,0.04451289,0.04656704,0.0120812254,0.003187055,0.00172909256,0.0006952481,0.007771692,0.07874671,0.0432792976,-0.0475559868,-0.07936814,-0.029250998,0.0308211353,0.03721983,-0.0158617944,-0.04162895,0.03720424,0.0427524038,-0.0357065573,-0.00314708147,0.06156692,0.151377246,0.132491678,0.0465939529,0.0563299842,0.152509823,0.133069843,0.07818218,0.04313597,0.03738758,0.00261642877,0.0028433546,0.00108429336,0.00130791753,0.00713412743,0.0586515479,0.0324300937,-0.0496992767,-0.08073868,-0.0386629067,0.004807567,0.08382697,0.06514927,0.0861236,0.107207745,0.09632062,0.03849553,0.0698692948,0.131080583,0.1529929,0.09779532,0.03350119,0.04850496,0.08212829,0.04799859,0.005526862,-0.00165756256,0.0129961,0.00316117564,-0.000156752518,0.00013674314,-0.000400719349,0.008572034,0.0545118637,0.0306757223,-0.0284764878,-0.0323020071,0.00176800648,0.0182619058,0.0647169948,0.051962696,0.05204696,0.06026426,0.0400092229,0.07757163,0.04381405,0.0538151674,0.0365872234,0.111428827,0.0325000174,0.05682895,0.0168102235,-0.0391818248,-0.0431279577,-0.0296734124,-0.00323897181,0.003561154,-0.00294629042,4.90138154E-05,0.000763609249,0.009615658,0.0344872549,0.01483234,-0.00397644239,-0.0131930811,-0.0122374967,-0.0155975688,-0.0389112644,0.0111687472,-0.05415673,-0.0390972868,-0.03577027,0.0158948936,0.0126181236,0.0232083332,0.0169141535,0.03760289,0.0138762705,-0.0287008677,-0.08258595,-0.101149842,-0.0655999,-0.02976589,-0.005491427,-0.000247923948,-0.00195853319,-0.0009504888,-0.0006512053,0.00281402562,0.0177976415,0.0126287034,0.0127207953,-0.0246094558,-0.03745144,-0.0542108342,-0.006376016,-0.023211902,-0.100513741,-0.09753927,-0.07120734,-0.07138558,-0.008496367,-0.06788916,-0.102653764,-0.06083143,-0.0610815063,-0.0520296,-0.09709097,-0.0823891237,-0.06534313,-0.03266895,-0.00690733455,-0.0025406,-0.000198647656,0.00168444368,0.00147497619,0.004679681,0.017267637,0.0236501563,0.03408502,0.0208422616,0.0106262174,-0.0145970676,0.0672288761,0.0455142334,0.0243331,-0.009321649,-0.04882366,-0.08275918,-0.07525774,-0.120082714,-0.117094055,-0.106971532,-0.09224311,-0.0764302239,-0.07651281,-0.0524901338,-0.04208137,-0.0171244778,-0.00315473066,0.00149296271,0.00103557331,0.0007413047,-0.00193065777,0.00037326038,0.007672413,0.0117686074,0.00558552146,0.0158050526,0.0357698649,0.0480470546,0.08179168,0.09255117,0.0750498,0.0593305,0.0401877947,0.0288160853,-0.05787874,-0.0650787,-0.0507774651,-0.08834007,-0.0936883539,-0.06434574,-0.0379042551,-0.03137018,-0.0250461,-0.003912105,0.0007234591,0.00100119831,-0.00199236418,0.00124910579,-0.00138312392,0.0009332993,-0.00129083765,0.00160582643,-0.002402963,0.00274188421,0.000310543342,0.003714586,-0.0041550654,-0.00750865461,0.00351399882,0.0187350046,-0.0221490357,-0.06020342,-0.0757292,-0.0415579937,-0.03936689,-0.05159914,-0.0297242273,-0.03268695,-0.026077861,-0.0123146558,-0.00745069,-0.003600011,0.00237621879,-0.0003223067,-0.002329095,0.000677825767,0.00067818613,-0.00130156882,-0.00159900484,-0.0005495805,-0.002585921,-0.004195832,-0.006949264,-0.00596498838,-0.0131239537,-0.0183059219,-0.0185870677,-0.0332873352,-0.0280533377,-0.04306229,-0.029084878,-0.014888877,-0.0155231366,-0.01875502,-0.009049713,-0.0119587146,-0.008395018,0.003956059,-0.002722706,-0.0005704608,0.000389407418,-0.00285158167,-0.00156681042,-0.000474284,0.00282497,0.0006556983,-0.000366155116,0.0007300725,-0.000163109347,-0.00118242833,-0.000574770267,-0.0010290955,-0.00179122889,-0.00197114749,-0.003467533,-0.00129552546,0.000814583036,-0.00230714236,3.280394E-05,-0.00140477833,0.00103552383,-0.00121987308,0.000326512149,-0.000580186257,0.0008456843,-0.0024776808,0.0001878791,-0.000146500184,0.00167574256,-0.0009908756,-9.833974E-05],[0.00102034851,-0.00169744377,9.163336E-05,-0.000897657,0.00129091507,-0.0001666739,0.00294163637,0.000188444028,-0.000353877549,0.00248477329,-0.00120337587,0.00119922531,0.00256364956,0.00190807506,0.000979559,0.001997158,-0.00216572243,-0.001844595,-0.000356372271,0.0001265288,0.00136863452,-0.00240153028,0.000584639667,-0.000458140275,-0.000426266779,0.00137132627,-0.0008041568,0.000862762448,0.0006298468,-0.000297806924,0.001001899,0.0023180088,-5.475959E-06,0.000706028251,-0.0001339192,-0.00231013354,0.000504524,-0.0002071447,0.000190949329,0.000353820564,0.0006817698,0.00131841784,-0.00259483187,-0.005909896,0.00507893553,0.00135995226,-0.00188920333,0.00171070138,-0.000544275565,-0.000516508066,0.0008887577,0.0027105154,0.00197285484,0.00252224365,0.00133348815,0.000767250662,-0.00236183475,0.000672899536,0.000964108738,-0.000784665346,0.00192062429,-0.00215260545,-0.000649516063,0.00176153786,0.00252606673,0.00633308757,0.009711979,0.007586367,0.0109207481,0.005460745,0.004814914,-0.0197250918,-0.00373047171,0.0102785388,0.00584761845,-0.00294592045,-0.00222724536,0.00357960514,0.00119736907,-1.08324E-05,-0.001011765,0.00142937922,-0.00153439422,-0.000750039646,-0.0038504242,0.0008409504,-0.00221314654,-8.80480147E-05,0.0009306044,-0.005256446,-0.00208450179,-0.00263713324,0.00845826,0.0271796,0.04330117,0.0570548251,0.0430667661,0.04321716,0.0381607823,-0.00753673026,0.0155280139,0.02565121,-0.0130203664,0.007987689,0.00463683251,0.00506368745,-0.00731884828,-0.011010129,-0.00195154117,-0.000152862151,0.00187052,-0.0007725208,-0.00073940825,0.0006020878,-0.00265899231,-0.00450803665,-0.004056768,-0.0101100458,-0.0177593976,-0.0126517126,-0.0148300538,-0.00260380656,-0.015812872,-0.0103603546,-0.0449213162,-0.06574065,-0.0904568,-0.107820138,-0.09845311,-0.0589521751,-0.08648213,-0.0947073847,-0.08758675,-0.0474122055,-0.02487957,0.008494654,-0.0008185935,-0.001764006,-0.00213394,0.0009939998,0.00378665025,0.000864657457,-0.00034703518,-0.00346838217,-0.009532826,-0.0271444879,-0.0306897815,-0.0229318477,0.00642303424,-0.0130712595,-0.03135154,-0.0933435038,-0.137257978,-0.147383884,-0.162544757,-0.210318327,-0.135073483,-0.131361589,-0.121468931,-0.1762906,-0.1366667,-0.0844132751,-0.0182777811,0.02259295,0.002271003,-0.0105987228,0.000842098,0.0006899156,0.00102548511,0.0008198301,0.00164555653,0.005450873,-0.000566390343,-0.013778396,-0.0188534949,0.0179522857,-0.00665963348,-0.03000877,-0.0206935275,-0.03037953,-0.03819487,-0.006464231,-0.006707666,-0.0286621843,-0.0244054832,-0.0291572511,0.009662836,0.0024304192,-0.0343204029,0.0189369377,0.0250011031,0.02495037,0.0229464211,0.00271899323,0.000793124142,-0.00217854045,-0.000147900544,0.0017540619,0.00702392636,0.0200321414,-0.01055631,-0.0102764806,0.0287086349,0.0398326665,-0.0138407191,0.0263999514,0.0764793754,0.151898474,0.0667327,0.0482855327,0.0523332879,-0.01326495,0.0440021269,0.0412435159,0.05806218,0.00143758347,0.01025433,0.0436430275,0.0342898555,0.0531246029,0.041183006,2.10329617E-05,-0.00263787527,-0.0005921138,0.00103946391,0.00861953,0.0125480285,0.0177460331,0.00347099453,0.0163515676,0.0135596553,0.03406651,0.009596582,0.0282982681,0.0544737242,0.09510915,0.0527480356,0.005440062,0.08495286,0.03298016,0.008022866,0.04907487,0.0311087687,-0.0498164445,0.00200480944,0.0235297568,0.0484996438,0.07697966,0.0529503822,0.0111788167,-0.00664996449,-0.00239446177,0.00278268848,0.007277982,0.0141084231,0.0240716916,0.045685675,0.07142188,0.04487473,0.022120757,0.009322833,0.06311604,-0.0004643368,-0.0196168087,0.05977019,0.06636666,0.08106475,-0.00649594236,0.0524021722,0.0326459259,0.007735911,-0.0144772595,-0.0297481939,0.0294882357,0.0453232229,0.0767041743,0.06673869,0.0178517587,-0.00169954612,0.0129617173,-0.0008533761,0.005266595,0.023383569,0.0355100967,0.0711227,0.130705178,0.131738529,0.07174708,-0.0192567315,0.0498318337,-0.0183981936,-0.04144377,-0.0114544164,0.04568404,-0.06563391,-0.09350184,-0.04156741,-0.07344376,-0.09531126,-0.09556289,-0.0748992339,0.0365336463,0.0487309471,0.08017527,0.101934649,0.0476286933,0.009641091,-0.000662270933,0.00199097162,0.009193178,0.0425232537,0.0588745736,0.09813383,0.13121441,0.1539707,0.08746443,0.0005771498,0.0261436384,0.0109871943,-0.0396480747,-0.05249062,-0.09126982,-0.2536062,-0.23337689,-0.213031784,-0.199046239,-0.205457017,-0.127623558,-0.09214504,0.06962728,0.108440168,0.1006812,0.06064009,0.0143570565,-0.005359934,-0.00200376962,0.00159673521,0.004987024,0.0315756463,0.0653336346,0.104895659,0.139203161,0.127027,0.11074923,0.09891211,0.0361142531,-0.0231859237,-0.07643118,-0.0950815,-0.213613242,-0.397858739,-0.308576763,-0.239189878,-0.2632046,-0.189860165,-0.06450653,0.0562231168,0.1388634,0.152274668,0.07823968,0.0472547263,0.0197796728,0.0123925759,0.00388226123,-0.0008172661,0.00427931361,0.0178056359,0.0459378026,0.09324475,0.142045647,0.141326651,0.09211007,0.0767191947,0.0467404276,0.0630839,-0.05049773,-0.134259284,-0.241731063,-0.345360935,-0.3216888,-0.261182636,-0.170954511,-0.00460294075,0.115084477,0.196371645,0.211604178,0.150449336,0.09329013,0.04837089,0.0230185818,0.008843547,0.00114501268,0.000220392278,0.001582667,0.006422252,0.0302018262,0.06966856,0.130676791,0.160355747,0.133717954,0.14195697,0.143398926,0.155291408,0.0526227243,-0.0601574443,-0.261455834,-0.284062415,-0.123022325,-0.04439156,-0.00400805566,0.202829912,0.306140721,0.274088144,0.166332528,0.09942139,0.0769138,0.027356863,0.00958403,0.008229404,-0.00114262349,0.00197712472,-0.000886301161,-0.00404664,0.0151866553,0.0281925425,0.112264112,0.158866659,0.168210968,0.198373228,0.228412,0.2224532,0.118395932,-0.0451771766,-0.2859057,-0.194506675,0.07502925,0.09703504,0.210623056,0.219047844,0.209310666,0.162267551,0.0942838,0.0200416539,0.0277298335,0.00388917117,0.00426849024,0.0064940243,0.00117261079,0.0033087628,-0.00320741814,-0.006778177,0.00286316266,0.0192424282,0.0754804239,0.0854771063,0.0980836451,0.136247158,0.164885968,0.198897079,0.15458107,0.0362187549,-0.0179958474,0.0263988972,0.140159175,0.141496822,0.226273969,0.09730103,0.09388533,0.0849948451,0.065785706,0.03933875,0.00315535162,-0.0125729172,0.0159608349,0.0139611689,0.00547984941,0.002210892,-0.000686513958,-0.00602754438,-0.00643853471,0.006733269,0.0486037955,0.0487366,0.0345967561,0.08331725,0.134146065,0.19832781,0.23482345,0.179824814,0.1418592,0.127131388,0.153749,0.122543447,0.09785013,0.0680390447,0.0135502974,0.0440206379,0.04288911,0.0577260479,0.000292982149,0.0127000008,0.0440124348,0.008119372,-0.0009414738,0.000284237263,-0.00231595151,-0.00201001135,-0.0228012353,-0.00704591069,0.00209591957,-0.00717702,0.0376307629,0.08754203,0.112974286,0.197979122,0.232194737,0.314479977,0.20812209,0.1155135,0.07787701,0.05215647,0.005347763,0.0192821436,-0.0107107507,-0.00616813032,0.0525333621,0.07672291,0.03407938,0.0396795124,0.0288512856,0.00688225869,0.001457746,-0.00026849017,0.00450494,0.00643125735,-0.00324982614,-0.0203306638,-0.045456633,-0.04574797,0.01222352,0.0509540439,0.0693151653,0.137090191,0.269839019,0.312735,0.209890157,0.14194791,0.01230641,-0.0140673388,-0.00508550741,-0.0238675419,-0.0551385246,-0.0315440521,0.00362803834,0.025850052,0.0167719871,0.03893799,0.0124922656,0.00468480866,0.00119986478,-0.00153860147,0.000423597259,0.006584176,0.008168789,-0.02964844,-0.04433913,-0.0908164158,-0.0484465435,-0.0369399227,0.0296146348,0.04331598,0.115330368,0.164039224,0.104247123,0.03343378,0.0369401649,0.0271803476,-0.02422419,-0.0419197977,-0.06557838,-0.0729769543,-0.00473797228,0.04830148,0.0614052378,0.0464892723,0.0135643249,0.004188732,0.00203842577,0.00141986227,-0.00121847971,0.004491974,-0.00320637668,-0.040949814,-0.05922922,-0.107064448,-0.07142322,-0.0468460247,-0.07040962,-0.08452106,-0.03564422,0.02385769,-0.0294452347,-0.0337137654,-0.0156709366,0.0352817439,-0.0581482649,-0.0529499725,-0.0427647941,-0.0520266257,0.0407143533,0.10626252,0.10421253,0.04116793,0.0111218048,0.002798728,-0.0006080348,-0.0013661749,9.98219257E-05,0.00642572762,-0.005559908,-0.03262559,-0.0437560752,-0.05208306,-0.0324432328,-0.0115849869,-0.020823868,-0.07641405,-0.0562777147,-0.0182988439,-0.0490961671,-0.07418206,-0.03237881,-0.0417413823,-0.116369583,-0.0623342544,-0.0137816891,0.0218226947,0.08864693,0.1143621,0.07135295,0.0276142769,0.00582981249,0.001690435,-0.0013894455,-0.0002031997,0.0005023387,-0.006139938,-0.0126744583,-0.0151405083,-0.023138484,0.00887815747,0.004842532,-0.041118294,-0.01345571,-0.03610511,0.002630918,-0.06510936,-0.08619963,-0.0481712222,-0.08632713,-0.09958517,-0.08393207,-0.03177201,0.0355306566,0.064284,0.08747753,0.07938603,0.0411865823,0.0102572311,0.004284059,0.000274490565,-7.29891253E-05,-0.003556509,7.585859E-06,-0.00494593,-0.0117842937,-0.003825334,0.01924979,0.0220806375,-0.007984856,-0.0147392079,-0.0194602255,-0.0413875058,-0.0101401582,0.0331333429,0.06671134,0.08293326,-0.0107607841,-0.0009971544,0.0221481081,0.020734448,0.0382854231,0.04607261,0.05073622,0.0380787142,0.0109770568,0.0123183141,0.005514281,0.00336086284,0.002269929,-0.00233940827,-0.00022641971,-0.00105397182,0.00153858494,0.026058279,0.0236603282,0.0240707826,0.018152073,-0.009359319,-0.0353290439,-0.04127261,0.03533585,0.0269648153,0.0371533856,0.0291121844,0.05518857,0.04630606,-0.00206287159,0.0143020228,0.0271906611,0.0109770326,0.007965384,0.0131255053,0.0022297285,-0.0009335164,0.000508539,0.002108301,0.000668085762,0.000100878846,-0.00266952184,-0.0008072552,-3.60931153E-05,-0.00373884,-0.009870745,-0.00720983976,-0.008061365,-0.0125508821,-0.0381257348,-0.0463014,-0.0207369979,-0.0129289674,-0.00246278173,-0.0434543043,-0.0291429721,-0.02412436,-0.0425876044,-0.01955787,0.0117864143,0.00366820581,0.00222977088,0.00434384961,-0.000108698012,-0.00103253813,-0.001138215,-0.00217220047,9.4961375E-05,-0.0006091384,0.00048387592,-0.000926189,-0.00226830062,-0.00154394377,0.00195678952,0.001655336,0.00324031548,0.00327528687,0.004095468,0.00505023543,-0.00382313924,0.0002765125,0.007329462,-0.003700734,-0.00731896469,0.0103978058,0.0108901709,0.007437393,0.00610161573,0.00191863021,0.00142297,0.000422337645,0.0008361942,0.00228793058,0.000895549543,-0.000552178652,-0.000433352543],[0.0006212861,-0.002320855,-0.0005661273,0.000225528551,0.000180858566,-0.00189198786,-6.206089E-05,-0.0017053982,0.00157919328,-0.0021343634,0.0003958463,0.0009691892,5.50307868E-06,-0.0009663397,-0.0009919457,0.00210680254,-0.0004368605,0.00190624327,2.6123209E-05,0.00069268106,-0.0009769403,0.0008093515,-0.003338112,0.00306202983,-0.0009226806,-0.0016564955,0.000808541,0.000667583547,0.000726428465,0.000875173137,0.0004233372,0.000886461,0.001903527,0.0009386612,-0.0001610402,0.0002597352,-0.00148702,0.00376267056,0.00339556532,-0.00160355133,-4.52139939E-05,0.00229475251,0.003195254,0.005864758,0.00507466635,0.00106650777,0.00244946918,0.00229343167,0.0005638868,-0.0009802134,-7.447153E-05,-0.00116607745,-0.00020719548,-0.00249025272,0.000126451,-0.0009256789,-0.00225404,-0.00198123138,-0.0009674447,0.00102919654,-0.00225680578,-0.00318508665,0.00161005033,0.0005234351,-0.0005321324,-0.000452972454,0.00567930052,0.00702090235,0.0151770348,0.0211575553,0.02135551,0.0275962185,0.02184313,0.01641296,0.0149397273,0.0110696144,0.008812676,0.00398167828,0.0008500927,-0.0005506576,0.00190033054,0.000617346959,-0.000452236185,-0.000218631933,0.0006387463,-0.000612408854,-0.0008611446,0.000895075442,-0.00151161745,0.002521699,0.00497317966,0.0030444914,0.007907607,0.00259867567,0.0113416826,0.02095471,0.0619428828,0.07825792,0.06279094,0.07363563,0.04224292,0.0109535446,-0.0242966525,-0.05768721,-0.04079691,-0.0284568556,-0.00746293133,0.01168021,0.007432444,0.00530618057,-0.000812422135,-0.0008566521,0.0008020354,0.00106213847,0.000922213658,0.00213453,-0.000962960534,0.00250088517,0.008000328,0.00757616526,0.0279639214,0.0273681115,0.04433103,0.0789065957,0.07724502,0.09767219,0.153163835,0.187478945,0.1361568,0.05851471,0.02941297,-0.0269385483,-0.018828366,-0.0181658585,-0.00612044334,-0.018291438,-0.003322143,0.00363340927,0.00204250286,-0.003249542,-0.00199001562,-0.000378363678,0.00219620834,0.00383722247,0.008103824,0.00384101085,0.000371044473,0.0101323286,0.01965483,0.0484721772,0.06133273,0.132108465,0.12724717,0.228013,0.153287336,0.132544532,0.08768227,0.111833557,0.102655731,0.105142087,0.0578548759,0.020399062,-0.003909768,-0.04055273,-0.00732217124,0.012904346,0.00313217,-0.000392216636,-0.000432487723,-7.02244142E-05,0.0005637073,0.00125888025,0.00365066645,-0.0222867727,-0.00667433767,0.0302716885,0.06910079,0.104500949,0.199040666,0.215847373,0.218641147,0.2221637,0.2575637,0.298515052,0.285512745,0.28983587,0.24433437,0.161301047,0.115443066,0.08575664,-0.01898316,-0.0594507158,-0.020787308,0.009046978,0.00120990456,0.00460522342,0.00101463,-0.0005449078,-0.00101942709,0.0044656205,0.002584798,-0.0278881546,-0.00659693638,0.0174852144,0.109514967,0.142055929,0.222050577,0.232767329,0.369147718,0.422166824,0.4840528,0.523279846,0.470387369,0.225462049,0.19458732,0.102843665,0.04464267,0.0106849764,-0.05269546,-0.0786034,-0.0448661074,-0.0206475388,-0.008051826,0.00161983131,-0.001481604,0.00188583089,-0.0041080243,-0.00232298742,-0.00199790485,-0.0302706622,-0.00167552207,0.03071936,0.159083754,0.1600341,0.210300729,0.232280776,0.3587453,0.4205282,0.468877435,0.286705822,0.187081277,-0.000134819915,-0.005887614,-0.0122750737,-0.09328073,-0.0772272348,-0.08000501,-0.07069597,-0.0324719548,-0.0243758727,0.0118091544,0.00245937239,0.00101392413,-0.002307187,-0.0104219653,0.0106834145,0.002686522,-0.0184731539,0.100070283,0.101194978,0.140146047,0.175603077,0.212294161,0.101410553,0.0615326166,0.08829223,0.06886397,-0.11659307,-0.2636616,-0.146012589,-0.08428765,-0.0859514847,-0.128776312,-0.154913232,-0.122710787,-0.07631549,-0.0301196314,-0.000473817054,0.0150363864,-0.00485996157,-0.00105958362,0.0007156956,-0.0060629514,0.008712179,-0.00176155893,0.01394095,0.144162536,0.06357831,0.0543857329,-0.00308228983,-0.0166871119,-0.112469457,-0.214719564,-0.279133469,-0.316201359,-0.374240845,-0.179274783,-0.134610116,-0.0293816663,-0.0362920053,-0.0464031249,-0.06381254,-0.08099396,-0.0237398446,-0.011824403,-0.00133970939,-0.000392965769,0.00153176626,0.0005191161,0.0006625539,-0.005194407,0.018011963,0.0317400657,0.0465391427,0.0938032,0.00753692072,-0.0881661,-0.187425226,-0.1891374,-0.152989134,-0.340109229,-0.284070432,-0.115736917,-0.0613543838,-0.0750059262,0.0439725742,0.0259842984,-0.0133526428,-0.0001644336,-0.0160414875,0.00666612852,0.027585119,0.0437989868,0.0221824758,0.014336328,0.00281064981,-0.0009878398,-0.0005662282,0.0034295416,0.022091087,0.06613004,0.0341282673,0.0167933274,-0.0941518545,-0.219883963,-0.1346243,-0.252923638,-0.263905883,-0.372959852,-0.161331981,0.1123837,0.06875483,-0.00166448881,0.0480089374,0.009535184,-0.0127645861,-0.07983427,-0.032645762,-0.0308558531,0.00291109,-0.0233296528,-0.0117578572,0.00144841452,-0.0002014979,-4.393686E-05,0.0015618325,0.00168850343,0.0240418259,0.03362704,-0.0616281256,-0.122129351,-0.0992229059,-0.176137313,-0.164013937,-0.150708646,-0.2962025,-0.267020643,-0.0263713915,0.12761046,0.037025407,0.0153608928,-0.0272443239,-0.04967463,-0.0191361085,-0.0278950781,-0.09642941,-0.100940928,-0.100266777,-0.077760756,-0.03745839,-0.0132831344,-0.00187068852,-0.00265749055,0.00186588778,0.0005499116,0.005806815,-0.04848259,-0.138687983,-0.1132207,-0.122186862,-0.14567171,-0.194724485,-0.139942482,-0.210478514,-0.240157023,-0.000852842641,0.05492752,0.0202582758,-0.020853959,-0.07118324,0.01059808,-0.08337943,-0.0193503983,-0.0573695824,-0.129639119,-0.127081528,-0.08524807,-0.0273902826,-0.00146620593,0.0005602122,-0.0006555982,0.000579082349,-0.004309351,-0.0378599763,-0.07650487,-0.16475226,-0.133825928,-0.09926356,-0.08216955,-0.160012156,-0.08148383,-0.130992353,-0.118530549,0.043309994,0.00261223339,-0.06848901,-0.08746906,-0.09132745,-0.03048371,-0.0598791577,-0.0142529411,-0.08071474,-0.09984391,-0.1020627,-0.0598008819,-0.0287650321,-0.021000158,-0.00143168715,0.0002546982,-0.00277980161,-0.00462491065,-0.0300452,-0.03202147,-0.131364673,-0.18657136,-0.136312664,-0.1434474,-0.122948512,-0.0203893334,-0.0348349139,-0.0175406057,0.008139245,-0.0872675,-0.222807959,-0.174965352,-0.1427489,-0.130250677,-0.116347596,-0.05674262,-0.115401343,-0.08827459,-0.053446386,-0.0512001,-0.0324436538,-0.01299902,-0.003693796,0.0006231776,0.000176480447,-0.009532677,-0.0072505204,-0.0451904424,-0.116219573,-0.155975267,-0.142153412,-0.125097871,-0.07851974,0.01590551,0.01788539,0.0804967359,0.00202374975,-0.116753489,-0.144505084,-0.183979988,-0.128428191,-0.185527891,-0.0591607019,-0.0336185955,-0.100352891,-0.09240424,-0.0564265139,-0.0465564877,-0.0317358859,-0.004745461,-0.0018379587,-0.001851614,0.000680784869,-0.00646997755,-0.0152341286,-0.07815813,-0.0766952857,-0.05135002,-0.051310692,-0.0321546234,-0.000319339,0.0517018959,0.07798674,0.0211651362,-0.0346173346,-0.108777165,-0.176077545,-0.2269857,-0.125461131,-0.116758853,-0.022723252,0.0272439886,-0.0289489347,-0.00322688557,-0.0483453125,-0.04514439,-0.01693825,-0.00331860338,-0.0005110482,-0.000328191236,-0.0002974842,0.00123896275,-0.0178601239,-0.07136064,-0.058866404,-0.04313568,-0.02690407,-0.008164508,-0.0460264757,0.0123597616,0.04823684,0.125466734,0.00324032269,-0.121811181,-0.17224735,-0.192052886,-0.11137417,-0.0327816941,0.06828226,0.07925607,0.07767049,0.0572038032,0.00342078786,-0.00191712764,-0.00357249845,-0.00708425371,-2.05123779E-05,0.001604742,0.001818718,