{"name":"MNIST learning DNN Mark V","description":"MNIST learning DNN - Mark V - using 4 layers in structure: (784, 128, 64, 10 ). Creation date: 2019. 05. 14. 20:24:43","activationFunctionName":"SigmoidActivation","layers":[{"weightMx":[[0.200958759,-0.2688973,-0.477253258,0.143535748,-0.08483304,-0.228591725,0.486162871,0.119626895,-0.00366231939,-0.07928214,1.03576958,-0.619167566,-0.43599695,-0.0465480275,-0.06717047,-0.2037341,0.362474322,0.131979391,-0.711576343,0.633170962,-0.116142333,0.522129,0.115295455,-0.0187405758,-0.4227462,0.06274565,-0.209107652,0.005253454,-0.354791164,0.162646815,-0.120047174,0.207810163,-0.5512023,-0.8300354,-0.0248394385,-0.5257224,0.10416919,0.169593543,-0.0231513884,-0.270526469,0.146474749,0.4232991,-0.391748458,0.00835781,0.21568948,0.0428485163,-0.1992054,0.129913762,0.219429821,-0.108538307,-0.216300428,-0.0316017158,-0.340511739,0.356799841,-0.115426108,0.4244194,0.534980536,0.0375825427,0.409373075,-0.1531631,0.240874931,0.772871256,-0.4652752,-0.397461444,-0.364666939,-0.133627832,-0.7322798,-0.1709737,-0.03306105,0.138236284,0.422595024,0.2970901,-0.05023514,0.5430872,0.10638199,0.621167362,0.531222,0.290507078,-0.373430848,-0.288427085,-0.297930777,-0.1908734,-0.083790265,-0.0912758559,0.0396943651,-0.06943434,0.303007871,-0.303092569,-0.2922792,0.161827579,0.0951418,-0.0183016565,0.2167586,-0.2828501,0.49433288,-0.432907552,0.13201049,0.218109757,0.139444113,0.5049551,-0.1625658,-0.2127402,0.6957595,0.0266610812,-0.120018847,-0.06743636,0.29880926,-0.398406684,0.367805243,-0.07888205,0.154483914,-0.446934223,0.323079735,0.111551248,0.306574,0.119170427,-0.177319616,-0.261030585,-0.245545179,-0.106048882,-0.661813438,0.810266,-0.6037643,-0.5411324,0.819250345,-0.04312643,0.664245367,0.209716484,-0.373127759,0.0473695025,-0.4656784,-0.07822391,-0.562957168,-0.1445335,0.417178273,-0.138020128,0.213170156,0.163752019,0.273860872,-0.2504067,0.709324,0.296497166,0.5625853,-0.282296866,0.5020611,-0.0583292469,-0.117367849,0.3624606,-0.0118672587,-0.2436661,-0.0579120852,-0.527164936,0.438630819,-0.192680225,0.187756464,0.553402841,0.2360307,0.159141138,-0.148616746,-0.430899173,0.458307326,0.458801836,-0.106695935,0.644821465,0.529108047,-0.303361118,-0.103495613,0.28439492,0.09208379,0.244827271,0.163109317,-0.279609054,0.6697315,-0.160946772,0.2630251,-0.07412843,-0.155310065,-0.306855172,0.420327544,0.06728192,-0.676051,0.0252717882,0.0541179478,0.3013179,0.509947538,0.3263731,0.333313942,-0.200443774,0.5112955,-0.5610135,0.133270085,-0.4352445,0.232054055,0.384006679,0.139463931,-0.472294122,-0.362868816,-0.07215978,0.2543143,-0.5574138,-0.04738598,0.243788451,-0.07926305,-0.06740849,0.5399319,-0.233062923,0.7582771,-0.382923543,0.09133665,-0.321130574,0.157981366,-0.2853535,-0.4970736,-0.155919641,-0.09162473,-0.103625216,0.2305679,-0.1094787,0.04910737,-0.154694036,-0.3426722,0.05155116,0.116740167,0.29360652,0.239227787,-0.376862824,-0.0803684443,-0.009517042,-0.0612887032,0.53563267,-0.216672674,-0.334208876,-0.0992702,-0.187273517,-0.128385961,0.354504764,-0.238461331,0.444156349,0.5225611,-0.126486108,0.208460137,-0.192723632,-0.32195583,-0.419163376,0.17859672,-0.0424014777,0.08264618,0.311970353,0.1461826,0.226948142,0.003942169,0.173417866,0.321023524,0.328777283,-0.324120939,-0.528306246,0.552032351,-0.3974781,-0.299829364,0.0106054181,0.286587358,-0.06537107,-0.157696471,-0.391247422,0.1431294,-0.224518538,0.205742076,0.194758192,0.241722122,-0.4097838,0.374890953,0.101701736,-0.329653829,-0.100548513,0.530097365,0.448050469,-0.146227166,0.343134373,-0.879385531,-0.353745461,-0.168887928,0.118587449,0.3935774,0.007572769,0.1621664,-0.132606164,-0.450535953,0.398520023,-0.1859464,-0.06268588,-0.7866782,-0.257725954,0.05731817,-0.127569646,-0.123168856,-0.4836988,0.136858985,0.00913505,0.00714431051,-0.299586236,-0.0502997525,0.0006034173,-0.198491454,-0.146817535,0.00681261858,0.1651425,0.08541542,0.124591768,-0.5058393,0.392562032,-0.0164955836,-0.0829526559,0.0185669642,0.02569415,-0.1081854,0.3679815,0.211190447,0.0549958535,-0.361870646,-0.215536416,0.0710639954,0.3352591,-0.135606661,-0.03155146,-0.355820537,0.352507859,-0.0561252236,-0.128769547,-0.252832562,0.170919254,-0.6474102,0.014451948,-0.229353145,-0.07903574,-0.0335386842,-0.256710321,-0.460064471,-0.239355981,-0.3379419,0.257736742,0.73519665,-0.0906333,0.29230094,-0.585448444,0.07443214,0.329885,0.3162723,0.222579271,-0.1518173,0.00176154659,0.183447674,0.07451743,-0.3377626,-0.0774756148,0.346483052,-0.214970037,-0.5590994,-0.410170168,-0.0102545554,0.1872769,0.3089157,0.361156076,-0.0741175339,-0.0521279871,-0.3227357,-0.7598413,0.5218424,0.220800743,0.08921667,-0.231634378,0.393407166,0.450815,-0.238679588,0.5960145,-0.103157468,0.0293013044,1.273659,-0.168790981,-0.219365016,-0.567141533,-0.111256309,-0.387889028,-0.7126115,-0.225197613,0.1361268,-0.212983623,-0.059311796,1.09213388,0.2453608,0.270560563,-0.171646491,-0.10812448,-0.0343415551,0.0739785954,0.716430843,0.262099028,0.393915147,0.9093589,-0.3810301,-0.504594564,0.111760974,0.00337406551,0.175870821,0.163411334,-0.5206593,0.302479863,-0.6391264,0.686543465,-0.828840256,-0.422998428,-0.585429847,0.140703589,-0.440073162,0.09004364,-0.0753250048,-0.0067583276,-0.485605776,-0.390247017,-0.0638750643,-0.130203515,-0.136222392,0.224794149,0.0301765017,-0.128973618,-0.5814097,-0.5310393,0.221276641,0.268625736,0.2504211,-0.09537576,0.8946954,-0.120429255,0.0044576237,-0.0927861556,0.09847646,0.33001408,0.158123419,-0.0358442068,-0.07595838,0.104953751,-0.197942272,0.5990262,0.424536347,-0.2065548,0.0473398045,-0.100341782,0.427642047,-0.0364352,0.4223577,-0.319126546,0.1351109,-0.444370419,-0.08511577,0.3688864,0.335981578,-0.385014266,0.324598044,0.7565108,-0.17445685,-0.9409091,-0.209331349,0.237814948,-0.902454853,0.06004494,0.270502,-0.362019241,-0.5315897,0.246925592,0.32973206,-0.0326861255,0.273258358,-0.4638199,-0.0591722243,-0.06972158,-0.247250751,-0.0140397009,-0.0255207848,-0.2155538,-0.0147858663,-0.16856347,-0.5065281,0.318076521,-0.254370451,0.3737197,-0.6441219,-0.103528127,0.1316925,0.184518069,-0.491115481,-0.298147529,-0.5972627,-0.7440232,-0.119011387,-0.5217452,-0.0527108572,0.009690435,0.307254225,0.505000353,0.0120856334,-0.387048036,0.599102139,-0.0506491363,-0.250425875,-0.500387251,0.0201215185,0.713690042,0.5284962,0.474686623,-0.212121353,-0.378614366,-0.277934939,0.3342352,0.611613,0.180090055,0.05381678,-0.385797918,-0.190261617,0.217366457,-0.07669618,-0.105722815,-0.0333136767,0.08307754,0.428527683,0.470971167,0.09300873,0.211385876,-0.311384052,0.7912785,-0.0191141665,0.32005915,0.250580519,0.2850543,0.0485920571,0.185147941,0.0850176439,0.381778479,-0.0542471521,0.241505951,0.0571262278,0.05461494,-0.570984542,0.328449041,0.198636487,-0.4711801,0.152035266,0.196126774,-0.64039135,-0.24669084,-0.056822516,0.437261462,-0.1695537,-0.2246837,0.192830965,-0.0794511661,-0.00242055068,-0.38885957,0.195441425,0.06191576,-0.4554875,0.0249873735,0.5407385,0.147889346,0.06321841,-0.5127661,-0.444493562,0.423605353,-0.296397537,0.455474138,0.8755303,0.172121227,0.978203,-0.03115506,-0.06835733,-0.156679153,0.542241156,0.4145252,0.0449462347,0.1884996,0.466053158,-0.241624668,-0.06254998,0.06775751,0.242371723,-0.0371368,0.06574372,-0.07030584,0.5552824,-0.109583065,0.0263746884,-0.272033751,0.195826441,0.201494485,0.02996632,-0.05997011,0.294343084,-0.195962757,0.008058144,0.251031727,0.1968748,0.457182,-0.148119748,0.196698889,-0.21261926,0.9557856,0.024246186,0.07614717,-0.26965484,0.25823617,-0.297141016,-0.334891677,-0.24702847,-0.1643318,0.376288146,0.1617797,0.120965905,-0.243060336,0.52668494,-0.357593238,-0.184150979,0.0509986244,0.8392269,-0.9857318,-0.247080758,0.468880624,-0.356003344,-0.00169000612,0.0827775,0.006158257,0.387854517,0.5437972,-0.7978152,0.0484115519,0.06585634,0.286293656,-0.3123298,0.158429429,-0.03454306,0.2637334,-0.0165365767,-0.187099561,-0.0224590953,0.235367015,0.155389652,-0.6861913,0.193518281,0.6506205,-0.192944482,1.0080843,-0.0561714545,-0.6302717,0.005111244,-0.205801383,-0.13197054,-0.0568793155,0.103947908,-0.0854302347,0.2210357,-0.07273403,0.0392723829,0.3335122,-0.06614685,-0.0303181447,-0.319649518,0.12846154,0.204191625,0.425254256,0.3686652,-0.21310243,-0.09145424,-0.173877969,0.390940219,0.42710346,0.171827644,0.1156878,0.031700287,0.225114614,-0.131516978,0.1327492,0.6045104,0.409658372,0.3855191,0.26410675,0.539219141,0.2707411,0.262994856,0.0300361291,-0.278100669,-0.6067374,-0.161088958,-0.009487358,0.146508068,-0.000839351153,0.7087694,-0.01974256,-0.314001232,-0.0851866,0.246126577,-0.0195163824,-0.25730902,-0.103421487,0.380699754,0.180619389,0.1490613,0.2090728,-0.09738472,0.00117445807,-0.396787643,0.639477849,0.101993121,0.257693619,0.12607114,0.0671043,0.334562272,0.612258554,0.379531443,0.6190955,0.185717031,-0.0498740338,0.110738784,-0.333048463,0.2913685,0.0594983734,0.422025979,0.22582975,0.4781657,0.406081349,-0.554464638,0.110061161,-0.397110134,-0.05144293,0.595413,-0.1647601,0.0250724517,0.285735369,0.273705035,0.5019207,-0.648268461,-0.3581864,-0.08283603,-0.00339981425,0.619548857,0.269926757,0.0375692137,0.04707218,-0.118960753,-0.347541273,-0.884759665,0.103423476,0.0554438159,0.195737556,-0.389475584,0.126411691,0.6887882,0.07802314,0.237686485,-0.8437524,-0.05900609,-0.04309307,-0.5711069,-1.1617794,-0.396366149,0.151957333,0.171635181,0.4865255,-0.09198611,0.391406238,0.186437652,0.04223318,-0.022053102,0.07738977,0.229238853,0.207625225,-0.404045045,0.15123105,0.150895625,-0.07718942,0.14011845,-0.188392341,0.151658759,-0.4915621,-0.4091592,0.4984944,-0.2147933,-0.03572925],[0.638488352,-0.119543456,-0.171266973,-0.0301363375,-0.06504984,-0.04759567,-0.0279287118,-0.299668342,-0.488543153,0.192623377,-0.3654089,0.313368261,0.432533443,0.380675018,-0.3253106,0.222064525,0.2810867,0.3253328,0.19671455,-0.488848358,0.6163904,0.317996949,0.801354349,0.327680677,0.0189323388,0.479441,-0.192696065,0.1900072,-0.295979142,0.3924965,0.0729943141,-0.08663309,0.182415992,-0.07677029,-0.147161812,-0.187997878,0.365836948,0.110236458,0.573637664,-0.3817014,0.10730207,-0.116850115,-0.212570831,0.305672228,-0.0255318265,0.00521014957,0.0190943331,-0.2990845,-0.339249372,-0.409571856,0.195480436,0.212903,0.125988364,0.236913309,0.07481791,0.598865,-0.1927659,0.3635276,0.148603261,-0.2793835,-0.140975341,-0.335950524,0.03586722,0.412546724,0.127765611,-0.118070215,-0.28037107,-0.378638238,-0.151489481,0.20992218,0.0180742927,-0.568026543,0.247106656,0.3046434,0.4007133,0.003999409,-0.2655133,-0.194412351,-0.03310111,-0.6855693,0.45169124,-0.455064416,-0.303182751,-0.4350788,-0.5434662,0.215515614,0.2858289,0.241852269,-0.441889,-0.8265571,-0.3214911,-0.09835535,-0.37938574,-0.129592627,-0.203700483,0.361902446,-0.171715856,-0.01276348,-0.3422274,0.179780483,-0.464583844,-0.360949874,-0.209703535,0.106657542,-0.0285382662,-0.3781807,0.00700764824,-0.5332409,-0.1578122,-0.59056,-0.223504156,0.21536085,0.154031575,-0.208555132,0.4319309,-0.7660801,-0.100015059,-0.155056641,0.364186674,-0.172158986,0.418773443,0.2932649,0.02379325,-0.161895126,0.203871176,-0.567819536,-0.277440637,-0.217994,-0.388641,-0.022918297,-0.0467435122,-0.1628695,-0.424297452,0.08935245,0.77184397,0.0763955042,0.552906454,0.1075442,-0.08351875,0.5147281,-0.0381909944,1.11825538,0.391999,-0.250501662,-0.597697854,-0.317918241,0.381988257,-0.167822078,0.246486366,0.08716146,0.290787429,-0.04381305,0.099274464,0.433743656,-0.452240318,-0.112465806,-0.391381651,-0.0223210063,0.412015349,0.098305665,0.456349581,0.217837363,-0.1136226,-0.2259445,0.0240463819,-0.492946744,-0.6303603,-0.09379189,0.254402,-0.106936127,0.0132916225,0.00764749525,-0.07170099,-0.6919897,0.4043068,0.237147838,-0.288895279,0.7446552,-0.0761239752,0.19502537,-0.116418406,0.5203146,0.247632071,-0.49658,0.0531828627,0.118390515,-0.00194411061,0.5140022,0.288659632,-0.302478552,-0.2650408,-0.28683275,-0.109020971,0.5121033,-0.220578983,0.00185780972,0.116576836,0.187167257,0.2386744,-0.5819877,0.305690944,-0.08554291,0.3368056,0.265195459,-0.1649734,0.4590393,-0.376287073,-0.157271519,-0.7590916,0.09820134,0.172655731,0.10088405,0.407487959,-0.385728329,-0.451183617,0.177662954,-0.0729619861,0.3038111,-0.475892723,0.10985101,-0.104594328,0.256792217,-0.487319857,-0.5032694,-0.6026822,0.347885251,-0.111749724,0.07613399,-0.2379478,0.424223334,-0.102337964,0.67287153,0.02576595,-0.538030863,-0.3984656,0.2150501,-0.22706531,0.2572255,-0.469431758,-0.08223309,0.002721298,0.3505416,0.0439703949,-0.103867419,-0.042590864,0.0217905529,-0.5630013,-0.276729822,-0.04628683,0.634169936,-0.335621774,0.147267774,0.104341589,0.03348353,-0.380438834,-0.536949635,-0.30063206,0.5432119,-0.567746639,0.05194781,-0.112502828,-0.0287815761,0.381772816,-0.5197777,0.0506191477,-0.742920756,-0.253127724,0.6542456,0.468596518,0.6336437,0.0173627939,-0.362745762,0.0815392956,0.10535688,0.356261253,0.392602533,-0.245212823,0.0426274166,-0.248902217,0.309077829,-0.12384823,0.114871211,0.2677909,-0.06891819,-0.06928819,-0.007029897,-0.369011521,-0.0205605049,-0.01599475,-0.008034627,-0.495305359,0.496378362,-0.0824036449,-0.287728369,0.221510366,-0.158929631,0.09192456,-0.06523109,-0.0661366954,-0.142654538,-0.6528002,-0.0910823345,-0.0589687377,-0.05448954,-0.652002335,-0.393471539,0.498401642,-0.09597982,-0.0429885238,-0.5861703,0.217841223,0.620274,0.342261642,-0.0067680995,-0.373323679,-0.35886535,0.176508144,0.0393152349,-0.013170273,0.017701989,0.553958654,0.0247516353,-0.253803372,0.3032746,-0.02284033,0.6001219,0.055905953,-0.0757249,-0.1987308,-0.278578132,0.5112041,0.0957244039,-0.178367257,-0.0922166,0.0346380249,0.05450571,-0.191828847,0.168962911,0.413000524,-0.3177442,-0.168306082,-0.451387972,-0.363951534,0.259169579,-0.04535267,0.259925127,-0.326987416,-0.6596929,0.20396845,-0.4655379,-0.0455694757,-0.132139191,-0.419496447,0.30725798,0.214659184,-0.179254115,0.0478344038,0.25151667,-0.148234546,-0.0773378,-0.641694665,0.182396084,-0.184348866,-0.8288311,0.190373585,-0.2895341,-0.23133032,0.0603123941,-0.151037842,-0.487889379,0.139581025,-0.2682629,0.3083604,-0.464305967,-0.232948914,-0.20499225,0.0359523259,-0.101981543,0.0178377926,-0.195369184,-0.2513256,-0.0119703691,-0.04241734,0.168671265,-0.447262734,0.35150674,0.368142068,-0.32081753,0.3514765,-0.5513242,0.496016353,-0.0558458269,0.0752112,0.454342574,0.103037633,0.0539418161,0.0590846725,0.069812,0.29311344,0.5362588,0.345967472,0.168609023,-0.367101163,0.507124,-0.09806663,-0.0381776243,0.400697082,-0.0717304647,0.134868383,0.240673378,0.0174207371,0.03790636,0.09380249,0.182633966,0.475381762,-0.6938255,0.276398718,0.422747135,-0.04848818,-0.2997737,0.167370677,0.3936453,-0.008676217,-0.6081988,0.08730928,-0.0582974553,-0.1278548,-0.366429448,-0.848797262,0.362156361,0.269198537,-0.165261224,0.09074798,0.211417183,0.331794769,-0.210142121,-0.272597522,0.1361187,-0.682468832,-0.422978163,-0.1375181,-0.05207157,-0.09225666,0.138778985,-0.357035816,0.360416144,0.181502789,-0.4252087,-0.3086431,0.0225646477,0.193771988,-0.6156132,-0.217873558,0.161589161,0.401478767,0.1789835,0.233184844,-0.216967762,-0.146668911,0.0782121047,0.265430272,-0.09640173,-0.0879847556,0.6052277,-0.627893031,0.7343972,0.2535512,-0.2815406,0.02590228,-0.07146912,-0.193343118,0.5911447,0.06949333,0.281332672,-0.438495129,-0.130659938,0.009796131,-0.206675261,0.319848627,0.36361298,-0.314726233,-0.110269539,-0.493150324,0.113148861,0.1579076,-0.008081601,-0.131871089,-0.204301134,0.4457152,-0.0420737267,-0.188247576,0.661692142,0.0981451645,-0.153483242,-0.3728648,0.111192226,-0.01668929,-0.0105741024,-0.0715390742,0.578681946,-0.243066818,-0.3097738,0.075370945,-0.0809283555,0.4930248,0.313877285,-0.394448757,-0.3883827,-0.297144622,-0.284041464,0.199819654,0.04891421,-0.0161323845,-0.2269555,-0.384515017,-0.861306965,-0.9412734,0.3650088,0.48862046,0.125688285,0.5169424,0.5114054,0.4740775,0.430476964,-0.329292446,-0.357719839,0.04033623,0.136402875,-0.0221166648,0.0799831152,0.04522757,-0.3392659,-0.528446853,0.626343369,0.6975803,0.2627639,0.539197147,0.4934874,0.181644544,-0.1221989,0.7015856,-0.832309067,0.5049545,-0.007950461,0.1266579,-0.6203855,0.235489532,-0.203703627,-0.0178551432,-0.5387885,0.138957262,0.306997716,-0.09362632,-0.2994056,-0.4978263,-0.048473604,0.184217587,-0.4566411,-0.43112877,-0.0124456612,-0.129228458,-0.185588241,-0.2066971,0.6419685,-0.06474122,0.383325338,0.053746067,0.314230531,-0.0182398241,0.469981879,0.353996277,0.488902837,0.314600259,0.015532718,-0.05382475,-0.14675872,0.5487851,-0.106308453,0.2998532,-0.248979479,0.2068615,-0.17608425,0.6947629,-0.0463092662,0.06924055,-0.279381961,-0.0614230968,-0.21240443,0.604071736,-0.354137063,0.382073879,-0.386989921,-0.313099235,-0.5724024,-0.6478457,-0.2745323,0.494940579,0.385166615,-0.542769969,0.436035424,0.6223779,-0.127978981,-0.433803231,0.4505821,0.204909712,0.224518374,0.00749685429,-0.06611392,0.0578901321,-0.08585851,0.700568259,0.3198274,0.08848324,0.343916684,0.358873755,0.385350734,-0.28464812,0.263109356,-0.503892243,0.086213015,-0.3058877,-0.7691916,0.352350533,-0.292008579,0.03785723,-0.332347453,-0.242474109,0.0133766346,-0.3944024,0.8887802,0.715164661,-0.180721626,0.179361016,0.156475157,0.105749287,0.6414946,-0.116851553,0.41016534,-0.599537253,-0.03143734,-0.435473174,0.468003362,-0.10223943,0.0450111255,-0.31530422,-0.180791259,0.265497267,-0.07152585,0.433104724,0.0604426153,-0.12105488,-0.0259306878,0.05054822,0.09637477,0.497020066,-0.208249792,-0.01278162,0.194195554,-0.00574538251,-0.119334,-0.315836757,0.29217273,-0.221902385,-0.309939533,0.238593251,-0.789801657,-0.185856685,-0.217937976,0.191743046,-0.3304652,0.2814099,0.243299633,-0.0187117811,0.217748,0.323154479,-0.0528747924,0.148465961,-0.164572626,-0.513669431,0.349144757,-0.389057934,-0.16393508,0.6072986,-0.0200264324,0.000185230238,-0.4299071,-0.0262216982,-0.173991337,0.0172409136,0.469558269,0.25431186,0.1048087,0.186533391,-0.773018837,-0.0259344429,-0.00229840586,0.300067067,-0.3559835,0.245713621,-0.35273838,-0.7158098,0.255793,0.289089769,-0.292104244,-0.228026539,0.515303135,0.367971182,0.3940691,0.2698675,-0.42853412,0.50435394,-0.875156641,0.232174084,-0.831112146,-0.0953848138,0.472178131,-0.270985961,-0.129662141,0.124528639,0.201701492,0.1986048,0.23573257,0.0307513867,0.225820079,0.132452384,0.320212662,-0.06392794,-0.098663725,-0.238898128,1.01574421,-0.03753325,-0.193766326,-0.175315931,-0.334020764,-0.191690043,0.363993853,0.303124636,-0.117971905,-0.0449519,-0.679151237,-0.0534743778,-0.0121311825,0.3407051,0.259327978,0.6159589,-0.269731373,0.0600676164,-0.141961724,-0.5707904,-0.345183879,-0.5376831,0.463970631,0.317162484,-0.3829063,-0.308586359,-0.688865066,0.166212589,-0.35201782,-0.4885956,0.109434143,0.233949929,-0.300107956,-0.2525829,0.6075774,0.451130718,0.271519423,0.42073077,0.127858415,-0.5685698,0.05660511,-0.169413045,0.224443763,0.363737077,-0.252980143,0.5940928,-0.224433467,0.235399038,-0.4774579,-0.116380624,-0.00796082,0.813125849,0.08950172,-0.03603672,-0.2683884],[0.38763395,-0.0532805249,-0.0531115048,0.09985356,-0.156196669,0.398495018,0.02829281,-0.311019868,0.395641476,0.0400062539,-0.1954684,-0.07184345,-0.0461325161,-0.1660795,0.606475234,-0.251290381,0.2986949,0.115058109,0.06919096,0.210103273,-0.2459003,-0.17703867,-0.280996084,0.5220996,0.0383518524,0.313146442,0.07680643,-0.3930556,-0.377144784,-0.235621884,0.0207672231,0.5256673,-0.0924457163,-0.390910983,0.492415756,0.08639042,-0.5083924,-0.356597155,-0.324771971,-0.0240448769,0.29698655,-0.09026867,-0.362740457,-0.09296717,0.135067374,0.209844768,-0.498881072,-0.323522747,-0.367157221,-0.6514144,-0.276523381,-0.608127356,-0.169659778,-0.131083652,-0.337833881,-0.452781469,-0.410014659,-0.121570893,0.71550703,0.120950095,-0.07962692,0.04767362,-0.3576692,0.02671906,-0.451977372,-0.559942365,-0.224026576,-0.413521767,0.0374309979,-0.115882367,0.115150213,0.530486345,0.2028778,0.0303195342,-0.0430562869,0.3177717,-0.044465676,-0.00756186154,0.066964075,-0.23450686,0.06952953,-0.244397208,-0.18797867,-0.07297015,0.292798966,-0.146555364,-0.5409471,-0.5047398,-0.280543149,0.448921263,-0.0499181449,0.524326742,0.164138511,-0.133998215,-0.6200038,-0.0129266977,0.301209718,0.2455658,-0.0159399044,0.286548853,0.419366419,0.03875134,-0.40184,0.0700602159,-0.207101151,-0.124708153,0.15925011,0.232768044,0.361527026,0.359975666,0.08275284,-0.3109655,-0.439103156,-0.484296054,-0.393036753,0.464627057,0.414204419,0.165536553,0.357161939,-0.05248722,-0.0959643349,0.7473167,0.0298701171,0.5761742,0.660816967,0.320285171,0.517273,0.4475734,0.179320931,-0.15370433,0.374912024,-0.0474513546,-0.205737114,-0.139080554,-0.181153089,-0.260627061,-0.277299076,-0.390875,0.0891578048,1.04776347,0.40256393,0.3208106,0.378337324,-0.616076767,-0.29740724,0.086245276,0.0886052251,-0.105033644,0.34228152,0.276532918,-0.08294874,0.30995214,0.19559215,0.428985924,-0.0950129554,-0.121486977,-0.411104679,0.495518982,0.283766747,0.5242613,0.452519327,-0.487676233,0.07577173,-0.186641142,-0.180033714,-0.355949,-0.345856339,-0.4245322,0.2820033,0.4335938,-0.22560139,-0.208625078,-0.317095369,-0.368195236,0.10888467,0.0316037461,0.03443933,-0.1773896,-0.421748042,-0.25673148,-0.0259996578,0.124388993,0.3347806,0.17286101,0.230024621,0.240420148,0.223439142,-0.305506617,0.486060172,-0.178728983,-0.09305317,-0.115373291,0.137689888,0.450351357,0.8726542,-0.3696677,-0.129731908,-0.451339155,-0.557421267,-0.0760464445,0.0344935879,0.53391856,0.450107634,0.277070135,0.0412052,0.3718098,0.3131647,0.410648316,0.236795023,-0.09316448,-0.36462453,0.483377546,-0.00629189145,0.205439344,-0.3488332,-0.139794081,0.08620795,-0.120592505,-0.409557849,-0.46485275,-0.4825191,0.0132068573,0.133994579,-0.06365883,-0.38404724,0.1712487,-0.131421432,0.171545655,-0.0632433742,0.181850359,-0.278456777,0.161876455,0.0438787267,-0.34634766,-0.07345902,0.441009969,0.06178531,-0.123850152,0.3488564,-0.079160966,0.319363832,0.0512153432,0.231107786,-0.7229691,-0.036235027,0.197628528,-0.484045953,-0.5192267,-0.478425354,0.2427688,-0.03322069,-0.508689344,0.137780085,-0.430543065,0.219219923,0.316380322,-0.4180741,0.23983568,0.349633247,0.16845037,-0.412058264,-0.9730959,-0.226277813,0.5743953,-0.163636446,0.366101533,0.287702,0.20560579,0.328378,0.301885068,0.718748868,-0.5942749,-0.04387507,-0.08080973,0.09526316,0.131627843,-0.0274302717,-0.0486303158,0.3776562,-0.474101275,0.442229867,-0.217408627,0.235151023,0.324555337,-0.8627197,-0.293554455,0.255314678,0.05833334,0.264431655,0.144609571,-0.04937478,-0.06427523,0.371644735,0.6492058,-0.448727638,-0.0179114733,-0.181561291,-0.0292051416,0.125162244,0.0290726181,-0.0187903512,0.30639407,-0.06782397,-0.3743521,-0.4419299,0.456605315,0.288625658,-0.173381731,-0.115635224,-0.05109547,0.711905241,0.6905777,0.440431744,0.159923136,0.1932218,0.204945177,-0.413990021,0.06913581,-0.0210636444,-0.0222226121,-0.0259247869,0.07241982,0.5342509,-0.362830728,0.161898553,0.07202072,0.124308132,-0.04634359,0.50170964,0.00310481573,0.256050438,0.307531148,-0.260481834,-0.0342112035,0.0581491776,-0.1497341,0.2837601,-0.160097256,-0.189876124,-0.1027628,0.119912349,0.5107285,0.132584229,-0.27292487,-0.243462071,-0.1295403,-0.5175843,-0.625308633,0.128609419,0.182312489,0.415752381,0.117905274,0.423334241,0.6183376,0.172134712,-0.321514,0.5002791,-0.564748347,0.114421032,0.391179681,0.09446761,0.383593529,0.3147844,-0.177208051,-0.611512959,-0.04555755,0.0728572458,0.244679183,-0.428924143,-0.06772513,0.9952671,0.726147532,0.19354859,-0.0467109755,-0.155701637,0.0439702533,-0.754559338,0.383566946,0.6952741,0.6348855,0.186042279,0.506537855,0.876102746,-0.360211432,-0.212887883,0.3514518,0.5413307,0.183236554,-0.5735205,0.112204775,-0.304733276,-0.580510139,0.137582257,-0.193084389,0.0828744248,0.207647219,-0.2621622,-0.216130972,-0.757736742,0.436539948,-0.2834739,-0.5261817,-0.613075435,-0.9289283,0.280654877,0.443884015,-0.449587673,-0.4204468,-0.19414489,-0.378773719,-0.423721641,-0.312978446,0.498037666,0.3780977,-0.153929055,1.3074832,-0.352410138,-0.101756409,0.322359383,0.08630625,0.4154331,0.3980494,0.235598132,-0.126376718,-0.5583507,-0.04489144,0.115277335,0.0108598284,-0.392489463,-0.08402961,-0.4370408,-0.184347034,0.5033873,-0.263625443,-0.332933635,-0.327132046,0.593775034,0.1363054,0.458534151,0.907667339,0.184025109,0.2855577,0.08486085,0.161428973,-0.0603407733,-0.21039997,0.176919773,0.202710852,-0.593807459,0.172897741,0.217403173,-0.201030076,0.3051009,0.44446677,-0.225060239,-0.175820976,0.252655357,0.0547983944,-0.3196869,-0.6607373,-0.3303441,-0.253509641,-0.06921981,-0.161965147,0.09048183,0.154772013,-0.180080369,0.07885581,-0.0335122459,0.223255441,-0.05804793,0.4221576,-0.0192976911,-0.237559631,-0.4004515,0.146807387,0.1914921,-0.0371620543,0.176196277,-0.06365816,-0.3180482,0.453627259,0.4420312,0.113677241,0.06343624,0.0254353583,0.07287219,-0.06958061,-0.502409041,-0.215287656,-0.170970425,0.244875923,-0.344302446,-0.00438472675,-0.105897032,-0.538247,-0.206661731,0.391812056,0.8601352,-0.152464762,0.478426158,0.133300185,-0.252321631,-0.792318463,0.0407941975,-0.232104078,-0.2294162,-0.06327649,0.575365543,-0.199491531,-0.0614534467,0.423619419,0.0271156281,-0.205820516,0.428319961,-0.101875253,0.800190866,0.187244177,-0.102497004,-0.150993392,0.119992062,-0.124431148,0.144345015,-0.348096,0.284004033,0.0219309535,-0.23673144,-0.433107167,0.2920883,-0.5431701,0.09813815,0.275770724,-0.4697748,0.157226875,-0.123014189,-0.565198064,0.07953778,0.333624631,-0.194131583,0.680249333,0.2365014,0.371467233,0.47891584,0.589453936,-0.3301002,0.307535529,0.407865137,0.116948344,-0.21620506,0.470599622,0.233101845,0.1854342,0.243400872,-0.348132342,-0.2096174,-0.1708159,-0.5275926,0.3708664,-0.08428756,-0.203870222,0.214012861,-0.4281217,0.361047834,0.3902285,-0.5338754,-0.173643753,-0.114215791,-0.212597355,0.5135574,0.280160964,-0.056700062,0.167939991,0.455889761,0.443463475,-0.252356023,-0.2790164,0.123027571,0.0526894,0.428785,-0.5219875,-0.0598397329,-0.3232767,-0.0158671923,0.334709883,-0.4130725,-0.0293490551,-0.12759757,0.4228746,-0.178860188,-0.162730217,-0.07176707,0.268341959,-0.302549064,0.0809691846,0.153259277,-0.22751984,-0.0567353144,0.0306197274,-0.0103675574,0.4039503,-0.0121825412,-0.492212743,-0.0357056968,-0.2994228,-0.07854659,-0.269171953,0.311350673,-0.177977547,0.5628807,0.448396444,0.0412068255,0.113846585,0.5517989,-0.06783131,0.102634728,-0.51149106,-0.06275427,0.0899597257,-0.06091715,-0.2844376,0.488172919,-0.292610854,-0.4086778,-0.00144931045,0.707198,-0.169402927,0.3002762,0.0353377759,-0.46732378,-0.107105926,-0.0649909154,0.07430701,-0.403345019,-0.004518827,-0.195266321,0.103426881,0.101321734,-0.1624607,0.115545012,0.5123845,0.150230065,0.154530331,0.296281546,-0.1138565,0.2592683,0.6629156,-0.5882617,0.128671467,0.5877494,0.214559853,0.5374364,-0.282558322,-0.0620849356,0.207040742,-0.3411756,-0.1509612,0.305137336,0.113771096,-0.163535818,0.112304732,-0.123883009,-0.0575077347,-0.1635285,0.08119856,0.526607335,-0.36239624,-0.177882984,-0.5197259,-0.467459947,-0.785096765,0.04817946,0.3475244,0.09409385,-0.182102785,-0.7150172,-0.045620352,0.6898899,-0.1700945,0.3447739,-0.727586865,-0.467189372,0.0402799733,-0.125321373,-0.6301024,0.404928774,-0.5154954,0.141947567,-0.193389937,-0.865036845,0.237589821,0.17328003,-0.0327738225,-0.479370058,-0.225035444,0.2223145,0.379765123,0.2219271,-0.4521563,0.8395147,-0.165351778,0.0188594144,-0.157371953,0.304475635,-0.613952637,0.207779408,0.0439731851,-0.0285613276,-0.175234035,0.0918687955,-0.164160758,-0.0146476049,0.510988951,0.09706234,0.2199943,-0.5145286,-0.4036027,0.6204518,-0.3403159,0.02886927,-0.241175964,-0.372796774,0.00596187031,-0.375603974,0.6366283,0.483305037,-0.0472972766,-0.342853367,0.105833508,0.618454456,0.185774088,-0.197564378,0.2999182,0.09008212,-0.5139031,0.0969706848,-0.7247004,-0.215442166,-0.412036061,-0.0109287016,0.03354444,-0.07489567,-0.541981459,-0.120469749,0.52266264,0.0192572512,-0.07158511,-0.0646030158,-0.247987539,-0.3831223,0.194842413,0.294182152,-0.52056,0.334958017,-0.08458735,-0.332729638,-0.000827354,0.146685585,-0.211405084,-0.0556011237,-0.2863509,0.0153325889,0.6422836,0.0110916514,-0.09749542,-0.377735436,0.281401217,0.226330683,-0.127716944,-0.156377181,-0.06827976,-0.267831683,-0.119638465,0.4233805,-0.221457019,-0.0705566853,0.166815057,-0.681073368,-0.0307311788,-0.217563391,-0.181955665,0.430493057,-0.6869761,-0.3496601,0.0120258117],[0.425079048,0.0579572245,0.0689571053,0.350982457,-0.179593712,0.229794309,-0.0224665366,0.185801432,-0.219036222,-0.0699009746,-0.4574408,0.06693294,0.410868376,-0.195013255,-0.2774679,0.419419348,0.1551867,-0.6121705,0.04020648,-0.144325688,0.564819157,0.33106336,0.08277166,0.08288617,-0.06203805,-0.378405422,-0.165958136,-0.2306343,0.4605083,-0.293264359,0.313264817,0.388605028,0.3006122,-0.09483089,0.156221658,0.08557984,0.238347739,0.004422288,-0.36083436,0.4661524,-0.2523261,-0.144600391,-0.6814617,-0.0839215145,0.06166577,0.423059136,-0.221443653,-0.443605453,-0.209392443,-0.2210868,-0.6222025,-0.295733869,0.07479093,-0.3969801,-0.1287086,-0.49251774,0.128091559,-0.394061148,-0.25276646,-0.247492224,0.04464877,0.37291044,0.06823929,0.258610457,-0.1723572,-0.5267144,-0.0339154266,-0.38346976,-0.220407933,-0.330277264,-0.5509648,0.0227045678,-0.4756019,0.008357046,-0.1688285,-0.4561984,0.252360523,-0.1624144,-0.253673732,-0.6716135,0.236964554,0.296144158,0.199865609,0.208433717,0.7057351,-0.599505365,0.0958949253,0.488170624,-0.0286463983,0.0275157858,-0.922445357,0.0733506754,0.111251816,-0.119399026,-0.23706916,-0.19171688,-0.264720976,-0.03871161,-0.142925084,-0.423963577,0.3383786,-0.139983192,-0.224824175,0.425219268,-0.0208125859,0.137429833,0.08165091,0.08269097,-0.0244491547,0.130301759,0.10060636,0.159278676,-0.09196653,-0.1687786,0.2845226,0.342202961,0.01530159,-0.2260543,-0.245812938,-0.00408152957,-0.6836625,0.1672812,0.013215309,-0.37169534,-0.101370186,-0.5054326,-0.122975625,-0.0353687219,-0.06962912,0.3238146,-0.2860378,-0.156553358,-0.0392412581,-0.200545311,-0.768488944,0.122731,0.175229087,-1.06773329,0.256145328,-0.210163563,0.125135124,-0.228651762,-0.372338444,0.02901903,0.101120256,0.3786332,0.21995084,0.204516917,0.0155569557,0.3536565,-0.447458774,0.243280739,0.319913119,-0.7299723,-0.101791784,-0.0216948539,-0.0134519972,-0.187127188,-0.163051009,-0.0431041345,0.174314186,0.08176799,0.0195117518,0.519087,-0.334504843,0.06878271,0.680777133,0.09963823,-0.179773927,-0.3861165,0.0759649,-0.224676415,-0.08199891,0.4878371,-0.666544,-0.116309635,0.1387043,0.0265617147,-0.310260832,-0.02912958,-0.150184274,0.163193345,-0.3224688,-0.206770509,-0.2930409,0.02509284,-0.199387565,-0.275089651,0.269242048,-0.304721981,0.083801046,0.592666447,-0.6398474,-0.395961672,-0.501279354,-0.00294322567,-0.281367332,-0.49348706,-0.1468577,-0.5396137,-0.256766379,0.187560081,0.1076267,0.4261062,-0.154408,-0.0513341576,0.208355308,-0.105320245,0.196956,-0.536274254,-0.0955903754,-0.5851882,-0.4822206,-0.0556818955,0.243580475,-0.8573655,-0.186324149,0.08773038,-0.58652693,-0.307934582,0.226687625,0.172438309,-0.09332706,0.694455445,0.206229031,-0.686660647,0.0113753648,-0.3745564,0.298930615,-0.369628817,0.243919209,-0.3300183,0.109942742,0.0138615379,-0.32180804,0.193418756,-0.243375421,0.646972,-0.165567592,0.145596862,-0.005055735,0.06657014,0.454890132,-0.336156338,0.13631992,0.154273227,-0.2903978,0.0124560567,-0.0334090777,-0.40287143,0.710151434,-0.445457071,0.135012791,-0.368460536,0.460446239,0.3664337,0.133913144,0.6229776,0.169690534,-0.104019769,0.397457063,-0.258418053,0.109246746,0.07677227,-0.140470386,0.32358557,-0.0155456392,-0.632243454,0.182097122,-0.06274673,-0.5020382,0.402001858,0.0121723,-0.02658112,-0.245239675,0.3337677,-0.380067557,-0.6429602,0.245880187,0.0485101119,0.191917345,-0.199982226,0.3672278,0.197063223,0.14433293,0.0586367324,-0.12113753,-0.367253661,0.123530537,-0.05713091,0.106096469,0.3940486,0.52373606,-0.08185967,0.265714318,0.13143976,-0.256011039,0.255823046,-0.114711076,-0.218153268,0.0115668317,0.3271732,0.1458489,-0.12201681,0.362728357,-0.2077838,-0.147682,-0.117676422,-0.290727,0.253376931,0.395737022,-0.08755994,0.2762226,0.0760239139,0.8007822,0.1456774,0.5764544,0.6182746,0.434122652,0.115670882,0.3300166,-0.07204083,0.497024268,-0.0710284337,0.151603669,0.367554158,-0.208233073,0.224751726,0.06357829,0.100818157,0.12685293,0.07071814,0.377772242,0.355125874,0.236253008,-0.11724022,-0.442123353,0.269581079,-0.188518092,0.0709728,0.3699647,0.0710510463,0.00454799039,0.146153465,-0.170506164,0.58384347,0.4768047,-0.0395906121,-0.486934185,0.8400888,0.255020946,1.19237888,0.0960729048,0.575948358,0.0160234179,0.131260812,-0.3042435,0.06627345,-0.3925306,-0.07703652,0.19191429,-0.26358512,-0.108745091,-0.3919039,-0.225776687,0.160274491,-0.132673636,-0.0370684974,-0.469583929,-0.4610958,0.463488966,0.210555717,0.419342875,-0.5615122,-0.6098087,-0.203847751,0.0008672622,0.113758765,0.171048984,0.321205139,0.286458641,0.346608043,0.1427234,0.735836565,0.133799821,-0.0155989984,0.28958866,0.201945812,0.220878378,-0.450130016,0.0806075856,0.172719389,0.5606041,-0.339484572,0.592576,-0.000689111766,0.213291675,0.05517855,0.145137623,0.5808646,-0.4998548,0.116125107,-0.275897175,-0.17779398,0.283825427,-0.221770361,-0.189802647,0.463184327,0.302144885,0.518678963,0.350978851,-0.497611344,0.06994897,-0.148801938,-0.259176075,0.122036874,0.173817933,-0.265232,0.0447023362,-0.22659409,-0.352227867,0.215995044,0.356259733,-0.150460526,-0.103269406,0.0208085477,-0.438857466,-0.333412975,0.09057493,-0.6197033,0.8568242,-0.374895126,0.269730866,-0.2007906,-0.616452456,0.383953452,0.321667522,-0.260301918,0.0458444245,-0.278007567,0.23503764,-0.6874276,0.10844098,0.518435955,-0.589098036,0.0304005723,-0.369562447,0.250125468,0.0543689355,0.284270316,-0.22227098,-0.339921623,0.181612551,-0.446045458,0.3821849,-0.200306714,-0.08659771,-0.310568482,-0.0196555313,-0.183288381,0.553648531,0.49844268,1.04217088,0.191161171,-0.04254525,0.323252678,0.123209611,0.0316252336,0.2853256,-0.0236452445,-0.07213146,0.416317523,0.07781141,-0.0564277731,-0.2958249,0.05714169,-0.216818973,0.871781,0.5226567,-0.260423839,0.17575115,-0.173705831,-0.357535034,-0.401072651,0.09973725,-0.387248278,-0.284204721,-0.3405207,0.5025329,-0.07913651,0.218908265,0.223641828,0.103749372,-0.431495726,-0.0660895,0.277916,0.3373751,0.0139105991,0.104056388,0.7083243,-0.0583836734,0.135339662,0.3130465,-0.007354488,0.111766353,-0.599577963,-0.0800442547,-0.113810465,-0.19112727,-0.0497322455,0.09210641,0.150124833,0.367062747,0.7628572,-0.116918653,-0.009454864,0.21889466,0.9632177,0.0868648,-0.4233818,-0.337888569,-0.147861883,-0.327118516,0.1669473,-0.386492342,0.369862258,0.241209134,-0.123593427,0.191664413,0.4153097,0.822644532,0.168859854,0.216122717,-0.153776571,-0.28807652,-0.59064734,0.3120073,0.480575264,0.396563441,0.05157008,-0.0137175173,0.068542555,-0.6427353,0.259436965,0.008941633,0.276432663,-0.203168079,0.1819712,-0.3330843,0.411571741,0.461728334,-0.303213358,-0.2637457,0.152427971,0.121044211,-0.3100637,-0.414783776,-0.04866442,-0.2884253,-0.739322066,-0.00516065769,0.5345068,-0.488738239,-0.313003659,-0.04043618,-0.365082949,0.130407289,-0.2144709,0.1921262,-0.05893968,0.465936244,-0.2243642,-0.5150918,-0.215279952,-0.1984806,0.454450339,0.153741941,-0.337311327,0.5459685,0.129321992,0.0657421052,-0.5869432,-0.0111594023,0.0477751531,-0.3700843,-0.3202011,-0.721153438,0.232893467,-0.68266964,0.06777371,-0.136227012,0.152164027,0.208490446,-0.100332595,0.06864706,-0.25465098,-0.353247136,0.153504342,-0.228000447,-0.387719452,-0.6108169,-0.0477406941,0.350216478,0.140097976,0.06796511,0.211638778,-0.430850655,-0.5003259,0.305049866,-0.0208942574,-0.489299774,0.336059153,-0.636897862,0.0349371321,-0.3271618,-0.136398867,-0.0269627068,-0.290397644,-0.312064469,-0.0272959527,-0.412921876,0.474289656,0.1453323,0.287744433,0.355547637,-0.195707053,-0.137961358,-0.482422382,-0.139032215,-0.207274944,-0.6103043,-0.380255044,0.275574416,0.3763449,0.1408506,0.4033013,0.187368467,-0.396006823,-0.1988312,-0.0484302454,-0.476978272,0.452786237,0.08968775,0.071935825,0.137404144,0.07423936,0.453046948,0.364350528,0.450478047,-0.5208726,0.000166342958,-0.055810485,-0.234689027,0.157180846,-0.45559302,-0.425296754,-0.2500871,-0.447241247,0.213038489,-0.5032182,-0.19414629,0.112255707,-0.171682075,-0.598525167,-0.5698182,0.5503982,-0.277381867,0.4419631,0.347963721,0.28882575,-0.311217546,-0.7531993,-0.5018656,0.200252,-0.1948123,0.2102034,-0.5954078,-0.2935576,-0.08167392,-0.356203,0.2076619,-0.0187758952,-0.203572661,0.0465539545,-0.300201833,0.244304731,-0.08896942,0.0352636166,-0.07351418,0.6630002,0.239136085,-0.416405767,0.00724110473,-0.267083764,0.723945141,0.282800853,-0.626166463,-0.118887328,-0.08364102,0.209240288,-0.210137174,0.0401403643,0.303447276,0.301223725,0.24899359,0.08510882,-0.0308977254,0.1809844,0.3220801,-0.260614336,0.0528679341,0.100492656,-0.261638254,-0.1524201,0.457778245,0.38989225,-0.07588906,0.511807561,-0.08347706,-0.217991248,-0.4309927,-0.477201045,-0.483958274,0.264097959,0.08304778,-0.108477876,0.0436414257,-0.324949771,0.193690866,-0.148625,-0.9868637,0.0160573944,-0.242242277,0.308268875,-0.1664285,-0.200400531,-0.0450391844,0.0559138246,0.159356162,-0.0181136951,0.553941965,-0.6454021,-0.395042717,0.411282659,-0.0187082924,0.3921106,-0.632122338,-0.209570527,-0.181250587,-0.625349164,0.338499129,0.378588378,0.3204616,0.100973785,-0.367201,-0.05536315,-0.5099167,-0.5034069,0.3682168,-0.07342324,0.226936266,0.199309558,0.107019588,0.228005573,-0.4639932,-0.02610765,0.08794371,0.27414155,-0.056040056,0.616983652,0.05559895,0.444778353,-0.364015,0.6013405,-0.40869,-0.515281558,0.1806604,0.5259978,0.119627386,0.7369709,-0.254454076,0.102029458,-0.0189616047,-0.09709351],[-0.0390853174,-0.7078475,0.153045565,0.03939999,0.151168779,0.403632283,-0.116177008,-0.136333466,-0.666815341,0.04792867,0.3743193,-0.0414865464,0.453575939,-0.407612741,-0.03670674,0.08801948,0.680686235,0.06034751,0.217696011,0.275454253,-0.428257644,-0.0957364,-0.1340431,0.602648556,-0.211338982,0.05950961,-0.08563802,-0.211851358,0.251455843,-0.401370049,0.19872959,-0.1596141,0.3938256,0.201828554,0.276530564,0.16379495,-0.342750847,-0.8829525,0.420779079,-0.612633765,0.4746323,0.0183298141,-0.168956548,0.571118534,0.388651639,0.206834272,-0.2666861,0.471309364,-0.123981647,-0.412034422,-0.1900245,-0.0769251361,-0.2179853,0.133604467,-0.06679235,0.4322234,-0.3598721,0.335059524,-0.109662682,-0.248552114,-0.0438666828,-0.008023011,-0.427409559,-0.368217856,-0.379694849,0.07585121,-0.1964395,-0.34626627,0.019889731,-0.3976257,0.446119428,-0.09540439,0.03012261,0.440936834,0.08802872,-0.467812955,-0.110138759,-0.2762751,-0.209220529,0.0779345855,0.214963943,-0.0141086048,-0.255157858,0.173372835,-0.394364268,-0.3901665,0.1468851,-0.3556028,0.221864641,0.123491488,0.341396451,0.0707460046,-0.151819989,-0.144364953,0.07409667,0.0159653984,0.40713048,0.28832674,-0.0315791443,0.233293518,-0.439368427,0.104001477,0.11098925,0.0508476943,-0.651460052,0.285379052,0.04896289,0.218229681,0.168652952,0.467680722,-0.06668807,-0.1865003,0.143648639,0.5399173,0.7044863,-0.497157544,0.299057,-0.0404493958,-0.0107187554,0.2037743,-0.150509819,0.412943155,-0.23148641,0.211321637,-0.08692734,0.160205379,-0.3936733,-0.39736858,-0.211747155,0.3864559,-0.546177864,-0.430187166,-0.138985962,0.180187061,0.284314483,-0.699237168,0.0900128856,0.304644465,0.6144909,0.239395753,-0.2179063,0.310399473,-0.104218587,0.1222283,0.07212622,0.563628137,-0.1790406,-0.360534519,-0.177346438,-0.208171114,-0.351527572,-0.456191421,-0.164574817,0.549139857,-0.189634755,0.0398504138,0.0326245837,0.320509881,-0.0345627628,0.0678869262,0.181211635,-0.179309741,-0.137588412,-0.510412455,-0.100106336,-0.0544835366,0.306620151,0.0294753388,-0.171730429,0.5026924,0.299323678,0.0004505405,0.1991869,0.0962860361,-0.0783037841,0.0599318333,0.302743316,-0.429730237,0.3637424,0.0450481772,-0.120971106,0.284554571,-0.37361598,0.0682302,-0.253891,0.307078838,-0.233302072,0.243963853,0.287591666,-0.5472291,0.5619828,0.2232463,0.07232259,0.0911396146,-0.0380281,0.224589512,0.6411509,0.15914461,-0.558113039,-0.126211181,0.221056312,0.381681174,-0.261250049,-0.105595186,0.460487038,0.0542827323,-0.121629357,0.190987051,0.115558781,-0.29218,0.7281331,-0.48129043,0.6030525,0.6447402,-0.142346844,-0.408633471,0.3051083,0.426564664,0.169820875,0.0503336564,0.008329335,-0.774794,0.01882358,0.404801846,-0.2536311,-0.2827946,0.7684018,-0.07912741,-0.160847291,-0.205532357,0.0434703939,-0.227095932,-0.04544016,-0.335683346,-0.191497058,0.10835351,0.709488869,0.0216455143,-0.8153134,0.4272999,-0.136268362,0.204580635,0.49013868,-0.123899519,-0.09067799,0.441726953,0.17600581,0.1566443,-0.0220861975,0.09694179,-0.282125533,-0.5385342,-0.483208984,-0.21401909,-0.5332552,-0.07070138,0.296266615,-0.3383111,-0.300608665,-0.6681458,0.0234878529,0.0403428078,0.4204195,0.325306147,-0.195277885,0.08105065,0.131934658,0.180460766,0.2583086,-0.355209172,-0.0267796367,-0.246937379,0.2088527,0.0281301476,0.128183633,0.259737074,-0.225176916,0.50657177,-0.0225313511,0.172625661,-0.368382335,0.3340558,0.0404674448,0.0391180664,0.0909037441,-0.003069014,-0.0723924,-0.527659,-0.00743527757,-0.582747161,0.4940607,0.689795434,-0.07057193,0.3856156,0.313608021,-0.395074964,0.0286226925,-0.7033985,0.395566642,0.0805741251,-0.293720663,-0.292917252,0.07225302,-0.351286829,-0.234762087,-0.4536413,-0.221816972,0.212753534,0.360749125,-0.04767015,-0.0532275476,0.04314095,0.1635608,-0.225024283,-0.220131651,-0.608622,-0.00115403451,-0.4540439,0.041402135,0.1209776,0.3840873,0.4382549,0.187116235,0.115324624,-0.320499867,0.432028681,0.440538555,-0.2074162,-0.4531191,-0.21838668,-0.118357547,-0.0203409139,-0.398617774,0.0981205851,0.4530403,0.601101041,-0.39668414,-0.6472771,0.441714674,0.172713876,-0.432183832,-0.225552142,-0.581592,-0.325535059,-0.679825962,0.215481281,-0.1400386,0.382172883,0.07241063,0.27748248,0.0932089239,0.109954059,0.00108762283,-0.416517556,0.3903015,-0.293021083,-0.525873,0.2691191,-0.198167056,-0.347074538,0.5083176,0.0412324481,0.143916979,0.785854161,0.134193957,-0.0664285645,-0.156919241,-0.205590114,-0.447343618,0.0380421467,-0.3710638,-0.511434,-0.00175002986,-0.08823965,-0.358703017,-0.0327540822,0.0323456824,0.219430566,0.6404526,-0.2266786,-0.08767627,0.543952465,0.3447922,-0.389034957,-0.219782934,0.555156469,0.0522787,0.106284678,0.0467650928,0.233525157,0.03522506,-0.0532618053,-0.106036566,-0.392450541,0.185887843,-0.168425247,0.445651472,-0.436132133,0.208132476,-0.143035889,0.6741637,-0.204141,-0.1385217,-0.100287177,0.125164837,-0.262137681,0.153372839,0.3162613,-0.065356046,-0.204605252,-0.7454631,-0.0309697241,0.6578041,-0.0693985,0.13015388,-0.200685278,0.7003948,-0.468805879,0.229484141,-0.059097793,-0.09887013,0.120821185,-0.221946433,0.372197449,0.00426205667,-0.01776294,-0.215825468,0.326609075,0.3669564,0.177125722,0.07506743,-0.3322583,-0.122170247,0.2997512,0.0202339943,-0.221797034,0.193848029,-0.005489081,0.3520966,0.225487337,-0.2319576,-0.228414759,-0.5691511,0.217962191,-0.1892492,-0.3159752,0.117583141,0.450174123,-0.07631539,-0.113886543,0.668486,0.373127073,0.415617526,-0.196149945,-0.233305782,0.08564938,0.343028843,0.2874485,-0.2897825,-0.470446438,0.407884866,0.03946976,-0.0466063321,0.114405029,0.430306435,0.308648884,-0.3413127,0.247200876,0.297973156,-0.04551251,0.355803728,-0.453041,0.194449589,-0.3186308,-0.249216825,0.14122659,0.3742673,-0.327488333,0.0236580577,0.231725171,-0.0318719558,-0.6127251,-0.1564141,-0.247807428,0.120147146,0.892545164,-0.0808074251,0.17247206,-0.05717147,-0.490710258,0.199585572,-0.142060786,0.0160739142,0.142659321,-0.2161805,-0.421153873,-0.15506421,0.06532397,-0.009041869,-0.410243571,-0.07288371,0.0246881936,0.0613213331,-0.134943739,-0.0338812247,0.0568741038,0.135143936,0.164833248,-0.36545828,-0.2848604,0.6293423,0.40310207,0.2131678,0.0661231,-0.209156319,-0.4510537,-0.639017642,0.147365451,0.1250592,0.128869429,-0.146520332,-0.409318924,-0.00592808565,-0.293295234,-0.03681342,0.8186591,-0.0957643762,-0.29005903,0.5292395,-0.007990593,0.393303454,0.153546438,0.05683141,0.0276268478,0.2521754,0.351278216,0.124728195,0.7499946,-0.187731072,-0.393296123,0.3407614,0.458755821,-0.19962129,-0.13128306,0.737293839,0.8494853,0.459745556,-0.246535182,0.08850995,-0.208261982,0.338030756,-0.129154637,-0.7361625,0.41848278,0.420974553,-0.0506067574,-0.06140596,0.090423435,-0.743151844,-0.160331041,-0.157034084,0.322750032,0.421382248,-0.0244808067,0.230330691,0.4610391,0.111149244,0.297911972,0.639926136,0.3711497,0.282775968,-0.74438405,0.196478009,-0.0279090554,-0.293123126,0.3140269,-0.5704225,-0.511562,-0.264800251,-0.187355161,-0.213039637,0.0161997415,-0.1607043,0.146602929,0.0171969663,-0.111193329,0.414076328,-0.5801538,-0.187641963,-0.41738236,0.0521574654,-0.551386535,0.266176343,-0.042448096,-0.3135096,0.252727121,0.251660526,-0.08517175,0.34316504,-0.0437191464,-0.416353852,-0.1184155,-0.298424274,0.0372876972,-0.09624193,0.03781461,-0.324762344,0.718612969,-0.018084636,-0.464800954,-0.321082383,-0.06114606,-0.03597396,-0.344557166,-0.0967094,-0.478937,0.0210821275,-0.1323041,0.2816279,-0.212633744,-0.0442709737,-0.154191256,-0.100940786,-0.158912063,0.473931044,0.25111413,0.334036231,0.128016,-0.124304846,0.6958877,-0.0445235446,0.230971873,0.272378534,0.4254837,0.06252595,0.277778834,0.1627815,-0.409468144,0.06058209,0.5895971,0.094810985,-0.273807049,0.170683116,-0.00806242,0.232199818,-0.419841528,-0.132668391,0.436756372,-0.2876601,-0.2944735,0.06224352,0.18173258,-0.302028984,0.0236873385,0.221764788,0.486022919,-0.233855337,0.364780039,-0.3997989,0.17569901,-0.644909263,-0.114690341,0.005350757,-0.07000391,-0.004191926,0.0415499732,-0.03953364,0.120379768,0.132717386,-0.132240161,0.190276518,0.322502524,-0.0512202643,-0.008822826,0.319123864,0.0104067633,-0.07878916,-0.00533946929,0.197992817,0.571770549,0.06510696,-0.1557404,0.5155127,0.440552354,0.000400587043,0.0103767281,0.04377587,-0.4306203,-0.02834423,0.17428422,0.2577116,-0.414498478,-0.190675944,0.1465124,0.6196449,0.337199718,-0.4015386,0.5605552,-0.237771317,-0.188581362,-0.392094672,-0.3047959,-0.202170521,-0.350162983,-0.67972517,0.5184994,0.09160032,0.615188658,0.0641947538,0.171449959,0.369243,-0.0308845118,0.275956184,-0.138109848,0.5310194,-0.122005686,-0.14386481,-0.006658041,-0.159201086,0.0901220962,0.113603421,0.615282536,0.704490244,0.433003783,-0.128444672,-1.02075994,0.0451673,0.5283836,0.190928683,0.573635161,-0.160410389,-0.107428625,-0.282676965,-0.288288772,-0.3685031,-0.190503865,0.0789789,0.0537034348,-0.0271555372,0.4178731,0.03693897,0.140334949,0.62054354,0.3586778,0.296654224,-0.934704244,-0.4188431,0.2220649,0.3762959,0.297759145,-0.192148253,0.0589299165,0.168938249,0.08998531,-0.296026736,-0.153357461,0.114792876,-0.5269359,0.766291857,0.116131142,0.451133847,0.430071384,-0.317232549,0.361070842,-0.065836966,-0.18166633,0.183329418,0.279292881,-0.270019025,-0.169067219,0.249024779,-0.236997873,0.0117657324,0.691905856,0.4562196,0.439664871,0.3428385,0.648145258,-0.4266728,-0.4561781,0.576301634,-0.329328954,-0.438809454,-0.404736936],[0.656006157,0.148645416,0.0678381,0.20824708,0.5796717,-0.226568282,0.5903832,-0.252257675,0.5051247,0.155067876,-0.05162564,0.33777824,0.313947469,-0.6292988,0.127583638,0.07999336,0.08952457,0.5840582,0.03764144,0.32636714,0.0430022925,0.367174953,0.5512341,-0.274067521,0.06865744,-0.173747465,0.2832057,0.0622828826,0.221545354,0.14259553,-0.109986261,-0.3255531,0.149067953,-0.420519471,-0.0266477969,-0.129097924,-0.167415708,-0.1517248,0.456101179,0.709843755,0.624352336,0.8112519,0.5343584,-0.06223946,-0.164018065,-0.434482366,-0.110176571,-0.352809429,-0.393057138,-0.106750511,-0.425378,-0.07198193,0.166828439,-0.366800219,0.10915307,-0.09249327,0.352710545,-0.5151371,0.2555828,-0.0522421338,-0.132019371,0.072869,-0.3664874,-0.127787441,-0.31063503,-0.0478850678,0.08527512,0.0196697116,0.5585297,-0.3102014,-0.449110985,0.10900446,-0.6979794,0.14274931,0.222627252,0.340949327,-0.412923,-0.351768285,-0.121589556,0.338604122,0.359468549,-0.146188438,0.326623946,0.1363189,-0.3310582,-0.09725721,-0.168074936,-0.144608483,-0.315273821,-0.117467083,-0.630652,0.478723347,0.1513446,-0.178911865,0.3172978,0.06899827,0.143298313,0.28585,-0.122852847,-0.155799657,-0.28333658,-0.1639048,-0.1629544,-0.3889501,0.0604123771,-0.798869,-0.325361669,-0.0111052133,0.116274968,0.2199204,-0.6425835,0.1892335,0.184899449,-0.05168917,0.5219263,-0.022367157,0.176016092,-0.10659086,-0.138489023,-0.3004321,-0.3843889,0.197530583,0.799189448,0.470609158,0.4391579,0.126955956,-0.3367254,0.349502355,-0.00218444434,-0.061811205,-0.10075634,-0.120228842,0.638945341,-0.2068017,0.04854435,0.154547587,-0.133812577,0.008367379,0.357914329,-0.347432256,0.779573,-0.5166368,-0.0504996926,0.279601574,0.0603128672,0.310454756,-0.1781138,0.0214797072,-0.9153664,-0.430101216,0.18150726,-0.158596918,0.449929059,-0.0253617261,0.177366972,-0.1838921,0.712251246,-0.382107973,-0.388234019,-0.0117522627,-0.6359768,0.379870176,0.0683174357,-0.480742574,0.209685937,-0.387664437,-0.18644464,-0.349553943,0.227479473,0.439803243,0.269567251,0.216882318,-0.223264813,0.3893198,0.414298922,0.05159313,-0.153243765,-0.121552967,0.289434,0.00750550674,0.0334099866,-0.109766953,0.245527819,0.207636088,-0.6495678,0.19112739,-0.421301782,-0.257682085,-0.335582376,-0.105990782,0.0470959358,-0.009998325,0.431640446,-0.1757265,-0.812958956,-0.4335378,0.38101086,-0.444420844,-0.51526463,-0.2223725,-0.194548935,-0.244051158,-0.559229434,0.09103396,-0.834352732,-0.0841693655,0.197939217,-0.184379846,-0.25348565,0.299804032,0.507559955,0.570220649,0.454441547,-0.380724669,0.181828633,-0.09971392,-0.101075783,-0.271401554,-0.3732971,-0.5593824,-0.131102189,0.1879887,-0.06787589,0.0503167324,0.04479847,1.05666661,0.361110479,-0.433965355,0.442399561,0.324731,-0.08720554,-0.292534769,-0.217876121,-0.170799956,-0.0609028041,-0.363751829,-0.06162787,-0.625134,0.388661921,-0.0537307449,-0.00282885227,-0.584045053,-0.209833577,-0.379886746,0.0345347561,-0.0317320675,0.1609327,0.741380751,-0.370710939,0.2336645,-0.400344372,0.640456557,0.3462711,-0.186094061,-0.5589573,0.302949965,-0.152573034,-0.134432018,0.266762882,0.0117083183,-0.6491553,-0.100046828,-0.224273026,0.0351120234,-0.461129516,-0.08336714,0.221731022,0.6852579,-0.3710216,0.02013014,-0.216211364,-0.4104259,0.6890048,0.08330973,-0.114710718,0.300221771,-0.0230127051,-0.124266282,0.06749905,0.02265709,0.191846386,0.238138,-0.3570018,-0.1911503,-0.420343876,-0.499583185,-0.2894973,0.0261478964,0.242001191,-0.4953381,0.621783,-0.159998834,-0.442885041,-0.43357566,0.1946598,-0.2566877,0.1840849,-0.06662109,0.119591989,0.4877724,0.1637936,0.367986381,-0.2709623,0.252189457,0.117677204,-0.258790165,-0.04952008,-0.385213256,0.113066852,-0.246601522,-0.3546599,0.331931323,-0.619870245,-0.414418936,0.08269469,0.3256506,0.182144091,-0.11967463,0.241979524,0.0932154953,0.104693539,-0.300184458,0.209154084,-0.15917328,0.0728056952,-0.03431945,-0.205148563,0.157391414,0.145146877,0.8446178,0.045204483,0.5024921,-0.403035134,-0.235162243,-0.0213825163,-0.6672646,0.192041576,-0.461357266,0.521809757,0.0928306356,-0.4747423,1.04194033,0.3481718,-0.07315749,-0.3680485,0.120320275,-0.426870883,0.365655869,0.7145342,0.423428148,-0.218268126,0.298150718,0.238606,-0.2827917,0.3239335,-0.300089568,-0.09554905,0.251627982,0.08329153,0.193433,-0.6076909,0.371946275,-0.3535161,-0.2667917,0.0222030561,0.042009946,-0.050917048,0.10043788,-0.107607104,0.228141144,0.0317042023,0.327143937,0.30417794,0.458431154,0.121912926,-0.36047855,0.7024758,0.473782629,0.484032571,-0.131207973,-0.008534995,0.134155378,0.084412,0.105055287,0.0113373958,0.3970559,-0.328401119,0.266885877,0.407812476,0.168383643,0.672926545,0.133413449,-0.07678287,-0.130605653,0.00583806774,-0.00155350566,0.3283065,0.232158884,-0.0306175053,-0.04501108,-0.103042468,-0.3673687,0.559820056,-0.04128814,0.4350065,0.208878815,0.219055042,0.429335654,0.3264755,0.211834729,0.40346238,0.048586864,-0.195318535,0.205462053,-0.0132529335,0.5481294,0.323279619,0.09402924,-0.014022368,-0.0568422824,0.36621,0.150142848,-0.07739382,-0.166339681,0.277336746,-0.0954683349,0.127609044,-0.0667377561,0.100125059,0.1414859,0.371638864,0.462073147,0.1045418,0.13705714,0.240857035,-0.36068666,0.5045651,-0.06866682,-0.25708425,-0.7269986,-0.226053134,-0.364985764,0.3313586,0.340426534,-0.149310037,0.391288877,-0.06899143,0.273774981,-0.08406271,-0.3289334,0.372915119,-0.131175324,0.0673017651,-0.0160159748,0.257219523,0.1748087,0.326145023,0.01898089,-0.06387597,0.0579885058,0.3476045,0.3240443,0.325299174,0.3930908,0.48085,-0.531389356,-0.1038593,-0.267325222,0.270883083,0.08546713,0.04155454,-0.0192183089,0.07821582,0.2934208,-0.00159765093,-0.891478658,-0.133081213,0.141933426,-0.304798752,-0.7071074,0.317608923,0.212811217,-0.03251955,0.6544645,0.16453357,0.379752159,-0.3301952,0.06882732,0.286591947,0.0343748,-0.295970052,-0.373929858,-0.419368058,-0.74235,0.170708939,0.0271514449,-0.8701391,-0.201311514,0.512438,0.1266493,0.142744273,-0.397084445,-0.0778092,-0.426578075,0.273307174,0.298261672,-0.249620363,0.07666194,0.234475821,0.200608969,0.339529485,-0.311020166,0.466321945,0.44408223,0.2952873,-0.252959847,0.149805874,0.266765356,-0.08653413,-0.2399159,0.472311556,0.718848765,-0.06480873,0.184562057,0.144663408,0.03209952,0.461133271,-0.0447454564,-0.276876628,-0.4277162,0.193657383,-0.106677614,-0.06344031,-0.2132282,-0.08803805,0.577767134,0.386481017,0.08246464,0.5401395,-0.06961754,0.0109371506,0.114180349,0.779199243,0.586784065,0.148552775,-0.00512227742,-0.452307343,0.450054526,0.129331678,0.3814507,-0.100593,-0.249823153,-0.5425595,0.301028371,-0.0540362261,0.264665663,-0.08064902,0.0769358352,0.422077984,-0.2960811,0.183551431,-0.1435439,-0.6385123,-0.443924129,-0.199928135,-0.1566316,-0.07551589,0.662536,-0.283040434,0.120091245,0.3458689,0.129639864,0.136632323,-0.06471103,-0.346390277,0.1711465,-0.8124795,0.6317181,-0.12743251,0.197317392,-0.0649612248,-0.209749162,0.16622439,0.355808169,-0.0274759065,-0.0788489357,-0.0201258566,-0.036691986,0.0247409027,-0.0165225845,-0.4710028,-0.217235,0.0260400958,0.0720665455,-0.351183116,-0.275539041,-0.318617135,-0.0475872941,0.05122801,-0.432959259,-0.0235464089,-0.03399684,0.120249048,0.486195862,0.08514025,0.0981464759,-0.3223004,-0.08445613,0.292898774,0.174717993,-0.0534886122,-0.276078224,0.148965254,0.27594614,0.03802404,0.4973169,0.6230082,-0.271434754,0.218826,-0.0359226167,-0.5152053,0.3938776,0.1262399,0.321983218,0.0252888557,-0.0386171937,-0.08617646,0.241622955,0.09896745,-0.393582463,-0.009613024,-0.46585685,-0.792248368,0.485382378,-0.4301185,0.503560245,0.178609535,-0.521691561,0.4673299,-0.08904804,-0.341725141,-0.103881508,-0.06932696,0.190868035,0.66135335,0.203274757,0.3762801,0.325701058,0.3487328,0.476802468,-0.3156667,-0.0261377636,0.324310124,-0.7794253,-0.171127558,-0.0439198948,-0.0194751844,-0.00262260274,0.375651,-0.16683872,0.328708261,0.557748,0.0461904444,0.258319378,-0.30835,0.751785755,-0.01061452,0.330351442,-0.07092299,0.340118021,-0.352839977,-0.128765,0.3273462,0.047508847,-0.174493581,0.167721212,-0.08738578,-0.0147880288,-0.2602916,0.148892686,-0.208207175,0.1517136,-0.199151456,-0.194246158,-0.108567707,-0.3840174,-0.11289607,-0.7070661,-0.07145316,-0.2917815,0.361061752,-0.338557661,-0.6974006,0.606242537,0.129541025,0.453151822,-0.078058,-0.0276759434,0.3117787,-0.008918649,-0.1834494,0.152194351,0.396341681,0.164937019,0.1852111,0.84220773,0.424929559,0.1481519,-0.05274292,-0.9370876,0.320302516,0.356583327,-0.3338455,-0.348976433,0.03434186,-0.3311655,-0.36494112,-0.237022519,0.451903284,-0.406865537,0.5126235,-0.278955549,0.371943653,0.402043134,-0.6135951,-0.61574614,0.5830976,-0.0278293751,-0.418267131,-0.4021978,-0.167522967,0.634391,0.221957386,0.357237816,-0.160456255,0.1892433,0.5349657,0.26621443,-0.118037812,0.0196954943,0.198508382,0.270604461,0.105762951,0.0602106228,0.553548038,-0.4122951,-0.5539327,-0.141053542,0.7595792,0.185740829,-0.233985618,0.219288617,-0.1599897,-0.131551534,0.322066754,-0.21327357,-0.0112413019,-0.03960642,-0.133203372,0.319353968,0.3206842,0.09831933,0.330964684,0.0494903773,0.5372489,-0.11572367,-0.0240610987,-0.197432145,-0.0194557253,-0.396571517,-0.198752791,-0.0391626656,-0.06822673,0.27627182,0.138545081,0.3365236,-0.183108315,0.07896123,-0.19036983,-0.291144878,0.1633717,0.238934338,0.459650934,0.15147467],[0.4597523,-0.113171123,-0.194590688,0.6511598,0.04696637,-0.329380661,-0.4089719,-0.2345627,0.118236564,0.0497387871,-0.765555739,-0.1968092,-0.0501237772,-0.7140682,0.0267213248,0.4850106,0.211579621,0.391487539,-0.09279985,0.6949276,-0.432825983,-0.3774662,0.6071503,0.0890575647,0.2504676,0.24101384,0.0228006858,0.228946626,-0.168004274,-0.212506741,0.132468447,-0.194169074,0.307689816,0.181692436,0.404529452,0.092276305,0.0338113643,0.142018422,0.487428367,-0.09749536,0.0090727,0.09468327,0.604250133,0.416470528,0.3405294,0.220724091,0.344083846,-0.199216738,0.131420374,-0.0234921519,-0.201694757,0.149783254,0.420132,0.5977212,0.205886081,0.0246043988,-0.6778226,0.009194434,0.36259225,0.185086474,-0.0920897052,0.114401639,-0.06387632,-0.343371063,-0.231874466,-0.4190612,-0.3607123,0.490011334,-0.264364928,0.0190592166,0.358372927,0.157049909,0.6797927,-0.289418548,0.114954688,-0.217021108,-0.152065381,-0.677744448,-0.2766919,-0.303488165,0.330278635,-0.1690522,0.6637117,0.276303828,0.256600916,-0.189273208,-0.5728672,-0.6048737,-0.8426582,-0.00819532,-0.558117449,0.08839598,0.2960184,-0.479933739,0.324581623,0.225553229,0.1351557,-0.244791061,-0.238201857,0.0336320177,-0.329196751,-0.370347053,0.07145577,0.1068018,0.320958883,-0.1078315,0.118085615,-0.179013357,0.426710874,-0.404742658,-0.18780148,0.0764649957,-0.175758615,0.0131722158,0.4950619,0.257248551,-0.0551735871,0.4500147,0.06886594,0.2341665,0.09272857,0.4087098,0.07911205,-0.14338614,0.0286102071,0.5327444,0.572956741,0.0328486,0.124561705,0.153058231,-0.365962356,0.109143123,0.6631272,-0.599534,0.213813812,0.0954342857,0.247618333,0.0461521,-0.465379953,0.385880947,0.32841593,-0.390292466,0.09681945,0.328016043,-0.7967123,-0.221161678,0.0350923464,-0.125686288,0.5256122,0.835029662,-0.39929682,0.5897699,0.0907771662,-0.142992511,-0.103264406,0.567523062,0.0515690558,0.3199426,0.483822584,-0.121051162,-0.6112805,-0.212399229,-0.8084661,0.326493829,0.188145354,0.180854857,0.241204426,0.08752429,0.145864144,-0.0724740848,0.304788053,0.2750971,0.263866067,-0.274679035,0.273745477,0.167866945,0.5279745,-0.1806402,0.4497592,0.630320847,0.485395044,0.557095647,0.396926,-0.177197441,0.7037919,-0.173912331,0.643695354,-0.310407,-0.230442315,-0.215918362,-0.2843591,0.276808232,-0.4622776,-0.641919136,0.5152938,0.118865088,-0.535412967,0.107357271,-0.6115361,-0.0103378957,-0.0707838,0.131233811,-0.153054774,-0.174295008,0.2440454,0.206263408,0.499441773,-0.3644007,-0.151706353,0.0285841133,-0.08434105,-0.389773667,0.00625100965,-0.0566207469,-0.162882254,-0.103955507,-0.106930204,0.259268224,0.247624367,-0.174766749,0.1377662,-0.122263007,0.1887817,0.377910674,-0.6391241,0.13734743,0.180024162,0.162261412,0.7040226,-0.410972863,0.605458,-0.0398487747,0.2947037,-0.159596533,0.0588129424,0.272787869,0.3547355,-0.399901271,-0.0603932366,-0.248384878,0.0283354763,-0.128295019,-0.758285165,0.28755635,0.4745558,0.0005396143,-0.145303473,-0.455850184,-0.492122978,0.229664326,-0.2602873,-0.6544487,0.222299665,-0.2857843,-0.128482729,-0.307676643,0.5745173,-0.74342984,0.239789575,-0.06275383,0.236659527,-0.36137858,-0.207272649,-0.49491632,-0.180617854,-0.234900236,-0.7688874,0.478491,-0.327960938,-0.426061928,-0.39561525,0.433674067,0.14737992,-0.126591831,-0.2710027,-0.230553985,-0.155505791,-0.3218419,0.6008777,0.504103541,-0.161173627,-0.0424949154,0.493795574,0.381592125,-0.305508882,0.4197213,0.823252,-0.0164781045,0.258118957,-0.05852709,-0.158276826,0.3422279,-0.72975415,-0.00858061947,-0.1786436,0.1661552,0.266169846,0.28736937,-0.0317163542,-0.0212050788,0.175405845,-0.344944924,-0.493983746,-0.243771076,-0.09387583,-0.000481344672,0.003739574,-0.8549349,-0.07175959,-0.147897854,0.490018338,0.374449,0.07086571,0.00784015749,0.2742537,0.136143729,0.207687289,-0.119022727,-0.33658886,-0.0490447953,0.162261456,0.984118938,0.0221467633,0.146930531,0.227295727,0.09560504,0.211209863,-0.04638712,0.251198351,-0.131459773,-0.09169635,-0.503595948,-0.676422358,-0.158493131,0.06285911,-0.0154831493,0.403230429,0.0149078714,0.5438756,0.125077873,0.3094454,0.02367712,-0.08782237,-0.484517336,-0.4665047,0.3087635,0.07168953,0.109667033,0.770529,-0.120436423,-0.304947466,0.157997966,-0.0119359568,0.629891,0.289243221,0.289829552,-0.221344486,-0.406644225,-0.20962362,0.241770655,-0.00473955041,-0.305270076,-0.154049724,0.908136845,-0.222530186,0.0594473258,-0.222462177,-0.07242976,-0.115203515,0.218957737,-0.07459524,-0.184488609,-0.120731227,0.198206872,-0.271000564,0.508422256,0.596797,0.274768472,0.4865734,-0.398895651,-0.215486452,-0.18973273,0.3561471,0.271038443,-0.3333822,-0.315878868,-0.42869398,0.116504282,-0.248725623,-0.732399046,-0.485744566,0.26189822,-0.389444053,-0.7898315,-0.6756418,0.341993541,-0.232274324,0.270390362,0.28493613,-0.11092554,-0.222464979,-0.185120523,0.5943881,-0.05024657,0.07638697,-0.0469145738,-0.349995434,-0.07925474,0.3066324,0.06826572,0.0703020841,-0.759306252,0.08477419,0.5412734,-0.242212638,0.346417069,-0.0243626311,-0.275466353,-0.14638941,0.7092279,-0.22840178,0.05008994,-0.28959924,0.4029325,-0.4486495,-0.09425577,0.026282033,0.208319113,-0.156398892,-0.2895882,-0.6684483,0.08457576,-0.0321908221,0.125093058,0.14427565,0.5066499,0.440587372,0.220336512,0.026709741,-0.222631469,0.343885273,-0.736537,0.0387290046,-0.444258451,0.306671619,-0.113800175,0.185187519,0.479425,-0.149072677,-0.5786739,-0.369796425,0.291849345,-0.262230128,-0.343862325,0.227442667,-0.10308858,-0.28993383,0.0484574251,0.272205353,-0.293484271,-0.458872527,0.4622805,0.250836879,-0.3558488,-0.414603,-0.271928728,-0.08261819,-0.545748949,-0.354120225,0.8050181,-0.3809671,0.181950748,0.0506671444,0.005448194,0.08235615,-0.398595035,0.263617456,-0.376059532,0.370737255,-0.1856715,-0.3021913,-0.1814277,-0.063469246,-0.0250510685,-0.0842151344,-0.38770476,-0.3044634,-0.518638849,0.330193371,-0.135969341,-0.145160928,0.19557257,-0.586457431,-0.36475572,-0.293993026,0.16469638,-0.0236022081,-0.297963053,0.696870863,0.304706424,0.12921083,-0.119523905,-0.376593977,-0.186818078,0.184345022,0.3344927,-0.185762852,0.0403669551,0.04620093,-0.0108709084,-0.623600841,-0.0821514055,-0.205402479,-0.5893558,-0.6518642,0.1103106,-0.153270409,0.190301582,0.1718308,0.03403065,-0.5069675,0.36441046,0.414028555,0.20788075,-0.2802625,-0.0938698351,0.2783617,0.111872405,-0.06863252,-0.260752231,-0.230292335,-0.3592882,-0.0535859577,0.4100466,0.02677275,-0.413597435,0.2805158,0.191923454,0.1779721,-0.3645833,0.204186529,-0.0605719648,0.0791070238,-0.12503539,-0.02041583,-0.36890623,-0.257655978,0.200830087,0.490799576,-0.0017557001,0.75437206,0.724355936,0.0573437326,0.204687327,-0.151424468,0.195072025,-0.379492879,0.0275709778,-0.121350385,-0.0136161409,-0.365572453,0.07189836,-0.08351028,-0.222960323,-0.0427636057,0.174129665,-0.458471835,-0.05454484,-0.08510193,-0.33611393,0.477254719,-0.0158635285,0.118056946,-0.3726592,0.226467863,-0.348804832,-0.240876719,0.152745411,-0.114105165,-0.496930063,-0.120334856,0.260993719,0.0406916551,-0.292432,-0.9644267,0.352734417,0.250814766,0.6052343,0.148987144,-0.3081801,0.370305836,-0.180105567,0.4279686,0.248026192,0.289320648,0.642493963,-0.105344772,0.2503727,-0.265596122,0.37522468,-0.163047224,0.150733382,0.159272537,0.5807247,-0.07143182,0.216902941,0.0501111634,0.302331656,0.7242749,-0.08384729,0.236516953,-0.1773785,0.3456069,-0.209191293,-0.0485717766,-0.8789964,0.8216881,-1.0724771,0.2413395,0.02346121,-0.0492773168,-0.265867531,-0.347886264,0.0520923622,-0.418990523,0.0497444123,-0.738009632,-0.198856488,0.0633481443,-0.26643455,0.0294254124,-0.212199,0.00208612578,-0.5202081,-0.03812019,-0.09821707,-0.387045354,0.1543919,-0.04497256,-0.4407412,-0.170242608,0.3301555,0.159217209,0.273659438,0.2747935,0.0141735794,0.320823282,0.364266,-0.306097567,0.0937387943,-0.214031264,-0.3070794,-0.144306466,0.347580373,0.03234608,-0.7488868,0.0454522558,-0.285001,-0.117144309,-0.342487156,0.0885852054,0.4763365,0.04693425,0.448111176,-0.0237843245,0.009141314,0.3902099,0.565257132,-0.496335357,-0.3477381,-0.121207625,0.123248428,0.4802808,-0.0852659941,-0.445800424,0.430586874,0.7313844,0.181223959,0.275280535,0.6411355,-0.155351326,0.08248447,0.115816921,-0.0331259556,-0.09767823,0.07846282,-0.277817041,-0.399851859,0.115183637,0.18040143,-0.060753312,0.026553506,-0.253490716,-0.0620562546,-0.052441705,-0.249977276,0.3278065,-0.7179357,-0.267493963,0.5090789,0.468788117,-0.231937528,0.3202082,0.145852029,0.2790806,0.0898200646,-0.25265485,0.12834917,0.145304725,0.4148331,-0.219408482,0.0140518043,-0.134852514,0.4162722,-0.213704556,-0.364469439,-0.07101296,0.06718653,-0.00765675,-0.570192933,-0.267436951,-0.5797329,0.7628931,-0.5934283,0.09402906,0.131818593,0.37992835,0.253528148,-0.263870269,-0.0714480653,-0.0176971573,-0.05712773,-0.5665513,0.059699025,0.151653171,-0.4191085,-0.5660575,0.4197593,-0.159442216,-0.0586956479,-0.309380561,-0.3849073,-0.220720366,-0.180527464,-0.103200331,-0.1513701,-0.484746516,-0.0636025444,0.413669258,0.418179125,0.328686,0.1264265,0.134534821,-0.7605153,-0.117186844,-0.281255424,0.135233909,0.601623654,-0.5027348,0.378392726,0.376582444,0.220720589,0.1811137,-0.131299525,-0.00114406925,-0.0991366357,-0.3621629,0.0550139658,0.1640909,-0.9940332,-0.243508965,0.077907,-0.1512941,-0.952016234,0.332793951,-0.250977248,0.0235941615,0.048710335,0.0478110947,0.221080914,0.0195920747,0.2305823,0.372908384,0.463335752],[0.187772557,-0.0244262,-0.271928281,0.5487799,-0.401597828,0.0157426931,-0.7052087,0.0576818958,0.294084966,-0.0676237047,0.21815078,-0.487765372,0.481121,-0.130275577,-0.50900203,-0.431634039,-0.4626875,-0.21853219,0.101406559,0.449260831,0.6327749,0.0171363987,0.134273976,0.28982687,0.207575575,0.138098672,-0.3623833,0.06996547,-0.09034686,0.361711681,-0.162617847,-0.132968679,-0.360606,0.329989463,0.07673998,0.09909761,0.0137234,-0.03799066,0.492070466,0.07790464,-0.2172269,0.5995926,0.3527412,-0.286310554,-0.009374298,0.1363696,0.036996562,-0.148236156,0.492146254,0.261908859,0.227559179,0.433336735,0.40156883,0.14722085,0.09046621,0.0314950459,0.350610644,-0.06388192,-0.4303686,-0.212257743,0.06691848,0.253490537,-0.629348338,-0.131046817,-0.03772244,0.2822866,-0.007771483,-0.414717168,-0.30213365,-0.5228387,0.5681509,0.6376535,0.117496021,0.867638052,-0.05072182,-0.558016062,-0.195835367,-0.122484311,-0.282425582,0.124706469,0.332021683,-0.638321042,-0.4087242,-0.124372423,-0.07899056,-0.161609337,-0.0988621861,0.2453093,0.161848545,-0.211879849,-0.0513083972,0.0647812,0.009819931,-0.5822982,-0.305755,-1.00628471,-0.182680458,0.109013617,-0.0135134868,-1.024158,0.241718411,0.128173724,-0.413549244,0.896134138,-0.643158257,0.0880934447,0.0478811,0.124847464,-0.111785747,-0.05910155,0.2749354,0.4341084,-0.101752535,0.0363491438,-0.413576663,0.06441517,0.3410082,0.655630231,0.290863365,0.139932245,-0.07010299,-0.3585508,-0.119003117,0.187610015,0.216938987,-0.2970632,0.41450724,0.4373404,0.25908798,0.047676038,-0.02232554,0.0104246959,0.100346178,-0.2299026,-0.0739255548,-0.6972561,-0.228935987,-0.358536661,0.375179827,0.41606462,-0.131339312,0.3035241,0.404338,-0.009324105,-0.06944279,-0.07101222,-0.248613149,0.0832959,0.004680047,-0.0246560741,-0.5535622,0.190027013,-0.5425683,-0.24088648,0.030346686,0.07743267,0.476150274,-0.2695445,-0.2040651,0.1347504,0.3221485,-0.0582917854,0.12049108,0.6035466,-0.240581617,0.100301139,-0.462876081,0.564353168,-0.00709037576,-0.08198041,0.101641111,0.0210485458,-0.111188665,0.2910614,0.138757348,0.106578372,-0.0572106577,0.0200047046,0.1909654,-0.258917451,0.1641596,-0.322982281,0.03819218,0.1530816,0.356183738,-0.139127448,-0.0236201379,0.300640374,0.174140438,-0.3091488,-0.05141703,0.03846735,-0.313031435,-0.38069,0.199359074,-0.5501952,0.508887649,-0.4183037,0.5538447,0.033961717,0.5658421,-0.214853123,-0.0766306743,0.353651375,0.1775326,0.0787171647,-0.06905313,-0.304617733,-0.4785332,0.119469143,-0.09697042,0.0564213321,0.605622768,-0.322747678,-0.29234004,-0.335601181,0.227068454,-0.266041845,0.132390112,0.314953566,0.316193581,-0.121880144,-0.5037141,0.5056175,0.1707803,0.196393162,0.2585402,0.07350404,0.205682427,0.201139539,0.0202923082,0.314833075,-0.0306526646,0.265062451,-0.4929263,0.0478416234,-0.419720948,-0.308319956,-0.605560243,0.06644257,0.03167762,-0.395479083,-0.113187782,0.332944185,-0.177811965,0.8408023,0.5500361,-0.07391012,0.823435545,0.421668977,-0.397750229,-1.09036183,-0.7316382,-0.847062469,-0.2398868,0.207188323,-0.06793697,0.202866182,0.357706547,-0.194018647,0.3586535,-0.332903177,0.09690174,-0.03422042,-0.130608454,0.03414923,-0.459724,0.69106245,0.758916,0.161354557,-0.155354962,-0.155336335,-0.05082396,-0.182903364,0.143927872,-0.2544154,-0.223808944,0.08575844,0.6878157,-0.01689552,0.005283225,-0.216884,-0.390562981,-0.08089356,0.395177364,0.422762752,-0.193311214,-0.232020974,0.016964728,-0.216302648,0.0426749922,-0.7820211,-0.5024743,-0.344424158,-0.142943442,-0.0187051687,-0.353386521,-0.690085948,0.09091888,0.403929949,0.5296065,-0.5218399,0.152998358,0.2674703,-0.153618753,0.20758906,0.223789021,-0.08798359,0.058132,0.2982701,-0.6061506,-0.136619389,0.0118070375,-0.00464738626,0.281291962,0.110200867,-0.08793991,-0.0224930812,0.144959524,-0.03953573,0.565345466,0.829384744,-0.26225543,0.543904245,0.5326087,-0.109544277,0.274840146,-0.25361073,-0.07347147,0.33364892,0.0362496749,-0.2795516,0.841406465,-0.180499479,-0.343197852,-0.09658265,-0.0323574468,-0.402010053,0.195762664,0.461572021,-0.59465754,0.38453418,0.0319966041,0.207793072,0.108069174,0.5844541,0.0894418359,0.49092415,0.229058087,0.5071258,0.138492182,0.07796976,0.225391284,0.225251541,0.7466962,-0.109499238,0.2509782,-0.360602826,0.352643639,0.111245617,0.425444245,0.100370668,0.0449174829,-0.3587515,-0.7200823,0.5769357,0.0458376929,-0.51292,-0.08163079,0.16428481,-0.421702862,0.5480973,0.713063,-0.160212874,-0.167848021,0.192955136,0.7771295,0.07177563,0.109193459,0.104750924,-0.04668764,1.12973642,-0.0728767,0.07691339,0.009761706,-0.0506837927,0.233716369,-0.311184168,0.09537411,0.494862378,-0.4589262,-0.06834867,-0.590680957,-0.532301366,0.144842416,-0.2906677,0.0598879419,0.131486431,0.09460923,0.00307926582,0.4658327,-0.006797563,-0.289206237,-0.362782836,-0.06586291,-0.672892869,-0.0593362451,0.0767421,0.1502827,0.627593935,0.490962058,-0.182727724,0.939293265,0.711836636,0.111235507,-0.5309537,-0.07679297,0.1039426,0.00118381612,0.103337079,0.186341971,0.588,-0.0607772022,0.225759044,0.141422123,0.7017245,0.0837788656,0.3761091,-0.30229336,0.141419962,0.2090667,0.139283016,0.1007764,0.194584191,0.199312687,0.5301258,-0.235158414,0.08798549,-0.587667465,0.718784332,-0.30477652,-0.2837925,-0.61044836,-0.120861836,-0.257946044,-0.54131186,0.133808821,0.0288091023,-0.3001927,-0.450283378,-0.439400971,-0.0919212848,-0.651135,0.339909554,0.240984216,0.07779439,0.0508872122,-0.113807924,0.1345109,0.220112845,-0.3977529,-0.266377568,0.547935545,0.233552143,-0.5019323,0.4949943,0.471606761,-0.09291662,-0.193380952,0.292342573,-0.604441464,-0.3793363,-0.185499609,0.0246156584,-0.4259818,0.09621235,0.3266847,0.397636354,-0.0201769676,-0.450700372,0.08129743,0.46191743,-0.19862473,-0.158687219,0.219221264,-0.457636446,-0.2561316,-0.121477865,-0.476159841,0.8389322,-0.4431578,0.342474341,-0.208112374,0.0754977763,-0.163095355,-0.0975115,-0.2502104,-0.4336579,0.3431581,0.039715264,-0.01832427,0.172049835,0.158859178,-0.24074173,-0.281611472,-0.478575021,-0.177302822,0.377319753,-0.0143417642,-0.180517122,-0.163567066,-0.173517734,0.03327267,0.23161158,0.06269842,0.105871685,-0.2569217,0.2970138,0.6629502,0.145520926,0.229616731,-0.16156815,-0.0647222251,-0.398791343,0.583888769,-0.06526539,0.0974853858,0.316140145,-0.484431326,-0.131451353,-0.520688832,0.141728371,0.0388632677,-0.17781505,0.311817229,0.372858137,-0.229578257,-0.217312828,-0.453233629,-0.103747547,0.0269815233,0.0721388459,-0.06490275,-0.317874521,0.5103775,0.249733478,-0.161643967,-0.0166523661,0.08965798,-0.170180708,-0.620259166,-0.514681458,-0.493388057,-0.20892112,-0.462992877,-0.158973321,0.3256533,-0.187246174,0.185077772,0.375759721,0.382735,0.3571763,-0.253983259,0.0595394559,0.279464483,0.598681,-0.284641057,0.3742368,0.102360114,0.12633878,-0.199077219,-0.5190303,-0.0152859231,0.0695702,0.6728411,-0.333463281,-0.126027167,-0.62723,-0.5132859,-0.298818,0.23847954,-0.188046157,-0.359718263,-0.174559847,-0.0952946,-0.4625157,0.5255272,-0.00505775772,-0.166148633,-0.7296681,-0.194842964,0.19225274,0.197664484,-0.4203672,-0.0265068263,-0.0440940447,0.109216921,-0.041201815,0.4087392,0.422524422,0.6705263,-0.0509445667,-0.2793573,0.209706262,-0.0056348443,0.416623831,0.155463636,-0.221564382,-0.553895,0.476046532,0.385718048,0.0368519649,-0.223353818,-0.039883554,-0.002940339,-0.03116603,-0.2756839,0.08361236,-0.20992583,-0.253003627,0.4265822,-0.278773457,-0.409212053,-0.04942528,-0.402340531,0.131657347,-0.619685233,-0.885453343,-0.5039811,-0.834708631,0.512233555,-0.07965997,0.0390043259,0.07487408,0.193766251,0.08036101,0.192012608,0.5258297,0.216257572,-0.164318025,0.5939758,-0.40901044,0.271316975,-0.3310196,-0.2801148,-0.47972396,-0.197441652,-0.20290041,-0.5563672,0.014185247,-0.10267283,0.162120625,0.127352163,-0.513054669,-0.291360557,0.391720861,0.115157671,-0.400787979,-0.0207766127,-0.205172077,-0.566409,-0.0389690734,0.5215922,0.159100354,-0.109893195,-0.8142963,-0.194879279,0.134504557,0.2523583,-0.786452949,-0.5543977,-0.0203543622,-0.43737343,0.7898935,0.108149908,0.227441,-0.13922593,0.08360343,-0.4187132,0.034634158,-0.144646823,0.07318676,-0.263596654,-0.131666541,0.3184594,-0.06207527,0.8320097,0.358900219,0.357935458,-0.199944079,-0.5700944,0.009367931,-0.167063668,-0.10906253,-0.06758703,-0.08246859,-0.122607253,0.5234263,0.2194785,-0.4943919,0.0513900854,-0.0185387861,0.182575747,-0.6289032,-0.5092525,0.233249813,0.507706642,-0.4270562,0.16209355,-0.4782144,-0.120312043,-0.05733301,0.356896877,0.02696257,0.07357581,0.232144579,0.0139014069,0.05431374,0.06866129,0.00302569265,0.150540739,0.204083279,-0.432152063,0.159648672,0.4128748,0.09100132,-0.0334827751,0.1855832,-0.5973908,0.0315700434,-0.472811162,-0.125695467,0.2960593,0.5102395,0.3339347,-0.09451419,-0.3633617,-0.641504943,-0.5906711,0.16515547,0.0213904344,-0.3269894,0.0706645548,0.129321724,0.184702143,0.2125583,0.499453276,-0.122048654,-0.382282555,0.406715333,0.226040646,-0.106605455,0.031299375,0.11242801,0.0699687,-0.2982425,0.697075,-0.218383089,0.32373473,0.353035629,-0.284012318,0.08942034,-0.2304643,0.336500227,0.264806867,0.350173384,-0.199131891,-0.226838335,0.205985367,0.8401937,0.6358199,-0.0957865641,0.52236855,0.09697735,0.325128,0.37561962,0.199840158,0.2775857,-0.132308558,-0.0785158351,-0.168530017,0.371623278,0.0115306862,-0.1630556],[0.144898981,-0.685243368,0.08356879,0.2186861,0.276111573,-0.224507332,0.277664155,0.3317478,0.455633134,-0.0366844274,-0.1978989,0.248745,0.207832053,-0.238637909,0.4166092,-0.2560024,-0.2520378,0.0138512105,-0.2545315,0.632391036,0.162574515,0.2332778,0.41646862,0.70101136,0.301590353,-0.137002617,0.310418,-0.4425401,0.0277587175,-0.152921438,-0.310832351,0.0529265329,-0.162127271,0.0550498255,0.370658755,0.129347518,-0.7605204,0.0271210261,0.0278591178,0.3131427,-0.280501425,0.5475063,0.199578762,0.861146569,0.4474112,0.100361638,-0.2331164,-0.172922865,-0.414636552,-0.0144692892,0.377396315,-0.01714919,0.492640316,-0.193624958,-0.482682168,-0.156143025,0.3782502,-0.412340224,-0.2153697,0.155094638,-0.002614641,0.128737986,0.226434112,0.0311684031,0.10067603,-0.159198329,0.279775023,0.6913603,-0.127687544,-0.616869748,0.534106851,0.119059578,-0.162080243,0.198059455,-0.169619679,-0.1281829,-0.7644961,0.119291559,-0.455501854,0.00410213275,0.385749847,-0.196574152,0.0363942422,0.134479046,-0.1842523,0.706280231,0.128749385,-0.169074416,0.132252485,0.09428165,0.0779018551,-0.0262098759,0.4012468,0.15601559,0.147552967,0.0321824625,-0.04923093,-0.3780565,0.376667976,-0.440208673,0.199738041,0.196545362,-0.164436266,-0.0290794261,-0.0296764448,0.6763069,-0.190691561,-0.415366858,-0.444833457,-0.50063765,0.151808232,-0.0102380281,0.134483188,-0.369573772,-0.117765948,-0.482746154,0.238876984,0.310162872,-0.5623005,-0.6602567,-0.422316819,-0.1288271,-0.179090574,-0.2966088,-0.211347237,-0.285451561,-0.158974558,0.0202294048,0.3808307,-0.48620984,-0.015979128,0.07459999,0.0127854468,-0.351547122,0.177988976,-0.24005276,-0.0394943,0.362810969,0.08015208,0.138391972,-0.053568624,0.53650856,-0.270522624,-0.166761756,0.0163885746,-0.6674919,0.435873657,0.0777847,0.0756125,-0.012232759,-0.272321,-0.11069712,-0.1701363,-0.001207562,-0.31564644,-0.3373041,-0.437623,-0.917668,-0.0597220324,0.213534936,-0.189204812,0.206429183,-0.0445465073,0.412321717,-0.1080086,0.0329602137,-0.205135927,0.489348978,-1.06046367,0.231884271,0.302809268,0.388860255,0.340664536,0.0706393048,-0.1930316,0.0288678035,-0.2133099,-0.118808739,0.4937952,-0.186478883,-0.217471763,-0.459556,-0.273214161,-0.5568788,-0.369884938,-0.09966885,0.223833486,-0.147566676,0.421624,-0.154266983,-0.270754,-0.09720713,0.671983242,0.04970051,-0.08276735,-0.385431319,0.445419639,0.121259987,-0.248982489,-0.484341383,-0.7424667,-0.0364130959,-0.559423566,-0.0359055623,0.425818175,-0.431445181,-0.09773332,-0.477342874,-0.166788772,-0.157270029,0.397315621,-0.259755343,-0.356320441,0.202853516,0.214018688,-0.07046157,1.05140793,-0.389647275,0.061762955,0.2540893,0.450313419,-0.114862941,0.2974433,0.317263484,0.119707026,0.351200551,0.54769516,-0.252775073,0.0622683764,-0.141646162,-0.0112135326,-0.724120259,-0.500645459,0.0525933467,-0.452177048,0.0186993945,0.115566127,-0.07099353,-0.4278302,0.5608087,-0.34043,0.466036469,-0.13103196,-0.4672937,-0.146429792,-0.06529216,0.4199994,-0.2128124,0.704964459,-0.403004467,-0.011769345,0.285316825,-0.05114452,-0.101904728,0.226590276,0.149542749,-0.220529184,0.350858659,-0.493395358,-0.144520819,0.0574625954,-0.442035377,0.09072175,-0.3194737,-0.219253108,0.00195095374,0.295057923,-0.2705194,0.197743073,0.219372317,0.462544143,0.301331848,-0.06778446,0.280361563,0.06404107,0.246473238,-0.488514662,0.1910211,-0.5231622,0.3993731,-0.216756657,-0.349016845,-0.238522053,-0.212843314,-0.515144944,-0.0332701579,-0.7751825,0.116441786,-0.199831367,0.07829866,0.158047959,-0.112344116,-0.081411615,-0.202707678,0.817350566,0.204261065,-0.12755467,0.2822003,0.4690623,0.136165276,0.2022093,0.463015884,-0.31196326,-0.418141484,0.05844513,0.261680871,0.118531182,-0.09536733,0.16095832,-0.825949967,-0.05851156,0.0542041548,0.344946951,0.5391155,0.608715832,0.113554478,-0.00489160558,0.40032,-0.5532698,0.4188116,0.472958028,-0.1989255,0.235445336,-0.367908537,-0.0526685156,-0.2350538,0.33949095,0.189746931,0.2276322,0.169071436,-0.2257016,-0.423400939,0.477745175,0.3563298,-0.73902446,0.152351782,-0.165244266,-0.442809135,0.0988854244,0.271289349,-0.303792864,0.184298575,0.03445276,-0.5607296,0.504788339,0.165361255,0.2824868,-0.09451192,0.137975916,0.401619554,-0.271171182,-0.08568391,0.012711769,0.201700285,-0.194186479,-0.116194569,-0.322267324,0.02511896,0.06549964,0.780553758,-0.163379833,-0.1688031,0.523832858,0.0599479824,-0.407800317,0.102188416,0.3350329,0.114386529,1.08913243,0.290688783,-0.5127518,0.7700492,0.666796,0.507557631,0.161761761,0.0193109158,0.4718755,0.5448834,-0.386175215,0.3764871,-0.445399076,0.08284549,-0.1448439,0.361982346,0.239385143,-0.0177435149,-0.334147364,0.3049385,0.346222579,-0.175612152,0.0007636826,-0.03210879,0.299686044,0.049511224,0.6531472,0.762590051,-0.02833477,-0.000324821682,-0.0028549647,-0.1155384,-0.07259102,-0.200016618,-0.107478574,0.7792904,-0.19033283,0.148001969,-0.156732365,0.4587607,-0.0497334674,0.05364869,-0.110560559,0.507734537,-0.258258164,-0.03234346,-0.384194,-0.13193354,0.0337137841,0.0283567142,0.07200808,0.350691319,0.0184748266,0.2994078,-0.436670065,0.420071632,0.197673082,-0.08144086,-0.0357935876,-0.454682678,0.121977441,-0.300661772,0.2670975,0.304443717,0.541435361,-0.535946548,0.165605828,-0.4399493,-0.287644,0.176219031,0.0256969556,-0.136651859,-0.458742052,-0.244721726,-0.102738827,0.281279683,0.411215484,-0.4542192,-0.174526066,0.655212164,0.09015234,0.5740264,-0.4208066,0.47077468,-0.483395725,0.301772565,-0.14773652,-0.1234204,-0.234241188,0.0810063854,-0.125882059,-0.108280465,0.140479058,-0.252432466,0.381743371,-0.342104435,-0.138817921,-0.0479397,-0.0112661533,0.341466248,0.435091078,0.5083197,0.224841654,-0.178146288,-0.40540415,-0.2946451,-0.16603744,0.1255994,-0.3112243,0.144460022,-0.488340974,0.221269548,-0.408060431,-0.25742963,-0.9800593,0.170799285,0.3547154,0.3717814,0.404993,0.329860747,0.220240965,-0.400180936,0.7114434,0.0915306062,0.238882184,0.22763519,-0.155821428,-0.443955839,0.123220377,0.0428806469,-0.8668595,-0.324575871,-0.09298255,-0.241238132,-0.4296062,0.132682621,-0.0525439531,0.05245699,-0.3913721,0.0126984743,0.239563137,-0.9008037,-0.564591169,-0.618905246,-0.104241587,0.2989157,-0.0152303316,-0.631952,0.414233446,0.169013962,0.04327251,0.258624971,-0.649258733,0.224829763,0.170604438,0.462006122,-0.5150356,-0.348331362,-0.452035874,0.258015662,-0.2884448,-0.08345758,0.00344268372,0.748928368,0.3532393,0.3241499,-0.144913211,0.5108798,-0.25489068,-0.105309032,-0.493161231,-0.261708319,0.172466964,-0.174875751,0.381636918,-0.5800689,-0.08968902,0.384986818,-0.2047439,0.1133595,-0.0289538857,-0.13545236,0.05727925,0.4577813,0.02399199,-0.7657855,0.227236181,-0.6454623,-0.350396246,0.205644131,0.8059012,0.004939513,-0.112422362,0.3983461,0.1275935,-0.132188037,-0.463568121,-0.111998327,-0.10506168,0.492012352,-0.409642965,-0.5559677,0.03620224,-0.234671131,-0.457757354,0.198521867,0.0217868835,0.3544272,-0.231412947,-0.12162102,-0.00778061524,0.154043689,0.6109009,0.12248072,-0.624574661,0.0593336374,0.05222155,0.301162362,0.1451237,0.0262630973,-0.101662107,-0.8282233,0.399351954,-0.042459745,0.2621599,0.370620072,0.25786677,-0.4401451,0.0165505167,-0.0282177366,-0.02910526,-0.147225738,0.0831322,-0.08540085,-0.2646179,0.332436144,0.652828,-0.05247248,0.008771285,-0.24875164,-0.400050461,-0.122284427,-0.304989934,0.07702455,-0.225975469,-0.430774242,-0.431093752,-0.195873275,0.0148835042,0.08098929,0.05185898,-0.5570962,-0.215568155,0.0743552,-0.5721971,-0.209899426,-0.264828652,0.0972572342,0.184167176,0.157894671,0.426480234,0.00445716735,-0.512994468,0.158653557,0.181786448,0.09800654,0.3612966,-0.801900268,-0.0476459377,0.145771,-0.16998826,-0.04435786,-0.07449956,-0.07736303,0.129842669,0.247974664,-0.276723266,-0.373248667,0.197397068,0.137204751,-0.09031183,-0.35464263,0.3183652,-0.09464665,0.162368864,0.0250310935,-0.481463373,-0.402285665,-0.0329371653,-0.661594868,0.5161409,-0.15645285,0.5455128,0.264618576,0.03823338,0.09429833,0.105150349,0.5318535,0.7054451,-0.238240555,0.04962834,-0.309809685,-0.116260462,-0.06607379,0.275088,0.187826961,-0.3237607,-0.0167380869,-0.155841962,0.4093786,-0.157624662,0.263471752,-0.415013671,0.7501142,0.413170636,-0.214587331,0.136022046,-0.07274574,-0.2695128,-0.423830748,-0.312615,-0.06710599,-0.139494374,0.07272648,-0.470492959,0.260471016,0.1564131,0.8908786,0.166501269,-0.206971526,-0.0339424871,0.400780261,-0.07253496,-0.120439939,-0.888136,0.152758479,-0.2771425,-0.299438417,-0.218921661,0.366647542,-0.3166564,-0.114912048,-0.4150544,-0.1890563,-0.468385041,0.5977303,-0.652850449,0.07158164,-0.446617126,-0.274125963,-0.0613875538,-0.187223792,-0.189568564,0.429937869,0.333161116,0.409148,0.223163322,-0.649585366,-0.13627395,0.633053064,0.03018564,0.5570342,0.0605944134,-0.5086764,-0.458763748,0.0473361127,-0.122561172,-0.305151641,0.5682131,0.0298194811,-0.09021547,0.4949947,-0.565200448,-0.16973117,-0.251418948,-0.4032567,0.09798382,-0.103430815,0.352108151,0.135472462,-0.2515552,-0.008990197,0.0304108169,0.241598457,0.198958516,0.3374468,-0.347252667,-0.9903311,0.028194217,-0.218958333,0.163790926,-0.391115963,-0.09549875,0.281815648,0.074381195,0.1325642,-0.245631084,-0.0328987539,0.368252724,-0.5444919,0.8462071,0.660796762,0.5001397,-0.25863117,0.289633155,0.5221801,-0.670846462,0.399626762,0.352708846,0.193587482,0.519981,0.264742643,-0.046621684,-0.051949013,0.02120365,0.211036429],[-0.05257463,-0.356479168,0.290533632,0.129137322,-0.4932173,0.5431229,-0.7864666,-0.35517925,0.591074347,-0.205136657,-0.235544369,-0.160383835,-0.0407371745,0.4999119,-0.334548622,-0.145409718,-0.3327036,-0.0484875627,0.104185343,-0.1104031,-0.488371372,-0.835201859,-0.179198235,0.3072941,0.17844674,-0.09057194,-0.1465152,0.305814117,-0.0345769227,0.168173954,-0.0412084647,-0.44087404,0.0138082467,0.3221914,0.23806791,-0.325830042,-0.0485754237,0.0823562741,0.3136466,0.115511194,0.9333691,-0.441851228,-0.209745139,-0.182196349,-0.6583661,-0.08751839,-0.639954746,0.204249844,0.607167363,-0.174920231,0.10713052,-0.425685734,-0.2260138,-0.200118646,-0.5058327,0.0115605081,0.0556627,-0.743851244,-0.327162057,-0.212349966,-0.293025881,0.247312725,0.0114173647,-0.297484159,-0.473076373,0.138019726,-0.369079322,-0.682204664,-0.2588087,-0.005615024,-0.110243104,0.0685213357,-0.08628734,-0.192667276,0.118340336,-0.10070619,-0.12656647,0.567720532,0.09092789,-0.237799838,-0.124706641,0.210613921,0.2512559,0.463999569,0.6602149,-0.130530611,0.009261006,-0.307777256,-0.6899504,0.6055106,-0.184734508,0.111776896,0.7882392,0.153591141,-0.0118045667,0.125895843,0.140000492,0.371588647,0.454013973,-0.225660324,0.184603691,0.0653172657,-0.630441964,-0.190935344,0.270427376,0.66528213,-0.443869174,-0.368774176,0.04607608,0.218618408,-0.336301863,0.463224947,-0.08755228,0.0980077758,0.295604616,-0.494378239,0.3235451,0.129474953,0.03874195,0.9489535,0.04441113,0.3685103,-0.0512691773,0.6513366,-0.0305341929,-0.4685835,0.993000269,-0.4705887,-0.372383922,-0.5114728,-0.0340708271,0.7239373,0.796131551,-0.8566295,0.676908851,-0.125417769,0.2451809,-0.030078562,-0.227548987,-0.4542392,-0.101479843,-0.310763,-0.0473074168,-0.245885983,-0.386964649,0.1087981,0.281645983,-0.05168919,-0.038379807,-0.3760623,0.33475697,-0.5285726,-0.08870615,-0.265117377,0.110976592,0.627681255,0.164547056,0.2875185,0.7659628,-0.0878614858,0.295523673,0.07331006,-0.3596477,0.235062823,-0.0119280294,-0.268384576,-0.0310078822,0.0515869819,-0.441975832,0.0654120147,-0.5444858,-0.2430903,-0.3920357,-0.120821737,-0.5358565,-0.0661525056,-0.19296962,0.13353911,-0.125901535,0.317700148,0.353782445,0.7823081,0.2153617,-0.10811542,0.350921541,0.525913954,0.500253141,-0.6003495,-0.176003367,-0.65885663,0.179460853,-0.0595153868,-0.793223441,-0.1662317,0.1578597,-0.157524481,-0.243943363,-0.169963315,0.254348,0.450674385,-0.0716320649,-0.0260005463,-0.148785546,0.371827662,0.164492264,0.2774783,-0.126025185,0.359586924,0.263788968,0.20837374,0.168265611,0.233964,-0.0318195932,-0.593881249,0.125719011,-0.0166847315,-0.2342318,-0.2525527,-0.103342913,0.107444808,0.461996943,-0.06926126,-0.168661818,0.24200961,0.07507494,-0.319397628,0.00314483955,-0.506812036,0.425767869,0.756664157,-0.31666398,0.4592655,0.3829506,-0.1737061,-0.5669852,0.251415759,-0.127382323,-0.110572472,-0.234553769,0.191010654,-0.05230164,-0.0494680852,0.182565063,-0.0181426778,0.1273213,-0.252501965,0.09128686,0.5170983,-0.297883362,0.366364747,-0.292352021,0.7567911,0.13962765,0.186603725,0.535015762,-0.486912876,-0.0263388511,0.14803265,-0.321441859,0.4375425,0.196891472,0.4679464,-0.403360754,-0.269804418,0.252395928,-0.338863164,0.3469431,-0.10874515,0.0348970629,-0.2739747,0.402984023,-0.0106738051,-0.177698866,-0.130030453,-0.136199281,-0.5442355,0.503571033,-0.328480422,-0.000291432516,0.07244776,0.264359832,-0.322677463,-0.582248032,-0.323379725,0.0144487359,-0.292313755,-0.530154645,-0.130753964,-0.208824754,-0.3752235,-0.4956434,0.129912242,0.6219546,-0.229868978,-0.00868825,-0.131046817,-0.198726431,0.728095651,0.123178564,0.08014565,-0.456781238,0.203150585,-0.143832564,-0.0274959318,-0.338596225,0.131770492,0.279645354,-0.233407438,0.5257622,-0.0181084219,-0.362795144,0.0487817,-0.376907229,-0.5671044,0.06333976,-0.12831451,0.583024,0.2808591,-0.201396957,-0.5802037,-0.419845641,-0.589115262,-0.633458257,0.475424856,0.186628222,0.246475443,0.220615476,0.24033089,-0.2197668,0.295593381,-0.252791226,-0.05486062,0.8203851,0.31626752,-0.217931777,0.27626574,0.109799191,-0.433854848,0.284671247,-0.122123085,-0.307694942,-0.314297229,0.305464476,0.00617243629,0.2734884,-0.21838215,-0.697018147,-0.5871868,-0.136384085,-0.2570056,-0.5359872,-0.312603921,-0.199626148,-0.6335403,-0.124866039,0.513811231,-0.8259421,-0.107180007,0.258375347,-0.2607542,0.209812269,0.264715016,0.395629436,0.370523483,-0.08899662,-0.1378318,-0.192136824,-0.3244763,0.124856077,-0.237920925,0.611286759,-0.8146503,0.248580322,0.146576151,-0.5194763,-0.01449204,0.0460125245,-0.006684795,-0.0694035441,-0.6537851,-0.473969251,0.0353698619,-0.4951696,0.278287023,-0.3898349,0.400582761,-0.0340924226,0.338438481,-0.0550066642,0.162435219,0.490863562,0.262207627,-0.09107637,-0.301155955,-0.412613451,-0.0321526751,-0.0404820368,0.423345327,-0.424531132,0.133966953,-0.36561,0.135996759,-0.448040336,0.0334843658,0.11205858,-0.0218880977,-0.403613,0.232784972,-0.215475589,0.208916053,-0.567728758,-0.06945597,0.0119182067,-0.03916059,0.2254946,0.193130612,-0.331950635,0.0122992564,-0.3308611,-0.10355784,-0.178723574,-0.734391749,-0.212000817,-0.6181243,0.319628358,0.198771477,0.240668759,-0.109782204,0.201447591,0.432696283,0.05561239,0.121003017,0.225128919,-0.400322646,-0.327282131,0.1642069,0.0102821467,0.3648437,0.150008664,-0.231543869,0.2306149,0.129518092,0.22714527,0.418916017,0.302917629,0.241810709,-0.7175784,0.6311024,-0.286283135,0.6398199,0.1231106,-0.0782061443,-0.0590177737,-0.172839686,0.193220079,-0.186093956,-0.0354243219,0.226098374,0.134315908,1.25497615,0.3382469,0.383891433,0.123106867,0.8542695,0.314687878,0.8979175,0.00329460762,0.340065718,-0.181301951,-0.01795094,0.027282089,0.374151349,-0.00366917229,0.387845159,-0.5121109,0.299673349,-0.133930251,0.166791871,-0.0642878,0.353971183,0.259556174,-0.308945447,-0.0600071363,0.07238264,0.194852576,-0.378011942,0.260859847,0.0448998921,0.195363283,-0.0309545919,-0.126821622,0.2346191,-0.295804173,0.125793621,0.365105182,0.3332816,0.212572917,-0.230368629,-0.2995592,0.68893,0.433475375,0.6595083,-0.0459836237,-0.0131515563,-0.273658067,-0.4336652,0.197116554,-0.2863435,0.663947344,0.8257528,-0.119289652,-0.1911895,-0.205322713,0.152556539,0.27671954,0.06874374,0.438761532,0.149708673,-0.367223769,-0.114987791,0.17632553,0.0326253548,-0.5386717,-0.4844708,-0.134708852,0.277680457,-0.145349145,0.6137763,0.131948158,-0.193506122,-0.290238321,0.110011667,0.6708447,-0.3150282,0.5904079,0.462900579,0.002359446,-0.388871223,0.361935884,-0.222368732,-0.1134694,0.03312368,0.326057285,0.261784315,-0.20732674,0.0112497341,-0.240507767,-0.441192657,-0.233251661,-0.00173625909,0.5155792,0.228207767,-0.141776919,0.3646246,0.0617448539,0.308345765,-0.06932051,0.165339649,-0.206068754,-0.1947144,-0.02358245,-0.19004263,0.277893633,-0.5683929,-0.512874,-0.2035823,-0.0498675928,0.12376748,0.0484852865,-0.03023906,-0.0966087952,-0.370173782,0.08821328,0.09469242,0.317869484,0.401570618,-0.280947477,0.514012039,0.00998371653,0.0381745733,0.248643041,-0.5042234,0.190939888,0.317943454,0.12958549,0.03436748,-0.6166819,0.111838587,0.19136183,-0.04832806,-0.303687423,0.148781449,0.4611347,0.352540374,0.2185338,0.0609252229,-0.116802372,-0.130638748,0.0756877139,-0.280926526,-0.728506744,-0.279544979,-0.4839436,0.559707642,-0.07287131,0.390875936,0.157962933,-0.216470525,0.255757928,-0.06256966,0.243573949,0.148095191,-0.329914927,0.330283076,-0.3985098,0.3617644,0.2974053,-0.123232596,0.138608843,0.07946374,0.561916053,-0.0396782644,-0.384266526,0.06676194,-0.261787266,-0.7245491,0.6790923,-0.317971557,0.181926727,0.2624627,-0.0284973849,-0.153783157,0.207076639,0.0599596351,-0.679302335,0.2616146,0.311153859,0.185705945,0.7344539,-0.296418071,0.230244443,-0.323060632,0.0542959943,0.398189425,-0.0602977164,0.113328479,-0.0107017029,0.170406938,0.5690339,0.1676182,0.0496514738,-0.157473817,-0.729066253,-0.062655136,-0.151028961,-0.009418845,0.298294157,0.0402422473,0.399645776,0.5654386,0.0367459841,0.06863488,0.1399073,-0.129257172,0.631975353,-0.420614958,0.437917024,0.10598214,-0.2674592,-0.261670947,0.135705441,-0.0275602136,0.255568981,-0.384512454,-0.331068039,-0.03997469,-0.0364252739,0.0544943,-0.6365658,-0.193947762,0.1725892,-0.193432122,-0.0472449251,0.07512601,0.0336253271,-0.06619271,0.274368525,0.117582,0.0601581149,0.04595985,-0.137529179,0.07270063,0.4863219,0.04891808,0.114512742,-0.490195066,-0.151610941,-0.346891522,-0.120478727,0.539318264,0.36409536,0.351785183,0.662216246,-0.478442371,0.24637194,-0.358254433,0.057996925,-0.136183336,0.55071485,0.221605316,-0.250018,-0.212455347,-0.241553336,-0.320401847,-0.234704837,-0.08233178,-0.561821,-0.118543312,-0.4909312,0.460463,-0.0333874971,-0.100894131,-0.02227696,-0.101862915,-0.00310244272,0.30720225,0.166674688,-0.04084853,0.05235283,0.156010941,-0.263014466,0.5310969,-0.480208427,0.183735654,0.179447308,0.5167684,0.227551967,0.6136509,-0.04045845,-0.796110451,-0.273559,-0.440299153,-0.0272999,0.479423285,0.08095903,-0.6241334,0.0553577,0.3908338,-0.04392283,0.3868411,-0.8612899,0.5254797,0.199921414,-0.588586152,-0.08322483,-0.330209672,0.4026479,-0.7281847,0.52112335,-0.27047497,0.386727452,0.3417968,0.0268684477,-0.00251581986,0.0108470768,0.205921322,-0.36991784,0.169228464,0.170967117,-0.6281601,-0.0387637466,0.5922612,0.0449977852,-0.4601995,-0.0274695754,-0.13067387,-0.370900452,-0.24186793,-0.0311565753,0.628711045,0.0231586974,-0.349753022,0.4082462,-0.19371371],[-0.0239320565,-0.5468006,-0.280124873,-0.346297771,0.0961942151,-0.5921951,0.122433215,-0.68958056,0.0538643822,-0.142366841,-0.137247548,-0.667649,0.331776,0.4189473,-0.9408358,-0.5229729,0.5107656,-0.159274,0.351577878,-0.230967939,-0.241872653,-0.25791806,0.4641387,0.166930988,-0.0308786239,-0.185258612,-0.05720235,0.108568542,0.0215894766,-0.2501544,-0.371086568,-0.0296099968,0.5187314,-0.439482123,0.477038026,-0.2656258,0.255233973,0.4821229,0.305052578,0.3519454,0.423519462,0.00682672439,0.130556419,-0.472160459,-0.190772742,-0.482991725,-0.585579157,-0.479105145,0.2669879,-0.07101583,0.00335952314,-0.161652982,-0.238401219,0.837662458,-0.2941961,0.0639387,-0.0936557,0.06904177,0.2869101,-0.143906742,-0.1602778,-0.6286632,0.148926839,-0.0548765548,-0.09206227,-0.1823588,-0.6614647,-0.2537582,-0.166222185,-0.216902971,0.429795831,-0.130683482,-0.299673617,0.03032123,0.138063461,0.408305526,0.0291889124,0.561480641,-0.27764976,-0.398134977,0.267643064,-0.176317289,0.160843477,0.46609503,0.312722832,0.152469322,-0.7808341,-0.3145508,0.80275625,0.273792326,0.2669916,-0.403186232,0.6203315,-0.0539015569,-0.192309409,-0.5170122,-0.350908548,0.265662432,-0.010880054,-0.137205914,-0.5498277,-0.23976323,-0.00889379,-0.5053064,0.05842177,0.259544939,0.07283715,-0.4651916,-0.9159249,-0.351338834,-0.238828182,-0.2241019,-0.119278446,0.33379373,0.7122531,0.0457218252,-0.159489438,-0.696541667,0.123286359,0.310129,-0.03981311,0.0443537,0.299072,0.5030132,-0.448463142,0.149653926,-0.06543764,-0.0523751229,-0.129666746,0.0638721,-0.1305412,-0.0870963857,0.357757926,0.287981719,0.0408360325,-0.383284,0.665083051,0.08298105,-0.57007134,-0.6443215,-0.3272257,0.8391732,-0.6871234,0.3749243,-0.31128037,-0.215488762,0.170677558,0.430864841,0.08120687,0.268406153,-0.395752519,-0.262795866,-0.267270416,-0.005978938,-0.6962897,0.379540175,-0.269111842,-0.00138573837,-0.137901649,-0.417665482,0.175764918,0.3748762,0.275696635,-0.0187297743,-0.0515303351,0.4552696,-0.4541715,-0.3264565,0.4424902,0.03025174,-0.015422198,-0.565913,-0.401529968,0.0529246144,-0.330283016,0.4450773,-0.247466639,0.191675931,0.5211001,0.435854316,-0.0541227,0.375013769,0.09183195,0.2272483,0.368084818,-0.556381643,-0.265865266,-0.10718096,-0.632300556,-0.0455560163,-0.363796949,0.109871708,0.211233631,-0.375032,0.67743963,-0.260996044,0.160399035,-0.1844904,-0.146499574,0.236885,-0.163223937,-0.2964541,-0.283051074,-0.6152105,-0.327357739,0.003007351,0.383463383,0.186582938,0.470084727,0.09048864,0.07900628,0.73819685,0.08998042,-0.1184463,0.08777099,0.4182294,0.3079155,-0.8466826,-0.4313043,-0.5010952,-0.119464442,0.2740968,-0.251830667,-0.109492689,0.14371635,0.234708875,-0.874932647,-0.0888381451,-0.120339334,-0.07005318,0.117161378,-0.357117921,-0.4062043,0.2055429,0.4452353,0.6907222,0.7770088,-0.216500953,-0.0144994119,0.13383925,0.246922091,-0.2690078,0.315672219,-0.711109,0.301274449,0.224848926,-0.732672334,-0.200030908,0.0376701728,0.317806154,0.787902534,0.429843634,0.062422812,-0.7060362,0.5924153,5.61301749E-05,-0.3342809,-0.254764766,0.02597202,0.5494,0.172438055,0.243597344,-0.720377266,0.640496254,-0.144313544,0.333989054,0.148674726,-0.611431,-0.003029777,-0.349686682,0.631737769,0.197164744,-0.145070747,0.148244768,0.520804346,-0.0374516621,-0.6298205,0.00775050838,0.32997933,-0.3270994,-0.488550365,0.4588477,-0.290643215,0.361711442,0.138841107,0.239142045,0.04963812,0.546537042,-0.2508312,0.0904982761,-0.106287941,0.4898875,0.0693383142,-0.5910364,-0.0198709331,-0.5302326,0.00363641372,0.307548016,0.07761788,-0.5143633,-0.188919976,-0.13277635,-0.375303715,-0.7439412,0.165978581,-0.3628492,-0.0559288822,-0.16952619,0.205551133,-0.025125,-0.517368734,-0.385568142,-0.105630517,-0.152481422,-0.0196170248,0.4479921,0.226598486,0.230059728,0.523034632,-0.0277737528,-0.299418479,0.61479944,0.348245323,0.122083195,-0.3017128,-0.142863169,0.0278683249,-0.488549381,-0.81926626,-0.9375116,0.648803055,-0.2834082,0.0467522219,-0.642977238,0.5025597,0.333482474,0.586423039,-0.08266305,0.3218534,-0.3591964,0.6810746,0.206791028,-0.0140954237,-0.3689434,-0.0705827847,0.414420873,0.365514159,-0.272157371,0.05364466,0.297369123,-0.08070568,0.5445889,-0.401922822,-0.27865842,0.200764373,-0.7822398,0.251073658,-0.287388921,-0.2133883,0.137633637,-0.194056138,0.279165983,0.114568047,0.0243880637,0.430670738,0.06299012,0.0427734852,0.3167071,0.329099268,0.319552064,0.02505906,-0.3096933,-0.108989216,-0.167238817,0.100348845,0.5155331,-0.240190625,-0.0434268266,-0.365084559,0.5489789,-0.0517155528,-0.295932472,-0.373799741,0.20307833,0.07415128,0.340064257,-0.7101241,-0.318450183,-0.0498658866,0.446088731,-0.3044358,0.487401,-0.8041473,0.153815717,-0.5360223,0.0355403,0.6214982,0.441461146,-0.5752285,0.472057968,0.13930358,0.07058093,-0.340198845,-0.368109167,0.461778671,0.06277905,0.10793066,0.109032318,0.4543496,-0.193006486,-0.643641531,0.4794845,0.247576579,-0.716903865,0.213580951,0.4071986,0.290356427,0.107743613,0.08247412,0.232400075,-0.272844136,-0.157191738,0.6293347,0.569235742,0.492620826,0.08405394,-0.0214538053,0.880741,-0.462623775,0.387863755,0.247841433,0.3298764,0.243449137,0.129894942,0.008147638,0.624181747,-0.405518025,0.04180399,0.8813271,-0.0211860929,-0.05695887,0.38412264,0.01519859,0.3434367,0.312018424,0.0969594643,0.114779942,0.402730316,0.521384537,-0.734501064,0.411960274,0.279402316,-0.23842065,0.280989319,-0.3564568,-0.0817047656,0.182501391,-0.3962029,0.207014486,0.3815566,-0.0517471023,0.0121157728,0.365661561,-0.106446415,-0.483901381,-0.109992348,0.562138736,-0.7015968,0.215107,0.01211317,0.19715184,0.03556994,-0.137112081,0.350546628,-0.5299671,-0.01305938,-0.216764331,-0.160809889,-0.06997741,-0.007826352,-0.5054775,-0.0698028654,0.091134645,-0.179615229,