{"name":"MNIST learning DNN Mark VII","description":"MNIST learning DNN using 3 layers in structure: (784, 24, 10 ). Creation date: 2019. 05. 19. 20:42:34","activationFunctionName":"SigmoidActivation","layers":[{"weightMx":[[-0.0115424329,0.03208941,0.002530124,0.0510835536,-0.0234575514,0.0269696154,0.0118210753,0.020760579,0.04504743,-0.0253773741,-0.004064988,-0.01288357,0.0328409337,-0.01456584,-0.00462031458,-0.008991894,-0.000813434541,-0.005321301,-0.009978507,0.04288282,-0.02434191,0.008084319,0.009538525,-0.0106571978,-0.0550358556,-0.0215134844,-0.0181602,0.0361390263,-0.024294313,-0.0041841385,0.00753447972,0.005443196,-0.0175331738,0.0116255153,0.0146570709,-0.102451421,-0.00315906433,-0.002470046,-0.003577321,0.0195311662,0.0131640946,-0.01915537,0.0475225672,-0.0283738039,-0.0483350679,-0.0190097224,-0.00401905924,0.0427445881,0.00669784052,0.04619653,-0.0222260337,-0.0183538068,-0.00295209861,0.0150054879,0.0043104,0.03542053,-0.009610764,-0.0512211,0.007821117,-0.0004622657,-0.0163613968,-0.005497151,-0.00357363163,-0.005904104,-0.00718846358,0.0368659943,0.0156087484,0.04646612,0.0542744622,0.0450808443,0.05177741,-0.0156666432,-0.0276097544,0.06605217,0.02293916,0.092228584,0.06867708,0.07684959,0.0310963113,0.03101126,0.00156565919,0.0201031361,-0.007961798,-0.0144398026,-0.0312593058,0.031114772,0.0244791,0.0205840059,0.03234662,-0.055506587,-0.043764405,0.0560640879,-0.0112445122,-0.109655879,-0.124250822,-0.110344462,-0.218683779,-0.222490013,-0.04767107,-0.0520505123,-0.0176572632,-0.125036642,-0.0439254381,0.07390978,0.12521553,0.122810028,0.0985675752,0.096538,0.0612668172,-0.0001659977,0.00652021635,0.004299401,0.0130299916,-0.06479883,-0.0046126605,-0.05676411,-0.0347369947,-0.0600683577,-0.0202898514,-0.0377821364,-0.03368097,-0.1577633,-0.129838645,-0.145214751,-0.169321522,-0.251149327,-0.13434045,-0.06405272,-0.10230545,0.135715887,0.220646828,0.245301,0.268832564,0.205044731,-0.0167241283,-0.0506987274,-0.0102285435,-0.03706593,-0.03053066,-0.0472639836,0.03067859,-0.0140942549,0.00331654353,-0.03928324,-0.040981736,-0.08058849,-0.0739287,0.0247733667,-0.0608095825,-0.2561258,-0.197222933,-0.112391964,-0.233190924,-0.126493663,-0.147160411,-0.134261653,0.008567239,0.0187978577,-0.1305961,-0.14676185,-0.05258986,0.275478125,0.008536058,-0.1288387,-0.06363133,-0.05205856,-0.0328802168,0.00366492639,-0.005420916,-0.02683016,0.0116865868,0.0128518371,0.00146292557,-0.06901132,0.0383895561,0.104042754,-0.028774133,-0.158387125,-0.0567430966,0.07009444,-0.163199767,-0.1027219,-0.0396159254,0.0214183778,-0.126355633,-0.112440296,0.06756945,-0.0495550931,-0.206901178,-0.0113987187,0.0261890274,-0.190564051,-0.1839823,-0.0773499161,-0.07907862,-0.0119650187,-0.0257132556,0.0173192583,-0.00362382969,0.0315620936,0.0266282968,-0.07079372,0.0157334525,0.109379396,-0.0452305377,-0.1271013,-0.07543958,0.09177732,-0.0966023356,-0.137278646,-0.07563852,0.07274574,-0.08747011,-0.1957853,-0.0549601,-0.176216125,-0.1834327,-0.204231113,0.01138417,-0.0788743943,-0.260017425,-0.2109368,-0.145770356,-4.364931E-05,0.0239234846,-0.00341239,0.00150404673,0.0527293757,-0.06340519,-0.0468588471,0.0216506887,0.0608620346,-0.110877991,-0.135947749,-0.0829153061,0.191364855,0.147416115,0.0273865331,-0.0467009433,0.008327171,-0.106405169,-0.176749,0.009504044,-0.111744992,-0.0299800448,-0.000939227757,-0.0274994839,-0.0110965762,-0.2369055,-0.337653369,-0.161301,-0.0875470862,0.0463142,-0.0123161385,0.0549871847,0.005090878,0.060856618,0.045246385,0.188365415,-0.0147225633,-0.12807484,-0.0148447827,-0.03360923,0.166276023,0.306846678,0.0598753467,-0.200882256,-0.1812809,-0.180990085,0.0210374109,-0.0143904574,-0.05904221,-0.131289214,-0.08077146,-0.054766316,-0.036723882,-0.1836001,-0.2841233,-0.117920451,0.020926334,0.0415377878,0.0136453277,0.0342574157,0.0213600043,0.09505335,0.06172497,-0.01663495,-0.0367999449,-0.0193065051,0.07267354,0.261150479,0.4566415,0.3304407,-0.0548566133,-0.512847662,-0.7619826,-0.220469683,0.10679958,0.00659080129,0.155657917,0.245004341,-0.127373964,0.183524922,0.0155607564,-0.27176562,-0.435951769,-0.201152682,0.0008848969,-0.0265683774,0.0249116775,0.134652019,0.06392227,0.134662047,-0.06998873,0.0201954767,0.02960624,0.144084543,0.30055666,0.0965295956,0.06934887,0.273674935,-0.162314638,-0.8312905,-0.7002558,-0.0241530035,0.09048705,0.0372072,0.161584824,0.358842075,0.165341645,0.187381551,0.0286564622,-0.2130122,-0.391799033,-0.139677569,-0.0454666577,0.0205435343,0.0494113527,0.060050752,0.147402212,0.1519868,0.04344591,0.06827049,-0.04431625,0.0165966935,0.0248459727,-0.201461256,0.07069116,0.0284485854,-0.338326871,-1.02991164,-0.6787535,0.08909807,0.0492646955,0.193680882,-0.00349081657,0.0751971751,0.104876034,0.31239152,0.368754029,0.201984048,-0.137546271,-0.0852730945,-0.012448485,-0.05515978,-0.0134198433,0.08044817,0.14542143,0.196880385,0.226648614,0.215939492,0.131194755,-0.1498627,-0.000436960254,0.116293453,0.4350362,0.0508958,-0.745625734,-0.91179055,-0.310290664,0.00862222351,0.167268977,0.0120287174,-0.194083467,-0.035493385,0.233231336,0.416444868,0.348938257,0.273977816,-0.02942349,-0.0320116058,-0.00293940376,0.00016321303,0.04160676,0.080230765,0.0446408875,0.0937898159,0.22783,0.259866178,0.193995,0.122135647,0.20028384,0.2869664,0.402937353,-0.07978056,-0.8091164,-0.6103276,-0.0275286641,0.115620621,0.111055747,0.0393384881,0.109749675,0.07493641,0.3982645,0.5763789,0.2978914,0.113169737,-0.09047629,-0.0326029435,0.00439929729,0.005406387,-0.0152491033,0.0421704575,0.006388486,-0.17232424,0.07299002,0.188379124,0.273546875,0.00275996816,0.252799034,0.351335555,0.237133965,-0.327210575,-0.872242,-0.736785352,-0.220480636,0.323468149,0.299328566,0.07671208,0.1607741,0.1231379,0.296180844,0.444190681,0.216459677,-0.06240232,-0.0379640274,-0.0517368019,0.0552735,-0.0118718594,-0.0233597234,0.0242877621,-0.07110638,-0.181050539,0.0226069577,0.2048287,0.255284458,0.246236861,0.07543726,0.130979359,0.2302648,-0.4199709,-0.913396657,-0.58201617,0.250657558,0.470380574,0.09340541,0.00304168672,0.02990958,0.19139348,0.1359169,0.137113228,-0.0201573186,-0.108602121,-0.00123069528,-0.0124433842,-0.0248066448,-0.0060559893,-0.0182138626,-0.00740322657,-0.131050721,-0.182077944,-0.104840957,0.258216172,0.3829961,0.141282663,0.294435531,0.247666076,0.112389341,-0.476330459,-0.6842628,-0.213916212,0.256160229,0.3456861,0.294457138,0.03703985,0.1038054,0.152165756,-0.0342503265,-0.0754413456,-0.2923009,-0.109347492,0.000251517049,-0.00650383066,0.00594716473,-0.0152674578,-0.0559210554,-0.015475478,-0.181070641,-0.327086747,-0.2377398,-0.07387709,0.297711939,-0.02889051,0.242524028,0.318381,0.05357018,-0.3546356,-0.412158132,0.07958,0.310631335,0.209333792,-0.021029789,0.154472485,0.0852166638,0.06920105,-0.07148631,-0.160891339,-0.217795655,-0.00325745461,0.03039448,0.008674703,0.0150443139,-0.0207294151,0.0311123561,-0.0421358757,-0.135093585,-0.134389654,-0.1743336,-0.127921686,0.03903871,0.0203135535,0.242499933,0.08699799,-0.153717577,-0.409426749,-0.25327915,0.174593911,0.244789943,0.277109057,0.117704123,0.112426735,0.152639478,-0.0237850174,-0.00290293153,-0.130003929,0.02341438,0.02636996,0.0523579866,0.02092147,0.03472967,-0.02873908,0.0100688618,-0.00848921947,-0.06925835,-0.0935974941,-0.04807089,-0.08640552,-0.0295760538,-0.06826677,0.0607829951,-0.0116688646,-0.3075034,-0.09305213,-0.165711433,-0.0154447816,0.0236699954,0.06456992,-0.103699006,-0.050043907,-0.141060024,-0.037437167,0.0166937672,-0.0205315165,0.08786031,0.0260205772,0.0146181472,0.0272383429,-0.03767836,-0.0111467279,-0.0209368579,-0.008899153,-0.05554939,-0.08309928,0.01657804,-0.114015855,-0.119444735,-0.232530355,-0.184048891,0.174608648,0.181895465,0.04033937,0.07391904,-0.07148126,0.0150732221,0.00208135182,0.06745263,0.0464034043,-0.116767,-0.124901637,0.05560665,-0.001134045,-0.0461152233,0.008734028,-0.0245677326,-0.0224902425,0.0187946949,-0.00654749433,0.0111421272,0.0195415355,-0.0161948074,-0.150273412,0.00487928325,-0.0474180542,-0.14458105,-0.185444653,-0.2414989,-0.150120437,-0.0109700337,-0.04438097,0.220180511,0.125673309,0.0533670746,0.0802701861,0.04356591,-0.00615125941,-0.127259687,-0.2525668,-0.06423622,-0.107003875,-0.07635492,0.0163361244,-0.09597322,-0.0191582143,0.0218766984,0.0343218632,0.0312881321,0.01143452,-0.00111273339,-0.105634354,-0.0843374,-0.0300123338,-0.0203210544,-0.185956344,-0.06236871,-0.08344864,-0.086364,0.0174907241,0.08478931,0.0426141731,-0.0662519857,-0.0574881434,0.103898712,-0.0305257626,-0.203348547,-0.179961473,-0.108116128,-0.07897429,-0.0294879172,-0.06500465,-0.0182584077,-0.012766337,0.0216355026,-0.000447837083,0.009276979,0.0101133967,0.004381364,-0.0434126221,-0.0141415121,-0.0158248451,-0.0116112521,-0.01014282,-0.16812852,-0.153616726,-0.221517384,-0.113503665,-0.07556124,0.0065411916,-0.04408001,0.0266575925,0.04116826,-0.07106752,-0.02173409,-0.0663883,-0.110068806,-0.04011082,-0.0444354378,-0.080688104,-0.0272099562,-0.009387529,0.0507140458,-0.044180125,-0.0290704034,0.0394981168,0.01991773,0.007100332,-0.0520493574,0.0259494968,-0.0459993742,-0.06838664,-0.05989768,-0.177960739,-0.0796660855,-0.0377280675,-0.04041536,0.188028231,0.185676292,0.217222691,0.109532982,0.117302448,0.0109603824,-0.0435205251,-0.0966696739,0.0180586576,-0.04507101,-0.06893077,-0.0215195753,-0.03656661,0.0501884334,0.02844615,0.008100214,-0.02237584,-0.008325173,-0.0104331914,0.02311219,0.0204166379,-0.000700429257,-0.03353028,-0.0291185845,-0.0424974076,0.06836705,0.0959655643,0.0754483342,0.153516039,0.122462936,0.126554742,0.149291754,0.141826719,0.08255627,0.067573294,0.0357128642,0.0610292032,0.0213821884,-0.00758668035,-0.00753871445,-0.008881228,0.00695467554,0.0186754316,-0.0312282629,0.0126077812,-0.0546586625,0.0242528655,0.0284475181,0.0278359987,-0.0552231073,0.00761460746,0.0258472078,0.04224251,-0.0528407581,0.0119486758,0.0311792642,0.0210928582,0.0510776378,0.0110204918,-0.0353763625,0.0556009039,0.04123404,-0.030449111,-0.008693608,0.02543358,-0.0159774777,0.03221454,-0.0315947272,-0.0027268203,0.0134233059],[0.02063112,0.0225566141,0.0196860563,0.0194989871,-0.0363576971,0.038402386,-0.0179154743,0.0470222048,-0.05409399,0.0130016115,-0.08379103,0.07649226,0.0324726067,-0.00909187,-0.0211708248,-0.003522062,0.000746518432,-0.0222829413,0.0273940172,0.0217514411,0.04480701,-0.0442344621,0.0293885,-0.0205741767,-0.007188134,0.029613832,-0.0661801,-0.0147855021,0.0375271253,-0.000311432144,-0.0213092677,-0.0363079458,-0.0178691763,0.0129112331,0.03865787,0.0173485968,0.0250109117,-0.0202570371,0.0266601257,0.0268333089,0.07182372,0.08963266,-0.00103936321,0.0223456882,-0.00596242,-0.0123981712,0.025229143,0.0258749276,0.0420884378,-0.0409445539,0.0111263441,0.008844548,0.0119801965,-0.020276634,-0.0126188546,0.0472581536,0.04079715,-0.0023836887,-0.007404383,0.025189219,-0.05807831,0.0113081578,0.04619021,-0.03089014,0.004317652,0.04005264,0.03179826,0.0538115129,0.120389879,0.159993351,0.123134322,0.137603134,0.0300250482,0.06972111,0.137045518,0.144531012,0.09478942,0.0458492264,0.06586781,-0.021342257,0.0219458546,0.03062665,-0.02320479,0.042929668,-0.0459742248,0.005018145,-0.0259490255,0.00164766714,0.0671735853,0.00366608449,0.0152090583,0.02174601,-0.01894608,-0.102519684,-0.0250251554,-0.0186771266,0.102264531,0.315878958,0.2632494,0.187035188,0.0979918242,-0.136440873,0.0239359159,0.194553375,0.241412729,0.13628085,0.182258621,0.07357919,0.0709711239,0.07683378,0.022045847,-0.009805484,0.0621409565,-0.0166531149,-0.00484590651,-0.0211251415,0.011942924,0.0382217951,0.0434498675,0.05112638,-0.0915721953,-0.0808671,-0.12494342,-0.0274684,-0.00193564373,-0.0692284256,-0.0611408763,0.03074969,-0.0376593359,-0.117509753,0.06822977,0.0535358265,0.152531818,0.189981863,0.160695419,0.126453131,0.101322904,0.0319873542,0.0144913718,0.0303108618,-0.005136188,0.0664811358,-0.029722672,-0.005379059,-0.03045784,0.0334393457,0.0340976566,0.0117448615,-0.174612254,-0.223298222,-0.212447256,0.042268943,0.313038439,0.285036653,-0.167161793,-0.139230117,-0.2045686,0.09151121,0.257082522,0.266332,0.152388334,0.07574335,0.145473137,0.114861347,0.0722679645,0.03912144,0.0168499928,0.0168149732,-0.0223463066,0.0138865439,0.0209182277,-0.0363980867,-0.04245687,0.00669053569,-0.1054173,-0.141084552,-0.272818625,-0.0438161679,-0.0851408541,-0.0779060349,-0.0075763124,0.0187668782,-0.122922428,0.08254911,0.06648004,0.06841524,0.106457055,0.0474805646,-0.139332861,-0.193065852,-0.137498766,-0.06821449,-0.0117458068,0.025013959,0.038373176,-0.0183894541,-0.008142388,-0.00300103542,0.0151066706,-0.0368382148,-0.130080551,-0.176300585,-0.219694138,-0.345128715,-0.246089,-0.159248367,-0.220792875,-0.0297377277,0.0544129871,0.107448518,0.240119234,0.256753266,0.190574124,0.491911083,0.50061506,-0.0222165249,-0.07051856,-0.228645548,-0.0529972464,-0.08666408,0.06241876,0.09550189,0.00632178,0.01099905,-0.0795645,-0.0295230355,-0.05284233,-0.0571326949,-0.163599268,-0.29005754,-0.08113426,-0.174433023,-0.284207582,-0.3174441,-0.3046171,-0.0171418246,0.06286753,0.1088098,0.138710588,0.158369139,0.295315057,0.161390752,0.2631234,-0.0369770825,0.156991243,0.08874453,0.19153738,0.138571039,0.353545,0.08802673,0.0581908,0.02578371,-0.009230168,-0.04293114,-0.0227844119,-0.0593622439,-0.2071584,-0.256291181,-0.0581944138,-0.08114753,-0.161784247,-0.0451833569,-0.135072172,0.137089789,0.00186345144,0.134374738,-0.196984231,0.100705035,0.07514463,-0.132728338,-0.00432693353,-0.04978749,0.138332769,0.116881281,0.2065104,0.3956247,0.463527083,0.2308002,0.0521076024,-0.0209135283,-0.0208661854,0.0009735805,-0.000305937749,-0.0124186883,-0.166160971,-0.106779024,-0.0414171666,-0.354080141,-0.100408435,-0.168771371,-0.14434655,0.1589502,0.07919478,0.2462873,0.227748781,0.02794356,0.0836338848,-0.01767764,-0.0891700238,0.03818917,0.2797134,0.07623874,0.009138639,0.5493579,0.4419498,0.266944855,0.08758277,-0.0132105909,0.0212606732,0.01620512,-0.0461238734,-0.0663642,-0.116815232,0.104022734,0.100593634,-0.09280252,0.215000376,-0.0241231434,-0.190463737,0.155992553,0.144352481,0.4603342,0.303608865,0.0649315,-0.115152247,-0.183483422,0.26864633,0.0252934173,0.345497757,0.0006412777,0.005609668,0.228481591,0.153380826,0.00546170166,0.009884473,0.0224111751,-0.000232266408,-0.006119279,-0.0250906255,-0.059573248,-0.05593034,0.105258726,0.236946121,0.0141882636,0.06017687,0.116197295,-0.220065325,-0.185087889,0.0536301173,0.682893,0.545627952,0.360077739,-0.2824296,-0.14848876,0.1347326,0.141402945,0.115764461,-0.0812292248,-0.009999762,0.0178372264,-0.07985227,-0.07777232,-0.0122420667,0.0180968121,-0.0105937151,0.0101781413,-0.0036268523,-0.07054467,-0.0594287142,-0.0403387845,0.0126036806,0.0581988432,-0.09594408,-0.00152106641,-0.156445235,-0.278646171,0.008025792,0.462061435,0.5717441,0.155762359,-0.079779245,-0.193624377,-0.007932287,0.00637779152,-0.24849768,-0.4457576,-0.14439103,-0.03951306,-0.04412093,-0.0971625149,-0.04338169,-0.0221607853,0.0131961647,0.008763506,-0.04886771,-0.00179058861,-0.113210291,-0.137537435,-0.1779517,-0.138377741,0.149097562,0.246925086,0.0898569,-0.348485,0.209512949,0.62080276,0.3467539,0.1875791,-0.0122531075,-0.2192821,-0.04448148,-0.518951237,-0.497754484,-0.384682417,-0.120079421,-0.0607989877,-0.00123430009,-0.02205543,-0.0410414673,0.0173131861,0.008726776,0.0503811836,-0.006021981,-0.1196124,-0.113197692,-0.05167542,-0.3937347,-0.285530329,0.064194344,0.0120950248,-0.169517949,-0.137666523,0.5323629,0.6048515,0.1349099,-0.437767446,-0.4054236,-0.380515575,-0.2876763,-0.663721,-0.4932145,-0.307673782,0.0258645453,0.0494814329,-0.04558501,-0.0537806265,-0.1209129,0.00367378327,0.000289033924,0.0167683344,0.0607537255,0.0170859974,-0.109858409,0.07496663,-0.312987357,-0.191483557,-0.0727769062,-0.10104347,-0.08148495,0.378157258,0.581211567,0.187460467,-0.594165862,-0.757077336,-0.4069058,-0.35649845,-0.3222253,-0.439786017,-0.338124245,-0.0460343659,0.13510175,0.190253884,0.0228883065,-0.168922782,-0.101016574,-0.0119888466,0.00535738049,0.0303511731,0.0616603568,0.0206319876,-0.004000919,0.262984633,0.09778687,-0.0442668647,-0.04857252,0.0421107039,0.3129669,0.3610419,0.0417603068,-0.6305175,-0.7939219,-0.352911025,-0.119348243,-0.23027049,-0.143489212,-0.06783404,-0.082398504,0.0282528251,0.103470147,0.06601764,-0.163456932,-0.238807127,-0.0482966,0.00048585594,-0.0150515158,-0.000382478669,0.025493253,0.08427929,0.0462930836,0.0503170379,0.3229712,0.307680517,0.439210534,0.321321338,0.325024128,-0.14527829,-0.749589145,-1.044814,-0.416745842,-0.218104959,-0.169556245,-0.09933866,-0.000106633554,0.07094763,-0.07761188,0.0284989532,-0.00561210839,-0.103499278,-0.223439723,-0.179304078,-0.0360676572,-0.031117266,-0.0500680432,0.01371181,0.0344102345,0.06488106,-0.03163994,-0.0994996354,-0.024092624,0.249099359,0.36914295,0.428490877,0.3650782,-0.0177905429,-0.154373139,-0.264769763,-0.197745919,-0.0051932605,-0.07915315,-0.0525070243,0.06895692,0.169871926,-0.036492154,-0.142330885,-0.04830846,-0.156960934,-0.1929752,-0.125840262,-0.0703064054,0.0203656759,-0.01137873,-0.009559338,-0.04409327,0.032531444,-0.0329433978,-0.09061042,-0.0422876626,-0.0521999262,0.00286538643,0.173126236,0.367540568,0.2784369,0.116477467,0.151473641,0.06905652,0.0422944948,0.0370842442,0.00732252235,0.186219275,0.284169734,0.177074075,-0.119567186,-0.03760928,-0.06653272,-0.08330231,-0.102260105,-0.0125204893,0.050988,-0.008563942,-0.0171908084,-0.0289166588,0.05554951,0.05298293,-0.007768427,0.145431727,0.13906917,0.149811342,0.08844946,0.03648243,0.06738,0.216818571,0.439628184,0.428753555,0.268037319,0.184788331,0.11902909,0.06250811,0.197152242,0.118790574,0.0448572822,0.00233651744,-0.0503718,-0.0260843262,-0.0679885745,0.00316806673,0.039859686,-0.0390225425,-0.030083755,-0.0386084355,0.008362229,0.0537009835,0.128174931,0.131009966,0.00359148858,0.0016913414,-0.07892581,0.0420124456,0.0844786838,0.380850375,0.1791743,0.0525939725,0.180660129,0.231825873,0.1308801,-0.040869046,0.0373273529,-0.04045738,-0.03224829,-0.08309496,-0.104758315,-0.06890817,-0.0315868072,0.0175413042,0.04928929,-0.0329908021,0.015900813,-0.032705985,0.008214799,-0.01995887,0.0529067963,-0.06752402,-0.1431294,-0.0152670685,0.0536550134,0.06905287,0.0435787328,0.118218154,0.319348842,0.182037383,0.343752682,0.302017272,0.225796342,-0.07338698,-0.02525907,-0.127090111,-0.16767478,-0.109476,-0.07886307,-0.0491211824,-0.0265853945,-0.01746907,-0.0306034721,-0.0208885111,0.0159096364,-0.00475636451,0.0509313233,0.003049822,-0.132163674,-0.1128741,0.0230263025,0.248317257,0.442861825,0.351858735,0.0368869677,0.19117628,0.20948872,-0.1502924,0.121465296,0.03798117,-0.126414612,-0.171392411,-0.0250528976,-0.029098453,-0.0131789064,-0.0309688952,0.0422987044,0.0197333358,0.03029286,-0.04676741,0.0192605481,-0.020244699,-0.0337886326,-0.0221541524,-0.0144600337,-0.0789618939,-0.0847896561,-0.0589497872,0.149318218,0.293498933,0.162753046,0.194614127,0.2005493,0.10483285,0.05108535,0.207888052,0.0122111281,0.0109342616,-0.0181079339,0.0423398577,0.146220386,0.165220082,0.05841602,0.02634895,0.006375446,-0.0144549208,0.02833422,-0.017540805,0.00229995465,-0.0160786,0.00866263,-0.0024652537,0.0245163236,-0.006944758,0.0825005844,0.0149921933,-0.0199235044,0.066679135,0.162165865,0.219304487,0.235213429,0.225285977,0.263064116,0.0572740361,0.127339035,0.1713181,0.105542012,0.144252509,0.162865192,0.07293862,0.104206115,-0.0403646976,0.0134346485,0.0252089966,0.0319970623,0.0416348428,-0.0167583767,-0.00212978036,0.0479227267,0.0448229872,0.0159480218,-0.00131501269,-0.0323329642,-0.00658177258,0.0313688628,-0.0174305476,0.0228801314,-0.0165458117,0.004317976,-0.0541296154,0.0964751244,-0.044136297,-0.0290109217,0.0015634516,-0.046013847,-0.00110881159,0.009159685,0.005904014,0.0196467657,0.0203142464,0.0178540051,-0.01918526,-0.0242085867,0.0264168978,0.00684816949],[0.009953408,-0.01642749,-0.009339653,-0.0387546979,0.0144068738,-0.010088752,-0.0249524079,-0.0194449425,-0.009024913,-0.0192665532,0.00124969427,0.0317639634,-0.008327355,-0.0128063876,-0.02215035,0.0181385875,0.01302464,-0.006860981,-0.03748585,0.001811591,-0.0620114654,0.07747743,0.0279108025,0.00336209871,-0.0148246558,-0.01916339,-0.0425078832,-0.0113006048,-0.001781393,0.0240979,0.0454343334,0.0202116314,0.003735552,0.049949944,-0.0144257816,-0.0249265712,-0.00279449346,0.0594510026,0.0997152,0.0329870954,0.0269573517,-0.004704808,0.05358245,-0.0158072,0.0414455831,0.0189151261,0.0342700966,-0.00768922,-0.01441769,0.03457061,0.0205586422,0.00279198261,-0.0206919443,-0.000361754734,-0.07221021,-0.0148403775,0.0118693262,-0.0139416941,0.0156427249,-0.027525641,0.0205718353,-0.0246507768,-0.0358510353,0.01837506,0.0738630742,0.105735935,0.109734058,0.0928999,0.140559673,0.1959586,0.184652522,0.1501332,0.104581282,0.0228330567,0.08432354,0.03315426,-0.0196347348,-0.008026534,0.000975512841,0.00150583254,-0.0431513973,0.00699618924,0.0181401912,-0.00415628124,0.0354231074,-0.0304751378,0.011710369,0.0108560631,-0.0219281,0.038921997,-0.0130403079,0.03648735,0.180036575,0.246428758,0.219240308,0.192971483,0.112133235,0.288261622,0.340832472,0.222419456,0.2808329,0.196233854,0.153674349,0.15716964,0.152696952,0.192817062,0.09887741,0.086951,0.0766157657,0.0007095358,-0.0362410545,0.0008527357,0.0228075478,-0.004873802,-0.04896382,-0.008397474,-0.0164197758,-0.07056526,-0.02912243,0.02453232,0.157470971,0.205240786,0.251125962,0.123380229,0.195605874,0.237658679,0.106270865,0.07530089,-0.0109740505,-0.05167682,-0.180787578,0.03649394,0.118168436,-0.06378822,-0.0604573041,-0.008528554,0.017774405,0.0335712954,0.049201075,0.06026764,0.03433587,-0.0119586149,0.0405083559,-0.045585528,-0.0496002249,-0.104309134,-0.0290930737,0.107532732,0.2700852,0.07533573,0.146884158,0.137055248,0.0161310453,0.0319747,-0.0129869822,-0.226327375,-0.03513646,0.0888189,0.08130394,0.01808962,0.1494145,0.043188747,-0.09195059,-0.014804245,-0.0947465,0.0779398456,0.0415524542,0.0151273366,0.02107509,0.02281059,-0.0115938233,-0.0169652123,-0.0622318,-0.0764302,-0.0442550071,0.07780381,0.0261690784,-0.192268059,-0.22585848,-0.109731175,-0.0190318711,-0.0339489058,0.06717015,0.0682700351,-0.196075752,0.125629678,0.156940043,-0.20384796,-0.1475879,-0.07091304,-0.227408245,-0.0565229878,-0.09669132,0.04050834,-0.0190666858,-0.0362268053,0.04141543,-0.00275510736,0.04664998,0.01023686,-0.009358278,0.09012581,0.130319685,-0.03409157,-0.08736442,-0.08580897,-0.0450988747,0.0565244555,-0.014113903,-0.0367749259,0.18020156,0.154372066,-0.244549781,-0.283407867,-0.0602255762,-0.3505846,-0.3179716,0.08537211,-0.0319560356,-0.0493852049,0.0497122072,-0.05472303,-0.04185392,0.0479694568,0.0213515442,0.0465349443,0.0256830547,-0.06197205,-0.147793457,0.125348881,0.261467457,0.107811928,-0.09306108,0.08888129,0.152890846,0.178654477,0.149866924,0.136100665,0.09170034,-0.000115061288,0.03715228,-0.09924061,-0.00235507521,0.09947424,-0.0171367433,-0.0111142257,0.032877095,0.171048418,0.0666408539,0.0262064636,-0.0292332284,-0.00128114491,0.0273838677,0.00490428926,0.004404301,-0.0337402672,-0.1105828,0.24162747,0.190125048,-0.0767308846,-0.21676515,0.06150602,-0.08464775,0.152672634,0.00389541872,-0.0763375461,-0.07839595,0.0058679455,-0.166638315,-0.0537469164,0.0234782826,0.203533158,0.06481522,-0.055824507,-0.0656654,0.137535587,-0.07410434,-0.04859287,-0.0698751658,0.007987838,0.0123823481,-0.0166240558,0.00889560953,0.0231118631,-0.1280392,0.06434807,-0.159766063,-0.170992315,0.019587243,0.066483,-0.008596776,0.113319591,0.116419926,0.22482124,0.2568742,-0.220448449,-0.376422733,-0.264107853,0.0743975341,0.198264062,-0.124342069,0.00136999728,0.157493815,0.08890174,-0.213714987,-0.358568877,-0.136203513,0.0009058861,0.0315844528,0.005197805,0.00676200725,-0.0391635671,-0.184556663,-0.12018916,-0.07419031,0.1682481,0.261756629,0.09940537,0.115366787,0.00172421569,-0.000270760531,0.0131878313,-0.131507888,-0.123867705,-0.04793432,0.0260850713,-0.02924525,-0.007322,-0.202503636,0.134098,0.324590981,0.0494965836,0.048250474,-0.142686874,-0.0458372757,0.0283011869,0.0142270587,0.00823468,0.0491890945,0.0755635351,0.0249310657,-0.1533127,-0.03985773,0.09545105,0.069265835,-0.06626498,0.039762,-0.19066821,-0.21516113,-0.09288555,-0.0893372,-0.0253828783,0.0903502,-0.0622698739,-0.130789146,-0.05455658,-0.118810095,0.258215457,0.181396723,0.107355624,0.246437252,0.06974574,-0.00251217512,-0.0436319336,-0.005583457,0.0263721365,0.05345039,0.0441521332,-0.146110877,-0.349303931,-0.201693639,-0.117790863,-0.105353214,-0.0302853156,-0.08178928,-0.138467655,-0.143897846,-0.208709151,-0.104243338,-0.153211147,0.0240827929,-0.0406518057,0.109018542,0.144066617,-0.101491168,-0.03818082,0.0138089517,0.123672284,0.269725651,0.179233685,0.09475764,0.004475881,0.0138684278,0.007956822,0.0332343131,0.0008687648,-0.1277375,-0.15453063,-0.09339583,-0.05624566,-0.366951555,-0.158262372,-0.171345592,0.00266054459,-0.15334937,-0.191421241,-0.153825566,-0.159579948,-0.415095985,-0.3609452,-0.0197010543,0.119162381,-0.406059653,-0.5653035,-0.1296252,0.130151615,0.262792438,0.192015037,0.0154607361,-0.0356586948,-0.0382573269,0.0052901553,-0.0364499427,-0.07908411,0.0152552016,0.133892342,0.210476,-0.004605084,-0.154151753,-0.2876297,-0.3368871,-0.150770575,-0.3120996,-0.312502176,-0.5865936,-0.449237764,-0.220375061,-0.1260211,-0.16559951,-0.0324053131,-0.210991427,-0.457879722,-0.2536783,0.07081514,0.293447733,0.1983804,0.0517282523,0.0352403857,-0.0472550429,-0.0502235442,0.02246465,0.0507236831,0.1271515,0.289389938,0.4821563,0.249055773,0.139849141,-0.155791849,-0.525616348,-0.2522546,-0.4795746,-0.5486885,-0.124011308,-0.00319507322,0.100543953,0.0347688273,-0.033254467,0.116919294,0.0810400844,-0.0441284925,0.0233895611,0.25269258,0.290477633,0.333043545,0.09809473,0.00416133134,0.0179680288,0.01285673,-0.0566031523,-0.007439123,0.201583087,0.5004989,0.8407649,0.9923264,1.19395983,0.8624357,0.180752635,0.286348939,0.150218785,-0.197537556,0.0451688059,0.08934196,0.0517583452,0.102096707,0.2763242,0.2961039,0.2658875,0.09446309,0.07055031,0.0889641,0.24226819,0.268641233,0.0433788858,0.04777561,-0.002914962,-0.02136997,0.00599436229,-0.0586306937,0.1367641,0.7354457,0.892936349,1.06872,1.35392237,1.65322375,1.50489736,1.06826138,0.9027417,0.469260246,0.233811185,0.3022652,0.209551185,0.178922743,0.274958074,0.368350744,0.131787926,-0.0133100441,0.0300267581,0.244702667,0.265620083,0.176809624,-0.0172831248,-0.0115122674,0.0220629554,0.00075586664,-0.0441431,-0.138976872,0.12014135,0.560292959,0.4394897,0.08821201,0.3636937,0.7131114,0.9381246,0.9711632,0.771825731,0.6378034,0.3957738,0.150428534,0.2415736,0.09783546,0.207949862,0.103768356,0.0664684847,0.0211468134,0.0157118142,0.215034127,0.134276614,0.0786764547,-0.0145035144,0.00184266572,-0.0265950654,-0.03843352,0.0355949551,-0.148335636,-0.00582907349,0.237992048,0.230208591,0.06628449,-0.28963688,-0.0418970436,-0.09624522,-0.04582551,0.313911676,0.423153281,0.118375868,0.178067,0.110030055,0.07158157,0.0516983941,0.09251829,-0.154484421,-0.0621767081,-0.180946738,0.160112172,0.173802912,-0.0245211273,-0.007327069,0.01558988,-0.0512919053,-0.007560279,-0.0123043107,-0.119531229,-0.104550853,-0.0299461745,0.036964234,-0.165325686,-0.326152265,-0.211718142,-0.157589227,-0.03793477,0.03586283,0.15187633,0.175488755,0.2026298,0.119886763,0.13536343,-0.109082259,0.29837054,-0.0947492048,-0.1786896,-0.1710843,0.213535488,0.12432234,-0.009279181,0.00667464733,-0.0242679566,0.02016236,0.0301587749,-0.03148313,-0.0457533,-0.1286008,-0.171161488,-0.01231276,-0.206956863,0.04176411,-0.09883396,0.0227794237,0.1304989,-0.287381738,0.03866131,0.08904438,0.2929886,0.218415558,0.214800686,-0.0124776559,0.200636938,0.0392512679,-0.06290204,-0.01406358,0.112984814,0.1183849,0.0005848676,-0.03102631,-0.0249737483,0.00492183724,-0.00888752,-0.009847172,0.00372084975,-0.126211151,-0.236767411,-0.294861883,-0.291447818,0.0112835821,-0.139584735,-0.1920614,0.243555322,0.04329785,-0.160924,0.156334311,0.2664951,0.318463683,0.183170423,0.108334966,0.172793,0.138507083,0.0175721589,0.107777305,0.03452469,0.0471060723,0.0166232064,-0.014961442,-0.007836389,-0.0176456366,-0.008323919,0.000471669162,-0.04791367,-0.104697242,-0.345788449,-0.251141965,-0.0238172021,0.0153018441,-0.0286604,-0.02297892,0.2645968,0.276483417,0.327858418,0.315813959,0.152865991,0.4328665,0.323090047,0.0005232299,0.0140289217,0.08015354,0.0164762419,-0.004058775,0.0210251659,0.009581995,0.0326307975,-0.01348113,0.0306868441,0.031219393,-0.0142803006,-0.0336423144,0.0229088031,-0.01832311,-0.142323151,-0.0618479438,-0.232973725,-0.247959018,-0.219775349,-0.272677928,-0.02802989,-0.211139724,-0.07701712,0.144028515,0.0427044556,0.113979615,0.126221478,0.002905106,0.007941667,0.007471699,-0.048520647,0.0497083068,-0.0229562521,-0.02568874,-0.0278026573,0.0321463123,-0.000288367242,-0.00352434488,-0.00334948464,0.005975812,0.008009728,0.006117568,-0.0177801,0.00116194249,-0.08812761,-0.03133147,0.021762047,-0.0653086454,-0.1533292,-0.149180964,-0.008840869,-0.04865974,-0.0640731,0.00957088,0.0323287621,0.061447788,0.02311661,0.0386508331,-0.0380514152,0.00421837345,-0.03845025,-0.004551523,-0.0003329827,0.00642757351,0.01217542,-0.00198334,-0.00332748587,0.00476229936,0.0117716407,0.01879502,-0.00461605471,0.0396845751,0.04988552,-0.02092802,-0.0382918157,-0.008871164,0.0200532079,-0.04511629,-0.0120222038,-0.0372143723,-0.0380603746,0.00665731961,-0.0208218321,0.007733563,0.008549003,0.0146764982,-0.0183606911,-0.0188173912,-0.0198983978,-0.008818822,-0.0172949471,0.0165881477,-0.015707083],[0.0288979858,-0.005865326,0.0563098937,0.0117415348,-0.01280549,0.03513326,0.0151452208,0.023933623,0.008607599,-0.0343548469,0.00216063741,-0.0113594159,-0.000475690933,-0.0110470848,0.04126039,0.00549003528,0.0160690546,-0.0117963236,0.0363737121,-0.00357443234,0.00786301,0.0251877811,-0.004437502,0.00714643439,0.04348005,0.045316007,-0.04539012,0.00380815263,0.0236791112,-0.0103819417,-0.00610938529,0.0377064571,-0.0116490722,0.0141838146,-0.021710664,-0.0241008569,-0.0321416557,-0.000972574635,-0.00772315729,-0.0147654712,0.00265534665,-0.00318029267,0.00338084134,-0.0288583636,0.009936826,-0.00418795552,0.0100573674,-0.0003452911,-0.00586018059,0.0416474231,0.00449903775,0.0113035068,-0.035045892,0.005214818,-0.0136107355,-0.05218948,-0.0273692422,-0.0347805,0.047861848,0.0376009978,-0.0399478227,0.0498732254,0.008368875,-0.0135390032,-0.0272316057,0.0136985965,-0.00692006527,-0.008436016,0.0151916379,-0.0307528172,-0.0449119322,-0.04030791,-0.0030986995,-0.0361602269,-0.07077614,-0.0950396,-0.072868295,-0.00178518821,-0.030753823,-0.03289887,0.00594903529,0.0132765938,-0.04816087,-4.85817727E-05,-0.0538724,-0.0215584561,0.002056173,0.0197641831,-0.00426357938,-0.00640782062,-0.03514648,-0.0383002274,-0.07089007,0.0496286154,0.148893774,0.25045377,0.3122294,0.262658656,0.2145518,0.180427432,0.124577865,-0.0411400162,-0.144157246,-0.142189711,-0.130130872,-0.03500378,-0.07622328,-0.0370235965,-0.03410628,0.07587273,0.000757407048,-0.0137795163,0.0010511718,0.08665735,0.03551175,-0.0218573622,0.021828467,0.0129425433,0.00159377023,0.05828,0.141430542,0.2634886,0.334517151,0.344923049,0.224626541,0.383829027,0.289538831,0.099423945,0.181801051,0.04233469,0.116728216,-0.0748635158,-0.153699726,-0.0273124389,-0.11583,-0.145966247,-0.08227007,0.00261005783,0.00582238,0.0149544431,-0.04497561,-0.000301690685,-0.00544897141,0.03264874,0.117713176,0.192557886,0.162110984,0.219074085,0.109242484,0.231717274,0.0844890848,-0.111121207,-0.144566029,0.08597085,-0.197950527,-0.238594621,-0.160832822,-0.2606049,0.0533080958,-0.031222675,-0.355435,-0.03647596,-0.0504648946,-0.295710683,-0.135431141,-0.05719401,-0.03661663,-0.009580999,0.04066201,0.008385157,-0.007012928,0.09483299,0.173006356,0.3677171,0.374667346,0.188357517,0.18812111,0.142204031,0.166000679,0.17807807,0.1812271,0.0986729,-0.2657266,0.00233768579,-0.0199329965,-0.32686314,-0.150776118,0.0530215427,-0.09624569,0.138584927,0.13389869,-0.08420268,-0.186827019,-0.121893,-0.06113896,-0.0294215642,-0.0447472259,-0.031493824,0.0588428266,0.1503072,0.323195428,0.3424619,0.293456465,0.371787816,0.158709288,0.139406011,0.399100184,0.22881718,0.112270854,-0.124140628,-0.002089356,0.328609824,0.008808536,-0.06188778,-0.0158269182,0.3328301,0.0452606268,0.001328055,0.245477617,0.07029049,-0.235978648,-0.1293898,-0.0229948778,0.0525374934,0.0007257624,0.0630689,0.01715752,0.252896845,0.438867033,0.226489991,0.191969022,0.247751832,-0.05196172,0.006781786,0.231865063,0.223952949,0.2837476,0.169467792,0.119017325,0.4276805,0.470087528,0.180013657,0.361917317,0.0307767466,0.008690128,-0.0550005846,0.278538167,0.04245976,-0.161411166,-0.117788009,-0.04254214,-0.0518484078,-0.0310748536,0.07411345,0.03611389,0.24550578,0.491312176,0.247667924,-0.0167563446,-0.251178533,-0.228381425,-0.134695262,-0.113415517,-0.1471836,0.05676179,0.07266225,0.40666762,0.612732351,0.313775063,-0.06277714,0.124139592,0.07984777,0.298648447,0.147304356,0.203532264,0.213546023,-0.00189874589,-0.16630277,-0.05797656,-0.0171116516,0.0151222479,0.0192544665,0.09822944,0.248094082,0.4720833,0.265746,0.0774350762,-0.0171651971,-0.0407888852,-0.0832668245,-0.008922779,0.0250247,0.0675500855,0.162291229,0.485865384,0.4949728,0.4717624,0.226824433,0.531054556,0.591120958,0.5283996,0.122267105,0.113833949,0.06896212,-0.0488343537,-0.2524778,-0.0371902958,-0.0422034971,0.00355314,0.05491123,0.164104238,0.234011874,0.150812685,0.0185359176,0.152860343,-0.0978207663,-0.0806671456,0.209315628,0.183437854,0.247124881,0.238421336,0.369631141,0.0918373242,-0.09001038,0.07225324,0.2961732,0.200815991,0.371143639,0.354071826,0.03100075,-0.188733488,-0.06012162,0.07017478,-0.1514097,-0.105081022,-0.0122920042,-0.0112964511,0.113716304,0.135803267,0.171929672,0.0005990749,-0.0783519745,0.102283314,-0.168454424,-0.0579233468,0.23652254,0.0942234,0.205706984,0.0218208078,-0.369312376,-0.4943197,-0.154345483,0.234272078,0.00169861049,0.0390978642,-0.134549662,-0.129893824,-0.292996824,-0.2242372,0.205601051,0.213505179,-0.008589729,-0.0501187369,-0.008239365,-0.0224521942,0.0176104084,0.14762181,0.08018446,-0.07962713,-0.0279127639,0.07800152,-0.0494181179,0.0878850147,0.04919674,-0.124002591,-0.1741183,-0.475926459,-0.404904246,-0.4164144,-0.229264915,0.0205126386,-0.304231018,-0.3304357,-0.528770149,-0.5963188,-0.51552856,-0.02051045,0.299576283,0.2914514,0.1466487,-0.0131167034,-0.0121759959,0.0274402052,0.0133201145,0.08704077,0.089389354,-0.0946743041,-0.04188039,-0.09029259,-0.0896991044,-0.0755330846,-0.122370005,-0.287573516,-0.456312,-0.5915238,-0.265951455,-0.6130873,-0.3550071,0.00596116344,-0.2454567,-0.21734567,-0.350811839,-0.2586863,0.1287702,0.232028455,0.55228883,0.348967344,0.0802478045,0.00541898841,-0.0143706407,0.0271898285,0.009611954,-0.005994544,0.0276576858,-0.106834747,-0.0398385823,-0.09619773,-0.131277144,-0.368488133,-0.265381455,-0.443043828,-0.397987783,-0.529936135,-0.288428664,-0.307873845,0.0233970918,-0.09578587,-0.289264679,0.006270954,0.05605357,0.234795019,0.4686414,0.4736625,0.4941751,0.251458824,0.0975540951,0.0274203923,-0.0200633686,0.015684275,0.03133704,-0.0111426823,0.0292862765,0.06757538,-0.0296196211,-0.06268893,-0.2756138,-0.47355,-0.200265273,-0.5280607,-0.575551569,-0.5594394,-0.231684715,-0.115690805,-0.147420838,-0.255815864,-0.0102974046,0.355005533,0.369034827,0.5043928,0.487124473,0.52112,0.4191202,0.23129566,0.0379317775,-0.0296165943,-0.0256930832,-0.005375675,-0.0399247557,0.0237360224,0.09652485,0.151769772,-0.0318208076,-0.105087817,-0.1942379,-0.402857035,-0.0806763247,-0.2753833,-0.49028793,-0.465351462,-0.5595355,-0.385053,-0.125476927,-0.0542616323,0.247393057,0.6113901,0.506433547,0.3002161,0.229673013,0.3262115,0.289149851,0.0128737334,0.000157530463,0.00609246735,-0.0274841543,0.0431044623,0.0180377867,0.06856358,0.154096708,0.165000692,0.0277045984,-0.0606349334,-0.2090554,-0.01771121,-0.0380226262,-0.1689414,-0.171348974,-0.414787918,-0.677025259,-0.2875752,-0.1328629,0.0779625252,0.2807561,0.297849029,0.178517565,0.08005271,0.196857974,0.2032305,0.0521534,-0.150322869,-0.1330708,-0.028152274,0.03528252,0.04752735,-0.004446039,0.0573557541,0.188149408,0.246174783,0.0936841145,0.06977287,-0.00405003829,0.0105047775,0.04963193,-0.134953156,-0.124313474,-0.187752575,-0.5090817,-0.404201567,-0.264589518,-0.388129175,-0.143514991,0.0580716319,0.1421488,0.124754615,0.228040323,0.03522823,-0.193441823,-0.245172143,-0.06650774,-0.03534902,-0.00614864472,0.000834051752,0.0207405016,-0.003946338,0.256094038,0.25201422,0.110236719,-0.121110618,-0.1463849,-0.09872903,-0.0333545655,-0.0801979154,0.02850536,0.282256216,0.154211223,-0.118179314,0.08505341,-0.23442474,-0.220509589,-0.0325547941,-0.202401161,0.240510225,0.0013175,-0.08294444,-0.249185771,-0.194353119,0.0125549734,-0.0160939973,0.0398309045,-0.0143143237,0.012569719,0.0502650142,0.0552105978,-0.0223531276,-0.234655023,-0.217915148,-0.07353315,-0.09092733,-0.38385275,-0.4039568,-0.064921625,0.124446414,-0.0742280558,-0.0488157347,0.1070232,-0.07864147,-0.2692304,-0.07473498,-0.173224092,0.0131917009,-0.139631748,-0.2717863,-0.333496422,-0.151666269,0.0508556627,-0.0296341572,0.0422787666,-0.05384657,0.00111961167,-0.0348774642,0.043263156,-0.1973189,-0.1715312,-0.0115781194,0.115482032,-0.08193329,-0.0143385492,-0.1960769,-0.490803331,-0.127894208,0.04495253,0.143786117,0.297131866,0.228746489,-0.0214539114,-0.060410317,-0.251010925,-0.231161147,-0.2872353,-0.2776872,-0.257309,-0.09433918,-0.03971897,-0.01478237,0.0169416834,-0.0126743019,-0.02078288,0.00613805652,0.02373263,-0.09518831,-0.08986191,0.125592336,0.251226962,0.101165973,0.0506220162,0.113329686,-0.0247249939,0.218035132,0.365402073,0.443272233,0.3950689,0.156689629,-0.0830942839,-0.1005148,-0.09709429,-0.273316681,-0.4596559,-0.2628117,-0.1917185,-0.118647523,0.006798393,-0.0162335653,-0.007888687,-0.00377731142,-0.0172984917,0.0100651244,0.0317418426,0.08575905,0.131163359,0.2807509,0.5009932,0.544338942,0.1331987,0.05833184,-0.00844087452,-0.08203573,-0.0622455627,0.146905035,-0.206828251,-0.3093141,-0.11302574,0.0075042923,-0.243013546,-0.452334,-0.322419643,-0.144314915,-0.0744349957,-0.00646280544,-0.0445759334,0.00632788753,0.0305550657,-0.0183948521,-0.0192663651,-0.0109634791,-0.02190189,0.136909917,0.20073764,0.305112362,0.4419586,0.5653802,0.727606356,0.384919375,0.08616704,0.01954779,0.0556286126,0.112537637,-0.196141973,-0.0375875346,0.04366467,0.0202842411,-0.176252618,-0.244123012,-0.205617145,-0.0609905459,-0.0778346,-0.008065238,-0.0028612162,0.01990911,0.0396459438,-0.04276375,0.0156180728,0.06895672,0.0377476476,0.0479554124,0.0197223835,0.114091165,0.07530024,0.106388219,0.0370601043,0.08013017,-0.105820023,-0.0898105949,-0.107819289,0.103533074,0.0257235225,0.139245883,0.182336554,0.1713851,0.142668545,-0.01236241,-0.0585682727,-0.0344727859,-0.04221311,0.0100088408,0.00523997936,0.00346283452,0.005869666,0.0281353611,0.0281909015,-0.000471822335,-0.0228926726,0.008273278,0.02601112,0.0128315436,0.0100509878,0.08656743,0.109401815,0.05980334,0.0229824018,0.0265963543,0.00710981758,0.0325019658,-0.0380639359,-0.0381387323,0.0133172125,0.08301932,0.08573882,0.034452457,0.006183052,0.0322445668,-0.043515563,-0.0404299274,-0.0135690514,-0.001806682,-0.0120624555],[0.0190506075,0.00308514,0.0571867675,0.002368422,-0.0253662113,-0.0012545709,0.0017187203,0.02576693,0.0171409287,0.02618685,0.04636185,-0.03239045,-0.0020334255,-0.008664999,-0.000783353869,-0.00140311674,-0.0229128432,-0.03368003,-0.0231365226,-0.00487453,0.0138829332,0.014646004,0.09048102,0.0122067127,-0.0414866246,-0.0875228941,0.00767124072,-0.013567308,0.0028381024,0.0404384769,0.01753248,-0.02642808,-0.006581479,0.02582674,0.009960077,-0.0360223837,-0.0405678935,0.0062395744,-0.00170465326,-0.0130850254,0.02276507,0.04701552,0.00543001341,0.005849759,-0.0145717757,-0.009915909,-0.021404257,0.0534565561,0.004909924,0.03325151,-0.00220599561,-0.0214181263,0.04057088,0.02376515,-0.04869577,-0.03507955,-0.002143909,0.07283468,0.0530371033,-0.0129612032,0.0029445386,-0.0317167863,-0.0333303362,0.05583116,-0.0270719435,-0.0106116906,-0.0555950142,-0.0740259439,-0.0507602654,-0.06179364,-0.134279564,-0.0102857072,-0.0280876663,0.0075276196,0.0689022,0.102844648,0.124574371,-0.036846675,-0.09818352,-0.0185988285,0.02553505,-0.0019365648,-0.04044654,-0.0159747656,0.0114185931,-0.03900187,0.0007473242,0.03192004,0.0146034975,-0.008462703,0.02776468,0.02395359,-0.06402921,-0.00110407174,0.000422545971,-0.0897411,0.08852502,0.124544404,0.07857238,0.04711148,0.135318577,0.195321769,0.166669622,0.2413012,0.162933141,0.0346202739,0.006815337,0.0145585816,-0.01831133,0.0146311782,0.0282651354,0.04120112,0.0154527407,-0.0129612917,-0.01016432,-0.0008731923,-0.057216756,-0.0191501826,-0.0396035425,-0.071327,-0.142324612,-0.122794822,-0.5602861,-0.406592071,-0.23280172,0.09715824,0.0657668,0.243236631,0.165558279,0.27879858,0.1391864,0.161783591,0.123661771,0.312081337,0.278621584,0.129714072,0.0432636961,-0.0424415767,-0.0205334276,-0.0686003342,-4.84973243E-05,0.0185335334,-0.0159542765,-0.05491446,-0.12390925,-0.167026639,-0.258010834,-0.260238737,0.1302763,0.245006472,-0.131648526,-0.0239558369,-0.2621421,-0.03364797,0.253452241,-0.1590569,-0.008961931,0.59253,0.425834179,-0.07105088,0.143447191,0.425004333,0.390629381,0.462092936,0.191419736,0.00346036162,-0.008654179,0.0106220338,-0.0145752141,0.00666670362,0.0105784228,-0.0493026078,-0.16117242,-0.346973121,-0.271766961,-0.102348894,0.06017423,0.0962696448,-0.09374364,-0.191370592,0.154399827,0.008730636,0.236995488,0.167398751,0.0149438968,0.00540910941,0.0456527732,0.2097034,-0.176766425,0.374358833,0.498704046,0.359526724,0.2758184,0.1506982,0.0478240438,-0.00424569845,-0.000420594122,-0.0100604678,0.022565892,-0.08984686,-0.141247362,-0.237167165,-0.117384635,0.0132108182,-0.0448304154,0.06395023,-0.06199879,0.246905714,0.2269746,-0.0397195667,0.272105962,-0.323277622,0.143779159,0.04345722,0.112208411,0.175360143,0.009290734,-0.07805973,0.268336862,0.23333928,0.3335981,0.188576654,0.110769793,-0.00226663728,0.00107457489,0.0245219227,0.00153749285,0.00132389052,-0.13092877,-0.0663294941,-0.08328434,-0.00488171168,-0.0517705232,0.167611763,0.09881797,0.121158645,0.128092363,0.195094228,0.305437475,-0.195254251,0.1170672,0.185725436,0.235732883,-0.118722774,0.08932808,0.145804733,0.109852888,0.464883655,0.361005455,0.2469931,0.0598606654,-0.0746800154,-0.0118175233,0.0107331956,-0.006438644,-0.0545553,-0.0634735748,-0.05726535,0.111147448,0.04722887,0.090473786,0.04487631,0.219490841,0.302216381,0.482796371,0.3044282,0.292635739,-0.202494666,-0.4551372,-0.0130848149,0.1907964,-0.127035916,0.0794454,0.233432963,0.104547322,0.3708463,0.332784235,0.386989266,0.122893207,0.0510486662,0.00421684468,0.0660189,0.06624903,-0.130467668,0.0423847362,0.009521932,0.09238101,-0.0139243808,0.1298155,0.23727265,0.461994857,0.301759958,0.471709937,0.514154851,-0.420990765,-0.5474074,-0.5863784,-0.202353865,-0.364192,-0.5129766,-0.21043627,-0.493995339,-0.3859818,-0.379522949,0.165268913,0.328606158,0.1514648,0.02728533,0.04487641,-0.0123795085,-0.0332544781,-0.07915559,-0.133109242,-0.04664278,0.0579495728,-0.125353247,0.06369167,0.383998364,0.03901041,0.276655674,0.146206886,-0.278241873,-0.825835943,-0.591778636,-0.6090489,-0.548789561,-0.16182597,-0.450312942,-0.592726052,-1.09914017,-0.9413346,-0.534426,-0.104055874,0.08110254,0.009815142,-0.00416512368,0.00210845983,-0.03746212,0.0170690846,-0.0121435691,-0.0516973,-0.000212545245,0.134341329,0.0549616627,0.247260809,0.293702215,0.208269954,0.489925534,-0.08366636,-0.432309419,-0.3617503,-0.233048692,-0.2219184,-0.317629337,-0.132515445,-0.162959769,-0.125058547,-0.5096454,-0.450255245,-0.335719138,-0.192972109,0.0272315163,-0.01589026,-0.00168558292,-0.0325577334,-0.0201809648,0.0378310978,-0.0182402823,0.000158858064,0.111911163,0.14094694,0.218170434,0.00578661263,0.264064252,0.1986232,-0.438046962,-0.548408151,-0.271360517,-0.12715897,-0.159263641,-0.023729315,0.0597646236,-0.038647633,0.08251925,-0.164826632,0.0203280654,-0.0568560138,-0.0498808622,-0.0195125118,-0.0239331033,-0.0233389419,-0.0568641573,0.00362969935,-0.005171361,0.0457482822,0.0403216258,0.07702686,0.057549,0.143758982,0.0389189,-0.007915983,0.0397651158,0.09022296,-0.3511438,-0.166451439,-0.07939067,-0.297946751,-0.548560262,-0.5559808,-0.2999027,-0.3576802,-0.423049957,-0.08643193,0.07856695,0.254391134,0.0830235854,0.159773558,-0.07087243,-0.0534725077,0.0243883021,-0.01062432,0.05249403,-0.03542788,-0.107156165,0.0469304062,0.0272641461,0.0038339477,0.0123659167,-0.140245676,-0.14000009,0.0138993841,-0.09821394,-0.277668118,-0.488264769,-0.5587865,-0.295473,-0.490493774,-0.597472131,-0.634818256,-0.2600013,-0.08580053,-0.0112465927,0.05431823,0.1489407,0.164727226,-0.0257686172,-0.0334963053,-0.0451247357,-0.0604191646,0.00765472045,-0.00633246964,-0.0101469317,0.0457925,-0.03659383,-0.114824332,-0.174254373,-0.3707671,-0.117539153,0.179919556,-0.5152163,-0.214144215,-0.463965982,-0.7597928,-0.400674552,-0.443786442,-0.29876706,-0.237653017,0.325687855,0.0564463548,-0.01468254,0.03507227,0.151494354,0.120068654,0.0113443034,-0.02499631,-0.02585174,-0.00471847365,0.0309287272,-0.0543023534,-0.03356348,-0.0804569,-0.0574522428,-0.128092542,-0.274387956,-0.287652135,-0.3500582,0.365150332,-0.058740247,-0.177300513,-0.7674717,-0.6823135,-0.160441235,-0.158543259,0.0192454625,0.158200756,0.4077544,-0.14034152,0.101089455,-0.08267699,0.214750528,-0.03165696,-0.08378518,-0.04555615,0.006130531,-0.0148240095,0.00562281767,0.01363926,-0.134380251,-0.105526246,-0.04580097,-0.0353213027,-0.359888434,-0.07759899,-0.2774824,-0.110939957,-0.404914349,-0.704991043,-0.79608953,-0.297040582,0.0913308337,-0.0162964445,0.25324592,0.147981018,-0.240959436,-0.0564910881,0.163877025,0.0500256047,0.301958,-0.108708128,-0.138886154,-0.0312116146,-0.004948035,-0.00192397973,-0.002073284,0.0157180913,-0.158605978,-0.0215805452,-0.03742238,0.192454055,0.0145886047,-0.0468909666,-0.213992074,-0.176169485,-0.40616405,-0.422602862,0.020235192,0.2780772,0.44965443,0.250618041,-0.0624716468,0.0704917,-0.170069888,0.273178965,0.00466738734,0.04235069,0.188822329,-0.0770864,-0.124447145,-0.02018096,-0.0507986732,-0.01714598,0.004252775,0.09166621,-0.0278625954,-0.0597451255,-0.010656761,-0.0129379174,-0.01967094,0.211526,-0.09031789,0.104409494,0.371698946,0.0530374944,0.406348,0.497544348,0.15325363,0.05051389,-0.0713910162,0.212234735,0.0642799661,0.0420984738,0.05419406,0.2858503,0.0279801656,-0.121506169,-0.06499944,0.03292627,0.002784977,0.0108553972,0.04376392,0.124289341,0.0488827825,0.0112166544,0.0745952949,-0.108948715,-0.0767370239,0.143429384,0.246627077,0.0031859,0.08485045,0.257214069,0.1721408,0.474858582,0.0132738575,0.1753729,0.236814141,0.589104,0.285914481,0.220092922,0.298327327,0.25365448,0.1108237,0.0472510271,-0.0120967263,0.04892818,0.0103401821,0.019681111,0.0282000378,0.04338365,0.10174109,-0.0288257375,0.0495402925,-0.0132225407,-0.0149045223,-0.184987113,0.101779737,-0.014170534,0.256109536,-0.1053036,-0.00328598078,0.285975456,0.2082485,0.09489312,-0.0536181852,0.148467,0.133500382,0.0544372834,0.0116551574,0.108490631,0.163942859,0.0115881581,-0.00500580529,0.00517156068,-0.01634041,-0.0246914849,-0.0114039583,-0.0196362659,-0.00167441217,0.0201857667,-0.0296692848,-0.0369863659,0.0137204882,0.07662017,0.118689455,-0.200021833,-0.5329756,-0.203777283,0.162276477,0.2281315,0.0623723119,-0.1136077,-0.03857192,-0.00408167439,0.04830847,-0.0938323662,-0.0829689652,0.0149660474,0.0648677349,0.04461016,0.0031274897,0.0119077517,-0.01780456,-0.0428398065,-0.0125214625,0.033687897,-0.02238155,0.00210219063,-0.0376553163,-0.051642444,0.0111480905,0.1114412,0.188366279,-0.0129221864,-0.226734862,-0.184348375,-0.09496923,0.172766879,0.267947972,0.17333281,0.398996949,0.225486666,0.09405685,-0.0779259652,-0.0167635344,0.00673601124,0.0107843718,0.02390596,0.00149219017,0.0232380126,0.05512102,-0.0112435268,0.0227462277,0.0142835742,0.0127975214,-0.028601665,-0.00623560371,-0.064935334,-0.0608567633,0.156480074,0.240864828,0.114766806,0.20747678,0.316697627,0.12954247,0.0112175029,0.088628076,0.207765371,0.259335071,0.2703656,0.199165568,0.045209296,0.06708138,0.08791874,0.04198575,0.059217412,0.0310236011,-0.04238473,0.0256015826,-0.021873178,0.0195330177,0.0528156832,0.0141706159,-0.008095537,-0.0484327637,0.0292909816,0.0402026847,0.04903175,0.0377179272,0.08042207,0.164763257,0.161464721,0.221199989,0.3555944,0.179645285,0.188505992,0.07071542,0.037441045,0.04279473,-0.037432678,0.0174339917,0.02392806,0.0265189167,-0.000155711547,-0.007697997,0.0221298579,-0.0009355603,0.0400829427,0.002095498,0.0146067413,-0.00579737872,-0.0188407376,-0.006703997,-0.02011593,-0.00602506846,0.0345583223,0.0319616832,0.0530174747,-0.0274234265,0.0322544724,-0.00233509974,0.0215565171,0.044231005,-0.000688335334,-0.009058127,-0.04248083,0.0154087385,-0.0214067213,0.008419796,0.0206420682,-0.01303176,-0.0293460879,0.03894021,-0.0242650863,0.005850868],[0.0320763439,0.0145486556,0.0117556928,0.0263731666,-0.001404481,-0.009605425,0.00344635919,-0.00918775,-0.0282907262,-0.0365075879,-0.04108078,-0.030910816,-0.00322004454,-0.0616020747,0.0288523715,0.0169019718,0.022917768,-0.0200913381,-0.0332233869,-0.0012642066,0.0141869895,0.03484027,-0.03982453,-0.01482117,0.00575515348,-0.00300951139,0.0256174654,0.0138020329,0.00182244112,-0.008111552,-0.0469984077,-0.0135645252,-0.00377332745,-0.02781009,0.042681504,-0.0104850978,0.042477645,0.0248304773,0.0173204038,-0.0225556381,0.002241026,-0.0369175076,-0.06355328,-0.0172114838,0.00285657635,-0.01559282,-0.0375251435,-0.006565535,-0.0350864157,-0.0177198444,0.0226695091,0.00753926067,-0.0140993213,-0.00117547961,-0.03730412,-0.00125042221,0.00341497944,-0.0101610962,0.008847385,0.04095528,0.0404255129,-0.0265950132,0.04519362,0.00776741141,-0.076417014,-0.0633708239,-0.03225389,-0.05419794,-0.116648793,0.00353015424,0.007392058,0.0462882258,0.143149227,-0.003989247,-0.107274204,-0.149318814,-0.037985675,-0.122335434,-0.07234818,-0.0855677947,-0.0333827,0.005859733,0.07591453,0.0268754754,-0.0125953946,0.01563557,-0.00246409583,0.0382861979,-0.03514489,-0.0264943261,0.0493666865,-0.0388026573,-0.163737118,-0.0545195155,-0.0234082788,0.0295603313,0.200553566,0.169395119,0.158558041,0.0601700135,-0.04049651,0.0907500163,0.133480683,0.08308759,-0.121655561,-0.2607585,-0.155900449,-0.164526612,-0.0667601749,0.0189581625,-0.0209567286,-0.0260477569,0.00814446248,0.000768182857,0.00133712706,-0.0197064113,-0.00219166838,0.01488964,-0.00123390835,0.00296150846,0.009416996,0.206871554,0.214487553,0.1194779,0.275439739,0.3751503,0.252854943,0.140547082,0.145723537,0.158763364,0.00430571148,0.008415445,-0.164343,-0.135147408,0.0775442943,0.04098523,0.01468254,0.05650136,0.018419167,-0.00473716948,-0.00657958072,-0.0247786958,0.03153827,0.0166564137,0.0348201431,0.07933912,-0.0198337082,0.00300960871,0.126628786,0.2635121,0.317008674,0.285383,0.0960376039,-0.177595422,-0.008788137,-0.112358704,-0.179138571,0.0246784557,0.1644969,-0.0292037185,-0.130444512,0.01052039,0.165361,0.2638748,0.197162732,0.0335437171,0.0140525624,-0.003308002,0.0463277362,-0.0276662,0.0004073535,0.0468157828,0.03403951,0.05528234,0.0656678155,0.04246276,0.12346293,0.248756245,0.2933041,0.06136298,0.217909977,-0.0429463871,0.152157515,-0.121091582,0.0349543653,0.06827549,0.1538892,0.120304026,0.007236123,0.3118505,0.120196745,0.28130734,0.24507311,0.01590989,-0.000432094268,-0.0120617636,-0.03524642,0.00772812,0.00708678644,0.01036641,-0.0109341135,0.009586357,-0.04495485,-0.00267778873,0.140617758,0.157154,0.038256485,0.107299305,0.222051814,0.08690197,0.13105455,-0.234890223,0.07047817,-0.27687645,0.00516963331,0.141717166,0.199970141,0.0886788443,-0.158212736,0.0724910945,0.318527,0.176841438,0.09254112,-0.0344209671,-0.0182654839,0.0499456152,-0.02335277,0.007951492,0.007014997,0.0374428034,0.06380374,-0.038561482,0.135881647,0.13477248,0.154911444,0.07841146,-0.2384038,-0.0376375839,0.08559023,-0.148098618,-0.464506775,-0.108165219,0.102448314,0.025705155,-0.132895276,0.05728526,-0.0459278822,0.03219239,0.1421873,0.2448515,0.258251578,0.00300066,-0.00913777,0.0100978883,0.0672466159,0.0115851322,0.0153590767,0.09003286,0.0279310066,0.100772105,0.1337839,-0.020946743,0.359366924,0.130930483,-0.07833038,0.0351768732,-0.0869034752,-0.107477404,0.1447018,0.234584272,0.210144684,-0.12168631,-0.00453327224,0.121923238,0.241064772,-0.0268428978,0.07583758,0.316563,0.165333,0.0233484618,0.0148627022,0.03219058,-0.0498323031,-0.0238950439,0.0446315557,-0.00444809254,-0.0714446,-0.04901971,-0.012339402,-0.0267414618,0.09737041,-0.08587356,0.122315012,-0.00478866,-0.0142273493,0.327215433,0.391843766,0.0389279947,0.09617997,0.189452827,-0.160778925,0.09102403,0.0388709381,-0.102401271,0.196689472,0.501340568,0.243692,0.0238192,0.03894644,0.000505075848,0.001510529,0.04983103,0.132429644,-0.104534559,-0.227512136,-0.06628115,-0.150033936,-0.0575873069,-0.0356324539,0.159530953,0.21680966,0.1687905,0.2583544,0.344397277,-0.008121214,-0.123367049,-0.0288982373,0.126370683,-0.193879262,-0.153651774,-0.15457201,-0.226780891,-0.0387294851,0.375052959,0.226247624,-0.00145455194,-0.0087450305,-0.003911967,-0.05508997,0.0544528551,0.047080867,-0.248554409,-0.3633215,-0.13645193,-0.23208268,-0.0294881742,0.179532647,0.165890068,0.210617736,-0.0026962515,0.08418394,-0.271448344,-0.06862445,-0.0163084,-0.34845826,0.12486513,0.169867054,-0.233075276,-0.316741675,-0.550128937,-0.358335465,0.146205634,0.1121034,-0.00293456763,0.01594166,0.002913417,-0.0196208525,0.119230278,-0.0362126343,-0.260219067,-0.435640663,-0.32207796,-0.12956427,0.00566032249,0.008792584,0.0303667039,-0.0756140351,0.0255203657,0.09354165,-0.0552062467,0.33937636,0.171529353,-0.010657195,0.118610993,-0.0224362127,-0.214814752,-0.356232435,-0.578899,-0.3622898,-0.00548180658,-0.029944282,-0.0155572379,-0.0153941549,-0.015909506,-2.89310174E-06,0.0123911472,0.102247164,-0.2304215,-0.2965451,-0.242409751,-0.2224719,-0.276221454,-0.170351818,-0.054544542,-0.06424207,0.254077315,0.0130028734,-0.0544385239,0.221665546,0.293055564,0.1971502,0.0556481332,-0.145674258,-0.196843714,-0.233368248,-0.260998547,-0.1334599,0.0417924821,0.0284807328,-0.0344290361,-0.0205149148,-0.0510866977,0.0304319877,0.137359843,0.14727284,-0.120988131,0.0158132948,-0.124553233,-0.174218133,-0.260191143,-0.185197875,-0.3985197,-0.07315839,0.3829696,0.226049572,0.124946557,0.210497543,0.323479444,0.063113004,0.0411796235,-0.129722133,0.0208908413,-0.14738068,-0.103661105,-0.0008660242,0.131224558,0.117352828,0.005176414,0.0622402951,-0.000452333683,0.0200150311,0.0521144047,0.116377406,0.0199109539,-0.180947408,-0.04871966,-0.398790658,-0.4294191,-0.475322962,-0.744793355,0.0668844655,0.651211,0.27155146,0.07636598,-0.0544774532,0.3555248,0.125606462,0.258766621,0.0630774945,0.114023432,-0.00647728145,-0.1888757,-0.0262913834,0.178542808,0.0281542111,0.0293478779,-0.0307024065,-0.0429631956,0.053776186,0.109055459,0.0933374763,0.240976945,-0.173423767,-0.254888862,-0.309699982,-0.5300334,-0.164375648,-0.18926008,0.436570972,0.711934268,-0.03310116,-0.055079937,0.047874283,0.140938938,0.237730846,0.161910981,-0.07016214,0.0690365,-0.311811745,-0.16300787,0.0240048375,0.09602238,0.005044826,0.0347266,0.006662065,-0.0103625441,0.07551711,0.124275319,0.150451139,0.3663855,0.011237,-0.141370878,-0.1653215,-0.4573131,-0.5455262,-0.203490123,0.539114237,0.7948691,0.102154739,-0.2502581,0.134559676,0.357478827,-0.00970231,-0.0572376065,0.255789667,0.0370027535,-0.277837217,0.0460518934,0.119414665,0.09407914,-0.0200920627,0.00641596643,0.025804555,-0.0117690684,-0.0457895324,0.161666557,0.109886728,0.125834525,0.15342772,0.09079902,0.0383398272,-0.409019053,-0.819749057,-0.3494614,0.2872792,0.394645959,0.09697503,0.07244774,0.113140225,0.0642162859,-0.08227407,-0.0276600532,0.375546128,0.0486216024,0.00759562524,0.09279616,0.08534585,0.0469550863,0.0260829,0.0273986589,-0.0198716149,-0.003385762,-0.0157112889,0.07928304,0.130873218,0.149162754,0.04026459,-0.220769584,-0.11294277,-0.392278343,-0.443758547,-0.182835773,-0.163953587,0.230480179,0.321399331,0.188550919,0.264278352,-0.0586914159,0.0355729721,0.213560417,0.20448795,0.172787428,0.2139315,0.167427242,0.0282686651,-0.01807659,0.0154825952,0.00293351128,-0.0110801384,0.008138955,0.009163008,0.0972794443,0.169074863,0.1642521,-0.0333938748,-0.06377715,-0.197276026,-0.385724276,-0.4188285,-0.6026203,-0.113669313,0.07450306,0.259018451,-0.100073442,0.07193198,0.143019363,0.118811555,-0.025054248,0.164015159,0.175352827,0.08699272,0.169603854,0.0875050053,-0.000859244668,-0.04624928,-0.003893707,-0.009114059,0.0491547175,-0.03737935,0.03788234,0.142372414,0.00892087,-0.155195713,-0.198623985,-0.462328643,-0.267895252,-0.00414863648,-0.02078215,-0.194054559,-0.4434634,0.0100352969,0.0109940283,0.0716308951,0.1665871,0.156493619,0.020270098,0.106435083,0.0659047738,0.1368847,0.08113698,0.109631039,0.04910637,-0.0155579681,-0.00185283413,-0.05818681,0.0245384127,0.003754384,-0.0101769324,0.101063713,-0.08782845,-0.292285532,-0.2796218,-0.188249275,-0.256105065,-0.130828112,-0.0201015715,-0.119251095,-0.139649808,-0.122111261,-0.0697784349,0.12474522,0.177885026,0.1580536,0.193962365,0.15654707,0.08936932,0.09827346,0.08913085,0.0553347543,-0.005412958,0.03236749,-0.05029654,0.009979728,-0.0170950424,-0.0051966724,0.0127692316,-0.00587529875,0.04870363,-0.0434575044,-0.0903159454,-0.160164878,-0.0870934054,-0.182637289,-0.0407317,0.05641097,-0.0214746911,0.027445158,0.283850074,0.254966259,0.329163045,0.256922752,0.233763978,0.2001867,0.115402639,0.100017354,0.07304825,0.104175121,0.00590194855,-0.04840301,0.043606963,0.0229033567,0.03768297,0.0145347826,0.0380744822,-0.00658985274,-0.0280340165,0.0513407737,0.100498833,0.116091155,0.131466821,0.215427443,0.241862431,0.241271839,0.207241073,0.182111517,0.155881733,0.125685215,0.191916332,0.162650421,0.13896516,0.09581702,0.0479020327,0.0271237865,0.09059349,-0.0212704875,-0.0155527787,-0.0164608285,-0.050940223,0.0162805784,0.0118426075,-0.02733849,0.022631675,-0.00294406759,0.05204547,0.02645811,0.06111307,-0.00111782644,0.03149053,0.104969338,0.0451114476,0.117710792,0.147257879,0.196740314,0.0430817753,0.0200858675,0.0248215,0.008707427,0.0442034379,0.06495084,0.022248337,-0.0128637133,0.0102581549,0.01041054,-0.0041869604,0.03584191,0.0153293926,0.0284166243,0.00273497542,0.022522632,-0.02487871,0.0241781361,0.0108758584,-0.0198926646,-0.0265138671,0.0381686874,-0.0282731559,-0.0145904412,-0.01807302,0.0383694544,0.0355403349,0.02449194,0.0273827873,-0.0012724339,-0.0135276234,0.00238989666,-0.0182111077,-0.013130974,0.0321495757,-0.0216635745,-0.0174150541,-0.0119060669,0.0201666988,0.009781164,-0.009432859],[0.022503648,0.0104596745,0.004191947,0.0145841129,-0.00425818469,0.0344095677,-0.0378688052,-0.0352749936,-0.00781030953,-0.022577364,-0.0389658138,-0.0151175074,0.07479944,0.0266871229,-0.028780818,0.0227068886,0.0064731543,-0.00218919478,0.006897722,0.0005599804,0.02341043,0.00610496663,0.00719344849,-0.0275265127,0.0149166817,0.04775774,0.0103427479,-0.0389365479,0.0287373662,-0.0333847553,0.0315719619,-0.0277229566,0.036116913,0.0338510722,-0.1354762,-0.0626518354,-0.0362170823,0.00438579032,0.0377941243,0.0186316334,0.02207055,0.0579044819,0.0656354353,0.02220353,-0.047594633,0.0237100776,0.0342994966,-0.005616553,0.03554482,0.049942825,-0.004559846,0.00328692771,0.02815036,-0.0146228848,-0.0163113531,0.0465184525,0.0458975248,-0.004267162,0.0125723742,-0.0250729769,0.0133281518,0.0185402781,-0.05543161,-0.00404719636,0.0195765682,0.0770236,0.022177292,0.197722957,0.19067578,0.195669279,0.251680672,0.217178941,0.07419671,0.137066692,0.157584652,0.168186769,0.09656781,0.147054225,0.0652907342,0.02290906,-0.0144861657,-0.00269846735,-0.0457748547,0.04193975,0.0154854879,0.006275077,-0.02563196,-0.0332142077,0.04141728,0.05650249,0.06649211,0.039020434,0.172765285,-0.0434116162,-0.005060745,0.143045753,0.301873237,0.04912942,0.227097064,0.354432672,0.411384642,0.284547359,0.27392748,0.2510235,0.271116555,0.213844791,0.127987027,0.139204338,0.07287363,-0.00756969955,0.00273526763,0.0627957955,0.0308478288,0.0173777882,-0.0151137719,-0.0289920028,0.0833162144,0.05796497,0.126362056,0.07284038,0.221020669,0.179301292,0.0223956835,0.07651724,-0.0682005063,-0.238741,-0.3255737,-0.118285127,0.110006273,0.0932924,0.163061023,0.07166884,-0.09982043,0.04696911,0.07300255,0.07767117,-0.03255554,-0.035382282,-0.0171254519,0.0278723259,-0.0218807552,0.01010942,0.0805001259,0.0156201925,0.147774935,0.224877611,0.222186342,0.11827711,-0.0138835479,-0.113610342,0.172085658,0.0798017755,-0.165202677,-0.0763398856,-0.2016811,-0.07242145,-0.4528734,-0.511716366,-0.407767624,-0.422415823,-0.387807935,-0.267157137,-0.110238023,-0.03183658,-0.0267076269,-0.09511464,0.013312554,0.00548293861,0.0369519554,0.004621414,-0.054852277,0.04136836,0.196853116,0.276454449,0.236705229,0.116278879,0.09870316,0.163354367,0.205605626,0.223736048,-0.142256081,0.009065915,-0.280873924,0.09869181,0.00462249527,-0.1784536,0.106332779,-0.180097759,-0.3169724,-0.421431065,-0.205212057,-0.264200121,-0.123223856,-0.101496257,-0.0517571531,-0.0159815885,0.0311543383,0.05498792,0.00139223936,0.0455546,0.205384016,0.161325827,0.05068294,0.157219559,0.0610793047,0.111485444,0.106187426,-0.180896923,0.04127647,0.0261186548,-0.226385668,0.146634042,0.243034437,0.0829809755,-0.130808488,-0.386838973,-0.529798448,-0.491731972,-0.376019448,-0.351152182,-0.179710671,-0.167630315,-0.08960547,-0.08644291,0.0262240153,-0.04477907,0.0306774378,0.05055397,0.0386541039,-0.09237345,0.000297347433,0.08132044,-0.09681117,-0.429804981,-0.302184165,0.07706948,-0.0501781665,-0.0122124441,0.1897389,0.377643555,0.06687766,0.004856073,-0.11329104,-0.588942647,-0.575792134,-0.279621035,-0.137838379,-0.326630861,-0.321364671,-0.218630567,-0.135608181,-0.000267963333,-0.0326031446,-0.0586050749,0.0459904969,-0.0265036933,0.0538739935,-0.140401766,-0.00769698853,-0.12301033,-0.302398175,-0.1920863,-0.188339025,-0.216818452,-0.1720292,0.1331432,0.3338926,0.46464622,0.324954748,0.09492906,-0.0580694526,-0.39081654,-0.379483074,-0.155392691,-0.09307848,-0.460971534,-0.4737733,-0.277053833,-0.0720299557,0.04464729,0.007709113,-0.0161934011,0.0742062,-0.108618826,0.0379355252,0.02111823,-0.0008783497,-0.0121774636,-0.343980879,-0.288785547,-0.442780226,-0.08586966,-0.0224297065,0.0516508855,0.0333323032,-0.09272979,0.110709473,-0.1090642,-0.351641625,-0.0469965674,-0.0345511921,-0.0548115149,-0.200090542,-0.273019344,-0.37325,-0.248332173,-0.206006378,-0.03772439,0.021674348,0.0556502864,0.0438963622,0.05394283,0.049145896,-0.02055841,0.00496214,-0.0409078822,-0.223458529,-0.3284386,0.00103854213,0.04712767,0.127052516,-0.135618836,-0.008981888,0.197526291,0.227768064,-0.230397567,-0.256093353,0.238673061,0.3858267,0.28336364,-0.0227882471,-0.168546572,-0.557276666,-0.4768952,-0.2387628,-0.022737287,0.0147470962,0.005946748,-0.007056266,-0.03631262,-0.0463610627,-0.08339013,0.09318235,-0.08583878,0.007244377,-0.190875217,0.15191479,-0.0739161,-0.315750659,0.0288312081,0.104530126,0.0749936253,0.398581237,-0.105476476,0.000141054668,0.05616812,-0.0643774047,-0.04753166,0.222609,0.100277573,-0.185174331,-0.216830119,-0.08162855,0.007797098,0.09398433,-0.021303542,0.0155187612,-0.0326852724,0.0818223059,0.1270547,0.209452718,0.08942936,0.132734135,0.07273315,0.04852904,0.129288569,-0.148655221,0.0272495337,0.06852886,0.2598543,0.392442763,0.0587066747,0.139545247,-0.0866436,-0.143691063,-0.00373925548,0.2743633,0.285851747,0.03625226,-0.0692764,-0.092552,-0.0493307374,0.01087129,0.004174511,-0.0211890973,-0.0521989651,0.0200161077,-0.04173988,0.0579502843,0.208139971,0.333873063,0.149558827,0.08510123,-0.2678708,-0.242578745,-0.0821159855,0.0539844073,0.131395787,0.6033942,0.268334627,0.4733259,0.187015384,0.04503302,0.2756114,0.5239681,0.113142014,-0.150452673,-0.15638493,-0.0897569358,-0.0171913579,0.0196220018,-0.0160008911,-0.043982707,0.0277940743,-0.0921806246,-0.159365356,0.0757589638,0.305638224,0.198712617,0.187403336,-0.0229481626,-0.216769382,-0.229603425,0.1053721,0.270670861,0.422152,0.383303434,0.0553095378,0.309251636,0.288872659,0.318884462,0.105523959,0.33493638,-0.0612135641,-0.3854677,-0.2694161,-0.174050465,-0.00140860735,0.00596598862,-0.0300354082,-0.06834876,-0.04136608,-0.212251231,-0.117397286,-0.012662285,0.282283783,0.3660099,0.08544285,-0.1008633,0.115937337,-0.1251808,-0.243520841,0.294858843,0.1155946,0.1725422,-0.224306583,0.09153943,0.0405781157,0.133067638,-0.0904395059,0.09228609,-0.0474982671,-0.259873122,-0.2460965,-0.09407169,-0.061083097,0.0267115869,-0.03214039,-0.0549715,-0.0398391224,-0.232353076,-0.207772136,-0.232326642,0.06723568,0.121120736,0.1364025,-0.04979245,0.237235963,0.119242318,0.0724832863,0.210507274,-0.106107056,-0.152722463,-0.127956063,-0.131851017,0.163444579,0.2071791,0.04662283,0.0541042238,-0.117292665,-0.314360827,-0.161249876,-0.08216211,-0.109010577,-0.00503806351,0.0243928246,-0.0457697473,-0.025003843,-0.167988628,-0.340999275,-0.439706981,-0.2811071,-0.317644924,-0.3310662,-0.230356559,0.05795545,-0.08905157,-0.07677481,0.15508759,-0.112129837,0.053070154,-0.237023667,-0.0565079,-0.05304129,-0.07525531,-0.0224894956,-0.08831146,-0.258194536,-0.3758504,-0.109085068,-0.0469521321,-0.000915286655,-0.0340836756,0.0006173692,0.04511127,0.00360451988,-0.187536553,-0.4582611,-0.5061949,-0.301109225,-0.280197352,-0.494360864,-0.647924,-0.471471965,-0.228762418,-0.201116785,0.160565168,-0.10897401,-0.225134432,0.0281183124,-0.1417358,-0.0738993,-0.125987768,0.05622873,-0.209465563,-0.407919526,-0.405379146,-0.0511307046,-0.03661127,-0.0244614072,0.04076421,0.0144821219,-0.0165648647,0.05464156,-0.18480061,-0.369416624,-0.478329241,-0.418034434,-0.461045444,-0.439982235,-0.3273699,-0.128369212,-0.08616869,0.210808352,0.433471,0.1986223,0.226121321,0.0313801169,0.0129959825,-0.2058194,0.111692667,-0.164176524,-0.3326413,-0.350375384,-0.291983157,-0.0906064361,-0.0300430134,0.03125108,0.022216469,-0.0189503282,-0.0550122671,0.06946662,-0.0937716961,-0.235307708,-0.3637145,-0.263780981,-0.286311358,-0.07940026,0.145088285,0.177855641,0.2747666,0.291063428,0.378555864,0.4920423,0.112815343,0.109981813,0.32033065,-0.19293651,0.08689707,-0.321927,-0.382467061,-0.3136173,-0.222950086,-0.03947572,-0.0358298831,0.0303911325,-0.0121917613,0.00189622177,-0.0321853273,0.06430743,0.0176483709,-0.00649377424,-0.205329016,-0.04235753,-0.10127832,-0.0568600632,-0.06642903,-0.160482183,-0.1002738,-0.331280828,-0.5884232,-0.262303948,-0.02492109,0.1712986,0.105987392,-0.293386072,-0.152416661,-0.3305269,-0.256460279,-0.202210411,-0.104461141,-0.0456542261,0.0205952637,0.00693699252,0.0442811772,0.0104468791,0.04459442,0.0696717,0.07945024,0.104094036,0.102930166,0.0210632179,-0.0488315523,0.20867908,0.295331985,-0.149949685,-0.3388136,-0.179077089,-0.18080236,-0.200786337,-0.27731213,-0.0436370634,-0.06698756,-0.169682577,-0.0919847861,-0.2817361,-0.112351194,-0.118874878,-0.0837057456,-0.0324383564,-0.0202896763,-0.05418051,0.0309398882,-0.00134913635,0.0126078064,-0.0110737132,0.09322186,0.221341386,0.299554169,0.20562017,0.308528751,0.225252628,0.24002555,-0.0574477278,-0.185428336,-0.116739705,-0.114825971,-0.234773576,-0.0309214536,0.0444172733,0.129652679,0.08763724,0.044272203,-0.0154010756,0.0398240164,0.01687508,-0.0250567161,-0.0299494211,0.0289011467,-0.017213285,0.013933911,0.025362,-0.007089548,0.0181159917,0.02530951,0.08094963,0.1229198,0.152808845,0.4172231,0.457591563,0.368824631,0.09022948,0.08314553,0.07370512,0.171947643,0.22511293,0.139656022,0.09965057,0.137527987,0.191126913,0.12423633,0.107828528,0.05127396,0.01732541,-0.04600364,-0.0273423512,0.006523088,-0.0250795316,-0.0173447412,0.0143135432,0.00514891045,0.0100120446,0.0326850973,0.0249913465,0.0384539738,0.06610764,0.107357562,0.124328621,0.108858474,0.1788328,0.119106747,0.153116241,0.190693974,0.174051076,0.215547785,0.139428467,0.0540298522,0.09633462,0.09869416,0.08483674,0.01071704,-0.0246468,-0.0303192139,-0.0102729918,0.0323822238,-0.009068275,0.0198841225,-0.0129253957,0.0182171818,-0.0484695956,0.052777756,-0.0531475469,-0.0284754224,0.012897145,0.02965998,-0.00386913167,-0.008435656,0.00353385974,0.0469430834,0.0396110564,-0.0189880859,0.0615384951,0.0191879347,0.0389696173,-0.00101493974,-0.04340301,-0.0173217356,0.0602721535,-0.02712541,0.029866118,0.03055607,-0.0135193085,0.0172864385,-0.018759666],[-0.0159146469,-0.02558455,0.00694800029,-0.002273687,-0.0146997645,-0.0267809648,0.007999391,-0.0186619274,0.02383712,-0.0213592816,0.0187754575,0.0104461666,0.00345285051,0.00118629169,0.03886694,0.03294487,0.021146385,0.0143452864,0.049996648,-0.0339785852,0.0202403739,-0.009265299,-0.000822871865,-0.0384517834,0.0386246033,0.0257014036,0.02058497,0.01165567,-0.01400901,-0.00157734251,0.0248796,0.0180395115,0.05128975,0.0214652345,0.06230527,0.05857113,0.040032696,0.03644447,0.0404397026,0.07838923,0.09280228,0.10442815,0.07351152,0.00528806355,0.04534127,0.0391961634,0.00288051832,0.088558,0.04073126,-0.0238982141,0.00338366348,0.018473072,0.0117069455,0.021633504,-0.05898115,-0.0263289865,0.0320868157,-0.0131672723,0.006203923,0.00277956552,-0.0611362047,-0.01736436,0.00285785063,0.06154004,0.1461589,0.144085824,0.253900528,0.22112298,0.2776682,0.283792228,0.223075792,0.217737883,0.222447172,0.2150734,0.249488115,0.20816496,0.09751777,0.058679577,-0.0164109766,-0.0148118893,0.0284906365,-0.07250266,-0.0263521634,-0.0285613947,0.017602101,-0.0129007977,0.0319886059,-0.02135199,0.01288961,0.00459254,0.0117243743,0.0201480668,0.137763679,0.246018037,0.3118141,0.3428691,0.409684,0.472370952,0.301002145,0.331712723,0.391418248,0.298668474,0.244512245,0.169737369,0.102187693,0.0722675,0.0572330058,0.09605327,0.0872223,-0.02704371,0.006251009,0.0662585348,-0.0126031581,-0.009772717,0.004719412,0.0118238209,0.00239024078,-0.006414441,0.0724786744,0.09340438,0.167209908,0.341353863,0.436557084,0.559778035,0.6436622,0.495994449,0.516471446,0.459054768,0.555984557,0.5837046,0.3862378,0.210140854,0.195544645,0.111629561,0.0431702025,-0.0939359739,-0.00439791242,0.02052611,0.0006058552,0.0255419128,-0.0634199157,-0.04228609,0.0127762873,-0.000372439477,-0.0269780718,0.0268712323,0.06284601,0.131499335,0.171683073,0.3039392,0.0900716558,0.00558399735,0.247421488,0.465123028,0.139589772,0.08363913,0.0565050319,0.4380496,0.432454,0.374586523,0.1972659,0.193989113,0.09916515,-0.0549745373,-0.0019282432,0.07947221,0.0192075633,0.0447681472,0.00370195159,-0.0439581,-0.0328373164,0.0268007778,0.0619750619,0.109805614,0.133047342,0.178437009,0.09777765,0.0656431,-0.307591438,-0.07399896,-0.08561811,-0.1833879,0.08767397,-0.0109296208,0.144362926,-0.1907359,-0.111868165,-0.155276418,-0.128454581,0.0864188,0.0983277261,-0.04645029,0.0728267655,0.100794338,0.01849499,0.09065548,0.0243165046,-0.0339007974,-0.057371594,-0.0686563551,-0.03189102,0.144266918,0.149357334,-0.0199522264,0.0770590752,-0.229703754,-0.166675165,0.0383934751,-0.31049946,-0.0971735,0.07049106,-0.0417381041,-0.308019459,-0.201309055,-0.0221796557,-0.06913338,-0.343902141,-0.119421855,0.110136569,-0.102171421,0.0287333913,0.1653006,0.07909395,0.04959004,-0.00369029166,-0.0300372411,-0.0272317473,-0.07112906,0.00216596178,0.153750673,0.1871203,0.0218695346,0.134932324,-0.0345381051,0.183493912,-0.114688635,-0.115600407,0.06204072,-0.137425065,-0.163809583,0.0508838743,-0.12808612,0.213177547,0.491321236,0.2670669,-0.0128580648,0.128667921,0.159532934,0.252054453,0.239868939,0.09527459,0.0394875333,0.0186131373,-0.020001553,0.0269715376,0.03243444,0.08461433,0.110854991,0.00469628628,0.0847678557,0.0742445961,0.0280621536,-0.06566492,-0.0608499,-0.1428048,-0.08222251,-0.21573253,0.189321592,-0.1635048,-0.2270531,0.104728892,0.101521969,0.00320028584,0.273451328,0.163676262,0.172405049,0.352676928,0.234203219,0.0815634653,-0.0244844519,-0.0162727144,0.0283419527,0.007980284,0.08213744,-0.00162525615,0.0753400549,0.00603577634,-0.260818362,0.08842337,-0.129362136,-0.387459546,-0.0940156654,-0.06868225,-0.235105217,0.0824881941,-0.231926322,-0.0245738234,-0.167142048,-0.369654179,-0.389977068,-0.201889455,0.0913662761,0.189285576,0.242392287,0.179514,0.106289119,0.114816971,0.0529841259,0.0265343338,-0.005054066,-0.0712885261,0.05631323,-0.102017328,0.122468911,-0.07714051,-0.385738283,-0.153131321,-0.3211201,-0.355210543,-0.2849051,-0.355116844,-0.204337746,-0.16046384,-0.449047238,-0.431420445,-0.5118073,-0.6469808,-0.40967685,-0.190754175,-0.0582327,0.168337435,0.369505,0.3514546,0.158668116,0.08792284,0.00393004669,0.0225851052,-0.02176988,0.04640371,-0.06577749,-0.2039283,-0.07282551,-0.272265047,-0.1344445,-0.262777746,-0.07240364,-0.0418450758,-0.152712449,-0.263344,0.180352956,-0.110824004,-0.103678457,-0.4673219,-0.242102534,-0.42286405,-0.412026,-0.129928589,0.209083781,0.245579422,0.27316153,0.212788448,0.0145254685,0.0578520559,-0.0196702611,0.02312173,-0.0243550371,-0.00293375272,-0.103474781,-0.2561985,-0.268295377,-0.298026383,-0.07653895,-0.171431527,0.137444079,-0.02180657,0.0138037344,-0.0506349355,0.137292609,-0.0226112679,-0.242689312,-0.189906225,-0.10264162,-0.155561313,-0.2634211,-0.0175078679,0.0183015987,0.06260701,0.214779034,0.121393844,-0.00265153963,-0.0195114817,-4.13118541E-05,0.0212972555,0.00414753566,-0.0373050235,-0.0585158952,-0.192168385,-0.305643469,-0.209734991,-0.248431727,-0.08366377,0.0558899567,0.05293448,-0.3092101,-0.170180008,0.120338067,0.07493969,-0.124902941,-0.347412467,-0.192755446,-0.173371926,-0.409414381,-0.204755262,-0.0267510619,-0.22683835,0.0045332606,0.0795799345,-0.02889363,0.0262394752,-0.00613254961,0.0204628017,0.03638929,0.0460478552,-0.105205551,-0.172625691,-0.232991144,-0.227302954,-0.3321002,-0.191821411,-0.155581042,-0.164480761,-0.104312733,0.245547116,0.368950784,0.05875502,-0.48427254,-0.5919489,-0.3345601,-0.4208571,-0.5788625,-0.185045123,0.0166812912,-0.09113736,-0.128798217,-0.10207098,-0.149528623,-0.06438941,0.0139520271,-0.00840613,-0.0212244745,-0.038787622,-0.00344390841,-0.0597541444,-0.122873835,-0.250074029,-0.427534372,-0.565030038,-0.241147473,-0.0609221756,0.13038519,0.203256577,0.44497475,0.0843804255,-0.2802473,-0.2653307,-0.472548842,-0.393936276,-0.388154656,-0.167447254,-0.08679798,0.0378661752,-0.009515295,-0.119792804,-0.0598798767,0.0217753854,-0.01761431,-0.003372059,-0.0205599554,-0.028988868,0.0337913036,0.09647688,0.0526573025,-0.071187444,-0.454364061,-0.4066679,-0.073390834,-0.161788791,0.0454981774,0.0371456444,-0.00161621114,-0.09137056,-0.15916805,-0.44606328,-0.241028816,-0.133284077,-0.105959378,0.03248591,0.128646791,0.16082412,0.142765462,0.0630562,-0.0305910017,-0.04212645,0.00774826575,0.003580183,-0.00229654368,0.01355015,0.0583849475,0.0962412953,0.07653907,0.204601839,-0.03991032,0.03878618,-0.06344063,-0.0196946021,-0.0532463752,-0.1666236,-0.4708166,-0.188125968,-0.01652415,-0.11064896,0.2518315,0.327709138,0.0521953031,0.04338464,0.444359839,0.4187629,0.234703735,0.1149534,0.04763648,0.071757,0.0165496767,-0.007626981,-0.010389559,0.0144433379,0.0256485529,0.08979297,0.25233534,0.2323541,0.277647376,0.224912465,0.348257929,0.318535328,0.351226538,0.307009459,0.395093858,0.39201647,0.521688163,0.2910591,0.760519862,0.6508061,0.317378938,0.21740672,0.5182654,0.471754462,0.276418328,0.186266676,0.0878449753,-0.00364250224,0.00317344652,-0.016054973,-0.0102733467,0.0410427749,0.0119293695,0.09345522,0.32768923,0.377519339,0.6021797,0.5450453,0.6441874,0.8585264,0.964038432,0.729078054,0.8938442,0.698862433,0.5055655,0.29743892,0.812779248,0.689511359,0.5171935,0.425926477,0.422501355,0.294518322,0.226164028,0.00375726866,0.0104540689,-0.037066903,-0.0268388614,-0.02307839,0.0231629238,0.000669343339,-0.0273425467,0.0600547381,0.27236864,0.5601273,0.520016432,0.4239424,0.302577257,0.4332411,0.6983468,0.406036168,0.459084868,0.6715949,0.629058063,0.344966352,0.486623764,0.437536746,0.7520152,0.55630666,0.2842329,0.147063553,0.09398184,-0.007670074,-0.004801622,-0.001113002,-0.05312831,0.0274692271,0.009642527,0.0261145383,-0.0269978158,-0.0009871129,0.2923323,0.234778821,0.135281429,0.3183476,0.185064077,0.170056328,0.243658736,0.2235269,0.2459133,0.225078672,0.500691533,0.417071581,0.367209941,0.446997255,0.7206943,0.438875228,0.204641387,0.0441637151,0.08326542,0.00172473188,-0.0486912355,-0.001410626,0.0152838947,0.00569910742,-0.0642126054,0.0103856912,0.0212441366,-0.03558308,0.0407187976,-0.0536357239,0.004477743,0.2975437,0.273579419,0.143260092,0.462131977,0.488045961,0.314806521,0.4438043,0.461817831,0.3570174,0.379096329,0.255403,0.40612042,0.350018054,0.08302319,0.0565519631,0.0570006669,0.00355529273,-0.0498106442,-0.0263399482,-0.0356605425,0.0167067628,-0.00339114713,-0.0191875454,0.03209269,-0.116023459,-0.317442566,0.0108498158,0.0325290821,0.1766851,0.349442571,0.0565524735,0.1945786,0.343521774,0.405613,0.187092185,0.3779968,0.301219225,0.324631333,0.267143369,-0.009596445,-0.127488241,-0.1835123,-0.008571671,-0.0244012568,-0.00737277046,0.0006358937,0.009670449,-0.007920238,0.053365957,-0.0420857035,-0.0265880451,-0.0024958055,-0.118741296,-0.09436688,0.0897044,-0.0139000742,0.08830074,0.164489359,0.186847329,0.199518517,0.2143822,0.282023758,0.110906936,-0.101778857,-0.107858151,-0.02680762,-0.0228657965,0.00187968987,-0.06322156,-0.07128732,-0.0441152044,-0.0434843078,-0.009008378,-0.05160965,0.0199978426,-0.0367427655,-0.0355435759,0.0108422516,-0.017412154,-0.0144138262,0.009165208,-0.0215249024,-0.0105719147,0.0242035445,0.09096393,0.0487303324,0.0278095,-0.111113988,0.0467507765,0.0470834859,-0.101417281,-0.112633049,-0.00728176348,-0.006245075,-0.0572548062,-0.0557392053,-0.0140732462,-0.06591205,-0.0523513965,0.04022772,-0.0251763836,-0.0138259465,-0.0352179334,-0.0325106,-0.049518466,0.0457707644,-0.00216257479,-0.0189182162,0.02133355,-0.0110857273,0.0681612045,-0.0198088065,-0.02220016,0.0217326358,-0.0477028936,0.0581561178,0.0588494428,0.0218539219,0.008101712,0.016246628,-0.00972239,-0.00281299721,-0.002491185,-0.0548885651,0.0291268378,-0.0496855229,-0.0609284975,0.04334512,-0.02986612,-0.0550627448,0.0257034469,0.04139074],[0.03559902,-0.0163695924,0.000218451532,-0.00599313574,0.0128684426,-0.007946503,0.0205146857,-0.0215581376,0.0207959563,0.003780403,0.0318151079,0.00832874,-0.005285038,-0.0620494559,0.0006003792,-0.00104286452,0.0299938638,0.00224567461,-0.07092026,-0.0054791416,0.00660064,0.0215855669,-0.07828957,-0.008270626,-0.008030121,-0.02016086,0.0295145418,-0.0148535687,0.0501702838,-0.010377178,0.0350990258,0.06225023,-0.04204485,-0.0261051655,0.09417294,0.0357938558,0.086161904,0.0253468212,-0.0100678485,0.00322488858,-0.00754214032,-0.030117074,-0.031620685,-0.0266790073,-0.01740204,-0.0315164626,-0.0207600184,0.0181433614,0.0361809172,0.013868344,0.00159880193,-0.00453561125,-0.0344652869,0.08089935,-0.01700557,0.00929168,-0.0202429052,-0.00631956,-0.00154509977,0.0151236821,0.00150279759,-0.0219485443,0.0216657836,0.0252841674,0.019844193,-0.06829549,0.0507251322,-0.00466425065,0.01791511,0.06331766,0.0395789668,0.0274617244,0.07274649,0.0415017344,-0.0543536432,-0.0503324457,-0.0575489365,-0.0640457347,0.00422698865,-0.04080079,-0.01964706,0.0189984459,0.0248635355,0.01422692,-0.0499611758,0.0304690879,0.0322911,0.0220089313,-0.0468136668,-0.00691596139,-0.0179629959,-0.0154260639,-0.0731352344,-0.00170600915,-0.05155982,0.00264762342,0.09421711,0.287227422,0.232184529,0.106631458,-0.007461209,-0.130592257,-0.1578191,-0.1758174,-0.07465736,-0.186596468,-0.07828539,0.013593765,-0.0231782347,0.02480468,-0.0216305889,0.0305552986,0.03483132,-0.0051110317,0.0398321636,-0.00633429643,0.03940345,0.0292656254,0.099576436,0.262595,0.198863357,0.187234133,0.174127877,0.234350353,0.279264033,0.140544891,0.0797056854,0.09828511,-0.07832594,-0.168096155,-0.127312779,-0.1042723,-0.106220581,-0.246790141,-0.1265141,-0.185722858,-0.06805274,-0.02681297,-0.0264778025,-0.02553075,0.0315538757,-0.0239519328,-0.00399571052,0.00259093661,0.131581768,0.192300126,0.3057213,0.307964683,0.09606377,-0.12353877,-0.224172,0.0316971168,0.431667238,0.6948837,0.5040317,0.392684042,0.03936435,-0.12067353,-0.05208664,-0.278322548,-0.197001174,-0.108584046,-0.228268921,-0.452328533,-0.258487552,-0.05279797,-0.0632766858,0.0376762748,-0.0140267275,0.0134436935,0.02116408,0.08651813,0.1643379,0.3953551,0.337032437,-0.036912363,-0.233687446,-0.148070425,-0.278612733,-0.04075991,0.111251451,0.374862224,0.4311684,0.7516186,0.151298776,-0.0178730618,0.257960379,0.188836023,-0.08029686,0.07860983,-0.333099961,-0.7910448,-0.5053753,-0.220264316,-0.0705479,0.0102161374,-0.01180008,-0.015449984,-0.01982351,0.06359152,0.232150212,0.276702136,0.15409568,-0.16799745,-0.217906311,-0.03947852,-0.109919474,0.1634786,0.4050504,0.6003579,0.5775394,0.3854698,0.186177939,0.04811168,0.05597403,0.176822037,0.248793557,0.48506394,0.1715518,-0.555108368,-0.7083458,-0.2901353,0.00274665933,-0.00584241655,0.0205297936,-0.0152300438,-0.0226052385,0.0293797944,0.155809045,0.00114114035,0.07415315,-0.225991786,-0.05749155,-0.2790115,-0.389151245,-0.195153713,0.05033565,0.517328262,0.8873074,0.402050078,-0.181254879,0.253193,0.20397085,0.27531758,0.19656153,0.292468846,0.490305275,-0.5274311,-0.7943749,-0.374016374,-0.136664867,-0.05745562,-0.00548638,-0.0154100284,7.12360343E-05,-0.0257206559,0.0791936144,-0.034847144,-0.09099922,-0.1653363,-0.102624968,-0.319920182,-0.2979569,-0.5867234,-0.412108749,0.6659684,0.946512163,0.9043746,0.5125498,0.677391469,0.4872765,0.156595558,0.1807423,-0.0313502848,0.24650766,-0.362124056,-0.668195367,-0.357886225,-0.124903813,0.0331109874,0.0203142557,0.00459960941,-0.0242138859,-0.0163031723,0.0513122752,0.0258751363,-0.2704768,-0.366661876,-0.2734063,-0.2992457,-0.437738717,-0.653369248,-0.7068262,0.0191751029,0.868400156,0.372343451,0.264590085,0.444718659,0.203035548,0.255821675,0.353091329,-0.09276891,-0.03618056,-0.12527962,-0.6740917,-0.390106648,-0.1099515,0.0162195265,-0.00206533866,0.038282346,-0.05071456,0.0158304647,0.0143023813,0.0395755842,-0.2712329,-0.240984842,-0.484832883,-0.251304269,-0.260507137,-0.332518935,-0.5754656,-0.199576989,0.292885423,0.461595178,0.0434049219,0.462453872,0.295393437,0.006243469,0.340531051,0.05759203,0.261337817,0.122370541,-0.2587054,-0.255224735,-0.03997611,0.007926125,0.0163595118,-0.0219621267,0.00209215237,0.0212578475,0.08621772,-0.122132085,-0.187027231,-0.371826231,-0.486418933,-0.0448421277,-0.308847874,-0.5136823,-0.6438247,-0.400664121,0.115827426,0.277430236,0.330914617,0.598489165,0.282265723,0.0499942154,-0.06879528,-0.0247193426,0.171138361,0.3238146,0.0615909062,-0.06745485,-0.0295638386,-0.00212831,0.000204499825,-0.04741588,0.0313549154,0.0286009144,0.125629529,-0.0615898781,-0.05390039,-0.0554213636,0.0138068981,0.067193754,-0.261077,-0.467606455,-0.7377083,-0.184166059,0.06302096,-0.152501047,0.20894672,0.444372565,-0.01488934,-0.2048015,0.07095294,0.0768221244,-0.05846883,0.06182722,0.0418532677,-0.00684404746,-0.0341848768,-0.0128191337,0.028803397,-0.00200239057,0.006622693,0.06359425,0.08877471,0.174051866,0.2739176,0.21738334,0.30841282,-0.1009724,0.0125851585,-0.3513633,-0.365484148,-0.456224233,-0.300884336,-0.0062491456,0.115916505,0.109015822,0.190549508,-0.03974008,0.2094132,0.139682636,-0.158887848,-0.0312135387,-0.0247793552,0.012746023,-0.0205820128,-0.0422963127,0.00512697035,-0.00680928025,0.00744692143,0.0207916964,0.189877823,0.345352054,0.267210931,0.2781761,-0.0580292158,-0.152424112,-0.157963559,-0.315088481,-0.4426179,-0.442402929,-0.0810278058,0.100245163,0.155821487,0.211552337,0.1634089,0.16899547,0.19741492,0.290865451,0.148376837,0.148532435,-0.0558024347,-0.0318994857,0.0264904946,0.0156290717,-0.008870417,-0.0384630449,0.009537776,0.03377789,0.195419073,0.07855921,0.0337362625,0.170574009,-0.265991658,-0.208697781,-0.126262739,-0.108574405,-0.133983016,-0.17630583,0.06336096,0.142029628,0.0485168472,0.4037042,0.4298392,0.187860772,0.0193753615,0.05860504,0.261925966,-0.0137790963,-0.163771465,0.025189491,-0.02372424,0.0192319,0.04677419,0.035033416,-0.00976719,0.004970402,0.119942605,-0.1801652,-0.0888185948,0.134082586,-0.08173796,-0.121141486,-0.215868324,-0.212626711,-0.278224677,0.0431315,-0.0122031057,0.386826545,0.169769511,0.132829487,0.189960346,-0.0176357776,-0.2372652,0.0164683219,0.198179662,-0.0546794869,-0.207049757,0.07510121,0.0205300283,0.0334609374,-0.052983962,-0.004619611,-0.0253068171,0.0307591949,-0.0261909869,-0.173133,-0.177006677,-0.0746823847,-0.0106535032,-0.144218624,-0.149854884,-0.2490713,-0.44758302,-0.139558375,0.210919961,0.170415282,0.248489156,-0.0393921472,-0.1837635,-0.07571818,0.07138455,0.117422134,-0.03050256,0.07888236,-0.0309809949,0.09006749,0.0124998894,-0.00607302226,-0.008469921,-0.01910295,0.0232127272,0.0230145771,0.08950774,-0.04629672,-0.350519747,-0.2085209,-0.033992108,0.00298383785,-0.211406171,-0.492184162,-0.380187482,-0.203036055,0.17543079,0.126342714,0.0232907515,-0.0432263054,0.2472891,0.08619419,0.0264597088,0.0161456689,-0.0488678925,0.09067736,0.1381789,0.164162725,0.00586060341,0.06717796,-0.0127894152,-0.0172867235,-0.0428539962,0.0296058245,0.03144978,0.105046548,-0.243248269,-0.2454017,-0.0313076451,-0.110538311,-0.07490742,-0.256854981,-0.171965778,-0.207637638,-0.183629975,0.0273251962,0.08009351,-0.09267907,0.07117613,-0.056597542,0.226955071,0.0109944725,-0.09498457,0.115340389,0.138659954,0.06449667,0.0515297763,0.0170651488,-0.018616179,0.00613253051,0.025621077,0.0498574562,0.07963123,0.176134154,0.09867783,-0.07001574,0.09577058,-0.239240184,-0.0744895,-0.0390563644,-0.253525168,-0.472569466,-0.264619738,-0.343655,-0.232407168,-0.554123461,-0.03267216,-0.185084358,0.06140096,-0.0295430161,0.03059453,0.158931181,0.157573164,0.06485624,-0.0117395241,-0.0116061019,0.0103471605,-0.0380654857,0.0253212415,0.0849089846,0.13124983,0.23648341,0.2727849,-0.02785073,-0.10890609,0.0163876414,-0.0363246538,0.186828151,-0.254761964,-0.369563848,-0.2246205,-0.129693091,-0.026276147,-0.24322544,0.08166862,-0.221006617,-0.121996507,-0.139375135,0.0230021551,0.0417031646,0.08083075,-0.0238946285,-0.0664131641,0.008490199,-0.025518965,-0.051365234,-0.02779219,0.012511828,0.052831158,0.2499517,0.149336949,0.189418823,0.0264135543,-0.005864237,0.155616552,0.107764587,-0.150181711,-0.00185351039,-0.08679531,-0.160284892,-0.163782373,0.112264536,0.191918775,-0.202672988,-0.1901419,-0.08957915,0.0456848368,0.09955455,0.00120674691,-0.0170580447,0.0177555978,0.00238622166,-0.0157950073,0.01583402,-0.0294410065,0.05707081,0.0896016359,0.171092689,0.222466424,0.161414087,0.259159327,-0.09395888,-0.172154278,-0.3822616,-0.3732402,-0.348741084,-0.299995273,-0.183904573,-0.111954018,-0.13303937,-0.110935971,-0.180251211,-0.02677941,0.0841036141,0.0190660469,0.04522957,-0.00345518673,0.0292014964,0.0182132963,0.0323267542,0.00527485553,0.08488415,-9.750261E-05,-0.0259647332,0.0113969212,0.136618227,0.10156288,0.182587177,0.313826352,0.173695862,0.154372469,0.208658144,0.172147587,0.074988775,0.153200462,-0.0559164658,0.0346678235,0.06439653,0.07254021,0.124300152,0.0467885844,0.100720577,-0.0194593128,0.0160441473,0.00590053,0.005198601,-0.0596250966,0.00175117236,-0.0006876238,0.00178577739,-0.0346154235,-0.04089183,0.05024417,0.07429343,0.042532064,0.145797089,0.0961320847,0.1534199,0.1900152,0.239748448,0.1872523,0.31909138,0.158671081,0.2695367,0.253603458,0.207460225,0.195118755,0.1599762,0.113744333,0.0716916546,-0.0538082644,-0.0035039857,-0.0158523526,0.0348483175,0.0100494809,0.02006919,0.0144649949,-0.0693363249,0.0227812715,-0.0364256,0.004158167,-0.00513286563,0.0111833829,0.06184568,0.04177291,0.0303926021,-0.00250881515,-0.0480460823,0.0384155065,0.00636968,0.0260526724,0.0276926719,0.0267613623,-0.0515497252,0.0317191519,0.100350022,0.061244335,0.0161838271,-0.0205830969,0.0403431058,0.00563444244,-0.019846756,-0.00628485531,0.0232832041],[-0.009977133,0.02399403,0.00576558057,0.00365037052,-0.0115564158,0.0277530421,-0.0226326771,0.0193388164,0.005674402,0.0266950615,-0.028576985,0.0373935252,0.0177572314,0.0122094359,-0.0123453652,-0.0129411165,-0.0107571119,0.0474786647,-0.00466377055,0.0029615,0.0407576226,0.0177059174,0.0105359266,0.0068131946,-0.0227382947,0.04902058,0.00130587316,0.020345265,0.05341706,-0.07409423,0.025116723,0.0306136515,-0.02014935,-0.0203802157,0.0478701219,-0.0225613974,0.02547694,0.0517213121,0.000407268672,0.0222869981,-0.03409225,-0.0170990322,-0.01906447,0.0064922343,-0.0112024713,-0.00245253765,0.00727566471,-0.0136515144,0.01254523,0.036154855,0.01819253,0.0290823523,-0.00507057458,0.0175338816,0.0228568241,0.0426514,-0.0125704641,0.0333027728,-0.02188654,0.0180233642,0.0138301067,-0.01647086,-0.007815166,0.0237581618,0.00711665349,-0.0478026867,-0.0310811941,-0.0293910615,0.007703096,0.125980377,0.000282069523,0.00202947645,0.00458758743,-0.0144253215,-0.0195657,-0.0672092438,-0.0283904113,-0.0255757421,-0.0273343641,-0.007146609,0.0106086312,0.0116540166,0.008785604,-0.0348311029,-0.007089446,-0.04562121,0.01957421,-0.0155575359,0.06491025,0.003626124,-0.0341917649,0.00358284451,-0.09759438,-0.13820821,-0.236723363,-0.208474874,-0.209130272,-0.05656841,-0.0043456587,-0.0294102523,-0.0951944,-0.101600192,-0.140441179,-0.117516652,-0.117482848,-0.0566168576,-0.0475068279,0.009282034,-0.0602144562,-0.0559672639,-0.0134560764,0.0166063122,-0.02859643,0.0624631122,-0.00755839841,0.0482052341,-0.0347571932,-0.0153373545,-0.04249124,-0.07455648,-0.0973305,-0.1141748,-0.1616202,-0.103406042,-0.06509986,-0.06910578,0.0315058045,0.01376183,-0.0173069835,-0.098546274,-0.10618104,-0.00336742,-0.0568366535,-0.07410981,-0.006620273,-0.0352834724,-0.0542700924,-0.0200767089,0.0214987416,0.0300248545,-0.0250992849,-0.0008582312,-0.011279135,0.02597729,0.0400512144,-0.0263257343,-0.06458772,-0.101321459,-0.0374898948,-0.08485083,-0.22624819,-0.112357385,0.128110364,0.07532863,-0.004803572,0.03101643,-0.363561273,-0.297978222,-0.164435536,-0.126131848,0.133133262,0.0450056121,0.112603225,0.118188329,-0.01939604,-0.0732017159,-0.0152867353,0.02071489,-0.0176528022,-0.0220833886,0.0291561056,-0.0342699327,0.03142089,0.0205690078,0.0630274862,-0.09514058,-0.06486378,-0.3877951,-0.282854974,0.19305554,0.123653658,-0.0555735119,-0.175894886,-0.105882607,0.007460205,-0.0014381787,0.00531603,0.09200857,0.1186042,0.211077228,0.07023898,0.009905394,-0.02440148,-0.084931165,0.0409581661,-0.0320351832,-0.00992128253,-0.03712877,0.0120285749,0.127533644,0.10912393,0.149821088,0.247072279,0.1690204,-0.129166737,-0.187177852,-0.09970612,0.026509352,0.09701936,-0.212011635,-0.2519885,-0.370460272,0.102362014,0.145082146,-0.05591266,0.358934075,0.182516471,0.0516815446,-0.0187797248,0.005770583,-0.08025361,-0.08931536,-0.0282553528,-0.02480843,-0.102327138,0.0007273896,0.0515135564,0.117197312,0.1999466,0.253351569,0.317741841,0.279884726,0.128763556,-0.0161449686,-0.08280664,-0.057946682,-0.09311524,0.129331321,0.0325297266,-0.0898957551,-0.105733179,0.145817786,0.138503045,0.112562329,0.08235305,-0.00525501836,-0.006904696,-0.04022078,-0.131796122,-0.08306432,-0.0331438854,0.0265059229,-0.000375724,0.04810069,0.06275346,0.1409365,0.229867548,0.437992364,0.436049074,0.263076633,0.127366513,0.142570451,0.009649215,-0.07447568,0.262502551,0.09604381,0.266967922,0.4035088,0.300692379,0.1870936,0.279185057,-0.0202071033,-0.09700719,-0.111726634,-0.06750793,-0.09999347,-0.09149054,-0.08235222,0.008826837,-0.04240021,0.056122005,-0.0207410734,0.0571170263,0.07202066,0.274452537,0.296819776,0.331024915,0.28761664,0.192884386,0.431610435,0.421972454,0.225556582,0.09837018,0.16924867,0.376291752,0.5912322,0.2760075,-0.170438334,0.155603,-0.01796538,-0.212077469,-0.171958268,0.08156087,-0.115969814,-0.0829710439,0.006180677,-0.009119124,-0.03307392,-0.010779419,0.0418864638,0.08022522,0.0861471,0.19285807,0.05908738,0.148974925,0.20463863,0.0352328867,0.362755746,-0.112897053,-0.293335378,-0.6752326,-0.397672683,0.263820618,0.3000162,0.04593854,-0.100223124,-0.138724446,-0.0143386638,-0.08639631,0.03766055,-0.0120019605,-0.196137771,-0.0554651432,0.0499973744,0.0122104846,0.011219535,0.01621227,-0.00648489827,0.126903176,0.0588735081,0.156397551,0.128621832,0.07463765,0.112358913,0.06304051,0.157092184,-0.1442672,-0.506091058,-0.6643284,-0.7023053,-0.07744843,0.160543427,-0.02384317,-0.09406175,-0.000351627241,-0.276313543,-0.03955044,0.0170741919,-0.129733,-0.09625979,-0.0511662848,0.0520664826,-0.0196472071,-0.0387444,-0.03101702,0.0361081474,0.0557745025,0.0077613676,0.125789776,0.0555834,0.0338171422,0.07553709,0.228246659,0.07365729,-0.4306529,-0.7828564,-0.532440364,-0.299434632,-0.106645107,0.0426909477,-0.0495247,0.0999060944,0.0113116745,-0.174996167,-0.1077271,0.117362164,-0.159625247,-0.07788433,0.04260303,0.109607644,-0.03201092,-0.0646380857,0.0172510445,0.000209172518,0.0007632992,-0.0273971632,0.01567624,0.0213496741,-0.1459481,-0.160731316,-0.207796112,-0.622807145,-1.02708876,-1.03154254,-0.177621379,-0.0492978133,0.0469119,-0.02045059,0.0126375882,0.199935362,0.180407658,-0.07045366,-0.1404346,-0.04560098,-0.1076569,-0.0326190367,-0.0278457589,-0.007114054,-0.0133703025,-0.00111917267,0.00062068057,-0.0467019342,0.05654797,-0.0227430332,-0.03762084,-0.288725376,-0.26245445,-0.382696658,-0.6878449,-0.899420261,-0.80829,-0.26180917,-0.07453005,0.14533,0.107659228,0.165523931,0.0200001057,0.146859661,0.135257125,-0.1711827,-0.1012632,-0.171322554,-0.0452889465,-0.10773997,-0.01249353,0.0181423258,0.0698946044,-0.01603529,-0.00310165947,0.0281535685,0.0359195881,0.0154378656,-0.1273919,-0.3280389,-0.4771904,-0.5203719,-0.7454248,-0.466559678,-0.3384342,-0.0193054,0.0435885377,0.148147345,0.152647689,-0.0105017433,-0.107934348,-0.07942461,-0.183690429,-0.181688711,-0.128235549,-0.0923743248,-0.139850274,-0.09339185,-0.021089036,0.0358484834,-0.0137253152,0.05286818,0.0537165441,-0.03104511,0.05580626,0.02435623,-0.142291173,-0.361165941,-0.582091451,-0.5712032,-0.385055542,-0.09968095,-0.07477559,0.123928681,0.446860343,0.175467655,0.08775217,-0.0650561,-0.11350818,0.0159575939,-0.0332008749,-0.174767613,-0.233685061,-0.265050381,-0.3328658,-0.140378729,-0.00762427971,0.03704821,0.0475569442,0.01967487,-0.0440958366,-0.0227805451,-0.0259198733,-0.040471375,-0.0939718559,-0.281031758,-0.6046039,-0.3293018,-0.119848937,0.0105442293,-0.197595492,0.2838095,0.533546031,0.379809469,0.3846642,-0.0753029138,-0.130219385,-0.133560568,-0.177888244,-0.223902568,-0.09654452,-0.3550169,-0.174098015,-0.018874608,0.07031596,0.0177912265,0.0109418985,0.0379025862,-0.0289092232,-0.0351861455,-0.0475191548,-0.0656569,-0.07271224,-0.207586318,-0.151266232,-0.06921645,-0.106410511,0.0802942,0.1320656,0.101254448,0.294842422,0.4385111,0.2151186,-0.137861982,-0.142482892,-0.236778647,-0.230715752,-0.00540250773,0.1213902,-0.205034927,-0.139650434,-0.02744334,0.000411325338,0.0548534468,0.00760611,0.04015918,-0.0133466525,-0.0159715954,0.0205899272,-0.119739048,-0.165983945,-0.184648469,-0.0512446463,0.039164532,0.0572776161,0.0266362336,0.0110805277,0.0705213,0.285801023,0.124344,0.2653257,0.3046158,-0.0313608,-0.0747506,0.127351478,-0.09271996,-0.0416021347,-0.1324761,-0.108441964,-0.0292796139,-0.02120305,0.00477341143,0.02633715,-0.0221363679,-0.0385197476,-0.0134614622,-0.0355616473,0.00739227468,-0.228147641,-0.0856233463,0.0005974394,-0.0403402932,0.00905529,-0.0590609945,-3.58928519E-05,0.032251928,0.034807466,0.0182095468,0.367099,0.144223869,-0.09329689,0.15977256,0.09203007,-0.034097746,0.07464157,0.032670062,-0.07278088,-0.05673652,-0.0331468247,-0.0122119617,0.0336992741,-0.03133053,-0.0562671572,0.0643135458,-0.02859496,-0.00207713782,-0.106395811,0.1400577,0.1949119,0.2310464,0.0333881527,0.197708368,0.007794701,-0.07396453,-0.262867481,-0.175359279,0.289457023,0.158665046,0.20547463,0.0279817544,0.149439812,0.0286007673,0.08120649,0.000335333083,0.015087598,0.03797085,0.00326151354,-0.04618022,0.0187980216,-0.0349995643,0.0374648347,0.0223351214,0.00103841349,0.0123539912,-0.100171767,0.0680966452,0.2978949,0.165831864,0.0158663876,0.164064959,0.03240371,-0.0371922925,-0.0445989929,-0.15504387,0.05518709,0.171929091,0.148562148,0.171747983,0.0495762974,-0.114619896,-0.07422433,-0.1228405,-0.08878424,-0.0484763943,-0.0305960346,0.00571459,-0.0127665158,-0.004549523,0.0123483445,0.07105166,-0.048741214,-0.0620670952,-0.0912497,0.004806953,0.05946562,-0.035383068,-0.172904477,-0.3633047,-0.42579028,-0.08698619,-0.0417219177,-0.172834158,0.0113549605,-0.11383982,-0.508294046,0.0170226581,-0.0182124358,-0.0217250045,-0.120454319,-0.0663872957,-0.0533165224,-0.08786536,0.0211700276,-0.015651051,-0.007276919,0.0331647843,-0.0136038326,-0.0230705272,-0.05426844,0.014230133,0.0226645879,0.00110640679,0.0390908271,-0.1109898,-0.211485684,-0.170424476,-0.171339184,-0.113239691,0.0745781139,-0.0825947151,-0.173424467,-0.2776964,-0.103123181,0.02982449,0.0506255031,-0.00129920745,0.02322631,0.007934094,-0.0199936219,-0.06050268,-0.0404496826,-0.029881496,-0.00416750647,-0.03198558,0.0236950815,0.003437493,0.06317895,0.009679887,0.0304913037,0.0253697447,0.0880733058,0.05585263,-0.008912173,-0.04484708,0.04531405,-0.0255278014,0.00531360554,0.0514498353,0.07206988,-0.0224411,-0.117656171,0.0416320972,0.1434566,0.06695579,-0.004392296,-0.01830687,0.00813894,0.0286772288,-0.0133457091,-0.0155397616,0.0246154,0.03734985,0.04934206,0.07163507,-0.00467940234,0.00553729665,0.0006711082,-0.018251041,0.008743633,-0.0530862361,0.00406737626,0.0291781016,0.0127094919,0.0325641,0.0211755782,0.0206323154,0.02940512,0.0108202836,0.0300277229,0.0414686836,0.0896546245,0.0444998369,-0.01556071,0.003501655,0.0206331313,0.0537479669,-0.0127778109,0.0172662549,0.0017837754,0.0118199876],[-0.0334860571,0.0333551653,0.0265667513,0.004640635,-0.00731665455,0.0139786862,0.0132414633,0.02547229,0.0293298289,0.0164815821,-0.015301045,-0.0004985176,0.017965978,0.0105627943,-0.00266752974,0.02099122,-0.00337584713,0.00405363925,-0.005785795,-0.0344893448,0.0306735579,0.07975168,-0.0225214679,-0.0185509585,-0.0301629584,0.008296254,0.0106058577,-0.0120946746,-0.00367529318,0.00749558676,-0.0267528817,0.0338868573,-0.0286790449,0.0115598692,0.04532376,0.0249675829,0.07708943,0.0188963413,-0.03127365,0.0228890255,0.0034949996,0.000849899661,-0.02081722,-0.0270637367,0.0282939374,0.00186736463,0.0239597969,-0.02769839,-0.0160285551,-0.0224522445,0.0204991456,-0.03368496,0.00093250355,-0.003115588,0.0277139526,0.00148666417,0.06907494,-0.0481364727,0.00287438557,-0.0262361113,0.0249486417,0.0516641922,0.0408003367,0.0612142757,0.01304483,0.0130132474,-0.0154329734,0.0359026045,0.07727822,0.0295920745,-0.08286256,-0.0496390574,0.06499332,-0.049247466,-0.06536549,-0.07981319,-0.0389192477,-0.04453337,-0.0107779494,0.0219357722,-0.004408415,-0.0328630656,0.0132066514,0.0189775676,-0.0206276756,-0.009210443,0.0150644314,0.0349119455,0.00200202037,0.0488250665,-0.0125586083,0.0145486742,0.0322641134,0.147206008,0.045432955,0.0105456915,0.07839139,0.18129921,0.0714176148,-0.009135992,0.00211830949,-0.0778789446,-0.139200583,-0.08016742,-0.147619084,-0.19378449,-0.0843448341,-0.0717104748,0.00586634642,0.0149585363,-0.0120439548,-0.0186602436,-0.0484783351,-0.009885399,-0.0134937661,0.038662158,0.0588071942,-0.002739368,0.0678488,0.129416987,0.133167431,0.211795151,0.222298071,0.142168313,0.280991018,0.139934674,0.154422671,0.142943352,-0.0966827646,-0.02885928,-0.0473693721,-0.0483699851,-0.114642181,-0.334212184,-0.2080663,-0.08297254,-0.103745133,-0.05056803,0.00299560628,-0.02568934,-0.00481665228,-0.0054709455,-0.0234142523,0.000216019835,-0.08537856,-0.12480738,-0.10263025,-0.0411763862,0.163139582,0.04813137,0.15609023,0.197173,0.432383448,0.39123705,-0.12630786,-0.236048058,-0.199935064,-0.155599192,-0.0320755355,-0.1657742,-0.09885903,-0.252546,-0.09938478,-0.0937493443,