{  
   "name":null,
   "description":null,
   "layers":[  
      {  
         "activationFunction":"SigmoidActivation",
         "weightMx":[  
            [  
               3.490404,
               0.309163481,
               3.68175745,
               0.210187972,
               -0.924183667
            ],
            [  
               -0.6980558,
               -1.2786783,
               -1.71836686,
               3.00973845,
               5.69267941
            ],
            [  
               -1.02314723,
               1.26082516,
               1.678527,
               0.322720617,
               2.48160625
            ],
            [  
               -2.12050223,
               -3.859855,
               2.542912,
               -4.648765,
               3.28374219
            ],
            [  
               4.19801474,
               1.84089148,
               0.063992314,
               0.324328333,
               0.84225744
            ],
            [  
               -0.765733361,
               -4.20613861,
               4.543828,
               -6.061212,
               0.590174437
            ],
            [  
               2.13679147,
               -0.29751116,
               -3.80390429,
               2.179951,
               -4.613142
            ],
            [  
               -1.97877753,
               -0.754840851,
               -2.84882069,
               2.02399778,
               -1.73440063
            ],
            [  
               2.52270818,
               -2.13777685,
               2.53130674,
               -0.078032054,
               -0.9828658
            ],
            [  
               4.94395447,
               1.22729921,
               1.60802472,
               0.395618528,
               -1.16556931
            ],
            [  
               0.5746757,
               3.442413,
               -0.06893251,
               -2.264037,
               3.482448
            ],
            [  
               -4.49019,
               -0.443631947,
               -0.5218907,
               -2.67935014,
               4.599887
            ],
            [  
               0.26730606,
               2.23791051,
               0.174429074,
               3.70502162,
               3.410887
            ],
            [  
               -0.5880931,
               -1.30882156,
               -2.93258762,
               -1.8506155,
               0.412305653
            ],
            [  
               2.79101229,
               -6.751536,
               -1.75855529,
               -2.55126858,
               0.103399768
            ],
            [  
               1.4423579,
               1.01336789,
               5.354635,
               -0.265873939,
               -0.0345301181
            ],
            [  
               1.94070327,
               2.15030384,
               -1.75925279,
               -2.04847574,
               -1.573924
            ],
            [  
               -2.20921135,
               0.587628841,
               0.9873698,
               -0.886428237,
               -1.26596761
            ],
            [  
               0.2140607,
               -0.291736573,
               2.2307055,
               0.93350935,
               -2.01188254
            ],
            [  
               3.900771,
               0.576670766,
               -0.876678,
               -1.419348,
               2.38869572
            ],
            [  
               2.86350751,
               -0.8560233,
               4.85573149,
               -2.30399418,
               -0.759048939
            ],
            [  
               0.42963466,
               2.63036156,
               -0.2635302,
               0.620712459,
               0.7438279
            ],
            [  
               -3.69055915,
               -2.55488133,
               -0.247379854,
               -4.03193,
               2.986126
            ],
            [  
               -0.5615759,
               -3.66099238,
               3.26069832,
               0.681125,
               -4.065981
            ],
            [  
               4.339022,
               1.06919765,
               -2.06514716,
               -0.7495962,
               -0.122026622
            ],
            [  
               -0.5123789,
               0.410650253,
               1.036445,
               -0.8634947,
               0.200232357
            ],
            [  
               -3.37769747,
               2.63577271,
               -4.04748154,
               1.56325185,
               0.59003675
            ],
            [  
               2.62382436,
               1.17088675,
               2.36815238,
               -3.31381774,
               -4.739476
            ],
            [  
               -1.82377207,
               -0.685997844,
               -1.80267513,
               -1.92316389,
               0.3003053
            ],
            [  
               -0.353665143,
               1.3369745,
               1.01583111,
               -3.35249,
               0.4098195
            ],
            [  
               -1.95836484,
               -3.02996922,
               -1.0115056,
               0.0251450017,
               0.828642666
            ],
            [  
               -0.238271326,
               0.638297,
               -0.010222557,
               -1.17929912,
               3.009898
            ],
            [  
               -2.444637,
               -3.63687253,
               0.843520463,
               -0.5090501,
               -0.586320162
            ]
         ],
         "biases":[  
            -0.229562536,
            -1.41429567,
            -0.239504024,
            -0.573953748,
            1.18949068,
            -0.5302461,
            0.195325032,
            -2.500987,
            -0.568337142,
            0.319719076,
            -1.15627551,
            1.13302529,
            -0.5373287,
            -0.806644559,
            -0.113852374,
            0.8403856,
            -0.480152965,
            -1.28146863,
            1.85407507,
            0.536411464,
            1.8531127,
            1.15738642,
            0.7893988,
            1.05233467,
            0.1987409,
            -1.27692223,
            -0.498145044,
            -0.419368416,
            -0.5898911,
            1.85249627,
            0.7118546,
            0.552560031,
            0.119816445
         ]
      },
      {  
         "activationFunction":"SigmoidActivation",
         "weightMx":[  
            [  
               -1.48278117,
               7.528882,
               3.95484,
               1.305252,
               -3.88168454,
               7.148488,
               -5.842935,
               -2.02936268,
               3.74385118,
               0.958199263,
               -1.98547375,
               0.036721468,
               -1.01584148,
               -2.64079452,
               -5.27341652,
               7.86624765,
               -10.080843,
               1.95592284,
               3.90820575,
               9.136811,
               -4.1868434,
               -11.8484888,
               1.52054107,
               -9.155345,
               -3.02820253,
               -9.568061,
               5.639282,
               -8.9826,
               -0.730229557,
               -16.89847,
               6.659158,
               3.703458,
               4.65939045
            ],
            [  
               1.62153709,
               6.312108,
               -12.9101276,
               2.75257659,
               -3.563939,
               1.40923035,
               0.119736731,
               -1.23871386,
               -5.020858,
               -1.34999168,
               4.414808,
               2.247377,
               8.38762951,
               2.367282,
               -2.78997016,
               1.42227471,
               13.33732,
               -1.89318275,
               -4.61458158,
               -4.87503767,
               2.29689813,
               2.56525087,
               -3.87193942,
               1.79357052,
               -4.64206457,
               -0.3447305,
               1.12693393,
               -9.262162,
               13.2610245,
               -12.4620676,
               -12.6535759,
               2.78154826,
               -0.132948115
            ],
            [  
               13.4141693,
               -11.4821348,
               -0.924910069,
               -0.5617767,
               -4.998942,
               -6.102324,
               5.04911232,
               -0.5957293,
               0.450328916,
               2.84086013,
               10.6495171,
               1.6843338,
               -0.9416012,
               -1.64772308,
               -3.86758757,
               1.9663105,
               6.97019625,
               -4.651208,
               0.891752541,
               -0.739905238,
               -7.55831051,
               4.20612764,
               0.312509447,
               -7.835403,
               2.44385529,
               11.9681826,
               7.186101,
               -2.95062923,
               -5.45672655,
               0.0185368918,
               4.00242043,
               2.31956983,
               -0.08802869
            ],
            [  
               0.252554059,
               -4.29683256,
               -1.42411876,
               4.703747,
               -2.072732,
               6.377987,
               0.1618892,
               3.32568431,
               -4.284084,
               3.4929316,
               2.83476472,
               5.29136324,
               -3.69967,
               7.24357128,
               1.77375841,
               -5.05779648,
               8.907289,
               -4.22950172,
               8.337476,
               -2.5602684,
               5.621778,
               1.85600233,
               -10.7012825,
               7.535701,
               4.810685,
               5.26487637,
               -1.84860718,
               -8.139659,
               1.92736888,
               -0.611231744,
               9.857112,
               3.91733146,
               -4.72534752
            ],
            [  
               -7.163223,
               -6.69405651,
               -7.44472361,
               -1.73647344,
               14.2692509,
               1.61222291,
               7.7785244,
               -0.38740766,
               -2.78639,
               3.803623,
               -1.21234107,
               7.187718,
               -9.220306,
               4.43759775,
               -1.61188388,
               -1.80099273,
               0.0717763752,
               -1.57130837,
               2.09272,
               11.2539415,
               -8.029053,
               3.13446164,
               -3.41403,
               2.00008845,
               -6.515398,
               0.380732656,
               -2.62276721,
               0.449310422,
               2.76277161,
               6.4128,
               9.917786,
               2.81604362,
               3.25659871
            ],
            [  
               5.194625,
               0.84587127,
               0.2945976,
               1.29754579,
               -9.302926,
               -18.9281883,
               -1.58623862,
               -0.244992256,
               12.3363514,
               2.50571179,
               5.853046,
               1.33043706,
               -4.945728,
               6.04733372,
               -4.49360037,
               -4.376573,
               -1.49376118,
               -1.91801035,
               3.3284595,
               3.77145171,
               4.784512,
               -8.142611,
               -10.0564547,
               -3.85046124,
               -8.4812,
               -0.488246322,
               -0.541937,
               0.9649884,
               7.13361263,
               0.053340394,
               -4.87819958,
               -11.3696594,
               13.9921732
            ],
            [  
               1.28183782,
               -4.981014,
               6.030507,
               7.749669,
               7.6128974,
               3.36154461,
               1.25024748,
               4.07640171,
               7.035375,
               6.93651962,
               -15.2089157,
               6.892866,
               -5.28543,
               -1.95826149,
               -2.56854415,
               -3.70137334,
               2.56634521,
               4.541165,
               1.77171731,
               11.5013943,
               9.803701,
               1.21169269,
               -10.193305,
               -1.69064307,
               -8.095952,
               -9.119192,
               7.87135172,
               6.9803257,
               4.3857255,
               -18.3492661,
               -4.65263271,
               -2.08559728,
               8.856523
            ],
            [  
               -1.16859353,
               0.09866553,
               -9.454496,
               -8.031355,
               2.575831,
               -10.820899,
               -0.915239632,
               4.771061,
               -0.8242392,
               -1.00519812,
               -1.442074,
               5.477589,
               7.100193,
               -0.167213589,
               3.65443778,
               -2.57462239,
               0.685901165,
               -4.35399771,
               15.3001,
               -2.41418743,
               -6.265701,
               0.355064273,
               12.1330462,
               2.32100272,
               -2.342542,
               9.184891,
               -3.832002,
               7.50418,
               -1.63739717,
               -3.10588217,
               -4.38747454,
               6.65100861,
               9.556413
            ],
            [  
               2.633723,
               4.46324158,
               -1.11874783,
               5.82529831,
               7.587858,
               10.0741291,
               -1.524481,
               0.7446942,
               -10.0385952,
               -1.82140434,
               3.18058586,
               2.70034456,
               -4.80635262,
               3.38573384,
               2.40427685,
               -2.85376954,
               2.016481,
               -5.331253,
               5.087883,
               -1.76414812,
               -4.76515245,
               -2.393169,
               7.548969,
               7.3564744,
               -3.92559743,
               11.5156317,
               3.50124812,
               -8.478789,
               -5.64159,
               -6.652898,
               11.4244642,
               9.976843,
               4.93852234
            ],
            [  
               -2.29249072,
               0.7163065,
               -1.88008881,
               3.58680987,
               -7.181113,
               0.316127479,
               -7.03985548,
               13.7083082,
               1.9166069,
               -10.6318159,
               -2.09623218,
               -7.016428,
               4.327521,
               -3.283562,
               -4.337859,
               11.2207766,
               1.08301055,
               5.534092,
               0.294031262,
               6.781322,
               2.387016,
               -2.2333374,
               -0.568188,
               0.5243265,
               -1.75070214,
               -2.05463719,
               -10.3920984,
               1.54308224,
               6.75073957,
               -0.5250774,
               -9.35901451,
               3.14592767,
               -3.25482321
            ],
            [  
               -6.61368036,
               -6.328844,
               -4.09869671,
               -9.244652,
               -9.03094,
               -3.88078642,
               0.9927747,
               -4.642025,
               -1.89221406,
               15.84236,
               5.76521969,
               -1.68611121,
               -0.3579363,
               -2.52586365,
               6.1069603,
               1.03932178,
               4.6556735,
               -2.902163,
               2.88365769,
               2.81881833,
               -5.74163055,
               -3.79232955,
               -2.69539881,
               -2.38297367,
               -10.4097013,
               1.19451356,
               3.29827,
               3.94641614,
               -2.188377,
               -9.145211,
               -5.05092669,
               4.8282485,
               -15.01063
            ],
            [  
               1.49337018,
               4.508218,
               -5.15173864,
               -1.30454266,
               6.86178875,
               8.217835,
               7.270712,
               -8.28521,
               1.66406846,
               6.3149004,
               -0.505617738,
               2.90956926,
               9.965086,
               -5.00776768,
               -7.17958975,
               -5.41369724,
               -9.788075,
               0.0795464,
               -1.96473324,
               2.89581227,
               -5.463445,
               2.028021,
               2.63843727,
               8.50519848,
               -2.82570028,
               -1.04041624,
               6.404689,
               -1.51131415,
               -5.666764,
               0.9893805,
               -4.29515028,
               -5.29356337,
               3.50102329
            ]
         ],
         "biases":[  
            -0.1843501,
            -1.01071537,
            0.936089158,
            0.158064067,
            0.859873354,
            0.708870947,
            1.7176218,
            -0.490383655,
            1.269567,
            1.121096,
            -1.31861341,
            -0.3981089
         ]
      },
      {  
         "activationFunction":"SigmoidActivation",
         "weightMx":[  
            [  
               4.342462,
               10.1686869,
               1.47814918,
               -3.88685846,
               3.17972,
               2.16530275,
               0.8678617,
               -4.09763,
               1.18153763,
               0.4473288,
               0.166483,
               -2.52964044
            ],
            [  
               -7.13070536,
               -6.73287,
               0.489551663,
               -3.63951778,
               -0.0111083556,
               -2.30510664,
               1.96635127,
               -1.38134444,
               -0.9102704,
               -6.449036,
               -3.98007941,
               -3.9470737
            ],
            [  
               -4.397853,
               5.08941,
               2.565162,
               -5.944113,
               -4.894532,
               -0.275141239,
               -3.38861156,
               0.460585535,
               0.695114434,
               5.18565941,
               -3.88455462,
               -4.885307
            ],
            [  
               2.02554846,
               2.86623931,
               6.53173542,
               2.34167814,
               1.75260723,
               -4.74781,
               3.62493682,
               -0.145071417,
               -5.082741,
               1.10630107,
               1.37017775,
               2.10143161
            ],
            [  
               -3.081155,
               6.149082,
               0.9361825,
               -0.188696235,
               -3.90167069,
               -8.445483,
               1.56631112,
               2.50973129,
               -2.121877,
               -7.48936844,
               -4.533416,
               1.57179189
            ],
            [  
               1.35001123,
               5.132805,
               -0.5880696,
               0.8589977,
               -0.9192753,
               -3.15223384,
               -2.22839737,
               2.36816144,
               -0.6944796,
               0.192813918,
               0.807377458,
               1.40864146
            ],
            [  
               -7.21948862,
               -1.79964209,
               -7.818487,
               1.382311,
               -3.46604085,
               3.174446,
               -0.347036839,
               -1.028568,
               -3.12752414,
               5.948217,
               9.548903,
               -1.13453412
            ],
            [  
               2.87978315,
               1.63811815,
               1.77045357,
               -2.80741453,
               4.45222044,
               2.55926657,
               1.65087056,
               -1.36538374,
               2.0903275,
               -2.91215849,
               1.44485521,
               -0.09982452
            ],
            [  
               1.43760633,
               -0.102001145,
               -0.205526456,
               -1.97058737,
               -3.38471866,
               1.60696435,
               1.79829693,
               -0.19747363,
               -4.628816,
               -2.60857224,
               -0.8379169,
               2.89988184
            ],
            [  
               6.604228,
               -0.250071436,
               -2.538556,
               3.39630222,
               4.22524,
               -0.514175653,
               3.832281,
               -0.2655937,
               0.7189088,
               1.28152406,
               4.974807,
               -3.7978003
            ],
            [  
               5.969859,
               -1.52164268,
               -0.454185575,
               -3.83517957,
               0.43672055,
               5.70107174,
               -6.82651,
               -1.28474522,
               1.15897179,
               -0.5374707,
               -1.88048816,
               -3.133728
            ],
            [  
               -2.75610113,
               -3.069618,
               -5.33787966,
               0.7559039,
               2.250174,
               -1.30891442,
               1.70253968,
               -1.28103828,
               -2.396848,
               -1.17094076,
               5.906775,
               -2.4458642
            ],
            [  
               -7.1697154,
               1.61370218,
               -8.508664,
               -0.662934661,
               2.02346444,
               -0.271855682,
               5.15763474,
               -2.22826743,
               4.19283,
               9.559003,
               -6.52271938,
               -3.73394
            ],
            [  
               8.545962,
               7.08673,
               -1.4039166,
               2.571629,
               -2.28032279,
               2.17656183,
               -5.12766552,
               1.08418763,
               0.121085972,
               -0.200943634,
               -2.79801536,
               0.7292449
            ],
            [  
               1.750796,
               3.51293,
               2.39237857,
               -2.22918057,
               -2.206865,
               -2.48165178,
               1.07001281,
               -1.66430652,
               -0.562656,
               -7.41806364,
               2.52552366,
               -2.3186214
            ],
            [  
               -1.39141512,
               1.69972944,
               -3.56848454,
               4.81180143,
               6.30709743,
               -0.722178161,
               9.664668,
               -2.2101965,
               -0.4074211,
               1.09306443,
               -4.646454,
               -1.22808278
            ],
            [  
               4.77369452,
               0.498496175,
               -2.46885967,
               -4.641553,
               -0.82640934,
               0.367290527,
               2.216006,
               1.41268289,
               5.177926,
               -4.5110774,
               -0.8445202,
               5.879763
            ],
            [  
               -1.04897571,
               -1.68042994,
               4.5837245,
               -2.10716963,
               -0.5600923,
               -5.53999949,
               -0.7306941,
               5.23069954,
               -5.36561775,
               -2.03135514,
               -2.77239251,
               -0.947160363
            ],
            [  
               3.67397928,
               -0.0205037389,
               -6.474132,
               0.403094947,
               -0.00377771328,
               7.48062134,
               -1.34328616,
               -5.685391,
               -0.9910177,
               -2.238652,
               4.844987,
               -2.105545
            ],
            [  
               -3.47089052,
               6.451438,
               -5.037733,
               2.435382,
               -2.22762036,
               -3.1544137,
               -0.33349964,
               1.04297721,
               -1.4547652,
               -2.1289196,
               -1.3270092,
               0.1742332
            ],
            [  
               -0.943526447,
               5.33334541,
               3.198662,
               -0.9668617,
               0.5176695,
               -5.209318,
               5.949137,
               4.32462263,
               4.96303844,
               -2.736663,
               -2.0932765,
               -0.04678249
            ],
            [  
               -3.381386,
               -3.828328,
               5.015658,
               3.99463677,
               1.24396908,
               6.09287357,
               4.975948,
               0.396792561,
               2.21172667,
               6.28665924,
               0.264646918,
               -1.24521089
            ],
            [  
               -0.126684472,
               4.779451,
               1.10696948,
               -8.261042,
               9.161768,
               3.61994958,
               4.66371,
               -4.230028,
               2.79435515,
               4.41396666,
               -0.3611649,
               -7.2465024
            ],
            [  
               1.78292346,
               4.25782633,
               -0.687398,
               2.76248384,
               4.98548126,
               -6.634605,
               -4.107922,
               -4.635118,
               0.259210348,
               -1.02785993,
               -0.0398466028,
               -2.302957
            ],
            [  
               4.596685,
               6.690221,
               0.16283758,
               0.07389083,
               -2.45052767,
               -6.07815552,
               2.62183356,
               0.9141869,
               0.3851889,
               -2.1078136,
               1.79777682,
               1.32665932
            ],
            [  
               0.14980799,
               -7.514319,
               -5.09776974,
               2.20412159,
               3.862098,
               -0.160713643,
               -3.67686272,
               0.9705908,
               4.475342,
               -2.65308213,
               7.041184,
               -10.3677492
            ],
            [  
               -0.09128578,
               2.27688837,
               -4.674893,
               2.14392829,
               1.84489119,
               -1.4150058,
               1.0189085,
               2.114827,
               -1.47106278,
               -1.6604259,
               0.0507185,
               -2.534707
            ],
            [  
               -1.4060849,
               -3.50431323,
               3.3872633,
               -1.67892313,
               -2.589291,
               2.475014,
               1.805901,
               6.532544,
               -1.35170317,
               -0.625550747,
               -0.19648388,
               0.9691316
            ],
            [  
               2.28923774,
               1.39266813,
               1.52419162,
               -5.85796356,
               0.182553515,
               -2.54912782,
               -1.97101557,
               -2.406056,
               1.97089148,
               -1.9132936,
               0.07341576,
               1.69101119
            ],
            [  
               1.87239182,
               -1.18564785,
               0.384551316,
               3.51246953,
               -1.29341674,
               -3.91651034,
               -3.6982038,
               0.328346133,
               4.16418,
               3.06581688,
               -4.12018967,
               -3.76845241
            ],
            [  
               -2.5360024,
               -1.28378046,
               -5.174783,
               5.96525431,
               -2.855661,
               -1.830868,
               2.482421,
               -1.41587555,
               0.26717627,
               1.97983229,
               -9.194238,
               -2.6113
            ],
            [  
               0.497891039,
               -1.28236556,
               -5.127649,
               0.831909537,
               0.974578559,
               2.54751825,
               -4.047062,
               2.96081638,
               0.6315046,
               1.01327181,
               4.93276167,
               -0.588785231
            ],
            [  
               4.21311235,
               -2.123955,
               1.39004374,
               -1.55694687,
               -1.49114752,
               2.90429068,
               2.07256436,
               -5.51008129,
               2.83239961,
               2.87806463,
               -4.561687,
               -1.83539391
            ],
            [  
               0.435472757,
               -4.25733852,
               1.88330245,
               1.61745036,
               -0.8305339,
               -1.37074411,
               0.650102258,
               -3.894022,
               -2.63586974,
               -3.792704,
               -2.69232225,
               -6.776491
            ],
            [  
               -3.78726625,
               0.719584942,
               3.89977479,
               0.803629,
               2.9848454,
               5.33571434,
               0.7645242,
               -2.79681373,
               -3.79791427,
               -0.8389997,
               -4.685625,
               0.105460972
            ],
            [  
               1.39669585,
               4.26434326,
               -4.265521,
               -1.20530009,
               -2.05554914,
               4.082557,
               -6.85052061,
               0.0214249752,
               1.45008326,
               1.02965128,
               1.40138137,
               1.35771012
            ],
            [  
               2.44071865,
               0.5737386,
               2.89159822,
               -3.29460335,
               0.8206931,
               4.77555037,
               -0.610305,
               4.587542,
               -2.594245,
               2.61376214,
               2.75118518,
               -1.48779011
            ],
            [  
               -6.79760838,
               4.68108368,
               1.39454,
               1.189586,
               -1.012556,
               5.34337854,
               0.525191665,
               1.20621836,
               -2.254923,
               1.61877537,
               -6.78689861,
               7.62038851
            ],
            [  
               -2.43153071,
               -0.8118254,
               -1.028372,
               -3.55712628,
               -4.42976332,
               -3.27103758,
               -1.14798677,
               -3.254113,
               -2.693943,
               0.124918789,
               2.6693294,
               3.21545315
            ],
            [  
               -3.52166057,
               2.59974432,
               0.7904444,
               -0.269120485,
               0.175042972,
               2.760124,
               5.13854265,
               1.77187145,
               2.05190849,
               4.49651957,
               3.841003,
               0.928464532
            ],
            [  
               -4.181658,
               2.618359,
               5.50268841,
               10.584321,
               -3.321705,
               -5.20100737,
               0.478157252,
               -1.7133081,
               0.539982,
               4.412261,
               -2.15849,
               3.14306
            ],
            [  
               3.440225,
               0.4882854,
               1.84971392,
               3.70127749,
               2.64182734,
               1.91299832,
               2.558184,
               0.733094633,
               1.44830382,
               -0.9896554,
               -1.88307571,
               -2.37799549
            ],
            [  
               -0.6665453,
               -3.04170966,
               3.08596873,
               -1.32395387,
               -4.46269369,
               -2.34957576,
               -7.07765245,
               -2.2828927,
               1.11606574,
               1.86997509,
               -0.07788429,
               -0.242368743
            ],
            [  
               -2.02390814,
               6.602163,
               -1.45041513,
               6.61514,
               -2.040139,
               -2.02434421,
               0.431742072,
               -3.7223773,
               -5.764359,
               2.6188395,
               0.705181837,
               -3.00521755
            ],
            [  
               -6.13781548,
               -0.259877324,
               1.81386137,
               -1.45956373,
               5.80777454,
               -2.098653,
               -2.61446881,
               -1.53759742,
               -0.110033378,
               -1.47771108,
               3.92396736,
               -1.29321313
            ],
            [  
               -9.846307,
               -3.287735,
               -1.68603718,
               -1.80035424,
               3.08777118,
               1.7282809,
               -1.16837537,
               0.6828035,
               6.098572,
               5.025999,
               -5.74683332,
               0.576536
            ],
            [  
               -2.76516128,
               -2.51879287,
               -6.17731667,
               -0.723045051,
               5.29911041,
               3.8605535,
               7.63464832,
               -7.62953043,
               8.496098,
               -2.02477241,
               6.47978735,
               2.92828655
            ],
            [  
               1.3872143,
               5.635077,
               -1.76752174,
               -2.15395975,
               1.3075552,
               -5.41861534,
               -6.15678,
               5.502078,
               -3.21390581,
               -6.347341,
               -5.27808,
               4.85713053
            ],
            [  
               1.90526927,
               2.61809421,
               8.807429,
               -1.92807221,
               -1.0433892,
               -1.50060558,
               -0.223348334,
               2.924276,
               -2.1703608,
               3.728235,
               -7.164451,
               -2.520817
            ],
            [  
               7.692356,
               1.66196883,
               -0.351331353,
               -5.006686,
               -13.1971445,
               2.543101,
               -1.0408535,
               1.002517,
               2.3338604,
               -0.411643654,
               -1.09716427,
               -5.02260637
            ],
            [  
               -1.2533257,
               -4.77006674,
               1.9211905,
               2.999574,
               -0.234722733,
               -2.14504433,
               0.06815704,
               3.17444134,
               -3.0074954,
               -0.00427231751,
               -0.9286454,
               -5.05130529
            ]
         ],
         "biases":[  
            1.8947084,
            -0.7870743,
            -1.341491,
            0.0863601,
            0.0594348125,
            0.0481069572,
            0.288900673,
            -0.4168071,
            -0.446752936,
            0.2070726,
            0.346696734,
            -1.27225351,
            1.16030467,
            -2.36843586,
            0.184084371,
            -1.17514563,
            -1.261832,
            -0.7011102,
            0.6713337,
            -0.09704902,
            -0.254114,
            1.11986172,
            -0.635155,
            -0.404487342,
            -0.864935935,
            -2.348748,
            -0.09232892,
            1.33128393,
            0.4407295,
            1.61827779,
            -0.695676744,
            -0.7957294,
            -0.132016227,
            -0.6521295,
            -0.9128181,
            1.56296468,
            -1.98484874,
            1.27834237,
            1.06028867,
            2.43439865,
            0.820474863,
            0.0483321138,
            -0.1099748,
            0.4817546,
            0.7309557,
            1.9125005,
            1.86349559,
            0.209891975,
            -0.5693935,
            0.4282775,
            1.41326356
         ]
      },
      {  
         "activationFunction":"SigmoidActivation",
         "weightMx":[  
            [  
               3.47079134,
               0.322088182,
               14.9814262,
               -1.82099676,
               -12.4144564,
               10.4912825,
               2.304114,
               -3.00662184,
               1.67905223,
               -4.94754028,
               3.28933859,
               -1.436157,
               14.5977907,
               0.5488778,
               4.27956152,
               -5.41628361,
               -1.28817093,
               4.951412,
               -12.5429544,
               5.46148062,
               9.19147,
               -6.953428,
               1.84698474,
               -7.464393,
               -4.445368,
               -3.19919682,
               11.2956114,
               0.6209362,
               6.524377,
               -9.255411,
               8.85294151,
               1.73831987,
               -8.544166,
               3.79200339,
               6.02254057,
               -1.582479,
               16.2802067,
               3.26678514,
               1.44313145,
               -7.06088972,
               2.803705,
               -10.74908,
               7.369457,
               2.0593574,
               14.9792681,
               -15.5461082,
               -9.304496,
               10.919013,
               7.83326864,
               9.365247,
               2.76186
            ],
            [  
               -8.011708,
               1.31323886,
               -4.816543,
               10.665534,
               -4.40779543,
               3.53405833,
               2.41276026,
               2.25798535,
               8.38680649,
               6.27307224,
               -7.09657431,
               5.442603,
               0.7503233,
               0.56509304,
               4.35253143,
               -13.9464445,
               3.89854741,
               6.6123085,
               7.138707,
               2.14117527,
               -4.421986,
               -17.08,
               -2.635736,
               10.2530575,
               10.330492,
               0.483645767,
               -1.58283663,
               6.162203,
               2.5147593,
               0.990433931,
               12.2181921,
               3.910344,
               2.4414854,
               -5.299141,
               0.4414339,
               4.198177,
               11.2000513,
               -2.58630013,
               -1.48424,
               7.287985,
               -1.42522216,
               5.55470943,
               -5.435175,
               -12.2163229,
               1.79944742,
               9.031865,
               -9.35624,
               -1.36192274,
               -13.1330786,
               -14.8744984,
               -4.24291229
            ],
            [  
               -5.010803,
               9.030626,
               -0.465344518,
               7.323177,
               -2.90552258,
               -5.08548927,
               4.561167,
               -1.84412324,
               -1.10583949,
               -4.779427,
               4.29471636,
               1.84043825,
               -0.0506390966,
               8.293221,
               -4.33314657,
               -6.282882,
               -6.933727,
               -7.034816,
               -9.399915,
               -8.530477,
               -7.539408,
               -6.43657875,
               15.1363935,
               -16.8683243,
               4.023963,
               -1.04429328,
               0.298198253,
               7.396717,
               -0.435361117,
               1.16874647,
               8.3946,
               6.31776237,
               3.146486,
               -6.84496975,
               -0.4330075,
               5.992754,
               -2.54259324,
               -7.650674,
               9.949858,
               9.78604,
               -1.11330891,
               -7.70509624,
               -2.77052855,
               -2.7484405,
               7.64214945,
               -3.32177067,
               0.931631565,
               10.382247,
               3.21757722,
               1.39839065,
               4.26207161
            ],
            [  
               -6.46815252,
               -3.79494929,
               -10.2306881,
               -12.7591352,
               -9.809021,
               -7.614178,
               -2.83103561,
               8.800796,
               -14.9948635,
               -13.01522,
               -9.707123,
               5.88286352,
               -2.70351815,
               9.97709751,
               4.88779068,
               -5.060439,
               -5.73710442,
               0.995812058,
               2.08248019,
               -6.51779556,
               -0.409230679,
               5.974928,
               -6.174218,
               5.469626,
               2.78960562,
               -0.366441548,
               4.319224,
               -5.947645,
               -9.564704,
               11.637063,
               -4.98694038,
               1.671131,
               -12.0298481,
               6.84348154,
               0.343156338,
               0.215207353,
               -2.95940757,
               5.252442,
               6.971994,
               -0.9551661,
               -2.90842223,
               -3.58870864,
               -2.93302631,
               1.11152017,
               3.83178282,
               3.80717182,
               2.33474088,
               11.7944927,
               4.436347,
               -3.238737,
               9.335348
            ],
            [  
               -3.43976188,
               -4.65332651,
               -3.100618,
               12.0836935,
               10.9217978,
               -1.21421707,
               -5.28371239,
               -5.843081,
               -3.43164635,
               -7.569204,
               9.995559,
               8.34092,
               0.4740547,
               7.50491858,
               -9.165019,
               1.85028064,
               -3.18729162,
               -0.3348095,
               -4.602897,
               6.57711029,
               -11.85384,
               -3.620945,
               -6.61270475,
               6.632621,
               6.50085068,
               -2.16388488,
               -4.95689344,
               7.24453259,
               -3.4741478,
               -6.29021,
               -11.988018,
               -2.43767333,
               6.07474,
               -2.21622467,
               2.30673265,
               -3.445334,
               2.06307387,
               -4.32002831,
               7.05942535,
               -5.29882336,
               2.54745936,
               3.36694312,
               9.346083,
               -1.487131,
               -1.77642667,
               5.261573,
               -8.342538,
               16.0804443,
               4.79143143,
               -4.04626036,
               -7.20418453
            ]
         ],
         "biases":[  
            -1.13412547,
            -1.459441,
            -0.603543639,
            -1.03060746,
            -0.664537966
         ]
      }
   ]
}