{
   "name":null,
   "description":null,
   "layers":[
      {
         "weightMx":[
            [
               -3.02299786,
               2.01960969,
               1.0338434,
               0.6323263,
               -2.29914117
            ],
            [
               -1.09613228,
               -1.89022231,
               1.40773094,
               -1.75758553,
               1.74695635
            ],
            [
               1.12581253,
               -1.82352626,
               -0.383573174,
               2.950151,
               -0.170556575
            ],
            [
               -1.70337343,
               1.04088926,
               -1.00675809,
               1.728028,
               1.97824931
            ],
            [
               1.95373011,
               1.95660019,
               1.32879,
               -2.6174984,
               -2.319582
            ],
            [
               1.90801632,
               1.20312691,
               -2.66112256,
               -1.58687663,
               2.554903
            ],
            [
               -1.69126892,
               -0.5829566,
               0.6236897,
               0.013600871,
               -0.8989417
            ],
            [
               2.27782154,
               -2.29447675,
               1.96262729,
               -0.6155138,
               -1.2667191
            ]
         ],
         "biases":[
            0.539259553,
            0.173002139,
            -0.479105949,
            -0.0987217352,
            0.198565051,
            0.118008427,
            0.131983355,
            -0.05046635
         ]
      },
      {
         "weightMx":[
            [
               0.472080231,
               -0.5989425,
               0.08019795,
               2.29320478,
               -2.31130958,
               1.91209769,
               0.187391683,
               -3.373119
            ],
            [
               2.66644859,
               -0.03630003,
               -2.76203132,
               -0.9560384,
               2.66697049,
               -2.02241063,
               1.12616682,
               -0.712618232
            ],
            [
               2.06119561,
               -0.758863568,
               0.7300217,
               -0.4865968,
               1.59119976,
               -2.50464821,
               1.28813827,
               0.3810034
            ],
            [
               -1.66178572,
               -2.53034139,
               0.5567599,
               -2.07182074,
               2.179553,
               0.9896346,
               -0.475175351,
               0.9803605
            ],
            [
               -0.395635039,
               -0.513632238,
               -2.83581758,
               -0.843656,
               3.02325439,
               1.826233,
               -1.36813939,
               -0.8128081
            ],
            [
               -2.79028463,
               0.800644159,
               0.273966432,
               -0.431153417,
               1.05082119,
               2.90559888,
               -0.825367868,
               0.101551987
            ],
            [
               0.753859639,
               -2.119818,
               1.96001053,
               -0.3220335,
               -0.726243,
               -2.35058451,
               -0.0182359945,
               0.227502942
            ],
            [
               -2.50524926,
               2.22580671,
               0.644426048,
               -1.58573878,
               -0.0380236767,
               -1.03969455,
               0.000189146464,
               3.0995183
            ]
         ],
         "biases":[
            0.925152838,
            -0.691640437,
            -0.295379847,
            -0.0900009945,
            0.6226656,
            -0.900808156,
            0.9969871,
            0.889444232
         ]
      },
      {
         "weightMx":[
            [
               -4.42080545,
               -2.23017,
               -1.86453557,
               4.19215536,
               1.045136,
               1.91171348,
               -0.7632906,
               1.37391555
            ],
            [
               0.973020434,
               3.011753,
               -0.630273,
               0.06477437,
               3.54659939,
               -1.20721865,
               -1.23847854,
               -5.69783735
            ],
            [
               -5.162064,
               3.57457733,
               1.5264492,
               -1.179304,
               -0.9204666,
               -2.93709683,
               0.0734947,
               1.99879611
            ],
            [
               1.31610751,
               -1.82376981,
               0.188185945,
               -0.896133065,
               -4.79764462,
               -2.9357326,
               3.48468184,
               -2.15920019
            ],
            [
               3.09774756,
               -2.64949632,
               -4.505362,
               -2.75099921,
               -0.316008121,
               1.670362,
               -2.88989258,
               0.177053332
            ]
         ],
         "biases":[
            -2.52426982,
            -1.7093364,
            -1.8754189,
            0.6345571,
            -0.0154645145
         ]
      }
   ]
}