{"description":"","layers":[{"activationFunction":"SigmoidActivation","biases":[-0.7178129553794861,0.050677236169576645,0.13240346312522888,0.08290956169366837,0.1323552131652832,0.20603136718273163,0.006085060071200132,0.07207854092121124,0.045984283089637756,-0.0240643210709095,0.051669806241989136,0.008744528517127037,0.019682714715600014,0.008024483919143677,-0.009460939094424248,0.016870791092514992,-0.00491477083414793,0.08595263212919235,0.037524349987506866,-0.0061527639627456665,0.11810915172100067,0.0022440652828663588,0.2171739935874939,-0.021691948175430298,0.07582030445337296,0.01639726758003235,-0.04312358424067497,0.14364559948444366,-0.12417075783014297,0.055319979786872864,-0.021147524937987328,-0.007404146250337362,-0.08729977160692215,-0.010246409103274345,0.013667427934706211,-0.09367864578962326,0.0013458384200930595,-0.008690872229635715,0.050694894045591354,0.06608761847019196,-0.005111335776746273,-0.06329108029603958,0.022934023290872574,-0.07113324105739594,-0.16781087219715118,0.007491897791624069,0.0445328988134861,0.004767181817442179,-0.014607248827815056,0.0741233229637146,-0.048455387353897095,-0.06715317070484161,-0.031018253415822983,-0.09029824286699295,-0.02246561087667942,0.0010989706497639418,-0.07027808576822281,0.002485870150849223,-0.04022106155753136,-0.004591146018356085,-0.014141133055090904,0.02256321907043457,-0.012665155343711376,-0.06548111140727997,0.051707517355680466,0.08198907226324081,0.0236330796033144,-0.06905431300401688,-0.1823010891675949,0.19759957492351532,-0.18890716135501862,0.07119964063167572,-0.022161874920129776,0.02470555528998375,-0.04303903505206108,0.00628510769456625,-0.013527492061257362,0.12509208917617798,0.049444425851106644,-0.030628466978669167,-0.021089177578687668,0.0293758325278759,0.13123978674411774,-0.011061929166316986,-0.009206075221300125,-0.033843107521533966,0.04973089322447777,-0.04042179137468338,0.03144898638129234,-0.02929205819964409,-0.0017971989000216126,0.00119937548879534,0.012051651254296303,-0.14776092767715454,-0.10803071409463882,0.030878687277436256,0.0411885604262352,0.05778510496020317,-0.029796265065670013,-0.11480250954627991,0.0017719782190397382,0.005905004218220711,-0.015047574415802956,0.02420901134610176,0.004257488530129194,-0.05066946893930435,-0.07521003484725952,-0.017099665477871895,-0.03193974122405052,0.0676429495215416,0.00453685550019145,0.10769525915384293,-0.15151850879192352,0.03741699084639549,0.00977096613496542,-0.10897849500179291,0.04907737672328949,-0.0812046229839325,-0.052618008106946945,0.010753937996923923,0.016062021255493164,0.0653570219874382,-0.027023116126656532,-0.00982645433396101,-0.008677135221660137,-0.029770946130156517,0.009468303062021732,0.09614889323711395,-0.04646245017647743,-0.05986706539988518,-0.10550080239772797,-0.0423639714717865,-0.05396677181124687,0.05037326365709305,0.013945048674941063,-0.012673968449234962,-0.002675156807526946,0.02793116867542267,0.036967501044273376,0.05256856232881546,-0.005830839276313782,-0.02314946986734867,0.09886429458856583,-0.011224860325455666,-0.024772193282842636,-0.16259431838989258,-0.028568249195814133,-0.05482916533946991,-0.001997128827497363,0.03189371898770332,-0.007180652115494013,-0.07849565148353577,-0.09468362480401993,-0.0048490953631699085,0.1899370700120926,-0.05810496583580971,-0.06601861864328384,-0.03277731314301491,-0.004367065150290728,0.04471876099705696,0.36881792545318604,0.07262300699949265,0.00847881194204092,-0.06728232651948929,-0.036557991057634354,0.02550191432237625,0.12125836312770844,-0.05785972997546196,-0.028008602559566498,-0.18216152489185333,-0.10867763310670853,-0.020927028730511665,-0.05735008046030998,0.039125315845012665,0.04491770640015602,-0.04731224849820137,0.10335824638605118,-0.09835860133171082,-0.03573828190565109,0.09811165183782578,-0.014768516644835472,-0.07922801375389099,-0.034653469920158386,-0.03126491978764534,0.2278340607881546,0.025722835212945938,-0.015433150343596935,0.06633108109235764,0.06390561163425446,0.03287915512919426,-0.04585423693060875,-0.023188969120383263,0.009144071489572525,0.04012231528759003,-0.05030673369765282,-0.2165871262550354,-0.03914739564061165,0.06602545082569122,-0.03281049057841301,0.019587991759181023,-0.06965870410203934,-0.04246558994054794,-0.05079810321331024,0.08997580409049988,0.013888539746403694,-0.014826220460236073,0.00805972795933485,0.05618014559149742,0.04604427516460419,0.015570680610835552,0.039883971214294434,-0.046924471855163574,0.059170201420784,-0.019471513107419014,-0.02912963181734085,0.03242987021803856,0.018590981140732765,-0.07494685798883438,-0.0038940301164984703,-0.06190400943160057,0.007473150733858347,0.12785638868808746,-0.022640667855739594,0.02444448508322239,-0.12746675312519073,-0.00892983004450798,-6.105408101575449e-05,-0.12740270793437958,0.014185713604092598,0.031766556203365326,0.001279883668757975,0.07202800363302231,0.007847487926483154,-0.04968671128153801,0.012590086087584496,-0.01739206537604332,-0.09775255620479584,-0.005559936165809631,0.0038064385298639536,-0.09333211183547974,-0.013475450687110424,-3.8337402656907216e-05,-0.07722635567188263,-0.1264796108007431,0.011339939199388027,-0.009529181756079197,-0.03816227987408638,-0.0057414863258600235,-0.01565990410745144,-0.018618138507008553,-0.17661906778812408,0.04409464821219444,0.07276333123445511,0.015847064554691315,0.026261644437909126,-0.06729573011398315],"weightMx":[[0.009041464887559414,0.0030210770200937986,0.03544027730822563,-0.03252338990569115,-0.021437395364046097,0.0006708011496812105,-0.026535753160715103,-0.0025139888748526573,0.03356683999300003,-0.006849834229797125,0.02450701780617237,0.009235270321369171,0.02090008184313774,0.021088873967528343,-0.01220178883522749,0.017378510907292366,0.016291236504912376,0.05861416459083557,0.030852753669023514,0.06010240688920021,-0.066615991294384,0.017520591616630554,-0.03145482763648033,0.02315298654139042,-0.013795411214232445,0.01530380267649889,0.0135264303535223,-0.0271003358066082,0.02310170605778694,-0.007729788776487112,-0.0060729715041816235,-0.01849130354821682,-0.04482172429561615,-0.026432961225509644,-0.10206611454486847,0.023079050704836845,0.012342170812189579,0.02336100861430168,-0.035117026418447495,0.03748725727200508,-0.030316062271595,-0.032482512295246124,-0.0021259470377117395,0.01989312283694744,-0.01522270031273365,0.013031793758273125,0.022594941779971123,-0.016403742134571075,0.0044011943973600864,0.06227271258831024,0.03467782586812973,0.019017117097973824,0.00594716239720583,-0.019518384709954262,-0.0197859238833189,-0.02156522497534752,-0.0425356850028038,0.032670311629772186,-0.009269609116017818,-0.012800188735127449,0.019692860543727875,-0.0005345414392650127,-0.0051056863740086555,0.023999588564038277,0.06263969838619232,0.015372011810541153,0.026122847571969032,-0.026542093604803085,0.0585266537964344,0.06060006842017174,-0.012102887034416199,0.09989155828952789,-0.010400576516985893,0.008794733323156834,0.04941583797335625,0.06926537305116653,0.053825266659259796,-0.014963313937187195,-0.04962784796953201,0.05348733812570572,-0.016826199367642403,0.01772124506533146,0.08583816140890121,-0.04428785666823387,0.07548601925373077,0.035032887011766434,-0.014371408149600029,-0.05488930642604828,0.030823253095149994,-0.04293345659971237,0.05749271437525749,0.07664152979850769,0.009347733110189438,-0.04663410410284996,-0.05632971599698067,0.012337951920926571,0.014782378450036049,-0.022459326311945915,0.0001325668563367799,0.053148187696933746,0.002751706400886178,0.04796278104186058,0.0018125445349141955,0.022892722859978676,0.09203695505857468,0.02490168623626232,-0.0321490578353405,0.026062317192554474,0.07337883859872818,-0.021401625126600266,0.002212679712101817,-0.04976608231663704,-0.0031377107370644808,-0.019293811172246933,-0.049949660897254944,-0.019847379997372627,-0.0008782034274190664,0.028432166203856468,0.0029258225113153458,-0.042705800384283066,-0.05917300283908844,-0.01595892943441868,-0.046731460839509964,-0.014077351428568363,-0.0735083520412445,-0.026359625160694122,-0.08805210888385773,0.016547108069062233,-0.04017803072929382,0.0077301557175815105,0.03184592351317406,0.01938313990831375,-0.05025411397218704,-0.02343258634209633,0.0024507155176252127,0.010397074744105339,-0.009819521568715572,0.029517628252506256,0.01156524382531643,0.07829441130161285,-0.030957229435443878,0.013484004884958267,-0.03623798117041588,0.047222401946783066,-0.024478035047650337,0.051752615720033646,-0.04160173609852791,-0.07098915427923203,0.029354453086853027,0.09357462078332901,0.034949056804180145,0.09349752962589264,0.09530580043792725,0.11930136382579803,-0.026024503633379936,0.06565701961517334,0.06978587806224823,0.07003749161958694,0.03067449852824211,0.0246280524879694,0.0682288259267807,-0.07256217300891876,-0.0020920787937939167,0.032876480370759964,0.033382169902324677,8.971151692094281e-05,0.08399414271116257,-0.051134657114744186,-0.002428164007142186,-0.021389326080679893,-0.04730278253555298,-0.02516988106071949,-0.030559640377759933,0.018646620213985443,-0.07435660809278488,-0.030012555420398712,0.03688310831785202,0.035553786903619766,0.05562519654631615,0.14577867090702057,0.12395058572292328,0.12846803665161133,0.14718849956989288,0.14280551671981812,0.21823719143867493,0.12546966969966888,0.08240656554698944,0.029840124770998955,0.005419034976512194,-0.03423598036170006,-0.06790050119161606,-0.038188379257917404,0.04932774230837822,-0.0336897037923336,0.026714583858847618,0.001982557587325573,0.010184421204030514,-0.006673850584775209,0.022750770673155785,-0.015447951853275299,-0.003299839561805129,0.030077243223786354,0.03859157860279083,0.004822573624551296,0.015310892835259438,0.12285318225622177,0.20867636799812317,0.12973850965499878,0.11299820989370346,0.16820304095745087,0.19216512143611908,0.05521295592188835,0.1280497908592224,0.1493026316165924,0.10145550966262817,-0.02411346323788166,0.03297390416264534,0.008996873162686825,-0.017475523054599762,-0.02049388363957405,0.0324154756963253,-0.04465631768107414,0.004697202239185572,-0.04999315366148949,-0.01351100578904152,0.04028807580471039,0.004642038140445948,-0.02175205387175083,0.008604262955486774,0.03704354912042618,0.11046630889177322,0.08741734176874161,0.09904453903436661,0.19213490188121796,0.09087429195642471,0.09991492331027985,0.18823252618312836,0.01909032091498375,0.06159960478544235,0.14959977567195892,0.0565992072224617,0.02307017892599106,0.06864352524280548,-0.022582311183214188,0.011313141323626041,0.01033529918640852,-0.03649108484387398,-0.041607022285461426,0.07837101072072983,-0.016989022493362427,0.026936840265989304,0.04832376912236214,-0.05739492177963257,-0.01292286068201065,0.051534801721572876,-0.03755180910229683,-0.030566655099391937,0.03782177343964577,0.083721823990345,0.07024276256561279,0.05944701284170151,0.05077765882015228,0.03635626286268234,0.15466593205928802,0.17953179776668549,0.046550992876291275,0.055675309151411057,0.03616925701498985,-0.02467530593276024,-0.02043204940855503,-0.009799025021493435,-0.07991495728492737,-0.09553276747465134,-0.040011439472436905,-0.06172843277454376,-0.14872077107429504,0.03494914248585701,-0.09187927842140198,-0.008593185804784298,-0.026987869292497635,0.013189519755542278,0.03152990713715553,0.015978392213582993,0.01318634208291769,0.01943967118859291,-0.06041601300239563,-0.021425236016511917,0.03601014241576195,-0.002315803896635771,-0.014205535873770714,-0.068324513733387,0.07424281537532806,0.05235157161951065,0.11151991784572601,-0.0077686733566224575,-0.0047878120094537735,-0.10464705526828766,-0.04776807129383087,-0.06867272406816483,-0.09788991510868073,-0.024977536872029305,-0.09883230179548264,-0.10373904556035995,-0.06388477981090546,-0.07033626735210419,-0.0008546780445612967,0.0857892632484436,0.04948100075125694,0.026783518493175507,-0.018725577741861343,0.009879219345748425,-0.03700511157512665,0.0021862389985471964,0.005636081099510193,-0.0474928542971611,0.04047222435474396,0.015241660177707672,-0.08298987150192261,-0.07127152383327484,-0.050178393721580505,-0.10700026899576187,-0.015342206694185734,-0.09490802139043808,-0.11004728823900223,-0.054799530655145645,-0.06743329018354416,-0.03940855339169502,-0.051570191979408264,-0.054871052503585815,-0.06910014897584915,-0.036288950592279434,-0.1525873839855194,-0.0478515625,0.009538075886666775,-0.008111911825835705,0.007605988532304764,-0.04066667705774307,-0.02319449745118618,0.010222196578979492,0.036688294261693954,-0.06798118352890015,-0.05592668801546097,-0.04362044855952263,0.02107143960893154,-0.02592763863503933,0.0006528861704282463,-0.00988753978163004,-0.03777846321463585,-0.0744226947426796,-0.15885324776172638,-0.040079448372125626,-0.12765094637870789,-0.0004475158348213881,0.009917962364852428,-0.02503928914666176,-0.014611907303333282,0.038658883422613144,-0.026982922106981277,0.06670540571212769,0.044636327773332596,0.023130862042307854,0.0017733968561515212,0.025214914232492447,-0.08238139003515244,-0.05983395874500275,-0.037940628826618195,0.027349039912223816,-0.025113482028245926,-0.08667489886283875,0.05169839411973953,0.03161489591002464,0.004817562643438578,-0.03928463160991669,-0.03951873257756233,-0.06386496126651764,-0.08410520106554031,-0.19270741939544678,-0.19985215365886688,-0.11989666521549225,-0.18041832745075226,0.008029316551983356,0.0011406494304537773,-0.04913444072008133,-0.0005409458535723388,0.06926755607128143,0.036484748125076294,0.03588172793388367,-0.013922418467700481,0.10356166958808899,-0.04347697272896767,-0.0023141689598560333,-0.004391633439809084,-0.0833088755607605,0.04502703249454498,0.038363855332136154,-0.017428848892450333,-0.0016245496226474643,-0.06326493620872498,-0.013801350258290768,0.07143355160951614,-0.003536775941029191,0.006963301915675402,-0.08391909301280975,-0.10479944944381714,-0.06264291703701019,-0.11468515545129776,-0.02906482107937336,0.052333857864141464,0.03897586092352867,-0.008498560637235641,-0.028193995356559753,-0.02426883392035961,0.02542104758322239,0.03436332568526268,0.062116727232933044,0.0074430592358112335,0.029507523402571678,0.008435252122581005,0.07448719441890717,0.050503600388765335,0.007605518214404583,-0.02320346049964428,0.019012168049812317,0.00907273218035698,-0.025609731674194336,0.030146673321723938,0.013356542214751244,0.0385795421898365,0.002672632457688451,-0.0035784218925982714,-0.01887480542063713,0.010844018310308456,-0.0033633382990956306,-0.04187406599521637,-0.04855668917298317,0.04541958495974541,-0.03590553626418114,0.017781488597393036,-0.10663609206676483,-0.03400639072060585,0.0845327153801918,0.05840479955077171,-0.0108865424990654,0.029584189876914024,0.06810371577739716,-0.04176324978470802,0.02575826272368431,-0.010559034533798695,0.04378632456064224,-0.007484851870685816,0.03760576248168945,-0.07191558182239532,-0.04037094861268997,-0.03263423219323158,0.001958500361070037,-0.008856086991727352,0.06172071397304535,0.06644680351018906,0.04065066948533058,0.08371499925851822,0.043393801897764206,-0.009438613429665565,-0.045276086777448654,0.0645066425204277,-0.10074304789304733,-0.06527449190616608,-0.05735665559768677,0.004317569080740213,0.011983869597315788,0.0825255885720253,-0.0005313957226462662,-0.045307282358407974,-0.0018737546633929014,-0.04980519786477089,0.014348048716783524,0.007455958053469658,0.018694544211030006,0.017455246299505234,0.009511071257293224,0.02474316395819187,-0.017839988693594933,-0.0017210600199177861,-0.04048822820186615,-0.010054584592580795,-0.0439915806055069,-0.020327847450971603,0.014778170734643936,0.04012121260166168,0.03969815373420715,0.03452771529555321,0.05417396128177643,-0.03624461591243744,0.03696104511618614,-0.03924909606575966,0.10688508301973343,0.039615336805582047,0.0466674342751503,0.05714421346783638,0.09563137590885162,0.019989900290966034,0.01824004389345646,0.03863803669810295,-0.016983509063720703,-0.04690145328640938,0.0027996832504868507,0.013587886467576027,-0.01934153400361538,0.07816167175769806,-0.025425249710679054,-0.06222524866461754,-0.09826930612325668,-0.044493332505226135,-0.0725695788860321,-0.07484167814254761,-0.019210616126656532,0.030587559565901756,0.006453577894717455,0.02425243705511093,0.06411364674568176,0.027374638244509697,0.00025877944426611066,0.0026475985068827868,0.06588515639305115,0.006482345052063465,0.029168765991926193,0.06269664317369461,-0.06326570361852646,-0.007819692604243755,-0.006431517191231251,-0.012224571779370308,0.04950480908155441,0.007851075381040573,0.05387010797858238,0.05649952217936516,0.04138154909014702,0.044374704360961914,0.02436734363436699,-0.04565427079796791,-0.04740273952484131,-0.02812410518527031,-0.03160391375422478,-0.07931788265705109,-0.019670521840453148,0.016606615856289864,0.04327632114291191,0.11252984404563904,0.0457412451505661,0.06384855508804321,0.026226121932268143,-0.010049227625131607,0.01204846240580082,-0.03615453839302063,0.07764582335948944,-0.027197254821658134,-0.039463844150304794,0.10319855809211731,0.035675983875989914,0.0031570009887218475,-0.04655108228325844,-0.004189568106085062,0.04593407362699509,0.010648812167346478,-0.03198916092514992,-0.00699401181191206,-0.0461777038872242,0.0007125234114937484,-0.02141532488167286,0.009965104050934315,0.059270039200782776,0.0368698388338089,0.08902198076248169,0.051776301115751266,0.11632301658391953,0.07871568948030472,0.03201816603541374,-0.004986518528312445,0.10364292562007904,-0.016171354800462723,0.009961004368960857,0.0032116298098117113,0.05702658370137215,-0.03196515887975693,0.014902811497449875,0.03964991495013237,-0.04351302981376648,-0.02685563638806343,-0.008222250267863274,-0.00420292979106307,-0.061589740216732025,-0.00484139658510685,-0.023944107815623283,-0.043804869055747986,-0.045521821826696396,0.012158139608800411,0.05004001036286354,0.07207056134939194,-0.01840233989059925,0.06810849159955978,0.020700305700302124,0.10511410236358643,0.05764108896255493,-0.008749214932322502,0.09611467272043228,0.03512245789170265,0.08866899460554123,0.040011268109083176,0.08713661134243011,0.05690750107169151,0.06991790980100632,0.0912623181939125,-0.0314522385597229,0.05909750983119011,0.13446924090385437,0.02229543961584568,-0.021265121176838875,0.03242633119225502,-0.026844384148716927,0.052474308758974075,-0.007127017248421907,-0.02020171843469143,0.024693477898836136,-0.014986826106905937,-0.00025802242453210056,0.011092184111475945,0.03965827822685242,0.06924152374267578,0.025123724713921547,0.04434872791171074,0.11706618219614029,0.07803821563720703,0.134807288646698,0.08284778892993927,0.03794893994927406,0.07024849206209183,0.062276046723127365,0.10726999491453171,0.05556507408618927,0.09096121042966843,0.0736146792769432,0.0012495836708694696,0.011146893724799156,-0.008216027170419693,0.02835860848426819,0.017281729727983475,-0.061543822288513184,-0.02189784124493599,0.05421573296189308,-0.012763096950948238,0.005924161523580551,-0.032177772372961044,0.07380068302154541,-0.017507338896393776,-0.03652646765112877,0.060703422874212265,0.03659231588244438,0.08102064579725266,0.09499869495630264,0.022187937051057816,0.1577233374118805,0.025939205661416054,0.02589287981390953,0.0018544081831350923,0.0028546578250825405,0.08644704520702362,0.03187435865402222,0.08300912380218506,-0.051274750381708145,0.028286876156926155,-0.030855784192681313,0.03256376087665558,0.001354292267933488,0.012353306636214256,-0.051551807671785355,-0.019021404907107353,0.04720021411776543,-0.01579201966524124,-0.007654122076928616,0.05992712825536728,-0.031889624893665314,-0.045515626668930054,0.007995331659913063,0.11873015761375427,-0.014505408704280853,-0.024759646505117416,0.06806877255439758,0.0798070877790451,0.15344257652759552,-0.0069897728972136974,0.034428395330905914,0.05004645511507988,0.004490429535508156,-0.007039735559374094,-0.037872955203056335,0.011490583419799805,-0.038207340985536575,-0.021837402135133743,0.0424538291990757,0.06771814823150635,0.0024780265521258116,-0.011086811311542988,0.01506823394447565,0.008255393244326115,-0.008842216804623604,-0.03990714251995087,0.020509785041213036,0.004661504179239273,-0.030532127246260643,-0.0011749172117561102,-0.015399585478007793,-0.024132492020726204,-0.055096227675676346,0.09518320113420486,-0.004889837931841612,0.03774157911539078,-0.03002592734992504,0.027975017204880714,0.03198098763823509,-0.0188466664403677,0.04358557611703873,-0.029536161571741104,0.04708799347281456,0.06988123804330826,0.04501457139849663,-0.004222007468342781,-0.012625627219676971,-0.027821868658065796,-0.0021047438494861126,0.10418589413166046,0.005948773585259914,-0.06611011177301407,-0.07480131089687347,-0.026129523292183876,0.05402133986353874,-0.0009082662290893495,-0.056236933916807175,0.05501111224293709,0.0050381850451231,0.028196338564157486,0.044948309659957886,-0.013722454197704792,0.07243186980485916,-0.03208700567483902,-0.0814942866563797,0.0398859903216362,-0.021235894411802292,-0.05552796646952629,-0.014636938460171223,0.010574721731245518,0.0034361109137535095,-0.03950073570013046,0.016155511140823364,0.1103394404053688,0.06974412500858307,0.0454540029168129,0.010388088412582874,-0.037410929799079895,0.0023044166155159473,-0.04964413493871689,0.014236905612051487,-0.034651994705200195,-0.01941697672009468,-0.0466773696243763,-0.0034713996574282646,0.009872685186564922,0.006427648011595011,-0.03778207302093506,0.019457781687378883,-0.005649338476359844,-0.05651438608765602,0.06332743912935257,-0.04964001849293709,0.04231021925806999,0.043514300137758255,0.030362118035554886,0.05139041319489479,-0.010510980151593685,-0.011358422227203846,0.043753571808338165,-0.039596814662218094,0.03541136160492897,0.04732874780893326,7.324795296881348e-05,0.05699096992611885,-0.009218782186508179],[0.01326755527406931,-0.016661137342453003,-0.03238729014992714,0.048151206225156784,0.06481827795505524,-0.04097456485033035,-0.004555671010166407,-0.045932721346616745,0.060034800320863724,-0.0376429557800293,0.019235754385590553,0.011416464112699032,-0.011815114878118038,-0.03745343163609505,-0.08154033869504929,0.0244638342410326,-0.03376593068242073,0.0424661710858345,-0.06311154365539551,0.029980530962347984,-0.08552023023366928,0.021456696093082428,0.025140564888715744,0.04762805253267288,-0.01872267946600914,0.008801109157502651,0.08090543001890182,0.0702974870800972,-0.04348801448941231,-0.00553881423547864,-0.024221111088991165,-0.014598438516259193,0.045550115406513214,-0.01556376088410616,0.019561374559998512,-0.026377897709608078,0.020025355741381645,0.008423235267400742,-0.013318775221705437,0.008719111792743206,0.0381690114736557,0.0076627666130661964,0.00512684416025877,-0.04597727581858635,-0.025215482339262962,-0.006581155117601156,-0.09365082532167435,0.019081177189946175,0.056377656757831573,0.05027908459305763,-0.035913173109292984,0.05272449553012848,-0.020916558802127838,0.05410410091280937,0.010197561234235764,-0.01661614328622818,0.06998296082019806,0.03348582237958908,0.008752788417041302,0.01915184035897255,0.06377723067998886,0.002006608061492443,0.049068864434957504,-0.008250352926552296,0.02615903690457344,-0.034236740320920944,0.001120389555580914,-0.05984661355614662,-0.03925095126032829,0.0037725726142525673,0.008356958627700806,0.02150670997798443,0.06803202629089355,0.030034713447093964,-0.017345944419503212,-0.0505274273455143,0.006954408250749111,0.05785617604851723,-0.014674924314022064,-0.021370818838477135,0.024102289229631424,0.0022581571247428656,0.0153584573417902,-0.043009202927351,0.0284589733928442,0.018959099426865578,0.016613205894827843,-0.020874468609690666,-0.02294103614985943,-0.028306353837251663,-0.006471156142652035,-0.029076430946588516,0.034308575093746185,-0.0051169563084840775,0.016156071797013283,0.07548636943101883,0.07152450829744339,0.03559095412492752,0.0051599484868347645,0.011603493243455887,0.061451613903045654,0.020315704867243767,0.022405361756682396,-0.016308557242155075,-0.05605863034725189,-0.006465981248766184,0.07418884336948395,0.02561851777136326,0.05778692662715912,-0.05314179137349129,-0.088206447660923,0.02690347097814083,0.024061614647507668,0.05672839656472206,0.02363710291683674,-0.04055260866880417,-0.02150549925863743,0.030711349099874496,0.008729352615773678,0.037706248462200165,-0.02777138352394104,0.03812772408127785,0.029016340151429176,-0.009719095192849636,0.1336372345685959,0.0414130724966526,0.10007087141275406,0.021620962768793106,0.11178186535835266,0.0747201070189476,0.04949204996228218,-0.0326698012650013,-0.009577972814440727,0.01740407384932041,0.004488103557378054,0.0011849997099488974,-0.04139024764299393,-0.018174665048718452,-0.08345672488212585,0.010308155789971352,-0.03857146576046944,-0.013214083388447762,0.06490762531757355,0.006781341508030891,0.08092518150806427,0.017916593700647354,-0.08577682077884674,-0.028532426804304123,-0.09741733968257904,-0.06910390406847,-0.09340739250183105,0.0004982283571735024,-0.1105775311589241,-0.0635891780257225,-0.06111403927206993,0.10261686146259308,0.13180400431156158,0.16171680390834808,0.19135749340057373,0.045244000852108,-0.05075059458613396,0.0322214737534523,0.005618075840175152,-0.01454570610076189,0.03248928487300873,0.03267603740096092,-0.021262530237436295,0.019066229462623596,0.009770326316356659,-0.015348046086728573,0.050868865102529526,-0.043742187321186066,-0.10475551337003708,-0.053756676614284515,-0.07214125990867615,-0.07010985165834427,-0.138722226023674,-0.11416921764612198,-0.12081389874219894,-0.05005186051130295,-0.02449604868888855,-0.11669188737869263,-0.025361552834510803,0.04319611191749573,0.09491165727376938,0.18591667711734772,0.1317024677991867,0.07332805544137955,-0.0805300921201706,-0.03952237218618393,-0.06294286251068115,0.00017991522327065468,-0.0026159912813454866,-0.005328183528035879,0.0019726522732526064,0.02197803370654583,-0.05560922995209694,0.005233789794147015,0.018911177292466164,0.010580728761851788,-0.02366897277534008,-0.022817274555563927,-0.025299036875367165,-0.09859181940555573,-0.07638630270957947,-0.02649671956896782,0.0031372292432934046,0.0020398253109306097,-0.09684077650308609,-0.17747341096401215,-0.08854509890079498,0.04537142068147659,0.18507477641105652,0.10885527729988098,0.08558782935142517,0.016708413138985634,-0.06458525359630585,0.02926315926015377,-0.05150924250483513,-0.03799848631024361,0.03298083692789078,0.07583145052194595,0.011322489939630032,0.011010915040969849,0.010947899892926216,0.038388095796108246,0.03342193737626076,-0.04999355599284172,0.026751026511192322,-0.012946389615535736,-0.11125901341438293,-0.03960393741726875,-0.05136919766664505,0.0023968357127159834,0.05090663209557533,0.031340621411800385,-0.04550936445593834,-0.12526251375675201,-0.07176649570465088,0.05009765177965164,0.1266024261713028,0.15371057391166687,0.04387850686907768,0.09706511348485947,-0.031444769352674484,-0.14128828048706055,-0.06442120671272278,-0.03386969119310379,-0.03196660429239273,-0.0259682796895504,0.0013940207427367568,0.007462947629392147,-0.006572296842932701,0.015781931579113007,0.001213253359310329,-0.004077825229614973],[-0.025526903569698334,-0.001880411058664322,0.04709811136126518,-0.10022628307342529,-0.03943052142858505,-0.012717735022306442,0.0397382490336895,0.036618877202272415,0.0719614028930664,-0.06872594356536865,0.006855871062725782,0.14344485104084015,0.06408275663852692,0.006199557334184647,0.03187664598226547,-0.05758121609687805,-0.07100558280944824,0.018574556335806847,0.03447242081165314,-0.02202511951327324,0.021193424239754677,0.010121633298695087,-0.0009693051688373089,0.04476965218782425,-0.010326743125915527,-0.004281003028154373,-0.08349587768316269,-0.025962360203266144,0.033926356583833694,-0.009862769395112991,-0.01920604333281517,-0.06140486150979996,0.06418319791555405,0.04079480841755867,0.18835638463497162,0.03457885980606079,0.1431443691253662,0.05785934627056122,-0.09875164180994034,0.010905105620622635,0.05671891197562218,0.019939575344324112,-0.010256052017211914,0.007325906306505203,0.07818502187728882,0.025020575150847435,-0.08234868943691254,-0.08977686613798141,-0.038383327424526215,0.031008586287498474,0.0008166148909367621,-0.014739541336894035,0.03070877678692341,-0.009531770832836628,0.015201611444354057,-0.012050454504787922,-0.007858490571379662,0.019613472744822502,0.12291666865348816,0.03482454642653465,0.05635599046945572,0.028180250898003578,0.19556601345539093,0.27977532148361206,0.24258488416671753,0.1255348026752472,-0.12231423705816269,-0.029340552166104317,-0.037452004849910736,-0.12112755328416824,-0.002203946001827717,0.08516548573970795,0.02176620624959469,0.07010917365550995,0.0430004820227623,-0.022453853860497475,-0.026927869766950607,0.012097627855837345,-0.07899780571460724,-0.04632160812616348,-0.033376917243003845,0.06067785248160362,-0.020642997696995735,-0.022601166740059853,-0.05060126259922981,0.0739765614271164,0.07019834965467453,-0.009736141189932823,-0.0015931447269394994,0.09462729096412659,0.10390963405370712,0.20864889025688171,0.18211399018764496,0.052955497056245804,-0.14476819336414337,-0.12451869249343872,-0.054079875349998474,-0.04212590306997299,-0.012043413706123829,0.03394069895148277,0.024850189685821533,0.021339835599064827,0.07498259097337723,0.028835682198405266,0.01690249890089035,-0.00010549613216426224,-0.026457682251930237,0.02777276188135147,-0.019712859764695168,0.005840397905558348,0.023052457720041275,-0.047034796327352524,-0.029095489531755447,-0.021894624456763268,-0.08841102570295334,-0.02523929998278618,-0.06427399814128876,-0.10084344446659088,0.017304036766290665,0.03224629908800125,0.07068223506212234,0.010245146229863167,-0.08198700100183487,0.020290518179535866,-0.06157686561346054,-0.03186720982193947,-0.016542142257094383,0.016458773985505104,-0.012915614992380142,-0.04244603216648102,0.01532051246613264,-0.06547300517559052,-0.017575612291693687,0.010376431979238987,-0.03279611095786095,-0.0702662467956543,-0.006627668626606464,-0.005691078025847673,-0.08789041638374329,-0.0617133267223835,-0.04509131982922554,-0.006687484215945005,-0.007952569052577019,-0.0913633480668068,-0.27855321764945984,-0.2479206919670105,-0.05224838852882385,0.06341920793056488,0.07915771007537842,-0.042494386434555054,0.02139504812657833,0.0335674025118351,-0.10824702680110931,-0.13281817734241486,-0.13516072928905487,-0.16087706387043,-0.10607059299945831,-0.006434625945985317,-0.029450152069330215,0.006497782655060291,-0.030512657016515732,0.08263983577489853,-0.034648701548576355,-0.00017435489280615002,-0.035431962460279465,-0.059425707906484604,0.012390468269586563,-0.01437898725271225,0.02728601172566414,0.05896671488881111,-0.08927139639854431,-0.08253789693117142,-0.1750572919845581,-0.04873671010136604,0.11638800799846649,0.13124726712703705,0.20199547708034515,0.05422678217291832,0.10438704490661621,0.1384975165128708,-0.06855523586273193,-0.07415053248405457,-0.14746862649917603,-0.052871789783239365,-0.11403170973062515,-0.028768980875611305,-0.04891947656869888,-0.03009141981601715,0.007132417056709528,-0.0007717437110841274,0.06210409104824066,0.004607819020748138,-0.05310041457414627,-0.008228473365306854,-0.0706978514790535,0.018323205411434174,-0.0031446656212210655,-0.10940247774124146,-0.06526146829128265,-0.09494996815919876,-0.029402630403637886,0.10880064219236374,0.23278731107711792,0.29526081681251526,0.15292862057685852,0.007507293485105038,0.03670394420623779,0.03437380492687225,0.07955919951200485,-0.056445613503456116,-0.07716616243124008,-0.1333783119916916,-0.0763891339302063,-0.07771001756191254,-0.09150804579257965,-0.030721142888069153,0.03864920511841774,-0.024790065363049507,0.024763261899352074,-0.04267363250255585,0.05686245113611221,-0.025469643995165825,-0.0009302195976488292,-0.09067128598690033,-0.03585679084062576,-0.0004739579453598708,-0.05258076637983322,-0.0033034328371286392,0.053006164729595184,0.09557033330202103,0.20754089951515198,0.2600135803222656,0.2054152935743332,-0.07926046848297119,-0.09423395991325378,-0.10583312809467316,-0.22219213843345642,-0.11892082542181015,-0.1512453705072403,-0.21938084065914154,-0.10884469747543335,-0.11661887913942337,-0.02110697329044342,-0.029715782031416893,0.0334203727543354,-0.027179613709449768,-0.008475996553897858,-0.015245429240167141,-0.027916820719838142,0.005942818708717823,-0.01588527113199234,-0.02676440216600895,-0.10069222748279572,0.0002571505610831082,0.033888254314661026,0.029831869527697563],[0.032526176422834396,0.17961376905441284,0.15678860247135162,0.08099449425935745,-0.15612734854221344,-0.13647276163101196,-0.021411435678601265,-0.07736507803201675,0.00823495164513588,-0.08047705888748169,-0.032103389501571655,-0.009960162453353405,0.033261172473430634,0.047810278832912445,0.08925199508666992,-0.015645062550902367,-0.01833469420671463,-0.01982596516609192,0.0014126725727692246,0.04392841458320618,0.002725871978327632,-0.020617783069610596,0.030332889407873154,-0.032446715980768204,-0.004019333049654961,-0.10084275901317596,-0.030214447528123856,0.055943556129932404,0.08072825521230698,0.15890230238437653,0.07073169946670532,0.12385328114032745,-0.08782658725976944,-0.1041969582438469,-0.06034409999847412,0.0277892854064703,-0.010502083227038383,-0.0047012451104819775,-0.0996105894446373,0.03039945662021637,0.10733546316623688,0.11363973468542099,0.10370814800262451,-0.06093519926071167,0.048564884811639786,-0.011799037456512451,-0.004641223698854446,-0.07694839686155319,0.05702992528676987,0.051674868911504745,-0.06714139878749847,-0.11159303039312363,-0.07655397802591324,0.0619458332657814,0.06930232048034668,0.04888124018907547,0.20554044842720032,0.1253863275051117,0.06384669989347458,-0.05140591412782669,-0.21478943526744843,-0.1513664275407791,0.047153327614068985,0.04599376395344734,0.05900156870484352,0.03516453877091408,0.007679817266762257,0.021322598680853844,0.10736031085252762,0.0855705663561821,0.029854413121938705,-0.052740804851055145,-0.006374255754053593,-0.050323884934186935,0.02010181173682213,-0.03782369941473007,0.04147441312670708,0.02228723093867302,0.00023343240900430828,-0.026579972356557846,0.00973324291408062,-0.045206230133771896,0.1510554999113083,0.1249081939458847,0.1695757955312729,0.1052151694893837,0.04831789433956146,-0.13241001963615417,-0.2347966581583023,-0.12958171963691711,0.006662667728960514,0.002957118907943368,-0.0752057358622551,0.03371267020702362,0.0014447311405092478,0.08413667231798172,0.15995515882968903,0.061236560344696045,0.023534415289759636,-0.02377607673406601,-0.0462011955678463,-0.01743357628583908,0.026408005505800247,0.05811673402786255,0.06321103125810623,0.01677347905933857,-0.002800907474011183,0.030134012922644615,0.025077268481254578,0.11571091413497925,0.14296415448188782,0.17415565252304077,0.1805112361907959,0.02095617726445198,-0.051874976605176926,-0.2580403983592987,-0.2431548684835434,-0.1945675164461136,-0.12090514600276947,-0.116456538438797,-0.1059442088007927,0.020565180107951164,0.09918244928121567,0.08336526900529861,0.05790339782834053,0.010853847488760948,0.005681088659912348,-0.08231997489929199,0.02690494991838932,0.08506941050291061,-0.021850479766726494,0.036573417484760284,0.046274516731500626,-0.10966917872428894,-0.018174445256590843,-0.0753626674413681,-0.06809104979038239,0.03634972497820854,0.08523304760456085,0.05057244375348091,0.19484271109104156,0.08081971108913422,0.002391237998381257,-0.16837099194526672,-0.1463131606578827,-0.17384634912014008,-0.12485787272453308,-0.17301996052265167,-0.06053846329450607,-0.0021872411016374826,0.039102617651224136,0.06815715879201889,-0.037493906915187836,0.03535555675625801,-0.06082845479249954,-0.027831004932522774,-0.033583953976631165,0.026005644351243973,-0.014697611331939697,0.026893552392721176,0.03526720777153969,-0.08151473850011826,-0.027581840753555298,-0.06061122566461563,0.08536381274461746,0.047039616852998734,0.012187553569674492,0.027922259643673897,0.05086732283234596,0.032996766269207,0.05278396978974342,-0.048247430473566055,0.012567644007503986,-0.10499630868434906,-0.10495646297931671,-0.06003710627555847,-0.013516088016331196,0.0009169791592285037,0.033676743507385254,-0.008970402181148529,-0.04915589094161987,-0.017564784735441208,-0.026732197031378746,-0.048427291214466095,0.03262350708246231,0.0019151766318827868,-0.06584761291742325,-0.051053039729595184,-0.013482574373483658,-0.018321175128221512,-0.010450981557369232,-0.0008859065710566938,0.001693212310783565,0.07870499044656754,-0.00016724024317227304,0.01066301017999649,0.08147016167640686,0.0059965564869344234,0.026230229064822197,0.10065577924251556,0.014916185289621353,0.02717093750834465,-0.044574372470378876,-0.010282347910106182,-0.05604023486375809,-0.04830393195152283,-0.04981793090701103,-0.06609499454498291,-0.04102953523397446,0.031054189428687096,0.014462991617619991,0.035614125430583954,-0.02745007537305355,-0.08432019501924515,0.02516433410346508,0.0355604812502861,0.0065530212596058846,0.03536025062203407,0.01608547382056713,-0.03484814986586571,-0.03432150185108185,0.04399824142456055,-0.014176750555634499,0.06839364022016525,-0.01739610731601715,-0.0006957607110962272,-0.01794431358575821,-0.0022187614813447,-0.020002009347081184,0.000634366471786052,-0.08539139479398727,-0.07228493690490723,-0.05388924106955528,0.015962302684783936,-0.06965692341327667,0.01158482301980257,0.05704471096396446,0.04619942232966423,0.046212758868932724,-0.06151510775089264,-0.018490565940737724,0.004540308378636837,-0.03866901993751526,0.01600438915193081,0.016287250444293022,0.005798321682959795,-0.016784878447651863,0.06444347649812698,-0.039554011076688766,-0.05888849496841431,-0.012781979516148567,0.03223562613129616,0.058400534093379974,-0.05609212443232536,-0.0028629438020288944,0.011321871541440487],[0.030451590195298195,-0.00546444533392787,0.03174365311861038,-0.011809295043349266,-0.04958420619368553,-0.023067941889166832,0.043092116713523865,0.045508187264204025,0.08602958917617798,-0.03422073274850845,0.01594553142786026,0.016213638707995415,0.031605515629053116,-2.1129825115203857,0.02227550372481346,0.07489680498838425,0.03831271082162857,0.04418857395648956,-0.01866263896226883,-0.012211794964969158,0.05519525706768036,-0.005580147262662649,0.041400838643312454,0.012402093969285488,-0.03863738104701042,-0.031092988327145576,-0.02441374957561493,-0.001232951763086021,-0.06519057601690292,0.03698239102959633,-0.027968281880021095,0.0436345674097538,-0.03704850748181343,0.001981499372050166,-0.048463013023138046,-0.03480801731348038,-0.03954707458615303,-0.0080235805362463,-0.019905006512999535,0.02007044106721878,0.07077625393867493,-0.008502389304339886,0.013605518266558647,0.004049005918204784,-0.002940255915746093,0.05358205363154411,0.04633024334907532,0.0033371257595717907,0.022898612543940544,-0.03269399702548981,-0.03410731628537178,-0.010587451048195362,0.015148942358791828,0.04149354621767998,-0.04549536108970642,-0.014710195362567902,0.026757540181279182,-0.013701754622161388,0.04020680859684944,-0.0262719988822937,-0.016371697187423706,-0.033693522214889526,-0.007660637143999338,0.00219170656055212,-0.017534460872411728,0.025880757719278336,-0.038278110325336456,-0.008376382291316986,0.014275841414928436,0.009514084085822105,0.010782183147966862,0.02478172443807125,-0.07890895754098892,-0.009007606655359268,0.006895163562148809,0.04164328798651695,-0.06508608162403107,0.027230121195316315,0.06807655096054077,0.008583423681557178,-0.03622254729270935,-0.010471351444721222,0.05696955695748329,0.11178180575370789,0.0070602744817733765,0.06349841505289078,-0.03577372431755066,-0.025217760354280472,-0.07716487348079681,-0.12607420980930328,-0.062324218451976776,-0.06805255264043808,-0.09141453355550766,-0.057545069605112076,0.04110104218125343,-0.08515039831399918,0.012520869262516499,0.03289603814482689,-0.055802442133426666,0.004350197035819292,0.02779504656791687,0.065022774040699,-0.0027817569207400084,0.05501437559723854,0.03200991824269295,-0.005308548919856548,0.006241822149604559,-0.007460285909473896,0.04591281712055206,0.08806709945201874,0.20242856442928314,0.18014758825302124,0.012361006811261177,0.03916197270154953,-0.04795728623867035,-0.06516562402248383,-0.10340329259634018,-0.1067432314157486,-0.16777491569519043,-0.20934948325157166,-0.10159225761890411,-0.09000340849161148,-0.08251062035560608,0.09655638039112091,-0.019842365756630898,-0.010845315642654896,0.013013637624680996,0.009692221879959106,0.08361038565635681,-0.026347637176513672,0.009262444451451302,-0.0022339189890772104,-0.022236304357647896,-0.035520024597644806,0.037693630903959274,-0.06026526913046837,0.1492588222026825,0.2451494187116623,0.31740662455558777,0.24869441986083984,0.21093665063381195,0.12813763320446014,-0.0991300716996193,-0.10197910666465759,0.025545522570610046,-0.22503671050071716,-0.12046340107917786,-0.06472758948802948,0.052986063063144684,-0.06523869931697845,-0.04593513160943985,0.026461059227585793,0.029071830213069916,0.006045940797775984,-0.027202727273106575,-0.05036372318863869,-0.017781393602490425,0.06481710076332092,0.0134960375726223,-0.019531749188899994,0.009449820965528488,-0.004689558409154415,-0.09986267983913422,-0.04008818790316582,0.13340258598327637,0.4745771288871765,0.3277047872543335,0.2536749243736267,-0.01706959307193756,0.08597149699926376,0.05263146758079529,-0.11860747635364532,-0.16553111374378204,-0.10242608934640884,0.026694120839238167,0.0016709817573428154,0.05567425116896629,-0.18892180919647217,-0.0991346463561058,0.014432794414460659,-0.01352248527109623,0.024284571409225464,-0.04801755025982857,0.0023283385671675205,0.025001058354973793,0.014883522875607014,-0.008812920190393925,-0.049728021025657654,0.05948515981435776,0.1351102590560913,0.01606799103319645,0.09183797240257263,0.17509455978870392,0.44970476627349854,0.19330954551696777,0.21772554516792297,0.06949371844530106,0.10472765564918518,0.1716468632221222,-0.009809110313653946,-0.07210990786552429,-0.051729340106248856,-0.06485605239868164,0.07030808180570602,-0.19312302768230438,-0.30736806988716125,-0.05594341456890106,0.0246098805218935,-0.03734896332025528,-0.0834801197052002,-0.03177317976951599,0.028579339385032654,0.030985528603196144,0.06066842004656792,-0.08110900968313217,-0.14807955920696259,0.006311674602329731,0.09561565518379211,0.027934493497014046,-0.02646814100444317,0.3017158806324005,0.3563464283943176,0.1849309653043747,0.0911911353468895,0.01122971810400486,0.07651463150978088,0.11941048502922058,-0.11188247799873352,-0.0016117286868393421,0.10523351281881332,-0.06530239433050156,-0.14652208983898163,-0.31067556142807007,-0.12482141703367233,0.037355322390794754,0.1141340434551239,-0.014063069596886635,-0.003602566197514534,-0.022124415263533592,0.03298168629407883,-0.022392824292182922,0.029868632555007935,-0.055112168192863464,-0.08273348957300186,0.011568351648747921,0.018777938559651375,0.029846249148249626,0.11743985116481781,0.3296531140804291,0.2840239703655243,0.2046019434928894,-0.009412494488060474,-0.13469883799552917,-0.06336983293294907,-0.04011718928813934,-0.04134564474225044],[0.11892174929380417,0.14893224835395813,-0.007875815033912659,-0.00684182345867157,0.1116102859377861,0.03350645676255226,0.007836559787392616,0.03615284338593483,0.02007916010916233,-0.06342437863349915,0.0613655149936676,0.007267366163432598,0.0390474908053875,0.0063823554664850235,0.08692160993814468,0.1658005714416504,0.10233708471059799,-0.04053085297346115,0.13188280165195465,0.29642200469970703,0.22388914227485657,0.10196064412593842,-0.1335483342409134,0.013079698197543621,-0.14729145169258118,-0.13952204585075378,-0.031656861305236816,0.003864169353619218,0.07148454338312149,0.18939700722694397,0.19114656746387482,0.20045723021030426,0.08077563345432281,0.08909837901592255,0.12120164185762405,0.11415798217058182,0.03493398427963257,0.0013631710316985846,0.014397131279110909,-0.05309715121984482,0.010576671920716763,0.04360070079565048,0.13761335611343384,0.32870417833328247,0.03200528770685196,-0.13544423878192902,0.13156664371490479,0.26300081610679626,0.22634972631931305,0.08492802828550339,0.15050722658634186,0.05320052057504654,0.05237048491835594,0.30283430218696594,-0.11562439054250717,-0.04135056212544441,0.16514503955841064,0.3355272114276886,0.31732234358787537,0.12235578894615173,0.1349240243434906,0.18639685213565826,0.17385552823543549,0.05020330101251602,0.008974671363830566,0.04697978124022484,-0.007131123449653387,-0.015731826424598694,0.0718853697180748,0.12330294400453568,0.16229839622974396,0.15607129037380219,0.17295965552330017,-0.10452374070882797,0.2850511372089386,-0.006342938635498285,0.02151334285736084,-0.02805081196129322,0.10060638934373856,0.10129177570343018,0.13054685294628143,0.0035918597131967545,-0.08369997888803482,0.06288608908653259,0.1693107634782791,0.34956949949264526,0.26627251505851746,0.20406077802181244,0.26007938385009766,0.17932890355587006,0.09444568306207657,0.00860592070966959,-0.033089179545640945,0.028552008792757988,-0.018161995336413383,0.04686303064227104,0.02265767753124237,0.09194319695234299,0.03800259903073311,-0.041486576199531555,-0.03154127672314644,0.1166694164276123,0.26113781332969666,-0.14673416316509247,-0.25428953766822815,-0.2672281563282013,-0.29019099473953247,-0.04884457588195801,0.10553476214408875,-0.04311569780111313,-0.12698720395565033,-0.1600438952445984,0.12033932656049728,0.10855673253536224,0.04712160304188728,0.20856128633022308,0.2718360424041748,0.18488669395446777,0.11849667131900787,0.08128340542316437,0.003686801064759493,-0.01482727937400341,-0.00872067827731371,0.005674747750163078,-0.06648194789886475,-0.027859754860401154,-0.07439788430929184,-0.0746295303106308,0.18169252574443817,0.2598537504673004,0.08024708926677704,-0.3186626732349396,-0.2692345678806305,-0.32495251297950745,-0.3574577271938324,-0.14986515045166016,0.10013674199581146,-0.03255368024110794,-0.36668264865875244,-0.24371540546417236,-0.02968689054250717,-0.06332795321941376,-0.03251876309514046,0.1257765144109726,0.26304391026496887,0.2715126574039459,0.1199684590101242,0.05566640943288803,-0.019662655889987946,0.06131787970662117,0.005652791820466518,-0.028417587280273438,0.017335521057248116,-0.014724744483828545,-0.18199016153812408,0.07946087419986725,0.2049923837184906,0.1516081690788269,-0.012192289344966412,-0.34799009561538696,-0.0033069460187107325,-0.038394976407289505,-0.11190912872552872,0.021552568301558495,0.2915204167366028,-0.00976030994206667,-0.27624279260635376,-0.04923345148563385,-0.11461559683084488,-0.13815154135227203,-0.04818421229720116,0.13040094077587128,0.22986596822738647,0.14586076140403748,0.008242941461503506,0.013842628337442875,0.021848009899258614,-0.03733048588037491,-0.028512688353657722,-0.004463364370167255,-0.06942896544933319,0.025489162653684616,0.10608542710542679,0.16054022312164307,0.12174255400896072,0.296935498714447,-0.06366240233182907,-0.31898990273475647,-0.015919024124741554,-0.07966810464859009,0.036220014095306396,0.2028207629919052,0.29323911666870117,0.009959076531231403,-0.2231675088405609,-0.0958174541592598,-0.39006564021110535,-0.194641575217247,0.010087134316563606,0.1599241942167282,0.19981883466243744,0.10354842245578766,-0.017812209203839302,0.04433692619204521,-0.019413094967603683,-0.01153569296002388,0.04661044105887413,-0.04097084328532219,0.027558475732803345,0.023410005494952202,0.1495981216430664,0.2600305676460266,0.15587933361530304,0.30438947677612305,0.1168665736913681,-0.006823886185884476,-0.09151399880647659,-0.08074626326560974,-0.06538870930671692,0.2865769863128662,0.12529970705509186,-0.24930956959724426,-0.06114472821354866,-0.15964064002037048,-0.2337009161710739,-0.19887657463550568,0.06387221068143845,0.23085719347000122,0.18053917586803436,0.18652261793613434,0.1221805065870285,0.07340606302022934,0.011991707608103752,-0.0221771951764822,0.014879917725920677,0.0007039046031422913,0.041511960327625275,0.06368451565504074,0.11376158148050308,0.2610374689102173,0.19820062816143036,0.23079940676689148,0.00024619727628305554,-0.14535297453403473,0.11388613283634186,0.04330411180853844,-0.09178902953863144,0.23572346568107605,0.07691298425197601,-0.11848914623260498,-0.02386370487511158,-0.07740214467048645,-0.10483614355325699,0.08312957733869553,0.24597753584384918,0.3028229773044586],[0.1638762503862381,0.06622783839702606,-0.053980495780706406,0.06555382162332535,-0.02373979240655899,0.06412568688392639,-0.024886533617973328,0.013509825803339481,-0.11129487305879593,-0.001491279574111104,0.07074335217475891,0.31104278564453125,0.22276046872138977,-0.025444189086556435,0.04746415838599205,0.019511573016643524,-0.12769921123981476,-0.026673203334212303,0.2109563648700714,-0.12891428172588348,-0.04136544466018677,0.13174375891685486,0.004508248530328274,-0.03787786141037941,0.2543494999408722,0.34597858786582947,0.4374593198299408,0.23243768513202667,0.035936664789915085,0.06933403015136719,0.009476680308580399,0.04797368124127388,-0.08795500546693802,-0.020774787291884422,-0.0047060661017894745,-0.017457954585552216,-0.11695161461830139,-0.031282939016819,0.08924180269241333,0.30367475748062134,0.3039045035839081,0.0675128847360611,0.16522854566574097,-0.05268702283501625,-0.006777680944651365,0.0361255407333374,0.20510712265968323,-0.03240302577614784,0.14235086739063263,0.2822655141353607,0.09154562652111053,0.01604284904897213,0.08508128672838211,0.2998245060443878,0.34236106276512146,0.1977221667766571,0.02660774067044258,0.021450383588671684,0.0022981083020567894,0.010048972442746162,0.05856754258275032,-0.03003253974020481,0.019792072474956512,0.061201997101306915,0.14400756359100342,0.09787119925022125,0.06027766317129135,0.20188257098197937,0.28293758630752563,0.2597016990184784,0.19027043879032135,-0.024857349693775177,-0.0535920187830925,-0.08399441838264465,0.14820954203605652,0.13573198020458221,0.12283900380134583,0.21755968034267426,0.12785135209560394,0.09343262016773224,0.08331972360610962,0.305242657661438,0.20453977584838867,0.07802234590053558,0.039411380887031555,0.02894134633243084,-0.02778744511306286,0.033184438943862915,-0.04005264863371849,-0.05735449492931366,0.04709633067250252,0.06051984801888466,0.08482854813337326,0.14570555090904236,0.2034921944141388,0.22347304224967957,0.17642953991889954,0.15826283395290375,0.2785111963748932,0.14326691627502441,-0.15167753398418427,-0.016128279268741608,0.2152128517627716,0.1487114131450653,0.0001502435188740492,0.028977422043681145,0.04617142677307129,-0.024343617260456085,0.12733854353427887,0.153500035405159,0.10013213008642197,-0.018890194594860077,-0.0027781811077147722,-0.010882826521992683,0.04234934598207474,-0.02427188865840435,0.016726059839129448,0.06089349091053009,0.010696060955524445,0.027547743171453476,0.046847693622112274,0.1274643987417221,0.11454315483570099,0.10878162831068039,0.22821348905563354,0.31993401050567627,0.22641757130622864,0.16005970537662506,-0.10778316110372543,0.08633482456207275,0.22199812531471252,-0.053945790976285934,-0.04552420973777771,0.05215615779161453,-0.056528422981500626,-0.0801304280757904,0.051382094621658325,-0.0600837804377079,-0.030238403007388115,0.1027277335524559,0.067703016102314,-0.021552784368395805,0.003898753086104989,-0.00012203231744933873,0.001429839408956468,-0.059687644243240356,-0.02203015424311161,0.06226222589612007,0.012384893372654915,0.054993439465761185,-0.02493326924741268,0.12993299961090088,0.21429067850112915,0.308391809463501,0.19114813208580017,-0.04287027567625046,-0.08077433705329895,0.1623353213071823,0.033245086669921875,-0.09732967615127563,-0.09286314249038696,0.011089790612459183,-0.22739171981811523,-0.12586650252342224,-0.0949229821562767,-0.13567237555980682,-0.09968957304954529,-0.02179253287613392,-0.0005100463749840856,-0.004592317622154951,-0.019269391894340515,-0.02003011666238308,0.056327372789382935,0.057478271424770355,0.0023940461687743664,0.009214484132826328,0.020687544718384743,0.024594176560640335,0.006963155698031187,0.057634755969047546,0.22399923205375671,0.02115156315267086,0.05017960071563721,-0.09368661046028137,0.03121126815676689,0.02985897846519947,-0.10265421867370605,-0.1853066384792328,-0.18689534068107605,-0.19818651676177979,-0.20208054780960083,-0.0953189879655838,-0.07509203255176544,-0.16668696701526642,-0.061629168689250946,0.010093617253005505,-0.014904535375535488,0.07702439278364182,-0.05198231339454651,0.013086105696856976,0.013430928811430931,-0.05273044481873512,0.01942342519760132,-0.010721993632614613,-0.033611297607421875,0.07749167829751968,0.04381975904107094,0.07017747312784195,0.09272521734237671,-0.08360960334539413,-0.09987389296293259,-0.1790143996477127,0.127971813082695,0.20317043364048004,0.2836824655532837,0.11402271687984467,0.26259803771972656,0.125314861536026,0.052548300474882126,0.09239998459815979,-0.05541357770562172,0.04104488715529442,-0.09762568026781082,-0.05434821546077728,0.013242232613265514,0.025534754619002342,0.02115391194820404,-0.0069920276291668415,0.0010460329940542579,0.01666593924164772,0.07535748928785324,-0.07946459949016571,0.03408002853393555,0.024417120963335037,0.020007746294140816,0.028923891484737396,0.056268081068992615,0.04364306479692459,0.0037596155889332294,0.09946970641613007,0.08417729288339615,0.20459182560443878,0.14534661173820496,0.013146438635885715,0.05103616416454315,0.1202898621559143,0.16097867488861084,0.09727262705564499,0.16202408075332642,0.025818848982453346,-0.007322123274207115,0.03942456841468811,0.0494680181145668,-0.01763131283223629,0.01904030703008175,-0.039236389100551605],[-0.018322288990020752,-0.019638126716017723,0.024146994575858116,0.0023955926299095154,0.013737354427576065,-0.03724438324570656,0.018453652039170265,0.007041857577860355,0.029489543288946152,0.03960735723376274,0.021802060306072235,0.08300589770078659,-0.0548761785030365,0.01653718389570713,0.053037937730550766,-0.03403109684586525,0.02630678564310074,0.030255267396569252,-0.005407160148024559,-0.009072661399841309,0.026646027341485023,0.01914241909980774,-0.019609913229942322,0.015107790939509869,-0.009822258725762367,0.05401022359728813,-0.041289322078228,-0.40056052803993225,0.014990250580012798,0.041148591786623,-0.02472582645714283,-0.0014856315683573484,-0.0035688281059265137,0.006030936259776354,-0.015117843635380268,-0.00531416479498148,0.033751826733350754,-0.015081485733389854,-0.02322891540825367,0.016223587095737457,-0.024750662967562675,-0.02923458069562912,0.014498873613774776,-0.06494392454624176,-0.05111311748623848,-0.016996027901768684,-0.015000874176621437,0.013210332952439785,-0.031556759029626846,0.0007122145616449416,-0.02342250570654869,-0.09033404290676117,0.001378266722895205,0.0038785128854215145,0.014522215351462364,-0.0015563558554276824,-0.02551680989563465,-0.014335429295897484,0.016384603455662727,0.0015266647096723318,-0.022974133491516113,-0.0038769568782299757,0.05304914340376854,-0.046235889196395874,-0.02762300707399845,0.014918495900928974,-0.0962427407503128,0.0016724631423130631,-0.04050954431295395,-0.03513278812170029,-1.651077764108777e-05,0.0731620341539383,-0.02227688394486904,0.047859277576208115,-0.04115290939807892,-0.06386866420507431,0.014850582927465439,0.010547058656811714,-0.007089112885296345,-0.06655965745449066,-0.06394460797309875,-0.005588031839579344,-0.0017625526525080204,-0.005909271072596312,-0.013154574669897556,-0.031582802534103394,0.018288785591721535,-0.05317194014787674,-0.0015151145635172725,0.003231281181797385,-0.0044088526628911495,-0.05273905023932457,-0.05399158596992493,-0.02518799901008606,0.030955832451581955,-0.040287382900714874,-0.0077789644710719585,-0.057263754308223724,-0.006549390032887459,-0.026304425671696663,-0.034012794494628906,-0.07970186322927475,0.0019939627964049578,-0.036683376878499985,-0.051818039268255234,0.014651096425950527,0.035825759172439575,-0.044565435498952866,-0.006274362560361624,9.143657734966837e-06,0.0173482708632946,-0.048316750675439835,0.010777370072901249,-0.025562888011336327,0.02239871956408024,0.005210998468101025,0.023166926577687263,-0.0002040881954599172,-0.0012101358734071255,-0.005113657563924789,-0.01018594391644001,-0.10693468898534775,-0.06390346586704254,-0.011720969341695309,-0.043437790125608444,-0.12136375904083252,-0.006797294598072767,-0.0064968834631145,0.0009245204273611307,-0.049862686544656754,-0.046571437269449234,0.04171054810285568,-0.04206233471632004,-0.042636193335056305,0.05908912792801857,0.006671103183180094,0.04714542627334595,0.04544420912861824,-0.033783916383981705,-0.013926375657320023,0.009894341230392456,0.024558406323194504,0.006067411974072456,0.002078487304970622,-0.0623236708343029,0.06937050819396973,0.04850117489695549,-0.026297004893422127,-0.07518026232719421,-0.052502553910017014,-0.057856809347867966,-0.014750395901501179,0.08421554416418076,-0.019146163016557693,-0.02456447295844555,-0.007148633245378733,0.042267702519893646,-0.02892155759036541,-0.04331093281507492,0.011761278845369816,0.05150191858410835,0.06361105293035507,0.034898605197668076,-0.008018546737730503,-0.10543933510780334,0.008320237509906292,-0.033581316471099854,-0.04063023254275322,-0.06548592448234558,0.019056320190429688,0.046894460916519165,-0.09049886465072632,-0.054532740265131,0.017503121867775917,0.058389294892549515,0.02520649880170822,0.08702604472637177,-0.005274070892482996,0.00607777014374733,0.06324581801891327,0.1253204494714737,-0.004769868683069944,-0.0334179513156414,-0.04579570144414902,-0.10884492099285126,-0.06905561685562134,-0.03544146940112114,0.024014947935938835,-0.004400664009153843,-0.0037552518770098686,0.04155202582478523,0.04019375145435333,0.07492344826459885,-0.031134475022554398,0.03331676870584488,0.02701820433139801,-0.0467156320810318,0.07102565467357635,0.02515985444188118,-0.049476850777864456,-0.02584383636713028,-0.02493930421769619,-0.024845624342560768,-0.04876621440052986,0.049433719366788864,0.1464136391878128,0.08218766748905182,0.09264671802520752,0.03975732624530792,-0.10600757598876953,-0.05547652393579483,-0.002008265582844615,-0.009755173698067665,0.13216252624988556,0.09170206636190414,0.11994682252407074,0.010359645821154118,0.10653454065322876,0.04368482530117035,0.04331456124782562,-0.03713395819067955,0.03935614228248596,-0.06067497283220291,0.05247741565108299,-0.03433261811733246,0.002664552303031087,0.045640189200639725,0.06070585176348686,0.006813643034547567,-0.07517018914222717,-0.03164047747850418,0.04207052290439606,-0.0025361147709190845,0.15012989938259125,0.10122387111186981,0.09414234012365341,0.08711539953947067,0.0916237011551857,-0.008913458324968815,0.22762981057167053,0.17552736401557922,0.1768457144498825,0.19790434837341309,0.1680518388748169,0.12672781944274902,0.1381170004606247,0.0840950608253479,0.12717847526073456,0.040923066437244415,-0.03012515977025032,-0.029383424669504166,0.00838438794016838,0.07814683020114899,0.006146554369479418,0.015498206950724125,0.016767924651503563],[0.0010822669137269258,0.08624859154224396,0.07949091494083405,0.1260427087545395,0.1598869264125824,0.03881203383207321,0.19415941834449768,0.11504463106393814,0.2135852426290512,0.10459259152412415,0.21803833544254303,0.17442353069782257,0.10085004568099976,0.1613851934671402,0.13132521510124207,-0.07007240504026413,-0.03166833147406578,0.055163878947496414,0.09745341539382935,0.07209163904190063,0.047179825603961945,0.034044355154037476,-0.009912225417792797,0.036708708852529526,-0.028676943853497505,-0.016993878409266472,-0.0239169392734766,-0.051063138991594315,0.00436520017683506,0.033493850380182266,0.11053811758756638,0.08248959481716156,0.0775534138083458,0.12480820715427399,0.10927414149045944,0.0648546814918518,0.06565141677856445,0.018394527956843376,0.06221114844083786,0.008178327232599258,0.0526413694024086,0.01794682815670967,0.11758236587047577,0.0007277557742781937,0.08103776723146439,0.06277377158403397,-0.030399896204471588,-0.049788497388362885,-0.04945533722639084,0.021032240241765976,-0.03336907923221588,-0.004002554342150688,-0.008659631945192814,0.013239235617220402,0.045081302523612976,-0.024109672755002975,-0.04313204437494278,0.10536333918571472,0.034370239824056625,0.043198514729738235,-0.048946563154459,0.055023543536663055,0.04457209259271622,-0.02757183462381363,-0.04692145437002182,-0.04408245161175728,-0.08660081028938293,-0.10673020035028458,-0.13834510743618011,-0.0774383619427681,0.052567195147275925,-0.039021361619234085,0.053552959114313126,0.05820237845182419,-0.0313873216509819,-0.0830540806055069,-0.06381064653396606,-0.013632720336318016,0.04944390058517456,0.029030922800302505,0.03138536959886551,0.023540347814559937,-0.003612021915614605,-0.0005082970601506531,0.06541721522808075,0.019849929958581924,0.01667868159711361,0.08664532005786896,0.02854861319065094,0.10345272719860077,-0.016317620873451233,0.06722012907266617,0.024323176592588425,-0.016806406900286674,-0.10567867755889893,-0.1927385926246643,-0.1917273998260498,-0.11632180958986282,-0.03961307182908058,-0.0268193818628788,-0.003277761861681938,-0.008779906667768955,-0.0388779453933239,-0.024776168167591095,-0.07157936692237854,-0.11734423786401749,0.020498545840382576,0.00574613269418478,-0.038171153515577316,-0.06401216238737106,0.038704801350831985,0.00047830177936702967,0.05403881147503853,0.02077416144311428,-0.011674679815769196,0.03745540603995323,-0.06838332116603851,-0.035065073519945145,0.020342109724879265,0.10369941592216492,0.07087879627943039,0.004414694383740425,-0.0502706803381443,-0.17024928331375122,-0.12005530297756195,-0.04264337196946144,-0.053011711686849594,-0.02358907274901867,0.04290233552455902,-0.0004483518423512578,-0.01814662665128708,-0.006284801755100489,-0.04194517061114311,0.06679226458072662,0.014249968342483044,0.02527499571442604,-0.013040627352893353,0.08524040877819061,-0.031674522906541824,0.07711063325405121,-0.058600831776857376,0.02600882574915886,0.0031306263990700245,-0.08585391938686371,-0.08113210648298264,0.020767733454704285,0.04784456640481949,-0.0034754076041281223,0.10267093032598495,0.15615755319595337,0.10662251710891724,-0.048367541283369064,0.002575564431026578,0.05669231712818146,-0.08394284546375275,-0.07264569401741028,-0.05837065726518631,0.023654572665691376,-0.0314088799059391,0.043016184121370316,0.03342268615961075,0.09317336231470108,0.04408203810453415,0.01507857907563448,-0.0038047193083912134,-0.017657721415162086,-0.019401976838707924,0.05595603957772255,-0.025198301300406456,0.01599949598312378,0.04851463437080383,-0.04487672820687294,-0.08788087964057922,-0.050027795135974884,0.07132475078105927,0.1470809131860733,0.1662520468235016,0.17600321769714355,0.04525734856724739,0.09734325855970383,0.13875426352024078,-0.07069873809814453,-0.04978611320257187,-0.1443871110677719,-0.11862634867429733,-0.0849640741944313,-0.04778099060058594,-0.06718789041042328,0.024967096745967865,0.00603810278698802,-0.008459066972136497,0.017134100198745728,-0.02321861870586872,0.03441257029771805,-0.019963085651397705,0.041807398200035095,0.0499008409678936,0.07762110978364944,0.04778658226132393,0.08510364592075348,-0.08364341408014297,0.06992657482624054,0.03218510374426842,0.017074065282940865,0.09297174215316772,0.0391240194439888,0.05954710394144058,0.08801805227994919,0.130131334066391,0.01586998999118805,-0.09687461704015732,-0.09540588408708572,-0.05752973258495331,0.022084493190050125,-0.11989910900592804,-0.04006539657711983,-0.07119546085596085,-0.0669044777750969,0.02323562651872635,-0.0032839851919561625,-0.056272536516189575,0.0014544088626280427,-0.02357226237654686,0.02524612843990326,0.051614973694086075,0.04466622695326805,0.17340022325515747,0.1323177069425583,0.08807875961065292,0.025558296591043472,0.07625118643045425,0.025548625737428665,0.03769107162952423,-0.024969208985567093,0.04335610568523407,0.1417173445224762,0.058611057698726654,0.02990361675620079,-0.028765546157956123,-0.1649593859910965,0.011514919809997082,-0.07593225687742233,0.01503268163651228,-0.03704613447189331,-0.04443527013063431,0.00720912404358387,0.011994914151728153,0.040441881865262985,-0.03825542330741882,-0.010651236400008202,-0.0272072646766901,0.04244912788271904,0.06965888291597366,0.12949280440807343,0.1338304728269577,0.06491284817457199],[0.08865400403738022,0.06135657802224159,-0.03227652981877327,0.07593736052513123,-0.0010227897437289357,-0.04556088149547577,0.10473812371492386,0.08215052634477615,0.03445691242814064,0.012574893422424793,-0.03615549951791763,-0.03873009607195854,0.04251450300216675,-0.015925206243991852,0.015395977534353733,0.053272563964128494,0.031581636518239975,0.05076334625482559,-0.0018018792616203427,0.022354764863848686,-0.037061236798763275,-0.07231514900922775,-0.022051682695746422,0.036389127373695374,-0.008429612964391708,0.04163915291428566,-0.01288799848407507,0.05395409092307091,0.030331116169691086,0.002104369690641761,0.004464049357920885,-0.07037688791751862,-0.15182404220104218,-0.08775469660758972,0.0698443129658699,0.09798277914524078,0.06995312869548798,0.059953730553388596,0.10575194656848907,-0.012541955336928368,0.05019864812493324,0.02698865532875061,-0.04827487841248512,0.04906000941991806,0.030892904847860336,-0.06421978026628494,0.03868047147989273,0.008625498972833157,0.06375794857740402,0.037049755454063416,-0.01928604580461979,-0.005520523991435766,0.01697802171111107,0.0921110063791275,0.010348192416131496,0.016622230410575867,-0.011628629639744759,-0.07701116800308228,-0.07602431625127792,-0.07245154678821564,-0.17439737915992737,-0.09173323214054108,-0.001231654081493616,0.02704818733036518,0.08333348482847214,0.13962939381599426,0.1542506217956543,0.08039343357086182,0.06378057599067688,-0.01771841198205948,-0.0278411116451025,-0.05053208768367767,0.047991570085287094,-0.008125950582325459,0.006625865586102009,0.06545858830213547,-0.04923084378242493,-0.017269209027290344,0.04665340483188629,0.009022587910294533,-0.04856686294078827,0.03206184506416321,-0.0703837126493454,-0.027080068364739418,-0.08341975510120392,-0.1630726456642151,0.03921957314014435,-0.1675991714000702,-0.12523464858531952,-0.13918264210224152,-0.012008956633508205,0.06381168216466904,0.08304470032453537,0.18258841335773468,0.14176873862743378,0.09080063551664352,0.05759664997458458,0.026607928797602654,0.03259183093905449,0.04669705405831337,-0.03642701357603073,-0.06648454815149307,0.045674342662096024,-0.015103296376764774,-0.05643942579627037,-0.027891352772712708,-0.06738946586847305,0.01612486131489277,0.06792575120925903,-0.04549800604581833,-0.03501266986131668,-0.07512343674898148,-0.11501823365688324,-0.14189836382865906,-0.12368234246969223,-0.07400225847959518,-0.15781813859939575,-0.08261262625455856,-0.017359696328639984,-0.03000618703663349,0.05018887668848038,0.12388721853494644,0.09903479367494583,0.11339928954839706,0.0201859250664711,0.04475593939423561,0.099136121571064,0.06297674775123596,-0.02419009432196617,-0.011653793044388294,-0.03606128320097923,-0.02877168171107769,-0.018911706283688545,0.0007257774122990668,0.05188729986548424,0.06323002278804779,0.026299672201275826,0.09470191597938538,0.06770244985818863,-0.061485614627599716,-0.051276061683893204,-0.04030143842101097,-0.10361086577177048,-0.1790366917848587,-0.10652488470077515,-0.07198791205883026,0.013069003820419312,-0.049017198383808136,0.025027388706803322,0.06126696616411209,0.07419927418231964,0.04291092976927757,0.07061998546123505,0.05956573411822319,0.10283537209033966,-0.03830957040190697,-0.0002600401930976659,-0.000990750384517014,-0.03671123459935188,0.05463363602757454,-0.014214940369129181,-0.0278592761605978,0.0034906140062958,-0.019136764109134674,0.043590739369392395,5.434192280517891e-05,0.0025191614404320717,-0.011509726755321026,-0.044007256627082825,0.0011340013006702065,0.03553076088428497,-0.06025455519556999,-0.05102238059043884,-0.029140742495656013,-0.03179280832409859,0.09963475912809372,0.09198945015668869,0.05243707075715065,0.101206935942173,0.0896131619811058,-0.016806721687316895,0.009828824549913406,0.018131820484995842,0.0034055649302899837,0.06570731103420258,0.07694869488477707,0.006747784558683634,0.0347311794757843,0.06350290775299072,-0.03403022512793541,-0.0004983438993804157,0.03305918350815773,-0.02805732749402523,0.05099720507860184,0.04077744111418724,0.015316878445446491,0.05781643092632294,0.18402597308158875,0.02574636973440647,0.08803532272577286,-0.02233206294476986,0.004831647966057062,0.034868273884058,-0.029831593856215477,0.013594571501016617,-0.012980356812477112,0.07400356978178024,0.06979362666606903,0.06686055660247803,-0.015385065227746964,0.015527014620602131,0.011376815848052502,-0.03374531492590904,0.050474848598241806,-0.007373959757387638,-0.0006042404565960169,0.024920044466853142,-0.005463516805320978,0.010481656529009342,0.0402228869497776,0.04493538662791252,0.04360543191432953,0.07206758856773376,0.11369345337152481,0.010784533806145191,0.0410618856549263,-0.014126317575573921,0.01895745098590851,0.023297172039747238,0.0382595956325531,-0.048091333359479904,-0.026967845857143402,-0.055908508598804474,0.02116258069872856,0.02977132983505726,-0.012123740278184414,0.010974422097206116,-0.04443727806210518,-0.06442182511091232,0.010786044411361217,0.03577626496553421,-0.004223820753395557,-0.032582949846982956,0.04188653454184532,-0.019078141078352928,0.007981761358678341,0.019577261060476303,0.007703371811658144,0.0628645047545433,0.013088102452456951,0.05986906215548515,0.07051243633031845,-0.042967673391103745,-0.052891846746206284,0.035687126219272614,0.011583304032683372],[0.039972346276044846,0.03801816329360008,0.023202093318104744,0.016724638640880585,0.0651489719748497,0.02979053184390068,-0.014704517088830471,-0.015475517138838768,-0.027066271752119064,0.02276933565735817,0.05578859895467758,-0.01836307905614376,0.01094865147024393,0.03955662250518799,-0.03558789938688278,-0.04564885422587395,0.032729338854551315,0.013783666305243969,-0.0037860977463424206,-0.038852449506521225,0.010032064281404018,-0.013617823831737041,-0.01694970391690731,0.04707549139857292,-0.02774837240576744,-0.02385714463889599,-0.006328650750219822,-0.009430659003555775,0.0040595680475234985,0.04758739843964577,0.009705613367259502,0.008714638650417328,0.04526055231690407,0.021280931308865547,-0.005358629859983921,0.017856329679489136,0.016020461916923523,-0.025369638577103615,-0.05739637091755867,0.047551508992910385,-0.0343298502266407,-0.24051159620285034,-0.0336163304746151,-0.011006995104253292,0.030629701912403107,-0.047445788979530334,0.012634435668587685,-0.021407151594758034,0.029314473271369934,0.0017399739008396864,-0.04957297816872597,0.023953862488269806,-0.04104973003268242,-0.006210880819708109,-0.10083919763565063,0.04299083352088928,-0.004083640873432159,0.060531456023454666,0.049648407846689224,-0.0024353184271603823,-0.028930919244885445,0.0217236690223217,0.009128769859671593,0.057639364153146744,-0.0002518828841857612,0.013463334180414677,-0.05141124874353409,-0.010736709460616112,-0.05885552242398262,0.019770406186580658,0.017101818695664406,-0.012546878308057785,0.023861609399318695,0.005753543693572283,-0.001969120465219021,-0.01189385075122118,0.0007110239821486175,0.03696097061038017,-0.009469208307564259,0.0539756678044796,0.060048989951610565,-0.02635982632637024,-0.04724353179335594,-0.005488312803208828,-0.015468231402337551,0.03273976594209671,-0.050364162772893906,-0.024975471198558807,-0.010980421677231789,-0.02913721278309822,0.03177279978990555,0.0065454221330583096,-0.019838610664010048,0.04924602806568146,-0.029711373150348663,0.008205517195165157,-0.012132180854678154,-0.06580653041601181,0.024490447714924812,0.04047747328877449,-0.042507290840148926,0.01619070954620838,-0.02088736742734909,0.033994317054748535,0.04965279996395111,-0.0207423884421587,0.008721358142793179,0.019476205110549927,0.11383379250764847,-0.02867918089032173,-0.09535636752843857,-0.05604294314980507,0.01106235571205616,0.0017156380927190185,-0.05194671079516411,-0.010317969135940075,-0.019362572580575943,0.01856299117207527,0.07104548811912537,0.015155955217778683,0.024274008348584175,0.07157846540212631,0.007349328603595495,-0.04251055046916008,-0.03353385254740715,-0.029904097318649292,-0.013924659229815006,0.06461145728826523,-0.009161668829619884,0.00833364948630333,0.017564181238412857,0.033659663051366806,-0.014157526195049286,0.08848157525062561,0.07812312245368958,0.08201902359724045,0.03265359625220299,-0.033362045884132385,-0.10070063918828964,-0.14235973358154297,-0.15577414631843567,-0.12923000752925873,-0.13388530910015106,-0.15656307339668274,0.001099485787563026,0.0962776467204094,0.10855060070753098,0.08531935513019562,0.04286513850092888,0.12526585161685944,-0.0029161933343857527,-0.019642159342765808,0.017895080149173737,-0.010427762754261494,-0.048106394708156586,0.06979712843894958,-0.04461529850959778,-0.004192959982901812,-0.04910294711589813,0.07531776279211044,0.12423316389322281,-0.01350671611726284,-0.0025070009287446737,0.06094329431653023,0.07372639328241348,-0.09596935659646988,-0.13310343027114868,-0.22044524550437927,-0.2328416109085083,-0.19152043759822845,-0.07693330198526382,-0.020138969644904137,0.030982954427599907,0.04748697951436043,-0.003978516440838575,-0.01858293078839779,-0.02564425580203533,0.12262284755706787,-0.023201189935207367,-0.019078360870480537,0.06487720459699631,-0.026864375919103622,0.015658143907785416,0.011151122860610485,-0.018323129042983055,-0.04964129626750946,0.058509569615125656,0.031340036541223526,0.02227112650871277,0.06329166889190674,0.017361324280500412,0.021745378151535988,-0.0934629812836647,-0.34299221634864807,-0.467218279838562,-0.39280587434768677,-0.1450968086719513,-0.15469762682914734,-0.23426328599452972,-0.12333894520998001,0.022739123553037643,0.06588775664567947,0.17302775382995605,0.08729743957519531,0.004050526302307844,0.1072678193449974,0.07005639374256134,0.01644972339272499,0.04280741140246391,-0.022002140060067177,-0.04121987521648407,-0.042890116572380066,-0.016056038439273834,-0.032022882252931595,0.0008521645795553923,0.033531468361616135,0.036597296595573425,0.03143727779388428,-0.015801062807440758,-0.10064101964235306,-0.2278100997209549,-0.3146628439426422,-0.35247835516929626,-0.3938215672969818,-0.19161075353622437,0.034668102860450745,0.12025424093008041,-0.03226860240101814,-0.07273086905479431,0.04092252254486084,0.18353864550590515,-0.022759003564715385,-0.13089312613010406,0.052182137966156006,0.04442602023482323,0.014322754926979542,-0.05037238448858261,0.05163542926311493,0.01741245575249195,-0.0018784222193062305,0.034064069390296936,-0.03405527397990227,0.04655987769365311,0.04669899865984917,-0.01763785071671009,0.028843076899647713,-0.00806181225925684,-0.16082307696342468,-0.28897854685783386,-0.3535557687282562,-0.49803391098976135,-0.3870145082473755,0.05857393518090248,0.11114826798439026,0.14212559163570404,0.04732538014650345],[0.030829794704914093,0.05274691432714462,0.054766152054071426,-0.038930464535951614,-0.10320757329463959,-0.05979488417506218,-0.07611649483442307,-0.02872477099299431,-0.1248718649148941,-0.008685762993991375,-0.049951616674661636,-0.011068465188145638,-0.019684314727783203,0.01535697840154171,0.04355240985751152,-0.02700275555253029,-0.01724567823112011,-0.03282571956515312,-0.0653923749923706,-0.29871493577957153,-0.45303425192832947,-0.46822798252105713,-0.23482075333595276,0.13216906785964966,0.20678600668907166,0.24599425494670868,0.27873358130455017,0.12134730815887451,0.14190515875816345,0.12962232530117035,0.04531879723072052,-0.09379642456769943,-0.036258406937122345,-0.06496179103851318,-0.012438010424375534,-0.012200083583593369,-0.058092180639505386,0.03272455558180809,0.041420333087444305,0.04716044291853905,-0.11759054660797119,0.03230984881520271,0.030088355764746666,0.023428142070770264,0.061090387403964996,0.004975292831659317,-0.056287288665771484,-0.24647626280784607,-0.30708593130111694,-0.4003464877605438,-0.0643816888332367,0.050839100033044815,0.22874659299850464,0.3349664509296417,0.4026205539703369,0.31899386644363403,0.11131199449300766,0.03862348943948746,0.016305385157465935,-0.11797332763671875,-0.15202131867408752,0.031626828014850616,0.053096797317266464,-0.0372922457754612,0.007106277626007795,-0.010406920686364174,-0.018185270950198174,-0.04569133743643761,-0.049775999039411545,0.06407090276479721,0.020962107926607132,-0.10398079454898834,0.011666066944599152,0.021215343847870827,-0.1401761770248413,-0.15970025956630707,-0.24514912068843842,-0.14345932006835938,-0.14892148971557617,0.018677419051527977,0.1174260601401329,0.15735864639282227,0.2949875295162201,0.06704580783843994,-0.134426549077034,-0.08894374966621399,0.09928084909915924,-0.10364080220460892,-0.020285841077566147,0.12092522531747818,-0.01928730495274067,-0.05620711296796799,0.02456023544073105,-0.0359184592962265,0.01751391403377056,-0.02469734288752079,-0.04641013219952583,0.04645661637187004,0.09035132825374603,-0.046364422887563705,-0.09096958488225937,-0.1424645334482193,-0.12801802158355713,-0.09238370507955551,-0.21077437698841095,-0.14515137672424316,-0.12481579184532166,-0.19903330504894257,-0.09453370422124863,-0.0415027029812336,0.011883404105901718,-0.14927811920642853,-0.19919149577617645,-0.07147304713726044,0.06664910167455673,-0.03663844242691994,0.050225477665662766,0.03673473745584488,0.02856682986021042,-0.02087567001581192,0.010044981725513935,-0.04252288118004799,-0.011121365241706371,0.060934774577617645,-0.0189558956772089,0.025281159207224846,-0.0032343470957130194,0.010864710435271263,-0.02958506904542446,-0.02716352790594101,-0.03574070706963539,-0.07648652791976929,-0.12482146173715591,-0.15784670412540436,0.10931281745433807,-0.08373405784368515,-0.19542504847049713,-0.09992651641368866,0.07432179898023605,-0.113987036049366,-0.136118084192276,-0.1144339069724083,0.014132006093859673,-0.0265861377120018,0.003615814261138439,-0.01771537959575653,0.0879797488451004,-0.044724464416503906,-0.008399332873523235,-0.005192231852561235,-0.014270040206611156,-0.04263092949986458,0.01636832021176815,-0.0877716988325119,-0.012022090144455433,0.08149215579032898,-0.0165117084980011,-0.028580065816640854,0.04975397512316704,-0.12539538741111755,-0.11324188858270645,0.061075080186128616,0.11276506632566452,-0.0849090963602066,-0.04533960297703743,0.05402040854096413,0.06757346540689468,-0.08285508304834366,-0.07175570726394653,-0.06392133980989456,-0.08578493446111679,0.043039917945861816,0.09000430256128311,0.0045557511039078236,-0.037949178367853165,-0.03974014148116112,0.05427316203713417,-0.0070165530778467655,-0.0641125813126564,-0.022392233833670616,0.017675692215561867,0.0454794205725193,0.011378156952559948,-0.00646899314597249,0.0146267618983984,0.030227473005652428,0.040725596249103546,-0.10678637027740479,-0.05011579766869545,-0.012056962586939335,-0.018284978345036507,-0.09231656789779663,0.08255933970212936,0.183720201253891,-0.06571541726589203,-0.09846752882003784,0.017838452011346817,-0.1322050243616104,-0.09684192389249802,0.014784237369894981,0.04921882972121239,0.03911580890417099,-0.09330596029758453,-0.005162198096513748,0.06352648138999939,0.027840105816721916,0.07226891070604324,-0.07727506011724472,0.012159870006144047,-0.003938016481697559,-0.026420503854751587,0.08030901849269867,0.06559617072343826,0.018944894894957542,0.0057765222154557705,-0.20424343645572662,-0.26612699031829834,-0.0770498737692833,0.014056545682251453,0.047914765775203705,0.041754502803087234,0.01368703506886959,-0.06349173188209534,-0.06180359795689583,-0.14510545134544373,-0.26812905073165894,-0.15728378295898438,-0.010189959779381752,0.0889381393790245,-0.018508022651076317,0.02742944285273552,-0.051112912595272064,0.043502021580934525,-0.02271752804517746,-0.03034907765686512,0.014795798808336258,0.02689390629529953,0.026303935796022415,0.06564611196517944,0.10086201876401901,0.019877417013049126,-0.06316857039928436,-0.07283609360456467,-0.10011369735002518,-0.23344334959983826,-0.030606865882873535,-0.10045668482780457,0.04626499488949776,0.0721464604139328,-0.10226856172084808,0.02672109566628933,-0.12123551964759827,-0.12759536504745483,-0.12402310967445374,0.03381582349538803,-0.0011431848397478461],[-0.0006693003815598786,0.0013091679429635406,-0.012323125265538692,0.020893128588795662,0.003223133971914649,-0.023694481700658798,0.025798732414841652,0.027926424518227577,-0.06448007375001907,0.10017205774784088,0.02674245461821556,0.05519760027527809,-0.014343621209263802,0.020074114203453064,0.04449823126196861,-0.21305537223815918,-0.18789568543434143,-0.18188846111297607,0.06124893203377724,-0.03215891122817993,0.10903280228376389,-0.06347742676734924,-0.05088815093040466,-0.09176318347454071,0.10451501607894897,0.08238666504621506,-0.10327839106321335,-0.17422208189964294,-0.06986027210950851,-0.001542543643154204,-0.04517833888530731,0.025225594639778137,-0.04173348844051361,-0.06126159057021141,0.004776954650878906,0.013984249904751778,0.07296323031187057,0.040936704725027084,0.07493584603071213,0.00563471857458353,-0.02333034761250019,0.01625586673617363,0.03165047615766525,0.07132468372583389,0.06126461550593376,0.043620139360427856,0.08473791182041168,0.06129728630185127,0.0775434821844101,-0.077116958796978,0.017756331712007523,0.06402155011892319,0.0035449624992907047,-0.07808220386505127,-0.12741729617118835,-0.09965351969003677,-0.05587993189692497,0.029951144009828568,-0.026804961264133453,-0.009424612857401371,-0.019850250333547592,0.008408240973949432,0.003772445721551776,-0.033030252903699875,-0.01726522482931614,-0.031105436384677887,0.029112253338098526,-0.024511301890015602,-0.1794786900281906,0.025577053427696228,0.044066984206438065,0.016408229246735573,-0.020955685526132584,-0.017235998064279556,0.09569895267486572,0.11376024037599564,0.1051723062992096,0.0006477447459474206,0.01684318296611309,0.10895173251628876,0.04404603689908981,-0.03293474018573761,-0.08887383341789246,-0.0037301797419786453,-0.012246010825037956,-0.04688580706715584,-0.0235995315015316,0.040952231734991074,-0.00030830042669549584,-0.04819222539663315,-0.054032642394304276,-0.005097555927932262,-0.06927462667226791,-0.14203962683677673,-0.0176519937813282,0.06424061954021454,-0.0902295783162117,-0.06719154864549637,0.02535587176680565,0.03348645940423012,0.0016713200602680445,0.030065828934311867,-0.004695195704698563,-0.0062604788690805435,0.029843343421816826,0.03764992952346802,0.14270848035812378,0.0018510674126446247,0.0887252613902092,0.0210090521723032,-0.03905831277370453,0.0007838393794372678,0.007372450083494186,0.021500876173377037,-0.00795079953968525,-0.0075737363658845425,-0.028342008590698242,-0.019228367134928703,-0.004276267718523741,-0.007548823487013578,-0.00588073069229722,-0.06432162970304489,-0.02277996763586998,0.07629252225160599,0.15157243609428406,0.06845211237668991,0.0006145015358924866,-0.031839728355407715,-0.01547389104962349,-0.03107617050409317,0.06166704371571541,0.0008595231920480728,0.027734478935599327,0.06621931493282318,0.025658007711172104,0.07498349249362946,0.027666866779327393,-0.018404467031359673,0.022249383851885796,-0.05555029585957527,-0.049236711114645004,0.018910467624664307,0.007788616698235273,0.01787242665886879,-0.001860042684711516,-0.034896060824394226,-0.004922901280224323,0.0066134510561823845,-0.08814533054828644,0.02085818722844124,0.03494228795170784,0.011173815466463566,0.03181753680109978,0.15028642117977142,0.03664102032780647,0.03191828727722168,-0.009975485503673553,-0.01604458875954151,0.034491974860429764,0.00942725595086813,-0.09235364198684692,-0.04893995821475983,0.03253636881709099,-0.01929399184882641,0.03784701228141785,0.017336862161755562,-0.0019039236940443516,-0.10548125207424164,0.02093108370900154,-0.0036840711254626513,0.05083371326327324,0.004263536538928747,0.059903334826231,-0.05205700173974037,0.024700958281755447,-0.007253998890519142,-0.05236470326781273,-0.0042118895798921585,-0.08105969429016113,-0.08458779007196426,-0.06066377833485603,-0.011550054885447025,-0.1597277671098709,-0.13684220612049103,0.027653450146317482,-0.16449381411075592,-0.013157142326235771,-0.10685106366872787,-0.23472857475280762,-0.2329084724187851,-0.05673737823963165,0.002165378537029028,0.0741749256849289,0.02694285474717617,0.02918522246181965,-0.030608393251895905,-0.014481935650110245,0.006756721995770931,-0.015790456905961037,-0.010608893819153309,-0.07142000645399094,0.08809791505336761,0.03273126110434532,0.053909532725811005,-0.013492121361196041,-0.03453955426812172,-0.10226938873529434,-0.10861462354660034,-0.13072946667671204,-0.0035521334502846003,-0.07736583054065704,-0.20319882035255432,-0.18327626585960388,-0.0763588473200798,-0.062128711491823196,-0.21715502440929413,-0.2397230714559555,-0.1034940555691719,0.01026004645973444,0.050685424357652664,0.03141114488244057,0.04758840426802635,-0.02704634889960289,0.006972793024033308,-0.03426728770136833,0.019808780401945114,-0.012630846351385117,-0.022428657859563828,-0.07922761142253876,-0.033132441341876984,-0.03955524042248726,0.013595796190202236,-0.0042446572333574295,0.007465736474841833,-0.048244960606098175,-0.11484453827142715,-0.07807938009500504,-0.10637973994016647,-0.19924111664295197,-0.20239143073558807,-0.12389490008354187,0.006834762170910835,-0.02911163680255413,-0.22582881152629852,-0.04787752404808998,-0.010891679674386978,-0.026233747601509094,-0.01745367981493473,-0.0016116495244204998,-0.06551185250282288,0.07456044107675552,0.02873392589390278,0.0044365208595991135,-0.024137167260050774,0.042440783232450485,0.046607498079538345],[-0.013925371691584587,0.04851371794939041,-0.0009242283995263278,0.0006872623926028609,0.015162567608058453,0.08311418443918228,-0.030254311859607697,-0.06140735372900963,-0.029575470834970474,-0.049290742725133896,-0.08763161301612854,-0.06993748992681503,-0.1601303517818451,-0.08776513487100601,0.0039940811693668365,-0.034801166504621506,-0.0357481874525547,-0.030613917857408524,-0.06695575267076492,-0.04703401029109955,-0.0050313426181674,-0.039693862199783325,0.048599302768707275,-0.05615060776472092,-0.007142582442611456,-0.004561642650514841,-0.02787957340478897,0.05133305862545967,0.035586126148700714,0.03777109459042549,-0.0199262872338295,0.07242085039615631,-0.017754806205630302,0.02622666396200657,0.05261887237429619,-0.021902069449424744,0.03697701171040535,-0.014438610523939133,-0.04199106618762016,-0.025583496317267418,-0.08280923962593079,0.015231549739837646,-0.01849297806620598,-0.027755877003073692,-0.05214420706033707,0.004805452656000853,-0.030630851164460182,-0.010092047043144703,0.011568107642233372,0.02610873058438301,-0.021599244326353073,-0.04476030543446541,0.029306670650839806,-0.005396654829382896,0.007243056781589985,-0.10480576008558273,-0.024634849280118942,0.022621985524892807,-0.039284270256757736,-0.002834384562447667,-0.05304641276597977,-0.028780095279216766,0.04979411140084267,-0.04234076291322708,0.024368006736040115,-0.004413358401507139,-0.02731560356914997,-0.04639207944273949,-0.03745858371257782,-0.05873272567987442,0.004062157589942217,-0.029019268229603767,-0.010853420943021774,0.009389542043209076,0.0020761857740581036,0.0794781893491745,0.04022042825818062,-0.07462695240974426,0.00608013616874814,-0.007812404539436102,-0.050988562405109406,0.01523527316749096,-0.07564370334148407,0.004327872302383184,-0.043392810970544815,0.014676433987915516,0.03435448929667473,-0.041067011654376984,-0.0654156357049942,0.03251807391643524,-0.00391408521682024,0.009775104932487011,0.0028814582619816065,0.0010377152357250452,0.0015590318944305182,0.031715668737888336,-0.07354385405778885,0.002514926018193364,-0.019470741972327232,0.004900428466498852,0.05648987367749214,-0.03313213586807251,0.00786421075463295,-0.06458429992198944,0.02977919951081276,-0.048653364181518555,-0.03104591742157936,-0.04170326143503189,0.054944317787885666,0.0012085872003808618,0.039723705500364304,-0.03771593049168587,-0.07268273830413818,-0.10301866382360458,0.026499224826693535,-0.037869784981012344,0.04627889022231102,0.06251134723424911,0.0019311578944325447,0.01698755845427513,0.04056144505739212,0.04626379907131195,0.006964140105992556,-0.03109188936650753,-0.034728001803159714,-0.014713456854224205,0.004949568770825863,-0.03070066124200821,-0.028388438746333122,-0.013100426644086838,0.028642963618040085,0.07650813460350037,0.020343296229839325,0.004243022296577692,-0.055299125611782074,0.021461917087435722,-0.029293879866600037,-0.06983578950166702,0.05220253765583038,0.00029653782257810235,-0.04981160908937454,0.04317415878176689,0.02338068000972271,-0.030656913295388222,0.025363285094499588,0.010568954981863499,0.06455567479133606,0.024726592004299164,0.007163030095398426,0.07437033206224442,0.012609247118234634,0.01180445309728384,0.05410890281200409,-0.028827326372265816,0.004682397935539484,-0.04738571122288704,-0.023400092497467995,0.0030193161219358444,-0.009042383171617985,0.02348039299249649,-0.0010733433300629258,-0.05139029026031494,-0.08680223673582077,-0.009933051653206348,-0.000392628280678764,-0.062323376536369324,0.025612076744437218,0.015614875592291355,0.014474870637059212,0.017535990104079247,0.003647357225418091,-0.023871447890996933,-0.04779648780822754,0.029077738523483276,-0.024923307821154594,0.014841822907328606,0.028467979282140732,-0.0026573920622467995,0.048288095742464066,-0.0014241121243685484,-0.020384768024086952,-0.0485917404294014,-0.03723098710179329,-0.019860003143548965,0.06130434572696686,0.044158343225717545,0.022576874122023582,0.00155643280595541,0.01848144829273224,0.003636675886809826,-0.051031142473220825,0.04536082595586777,0.05132303386926651,0.04222505912184715,0.02888355776667595,0.02158694714307785,-0.004006839357316494,-0.018908312544226646,-0.025644272565841675,0.012436363846063614,0.00780603988096118,-0.020008141174912453,-0.10869139432907104,-0.08909150213003159,-0.04946044832468033,-0.036296263337135315,-0.07436373084783554,-0.0035496344789862633,-0.10968127101659775,-0.10830758512020111,-0.050437409430742264,-0.03962203115224838,0.002673210110515356,0.0073798722587525845,-0.016225045546889305,-0.05106314644217491,0.022951271384954453,0.11126764863729477,0.08148571103811264,0.021050583571195602,0.006069319322705269,0.03767456114292145,0.029841208830475807,0.03879127278923988,-0.04950016364455223,0.005948641803115606,-0.047274768352508545,-0.01527719758450985,0.0024434980005025864,0.014819461852312088,-0.002672507194802165,-0.002334333723410964,-0.025739707052707672,-0.0654393658041954,0.04638786241412163,0.014291011728346348,-0.0259221363812685,0.061359863728284836,-0.017193414270877838,0.00923638604581356,0.016729431226849556,-0.024033622816205025,0.016011137515306473,0.002699755597859621,0.005385549273341894,0.060656219720840454,-0.010816642083227634,-0.05164637789130211,0.03343302384018898,0.03343914449214935,0.046666938811540604,-0.03661826252937317,0.027291037142276764,0.03980492055416107,0.006982642225921154,-0.024637576192617416],[0.028239507228136063,-0.0502934567630291,0.02619616501033306,0.02191329561173916,-0.035907063633203506,-0.010920309461653233,0.017914095893502235,-0.01326444186270237,0.06421399116516113,-0.004336379934102297,-0.0025918835308402777,0.0051963916048407555,-0.048914819955825806,0.08437047898769379,0.06016165763139725,-0.036285150796175,0.016530457884073257,0.004366856534034014,-0.0076423040591180325,-0.010682902298867702,-0.0346028096973896,0.010750571265816689,-0.014656049199402332,0.02396737039089203,-0.016351651400327682,-0.03166944906115532,0.011973987333476543,-0.014689799398183823,-0.007122407667338848,-0.03339824080467224,-0.001956047723069787,0.01863998733460903,0.017038188874721527,0.0016470596892759204,0.0012324430281296372,0.031949564814567566,-0.014585980214178562,-0.026825137436389923,-0.06923475861549377,0.017867999151349068,-0.08949867635965347,-0.03122391179203987,-0.06073230877518654,-0.02239973470568657,-0.06780748814344406,0.02243882603943348,0.008004941046237946,0.015207196585834026,0.038865458220243454,-0.030114976689219475,0.048746392130851746,-0.03034142404794693,-0.017018647864460945,0.005721489433199167,-0.01310545951128006,0.0719643086194992,0.03985414281487465,-0.004529120400547981,0.004052335862070322,-0.0006097373552620411,0.0358939990401268,0.05693809315562248,0.04479782655835152,0.019441239535808563,0.05145392566919327,0.04196057468652725,-0.010847332887351513,-0.012435169890522957,-0.10324569791555405,-0.07903510332107544,-0.024450251832604408,-0.09050764888525009,-0.09290473908185959,-0.03372151032090187,0.02722758986055851,0.05526258051395416,0.05736695975065231,0.07853623479604721,-0.04031744599342346,-0.012786073610186577,-0.03004155121743679,0.0517503023147583,-0.06140284612774849,0.031184222549200058,-0.0077934167347848415,0.0443599559366703,0.028093082830309868,0.037202779203653336,-0.031709372997283936,0.0341048389673233,0.0057868571020662785,0.11839297413825989,0.023040195927023888,0.15823423862457275,-0.0023269241210073233,0.00037709411117248237,-0.12097661197185516,-0.044022031128406525,-0.18493498861789703,-0.0682055801153183,-0.10797947645187378,0.02653300017118454,0.054158370941877365,0.07404078543186188,0.028367716819047928,0.012362102046608925,0.08617118746042252,0.018845543265342712,0.023545190691947937,-0.014740065671503544,0.02422208897769451,0.03514905646443367,-0.040026646107435226,0.012126118876039982,0.00840266328305006,0.026468845084309578,-0.05363602936267853,-0.08644181489944458,-0.034035492688417435,0.017822254449129105,0.07032023370265961,-0.030878830701112747,0.008605978451669216,-0.0025002299807965755,-0.058677781373262405,-0.05734975263476372,-0.06450256705284119,-0.09152349829673767,-0.09079884737730026,-0.05366057902574539,0.07341278344392776,0.12823061645030975,0.04524852707982063,-0.023224622011184692,0.049427829682826996,-0.12083912640810013,0.02319873683154583,-0.03630879893898964,-0.04372367262840271,-0.01180240511894226,-0.02499982714653015,-0.014920170418918133,0.044925395399332047,-0.07411022484302521,0.009710932150483131,-0.06759069114923477,-0.012896201573312283,0.026102257892489433,0.046567220240831375,0.024100862443447113,-0.031814612448215485,-0.10493353754281998,-0.08378837257623672,-0.13364316523075104,-0.04620992764830589,-0.1152665987610817,-0.012997867539525032,-0.034580450505018234,0.02351115271449089,-0.007020799908787012,0.043294817209243774,-0.016026673838496208,0.008729894645512104,0.018790842965245247,0.04710405692458153,-0.018134258687496185,-0.026948779821395874,0.035283416509628296,-0.004772426560521126,0.0540391243994236,-0.031017348170280457,-0.08968710154294968,-0.06488429754972458,-0.1170792281627655,-0.12304726988077164,0.014437207952141762,0.05676786229014397,-0.012579122558236122,-0.052954982966184616,-0.11715615540742874,-0.15007346868515015,-0.0544404499232769,-0.03172530233860016,-0.0769226998090744,-0.1010391041636467,-0.09998299926519394,0.06483463943004608,-0.02848547324538231,0.04059933125972748,0.05401872470974922,-0.05285820737481117,0.013887866400182247,-0.0017883910331875086,-0.05284663289785385,-0.06211673095822334,0.022082392126321793,0.0029447635170072317,0.04716762155294418,-0.09435331076383591,-0.1672346293926239,-0.05638107284903526,-0.03778420761227608,0.06753600388765335,-0.05396345257759094,-0.0008473505149595439,-0.029285000637173653,-0.05244140699505806,-0.1345500349998474,-0.0671282559633255,-0.012817518785595894,-0.042575471103191376,-0.04975804686546326,-0.11813607066869736,-0.07385758310556412,0.03336351737380028,0.028286311775445938,-0.05787062644958496,-0.057910941541194916,0.0034387509804219007,0.043196819722652435,0.038208555430173874,-0.014488304033875465,-0.08318248391151428,-0.020783228799700737,0.011073403060436249,0.009399905800819397,0.010173932649195194,0.018573351204395294,-0.04287528991699219,0.0005400462541729212,0.014708991162478924,0.0448673777282238,0.06539862602949142,-0.012086895294487476,-0.05151280760765076,-0.027272231876850128,-0.06570157408714294,-0.0019967525731772184,-0.08713032305240631,-0.042878326028585434,-0.04221978411078453,-0.06705503165721893,-0.011269344948232174,0.003046818543225527,0.044272955507040024,0.08652356266975403,0.04068314656615257,0.05234076455235481,0.02771751955151558,-0.004129970911890268,-0.03363697603344917,0.010882046073675156,-0.07064361125230789,-0.07287795096635818,-0.052005231380462646,-0.08723173290491104],[-0.03581923246383667,0.05556642636656761,0.02409488894045353,0.005758815910667181,0.021399907767772675,-0.10551579296588898,-0.05927678197622299,-0.10723873227834702,-0.036055609583854675,-0.12463079392910004,0.05872102826833725,-0.05401629954576492,0.008442572318017483,-0.03575203940272331,-0.010890488512814045,0.03964909911155701,-0.021651554852724075,0.015132111497223377,0.05691607668995857,-0.057340484112501144,0.00392539007589221,0.003030777210369706,-0.07859519124031067,-0.013186855241656303,-0.013571211136877537,0.013772872276604176,-0.08707781136035919,-0.04226230829954147,-0.05413731560111046,-0.04944036900997162,0.005468473304063082,0.01899917609989643,0.062147356569767,-0.013116186484694481,-0.09904627501964569,-0.09126851707696915,-0.11126766353845596,-0.02227644808590412,-0.03634088113903999,-0.046451594680547714,-0.08452092111110687,-0.0757828876376152,-0.07052031904459,-0.08543030917644501,-0.029598385095596313,0.038423944264650345,-0.03185518831014633,0.007386140991002321,0.03127661719918251,0.027533160522580147,0.022628825157880783,-0.033507734537124634,-0.0005962669383734465,-0.04523662105202675,-0.06888565421104431,-0.09507524967193604,-0.040878791362047195,-0.04943232610821724,0.03247594088315964,-0.01258623506873846,0.020102092996239662,0.039628226310014725,-0.06260253489017487,-0.08121942728757858,-0.11944926530122757,-0.02146969363093376,0.042470287531614304,-0.025457795709371567,-0.0530160553753376,-0.03342340514063835,0.016920069232583046,-0.0834064781665802,-0.08109374344348907,0.02655843459069729,-0.01666264794766903,-0.03279587998986244,-0.04518400877714157,0.03725602850317955,0.007891599088907242,0.03734976053237915,-0.014497821219265461,-0.030762257054448128,-0.10722445696592331,-0.11982166022062302,-0.05114629492163658,-0.08735724538564682,-0.01150603499263525,0.01128899585455656,0.015917198732495308,-0.013572398573160172,-0.11049961298704147,0.026527179405093193,-0.04612334072589874,-0.036054909229278564,-0.013750163838267326,-0.05858858302235603,0.03210078924894333,-0.020952096208930016,-0.008926655165851116,0.04242478311061859,0.03127684071660042,0.07245215773582458,-0.009050113148987293,-0.05213392525911331,0.02751268818974495,-0.010900892317295074,0.07223077118396759,0.011895292438566685,-0.054229024797677994,-0.04849997162818909,0.015782607719302177,-0.04846891015768051,0.053331486880779266,-0.03149375692009926,-0.07638917118310928,0.038351308554410934,0.08201952278614044,0.0207255557179451,-0.08894211798906326,-0.0831865593791008,-0.040713950991630554,-0.07914698123931885,0.0004564881091937423,0.09880182147026062,0.08677922189235687,-0.04411444067955017,0.007291825488209724,0.040176186710596085,0.03765496239066124,-0.03352679684758186,-0.04257524386048317,-0.0012654857710003853,-0.03526049107313156,-0.031249718740582466,-0.051655493676662445,-0.029407788068056107,0.08743567019701004,-0.01090971753001213,-0.05081148073077202,0.0013502666261047125,-0.043611105531454086,-0.0627962276339531,-0.01661125011742115,-0.030883101746439934,0.09114787727594376,0.030952367931604385,-0.006349367555230856,0.006225660443305969,-0.015126757323741913,-0.015072094276547432,-0.016891248524188995,-0.05004643648862839,-0.017676791176199913,0.023645874112844467,-0.05009473115205765,0.059986889362335205,0.0063325874507427216,0.026751374825835228,-0.007085130549967289,-0.0014062969712540507,-0.06770402938127518,0.024560051038861275,0.006388799287378788,-0.02616201713681221,-0.06450996547937393,