function GetInitialNetwork() {
    return { "name": null, "description": null, "activationFunctionName": "SigmoidActivation", "layers": [{ "weightMx": [[-0.247923389, 0.277284, 0.245631129, 0.117408119, -0.210934073, 0.271033555, 0.403453141, 0.607861161], [0.464248419, -0.11236909, 0.250816464, 0.0248763952, -0.4511122, -0.6157037, -0.139405236, 0.18500039], [0.212205738, -0.0158948023, 0.1987621, -0.008381342, 0.214156821, -0.430630237, 0.0852222741, -0.2504884], [0.411203057, 0.14492251, 0.4386165, 0.008973611, 0.110555641, 0.0151514551, 0.5154636, 0.325686276], [0.03911768, 0.173399046, -0.1025843, -0.12285497, -0.05800196, -0.263025552, 0.10612987, -0.43285048], [0.5841491, 0.105217, 0.5541612, -0.428814828, 0.303261429, 0.739896, 0.6930558, -0.231544524], [0.417273343, 0.492200553, -0.1783863, 0.225276291, 0.09801399, -0.51917994, -0.162147075, 0.5210701], [0.178517058, -0.100540712, 0.243832931, 0.671128154, -0.460233748, 0.159406349, -0.07096435, -0.07025379], [0.3221045, 0.4245489, 0.5625889, -0.0787682459, -0.331834346, 0.4408661, -0.0311407652, -0.321828425], [-0.13445507, 0.320672, -0.6339282, 0.140408114, -0.268559784, 0.36388737, 0.090014115, -0.0491690338], [-0.409984171, 0.010808371, -0.0482890829, 0.225685924, 0.0589528829, -0.0540761352, 0.171038687, -0.1293216], [0.07718287, -0.108012848, -0.23293519, -0.112680554, 0.2281883, -0.152342662, 0.115034871, 0.07070829], [0.5458971, -0.155593976, -0.4045365, 0.1900724, 0.05190022, 0.177271545, 0.366761029, 0.32699284], [0.0131650381, 0.0393326655, 0.06749553, 0.5965761, -0.020500835, 0.3765406, 0.283554941, 0.187357262], [-0.2361033, 0.405105263, 0.0349127129, -0.5185331, 0.7736388, -0.39072746, 0.147527769, -0.3364331], [0.3006965, -0.3218734, 0.3975826, -0.8486282, 0.7751158, -0.0307830721, -0.1756797, 0.391701], [-0.397851616, 0.06645403, 0.178942829, 0.003059277, 0.4408583, -0.29166618, -0.6122521, 0.191543624], [-0.00177482981, 0.7468676, 0.6487434, -0.24932225, -0.261643261, 0.430606365, 0.597278535, -0.09947986], [0.227634519, 0.4438338, 0.015485812, -0.132032752, 0.718882, -0.795930266, -0.166747719, -0.015319638], [0.353159517, 0.382363915, -0.3050778, 0.07823731, -0.320503026, 0.0109900255, -0.428136647, 0.2576244], [-0.180774212, -0.205269843, 0.103437647, 0.163061976, -0.0309182145, -0.142676, 0.488781035, 0.0130697927], [0.368566632, 0.06837342, 0.0236759763, -0.03913857, -0.7236162, 0.07323789, -0.209391654, 0.0560542047], [-0.03877399, 0.435962051, 0.494619966, 0.435356, -0.290563941, -0.497902453, 0.3153474, 0.288967252], [-0.263669848, 0.491669625, 0.117452726, 0.206790432, 0.251400083, 0.608281136, 0.08115497, 0.377684474], [-0.152347416, -0.5889481, -0.007491594, -0.2996406, 0.653311, -0.5031201, 0.277378947, -0.270128071], [-0.35686022, -0.282457173, -0.6749588, -0.63532865, 0.393045783, 0.696231663, 0.19828473, -0.608785868], [-0.486014128, 0.3300668, -0.6910268, -0.3814219, -0.0419908278, -0.1820476, 0.0017663592, 0.0811022], [-0.213188, 0.09135554, -0.23802869, -0.191230446, -0.164749682, -0.026447745, 0.11859794, -0.237496376], [0.105060093, 0.219212353, 0.316330016, -0.0605999641, 0.08583341, 0.236624211, -0.195830867, -0.176539779], [-0.2520196, -0.689981163, 0.441175282, 0.0487191528, -0.156427324, -0.693074048, -0.6925235, -0.4563216], [0.130050451, 0.143961772, 0.7487628, 0.229408264, -0.497170657, 0.806778669, -0.2546634, 0.556338131], [-0.420006573, 0.514462054, 0.46127668, -0.0964291, 0.455771238, -0.541149855, -0.0528412424, -0.191837251], [-0.432979047, -0.296258271, 0.0743102059, 0.200238183, -0.481858373, 0.370700747, -0.08444419, 0.08282048], [0.5415241, -0.03404985, -0.350761831, -0.09755791, -0.03348641, 0.07856098, -0.224123, -0.256348282], [-0.162930816, -0.198225558, 0.366157174, -0.161268309, 0.0180344023, 0.264339447, -0.3218562, -0.239211366], [-0.122128233, -0.219393492, 0.548358142, 0.6223593, 0.482212216, 0.389847666, -0.239258111, 0.5467391], [0.414871156, -0.228959948, 0.352667242, -0.6222312, -0.157872841, 0.142970189, -0.391727567, 0.470934], [-0.4433233, 0.283990383, 0.196576521, -0.04068637, 0.600925565, -0.442227066, 0.866568, -0.350363523], [-0.2566341, 0.410579026, 0.261996955, 0.0146535374, 0.8032923, -0.221673176, -0.0510619022, 0.237769738], [0.421955556, 0.186551213, -0.0249380637, -0.494371265, 0.06417419, -0.225947455, -0.4193163, -0.375152141], [0.08774442, 0.6283125, 0.194296, -0.294948727, 0.01561911, -0.51317, -0.344790637, 0.5580074], [0.0689907148, -0.0426282324, -0.7214017, 0.0177374315, 0.1610078, 0.145445153, 0.623274267, 0.6416963], [-0.378920168, 0.538614333, 0.7436485, -0.228154168, -0.400244176, -0.194338486, 0.30069685, -0.289188266], [-0.337527663, 0.8788941, 0.254224718, 0.426761419, -0.149247244, 0.442834347, -0.124295704, 0.4417175], [-0.24121663, -0.269196481, 0.65446806, -0.274926662, 0.2926154, -0.160060063, -0.6221723, 0.380966246], [0.0507986881, -0.326037019, -0.0260681752, 0.3849388, 0.392183959, -0.349560261, 0.06816438, 0.259167045], [0.0211398378, -0.400131434, -0.215591222, 0.244211942, 0.2968109, -0.363524944, 0.1620118, -0.410425127], [-0.3846718, 0.29091838, -0.260022938, 0.0362660922, -0.315222561, 0.00623609172, -0.4143437, 0.229364753], [0.5519541, 0.0373075, -0.596026957, 0.470281, -0.2913175, -0.3024487, -0.277064383, -0.381415576], [-0.00126167375, -0.0391990468, -0.194270328, -0.109135225, -0.482159942, -0.127356663, 0.0551534966, -0.8135451], [-0.04488134, -0.224996254, -1.05182, 0.5284982, -0.395756453, 0.693382859, -0.0743789747, -0.3153508], [-0.30330354, 0.142539576, 0.453684151, -0.277657568, -0.437515378, 0.277018934, -0.125318989, 0.5250981], [-0.06843089, 0.417993218, -0.379128546, 0.49488, 0.0148114944, 0.0159732886, 0.492545336, 0.377086341], [0.168801963, 0.175600588, 0.35250017, -0.4311911, 0.394216865, 0.876888156, -0.031912785, -0.411789656], [0.324530721, -0.451121747, 0.7225032, -0.10410621, -0.244280636, -0.0891358554, -0.194787979, -0.09380026], [-0.169001013, 0.418470025, -0.08166218, 0.6300372, -0.37841475, 0.927788436, -0.0132096559, 0.156376973], [-0.198691636, 0.736033142, -0.8327705, -0.144803539, 0.003616628, 0.16479674, 0.316615522, -0.101593681], [0.623964667, -0.299286753, -0.125925526, -0.03528519, 0.123075046, -0.219029218, -0.1429541, 0.237341568], [0.008747007, 0.112446122, 0.408651322, 0.294627279, -0.3458554, -0.426750243, 0.093145974, 0.515327632], [0.5373974, 0.252905518, 0.4872416, 0.508598864, -0.154634863, -0.220523521, 0.190323785, -0.271219522], [-0.331047416, 0.239698038, -0.1623667, 0.5344647, -0.276648462, 0.476133317, 0.183209866, 0.302737236], [-0.392060757, -0.25578016, 0.768016458, -0.294065416, -0.19579716, 0.6088159, -0.288751155, -0.0273057446], [-0.129877418, -0.267328382, 0.209372789, 0.137521788, 0.08023155, -0.639345, 0.3657782, 0.02686798], [-0.139660671, 0.0062302486, -0.0142236892, -0.202662647, 0.5482785, -0.354445368, 0.0268683154, -0.2236639]], "biases": [1.5598371, 0.080769226, 1.05294979, -0.369721174, 0.09673872, -0.603233, -0.2502228, -1.93701029, 0.7456176, -1.77401793, 0.763509, 0.17663832, 0.126335889, 0.49319, 1.06808674, -0.19677873, 0.00775467325, -1.315754, 0.296830565, -0.952118337, 0.148389, -0.7297977, 0.575207233, 0.00365520152, -0.214821592, -0.529669642, 0.5024106, -0.528593242, -0.339921236, 0.1364825, 0.9487896, 0.0392260924, 1.3940562, -0.5343237, -0.3809515, -1.59657431, 1.44382417, 0.165045738, 1.40003812, 0.475072235, 0.0309638325, -0.03891406, 0.154716626, -0.493437976, -0.9093438, 0.361793846, -1.59164667, -1.01856053, 0.0046558734, 0.3991822, -0.324943751, -0.659264743, -2.43905187, 0.835009634, -0.24846819, -0.4880719, 0.367832869, -0.426097274, -0.1662947, 1.00025654, -0.134577692, 0.29926154, -1.44813025, 1.20243251] }, { "weightMx": [[-0.0727799, 0.0274886657, -0.05055226, 0.150838435, 0.008367058, -0.160153374, -0.05936586, 0.176693931, -0.171508968, 0.186361983, -0.2046354, 0.0260892, 0.23575598, 0.228363276, -0.02756597, -0.16815047, -0.047924526, -0.08419549, 0.126604453, 0.163756236, 0.008453274, -0.1493929, 0.147134781, -0.232690543, 0.201714292, -0.185993358, 0.17614843, -0.003686503, 0.0017832045, -0.0235395152, 0.0308491439, -0.17335768, -0.06220633, 0.0345573574, -0.07034428, 0.0651529059, 0.08301503, -0.247105852, 0.202286422, -0.04084211, 0.15092507, -0.286646783, 0.150931448, -0.1910182, 0.08069589, -0.0906699449, -0.00346164731, 0.08408626, -0.140404373, 0.0412485637, -0.129274577, -0.005943766, 0.08051017, 0.141025886, 0.2837313, 0.13272877, -0.261993319, 0.153692, 0.0116088232, -0.06543849, 0.05146873, 0.0231525339, 0.09241604, 0.172940522], [-0.108193457, -0.0346892439, 0.0887559354, 0.04735849, 0.1799153, 0.205872685, -0.07337213, -0.357871324, -0.05746275, 0.146973819, -0.197651446, 0.202445939, -0.0109054185, -0.0453339368, 0.10739968, -0.09606631, 0.0137954969, -0.0780133, -0.100511886, -0.0673346147, -0.00440114364, 0.0842822, 0.190203145, 0.005372025, -0.156423956, 0.06004857, 0.246868968, -0.0395252854, 0.0261956491, -0.02361875, -0.144467086, -0.179606244, -0.00362582481, -0.06489542, 0.03890302, -0.05116118, 0.21457921, -0.0903755948, 0.09932246, -0.2878241, 0.15517278, 0.236396223, 0.07393824, 0.06138764, 0.152272925, 0.0334907472, 0.0532735549, -0.07385216, 0.06393988, -0.14640066, -0.148742586, 0.122127995, -0.275029421, -0.198936343, 0.110398173, 0.008732051, 0.05932387, 0.174017608, 0.000672511058, 0.0253086668, -0.0653441846, -0.126232758, -0.209501117, -0.04247841]], "biases": [0.184727013, -0.7237576] }] };
}